%YAML:1.0
my_svm: !!opencv-ml-svm
   svm_type: C_SVC
   kernel: { type:LINEAR }
   C: 1.0000000000000001e-001
   term_criteria: { epsilon:2.2204460492503131e-016, iterations:100 }
   var_all: 128
   var_count: 128
   class_count: 2
   class_labels: !!opencv-matrix
      rows: 1
      cols: 2
      dt: i
      data: [ 0, 1 ]
   sv_total: 1
   support_vectors:
      - [ -2.29329802e-003, -3.12209449e-004, -8.61433428e-003,
          -3.42297787e-003, 7.76524073e-004, -1.14281224e-002,
          -1.37017819e-003, -7.32482504e-003, 4.37899819e-003,
          -6.00722013e-003, 7.00654183e-003, -3.49307875e-003,
          7.36534502e-003, 1.53882930e-003, 1.23347444e-002,
          1.71664776e-003, 7.33369449e-003, 3.98174021e-003,
          -7.66377291e-003, -1.11699547e-003, -4.32854315e-004,
          5.99398045e-003, -6.80473819e-003, -1.09512231e-003,
          8.74265679e-004, 3.37320659e-003, 1.90673256e-003,
          -1.90219632e-003, -2.52523017e-003, -2.49864766e-003,
          8.17721811e-005, 1.32682780e-003, -4.84349299e-003,
          -3.14455433e-003, -1.31327310e-003, 4.26957558e-004,
          -5.74018050e-004, -1.45319186e-003, -2.87690060e-003,
          3.05700232e-004, -1.77285355e-003, -2.58402573e-003,
          8.37670581e-004, -2.44601659e-004, 2.31901649e-003,
          2.03386438e-003, -9.31367511e-004, -2.05697282e-003,
          2.12914567e-003, 4.75729583e-003, 5.08575561e-003,
          1.65229186e-003, 2.78466870e-003, -8.31696438e-004,
          -1.05183281e-003, -5.32449747e-004, 2.87323142e-003,
          5.47320023e-003, 1.26893644e-003, 4.84701828e-004,
          -1.87460310e-003, -8.59061780e-004, 6.27057045e-004,
          4.11085377e-004, -5.76748571e-004, -1.07393973e-003,
          -4.54433204e-004, 3.12433229e-003, -1.94503844e-003,
          2.59605423e-003, -2.07504071e-003, -1.73049048e-003,
          1.85556849e-003, -2.07345001e-003, 2.24838615e-004,
          -8.34509498e-004, 1.85214798e-003, 6.08766160e-004,
          -2.36146152e-003, -1.32234942e-003, 5.81081433e-004,
          -1.22638908e-003, -2.21939897e-003, 4.93822678e-004,
          -1.00676878e-003, 8.72954319e-004, 1.90409902e-003,
          -1.62839517e-003, -2.22266201e-004, 9.82629717e-004,
          5.36190229e-004, 5.53518708e-004, -6.11181487e-004,
          8.93362565e-004, 6.29146991e-004, -1.96112157e-003,
          -5.76903054e-004, 3.78714321e-004, 3.58362362e-004,
          -3.24799330e-004, -8.33194645e-004, -1.11582794e-003,
          3.28887749e-004, -6.08784088e-004, -6.63558545e-004,
          2.49352166e-003, -9.21338680e-004, -2.45225354e-004,
          7.68771588e-006, -1.25045437e-004, -7.08249514e-004,
          -1.36465521e-003, 5.80751686e-004, 1.10475312e-003,
          4.08497181e-005, 8.04698910e-004, 9.27714791e-005,
          -3.18117643e-004, 2.28437944e-004, -2.76028022e-005,
          -8.49870150e-004, 4.38081624e-005, 9.29868314e-004,
          4.05111234e-004, 2.37139830e-004, -8.19394132e-004,
          2.28755034e-005, 2.58409011e-004 ]
   decision_functions:
      -
         sv_count: 1
         rho: -1.2132933860771831e+000
         alpha: [ 1. ]
         index: [ 0 ]
