%YAML:1.0
my_svm: !!opencv-ml-svm
   svm_type: C_SVC
   kernel: { type:LINEAR }
   C: 1.0000000000000001e-001
   term_criteria: { epsilon:2.2204460492503131e-016, iterations:100 }
   var_all: 30
   var_count: 30
   class_count: 2
   class_labels: !!opencv-matrix
      rows: 1
      cols: 2
      dt: i
      data: [ 0, 1 ]
   sv_total: 1
   support_vectors:
      - [ 1.06705772e-006, -2.07631047e-007, -1.93260931e-007,
          5.89165495e-007, -5.54312749e-007, -2.92815599e-007,
          4.76236295e-007, -6.85688022e-008, 3.48774840e-008,
          -8.49824119e-007, -2.91401001e-008, -3.53879727e-007,
          1.57543002e-006, -8.90052831e-007, -1.99876652e-007,
          -9.10946554e-008, -3.35858005e-007, 7.16637658e-007,
          6.37657024e-007, -6.77228059e-007, 2.11730100e-008,
          2.81437053e-007, -6.13898976e-007, -6.35755100e-007,
          5.43607484e-007, 1.57231483e-007, 1.05687178e-007,
          6.65113873e-007, -9.49936975e-007, 2.99975682e-007 ]
   decision_functions:
      -
         sv_count: 1
         rho: -8.6664490766360680e-002
         alpha: [ 1. ]
         index: [ 0 ]
