%YAML:1.0
my_svm: !!opencv-ml-svm
   svm_type: C_SVC
   kernel: { type:LINEAR }
   C: 1.
   term_criteria: { epsilon:2.2204460492503131e-16, iterations:100 }
   var_all: 10
   var_count: 10
   class_count: 2
   class_labels: !!opencv-matrix
      rows: 1
      cols: 2
      dt: i
      data: [ 0, 1 ]
   sv_total: 1
   support_vectors:
      - [ 3.35350633e-03, 3.05017550e-03, -2.69809389e-03,
          -1.17394200e-04, 2.65639951e-03, 1.56200631e-03,
          -4.21127072e-04, 1.82311237e-03, -5.21226181e-03,
          1.58646656e-03 ]
   decision_functions:
      -
         sv_count: 1
         rho: 7.9567822356116730e-02
         alpha: [ 1. ]
         index: [ 0 ]
