%YAML:1.0
my_svm: !!opencv-ml-svm
   svm_type: C_SVC
   kernel: { type:LINEAR }
   C: 1.
   term_criteria: { epsilon:2.2204460492503131e-016, iterations:100 }
   var_all: 128
   var_count: 128
   class_count: 2
   class_labels: !!opencv-matrix
      rows: 1
      cols: 2
      dt: i
      data: [ 0, 1 ]
   sv_total: 1
   support_vectors:
      - [ -3.45488486e-004, 7.19725806e-003, 6.50439970e-003,
          7.87564553e-003, -8.06087069e-003, -2.85977009e-003,
          -4.15113900e-004, -8.04549269e-003, -8.13911948e-003,
          5.30214189e-003, 3.97751108e-003, -8.48761108e-003,
          4.46371222e-003, -6.01323880e-003, 3.37548647e-003,
          -1.29014475e-003, -2.37514405e-003, 8.63791036e-004,
          1.61832641e-003, 1.98563421e-003, 5.57642477e-003,
          -4.61872108e-003, -2.98402947e-003, -1.56275474e-003,
          1.31284818e-003, -2.33776774e-003, -2.31578975e-004,
          -1.36571843e-003, 3.57147702e-003, -2.43736128e-003,
          -1.35376269e-003, -4.45595291e-003, 1.60873664e-004,
          -2.07459857e-003, 3.10920179e-004, 6.14785939e-004,
          -1.66151498e-003, -1.27516361e-003, -2.32871342e-003,
          -3.30518978e-003, 6.99573080e-004, -1.17111567e-003,
          6.56324555e-004, 1.26239215e-003, 2.22953488e-004,
          -2.03395681e-003, -5.59290529e-005, 9.54647257e-004,
          -1.04781408e-004, 5.88981318e-004, 1.50506222e-003,
          6.08615635e-004, -5.19991154e-004, 4.91309213e-004,
          1.29725202e-003, 1.60339742e-003, -2.15902529e-003,
          2.37668690e-004, -2.60432804e-004, 6.09113020e-004,
          -3.80452373e-004, -1.52413419e-003, 1.09931722e-003,
          9.79529344e-004, -6.91632740e-004, -5.21991693e-004,
          -5.65013965e-004, 1.44308942e-005, -5.61043737e-004,
          -2.19464528e-005, -5.50230616e-004, -1.28140347e-003,
          1.30413246e-004, 7.97841232e-004, -5.49054123e-004,
          1.53725524e-003, -6.03766297e-004, -5.54241124e-004,
          -7.33708090e-004, -5.10222220e-004, -3.28663475e-004,
          5.85498870e-004, -4.48955514e-004, 1.49389205e-004,
          2.89047573e-004, -7.10613735e-004, -2.12898900e-004,
          -8.42351292e-004, -1.89537139e-004, -3.43322841e-004,
          3.97214579e-004, -8.38058186e-004, 1.10094639e-004,
          -5.07603458e-004, -3.85369465e-004, 3.68850568e-004,
          -2.44914234e-004, 4.09026397e-004, 2.61453650e-004,
          -2.65693147e-004, -4.21580626e-004, 1.00845282e-004,
          5.05114076e-006, 3.74323281e-004, 3.18373175e-004,
          4.61348973e-004, -2.66561343e-004, 8.90881201e-005,
          -3.40757979e-004, 2.56705505e-004, 3.88430868e-004,
          3.41747000e-005, -1.18161523e-004, -8.54143800e-005,
          1.82522170e-004, 1.31554698e-004, -3.03164619e-004,
          1.08327295e-004, -6.88353684e-005, -2.90943950e-004,
          -1.98312518e-005, -7.20279713e-005, -8.39735367e-005,
          -2.39809651e-005, -1.15724251e-004, -1.08913147e-004,
          5.56253945e-005, -5.19625319e-005 ]
   decision_functions:
      -
         sv_count: 1
         rho: -1.1117941066328267e+000
         alpha: [ 1. ]
         index: [ 0 ]
