%YAML:1.0
my_svm: !!opencv-ml-svm
   svm_type: C_SVC
   kernel: { type:LINEAR }
   C: 1.
   term_criteria: { epsilon:2.2204460492503131e-016, iterations:100 }
   var_all: 60
   var_count: 60
   class_count: 2
   class_labels: !!opencv-matrix
      rows: 1
      cols: 2
      dt: i
      data: [ 0, 1 ]
   sv_total: 1
   support_vectors:
      - [ -2.37461715e-003, -1.05283316e-003, -1.31615860e-004,
          1.57079747e-004, 3.02753528e-003, -5.45940071e-004,
          4.14426764e-003, -3.24097299e-003, 1.31734437e-003,
          1.04011189e-004, 6.07607933e-003, -3.20262130e-004,
          -1.19516253e-003, -2.37909565e-003, 7.26611936e-004,
          9.30185546e-004, 7.84304342e-004, -2.06455588e-004,
          2.00360874e-003, 1.35036782e-004, -2.48287339e-003,
          1.66116096e-003, -3.84662650e-003, -1.03448157e-003,
          -2.43796082e-003, 1.35333533e-003, 6.53229945e-004,
          -1.56262994e-003, -7.39135838e-004, -1.27980742e-003,
          -1.39979296e-003, -4.10373695e-003, -4.61360090e-004,
          -1.26993074e-003, -2.57288222e-003, 1.78883539e-003,
          1.46572292e-003, 1.16206764e-003, -3.19595193e-003,
          -3.51465394e-004, -2.46866897e-004, 1.99822756e-003,
          2.57597887e-003, -7.71627412e-004, -3.21599236e-003,
          -2.09276658e-003, 2.90620863e-003, -4.77939984e-003,
          -2.31824233e-003, -2.69819680e-003, -9.26138833e-004,
          -5.55588740e-005, 2.08838331e-003, -1.16710854e-003,
          -1.67422893e-003, -2.51918542e-003, -1.67983421e-003,
          -1.29022310e-003, 2.90261814e-003, 1.69644388e-003 ]
   decision_functions:
      -
         sv_count: 1
         rho: -3.1149721382484976e-002
         alpha: [ 1. ]
         index: [ 0 ]
