%YAML:1.0
my_svm: !!opencv-ml-svm
   svm_type: C_SVC
   kernel: { type:LINEAR }
   C: 1.
   term_criteria: { epsilon:2.2204460492503131e-016, iterations:100 }
   var_all: 128
   var_count: 128
   class_count: 2
   class_labels: !!opencv-matrix
      rows: 1
      cols: 2
      dt: i
      data: [ 0, 1 ]
   sv_total: 1
   support_vectors:
      - [ -3.05933272e-003, -6.77087950e-003, 1.97803578e-003,
          -9.49267938e-004, -1.25674531e-002, 5.91994915e-003,
          8.55246466e-003, -1.28107816e-002, 6.79838751e-003,
          -7.21962377e-003, 1.73186208e-003, -3.43095674e-003,
          -3.75413965e-003, 3.45301139e-003, -5.24524949e-004,
          9.86582367e-004, 7.69493822e-003, 5.10345260e-003,
          -5.23612078e-004, 1.03410205e-003, 2.21201754e-003,
          -7.21660629e-003, -2.41876021e-003, -5.09433274e-004,
          6.50832662e-003, -5.18367765e-003, -7.21912947e-004,
          3.30642378e-003, 1.74643204e-003, 4.48018359e-003,
          3.31941387e-003, -8.73010664e-004, 9.48153622e-003,
          4.80666989e-003, 5.15039545e-003, -5.46546187e-003,
          -9.29726847e-003, -4.23945906e-003, -4.74999100e-003,
          -4.17941948e-004, 3.69928801e-003, 9.81076155e-003,
          -2.74726329e-003, 3.60125001e-003, 9.89458989e-004,
          2.98499665e-003, 6.99703535e-003, -4.26124176e-003,
          2.45775445e-003, 4.79424791e-003, -4.95037413e-004,
          4.09343658e-004, 4.86119790e-003, -8.28070915e-004,
          5.35261724e-003, -2.51118559e-003, -6.61231717e-003,
          2.06696987e-003, -1.81044929e-003, -9.02400934e-004,
          -2.14729016e-003, 2.66876793e-003, 2.64448416e-003,
          1.70988066e-003, -2.43009371e-003, 4.20974614e-003,
          -3.05696274e-004, 1.53155089e-003, 3.70074238e-004,
          -1.18446515e-004, 1.69828767e-003, -8.03262834e-003,
          -2.09141173e-003, 5.25510730e-003, 1.98999078e-005,
          1.44442345e-003, -2.52357859e-004, 2.27051834e-003,
          9.26140521e-004, -1.18787796e-003, -7.58352689e-004,
          5.11766528e-004, -1.01555791e-003, 2.23117718e-003,
          -9.21475992e-004, 2.17798020e-004, 9.45097010e-004,
          -2.46662647e-004, 5.77723549e-004, 8.23901675e-004,
          -3.05286190e-003, -2.66653311e-004, -1.82714066e-004,
          5.30184770e-004, -1.67681696e-003, -7.05948216e-004,
          -1.49153220e-003, 3.33222473e-004, -8.36066785e-004,
          2.07803887e-003, 1.28999018e-004, -6.64358900e-004,
          -4.57467773e-004, 1.47930870e-003, 6.55453303e-004,
          7.82461546e-004, 8.17142078e-004, 1.56726775e-004,
          -8.34751583e-004, 1.07875490e-003, 4.23258811e-004,
          2.65049806e-004, 9.17952348e-005, -8.90858471e-004,
          4.99685179e-004, -7.17318035e-004, -1.34082010e-003,
          -7.88424313e-006, 7.28629748e-005, -3.46618704e-004,
          1.31968642e-004, 6.04104134e-004, -4.16491879e-004,
          -1.77019989e-004, -6.98243530e-005, -3.83623876e-004,
          -3.13821336e-004, -4.86350647e-004 ]
   decision_functions:
      -
         sv_count: 1
         rho: -3.2289002432202735e-001
         alpha: [ 1. ]
         index: [ 0 ]
