%YAML:1.0
my_svm: !!opencv-ml-svm
   svm_type: C_SVC
   kernel: { type:LINEAR }
   C: 1.
   term_criteria: { epsilon:2.2204460492503131e-016, iterations:100 }
   var_all: 128
   var_count: 128
   class_count: 2
   class_labels: !!opencv-matrix
      rows: 1
      cols: 2
      dt: i
      data: [ 0, 1 ]
   sv_total: 1
   support_vectors:
      - [ 2.39949417e-003, -5.93023025e-004, -2.51201942e-004,
          -2.55909690e-004, 2.26064702e-003, 3.02917021e-003,
          2.84846639e-004, -3.09360819e-003, -7.10264686e-003,
          -1.43771386e-003, -6.00133266e-004, -3.56078683e-003,
          3.69631307e-004, -2.16453499e-003, -4.02819086e-003,
          2.35197810e-003, -1.27706226e-004, 2.23244447e-003,
          -2.52355635e-003, 1.23561209e-003, 2.60843080e-003,
          -3.14615970e-003, -8.98953353e-004, 4.62857308e-003,
          -1.90163730e-003, -1.75366388e-003, 4.01644269e-003,
          -1.61582604e-003, -5.33638615e-003, 1.85715419e-003,
          1.12127489e-003, -2.28536082e-003, 3.46873235e-003,
          1.88957667e-003, -1.71771308e-003, -2.15653377e-003,
          -2.36148201e-003, 1.70880870e-003, -1.71118474e-003,
          8.53367528e-005, -4.79594851e-003, -2.55743926e-003,
          -1.05468754e-003, -3.23946401e-003, 2.55206740e-003,
          1.92178786e-003, -2.11767689e-003, 2.35622516e-003,
          -5.90284308e-003, -4.77379886e-003, -8.32170714e-003,
          -2.52963160e-003, -3.66310938e-003, -1.75510460e-004,
          4.50873701e-003, 1.96892046e-003, -1.80597184e-003,
          1.68720563e-003, -1.73330645e-003, 1.10427453e-003,
          1.12253218e-003, -3.14950221e-003, -6.05912181e-004,
          -3.28879990e-003, 1.35987508e-003, -1.72748754e-003,
          -2.84552621e-003, -2.66555394e-003, 5.33191813e-003,
          -4.03617462e-003, 2.05033342e-003, 3.94131785e-004,
          -2.61003873e-003, 4.60758433e-003, -1.56208233e-003,
          -1.65968158e-004, 5.85046248e-004, 5.30228426e-004,
          9.86382249e-004, -6.74487266e-004, -1.95950759e-003,
          1.80628127e-003, 6.11902273e-004, -1.26135192e-005,
          -1.59601728e-003, 7.75719469e-004, 4.10119683e-004,
          1.38865772e-003, 2.12198193e-003, 6.03220433e-005,
          -8.59260501e-004, -2.00007507e-003, 7.92958192e-004,
          1.16007624e-003, -2.52245722e-004, -1.33278838e-003,
          -2.49047822e-004, 9.51201248e-004, -8.33337544e-004,
          1.09385396e-003, -1.88652106e-004, 6.47854758e-004,
          2.15885229e-003, 2.68154824e-003, 1.88447855e-004,
          -8.44416063e-005, 1.61940185e-003, 8.01849586e-004,
          2.07093009e-003, -3.06921545e-004, 1.36634486e-003,
          -2.04944139e-004, -2.63052853e-003, -2.86620780e-004,
          -5.66865143e-004, -1.24843325e-003, -8.41274858e-004,
          -1.19905523e-003, 2.71681609e-004, -5.65966475e-004,
          4.01843659e-004, 1.23978639e-003, -3.97767639e-004,
          5.44799317e-004, 4.33018547e-004, -6.39469014e-004,
          -2.02886986e-005, -5.49379562e-004 ]
   decision_functions:
      -
         sv_count: 1
         rho: 8.9260941257477217e-002
         alpha: [ 1. ]
         index: [ 0 ]
