%YAML:1.0
my_svm: !!opencv-ml-svm
   svm_type: C_SVC
   kernel: { type:LINEAR }
   C: 1.
   term_criteria: { epsilon:2.2204460492503131e-016, iterations:100 }
   var_all: 128
   var_count: 128
   class_count: 2
   class_labels: !!opencv-matrix
      rows: 1
      cols: 2
      dt: i
      data: [ 0, 1 ]
   sv_total: 1
   support_vectors:
      - [ 2.48494023e-003, 1.00372286e-004, 6.31891366e-004,
          -6.82142971e-004, -1.84126908e-003, -3.25042376e-004,
          -1.44807564e-003, 7.43475568e-004, 6.62819584e-005,
          -1.23490361e-004, 4.59891185e-003, -1.17009075e-003,
          6.52672781e-004, 3.34801152e-003, 1.10900204e-003,
          -2.32103805e-004, -1.55597308e-003, -3.36997048e-003,
          -2.24160263e-003, -8.80086387e-004, -1.41598354e-003,
          1.06362859e-003, -3.58046789e-004, 1.54568441e-003,
          1.23513781e-003, -1.35639159e-003, 7.90011836e-004,
          3.50200641e-003, 3.47063760e-004, -2.53147911e-003,
          -1.92875939e-003, -1.10900356e-003, -2.02125101e-003,
          -1.59288780e-003, -1.70172728e-003, 2.75466475e-004,
          -2.08810181e-003, 3.40170995e-003, 2.73924484e-003,
          -8.36749387e-004, 4.29460197e-004, 2.10552267e-003,
          5.81498200e-004, -2.03643786e-003, 4.33589681e-004,
          3.74984415e-003, -9.92970425e-004, -1.49853015e-003,
          2.34860717e-003, 1.25553203e-003, -2.89005489e-004,
          -1.44744606e-003, 5.88551164e-004, -2.30212673e-003,
          2.27904692e-003, 1.50781451e-003, 3.19761573e-004,
          2.59472709e-003, -1.10000896e-003, -1.19382690e-003,
          8.76969571e-005, -9.58919409e-004, 6.56238000e-004,
          3.49609996e-004, 2.43335357e-003, -1.29409961e-003,
          -3.47170467e-003, 6.75744435e-004, -1.23843888e-003,
          8.72237200e-004, -3.57142795e-004, 5.77568193e-004,
          -8.85575719e-004, -1.62721623e-003, 8.65297625e-004,
          1.14263571e-003, 2.89696129e-003, 1.46807084e-004,
          -5.84482739e-004, -6.45638793e-004, -1.29779801e-003,
          9.74381634e-004, -1.74702669e-003, 1.61588204e-003,
          2.37605907e-003, -1.73166656e-004, 4.02318634e-004,
          7.80978706e-004, 1.44819717e-003, -1.20825011e-004,
          3.82794708e-004, -1.08306791e-004, 6.01373846e-004,
          1.29132951e-003, 3.22661828e-004, 7.66011537e-004,
          -3.75692220e-003, 9.59200028e-004, -6.71709538e-004,
          2.80100037e-004, 1.56580191e-003, 1.45967526e-003,
          -1.92072929e-003, -3.29967006e-004, -5.66668983e-004,
          -1.11130276e-003, 1.54332316e-003, 8.98294966e-004,
          -9.90970948e-005, -1.17076200e-003, 9.94407106e-004,
          -1.16272720e-004, 1.76277605e-003, -2.62889487e-004,
          1.00392627e-003, 1.37781344e-005, -2.56501575e-004,
          -1.48675370e-003, -6.01543616e-005, 1.49776097e-004,
          -1.12968229e-003, 5.56774728e-004, 7.25699239e-004,
          -2.03841182e-006, -9.69503424e-004, -4.02094156e-004,
          9.86793078e-004, 3.47449590e-004 ]
   decision_functions:
      -
         sv_count: 1
         rho: -1.4125860117999037e-001
         alpha: [ 1. ]
         index: [ 0 ]
