%YAML:1.0
my_svm: !!opencv-ml-svm
   svm_type: C_SVC
   kernel: { type:LINEAR }
   C: 1.0000000000000001e-01
   term_criteria: { epsilon:2.2204460492503131e-16, iterations:100 }
   var_all: 128
   var_count: 128
   class_count: 2
   class_labels: !!opencv-matrix
      rows: 1
      cols: 2
      dt: i
      data: [ 0, 1 ]
   sv_total: 1
   support_vectors:
      - [ -1.48539571e-03, -5.64210303e-03, 2.76769628e-03,
          4.83574782e-04, 9.20459256e-03, -3.57864494e-03,
          -1.44760385e-02, 1.82382166e-02, -1.33196719e-03,
          4.12400626e-03, 3.14548053e-03, -3.26655176e-03,
          -3.30928154e-03, -4.07721382e-03, 1.29713106e-03,
          -1.85770739e-03, -3.05828662e-03, -3.09066707e-03,
          2.97174254e-03, 5.22495201e-03, -1.37575276e-04,
          6.60566567e-03, 3.30268056e-03, 3.60744633e-03,
          -4.07663733e-03, 5.96138928e-03, 2.00116844e-03,
          1.90531579e-03, 1.38685951e-04, -7.69440364e-03,
          4.94938018e-03, -1.15018955e-03, 2.75187660e-04,
          -2.22245115e-04, -9.47046373e-03, 1.13874885e-04,
          -1.29106268e-03, 5.70135191e-04, 6.63091568e-03,
          1.05670362e-03, -3.69789335e-03, -8.55071936e-03,
          6.83687220e-04, -8.89489485e-04, -9.81600606e-04,
          -2.40281411e-03, -5.47699165e-03, 1.92196516e-03,
          -2.73455633e-03, -4.59581893e-03, 5.79676311e-03,
          1.00076548e-04, -2.42139609e-03, 1.67551229e-03,
          -3.93278571e-03, 4.25179489e-03, 6.44456036e-03,
          1.93582935e-04, 4.23459150e-03, 3.66382091e-03,
          -8.24692601e-04, -1.06100121e-03, -7.27762980e-03,
          -1.67206861e-03, 6.23685354e-03, -1.01892825e-03,
          -5.29547827e-03, -4.24982654e-03, 6.44562719e-03,
          1.11448590e-03, -1.60707452e-03, 5.20419702e-03,
          1.99229410e-03, -3.73367686e-03, 2.05003028e-03,
          -4.31684224e-04, -2.91313772e-04, -2.09362013e-03,
          -2.05838960e-03, 1.10378605e-03, 3.99997085e-03,
          -7.68935657e-04, -5.88082359e-04, -3.88625357e-03,
          2.35668314e-03, -1.14482106e-03, 1.45736176e-05,
          8.29188866e-05, -3.32467462e-04, -7.17839284e-04,
          2.38367938e-03, -2.52415397e-04, 1.12917834e-04,
          -7.51387503e-04, 3.24633461e-03, 1.22039136e-03,
          1.19918701e-03, -4.68317914e-04, 1.00535539e-03,
          -1.26576005e-03, -1.75295922e-03, 1.44413463e-03,
          1.70930769e-04, -2.00690073e-03, -1.05765450e-03,
          -1.63411291e-03, -1.59267650e-03, -1.00652280e-03,
          -3.06712551e-04, -3.07505106e-04, -5.12004422e-04,
          5.36269858e-04, 1.16884266e-03, 8.10918456e-04,
          -1.14103174e-03, 3.09128314e-04, -3.53408395e-04,
          -1.19323446e-03, -5.81046683e-04, 5.16063476e-04,
          -2.45929026e-04, -1.24863593e-03, -3.61226936e-04,
          3.88493318e-05, 2.76773731e-04, -6.61750164e-05,
          3.85623804e-04, 6.81163452e-04 ]
   decision_functions:
      -
         sv_count: 1
         rho: -4.9505495617235934e-01
         alpha: [ 1. ]
         index: [ 0 ]
