%YAML:1.0
my_svm: !!opencv-ml-svm
   svm_type: C_SVC
   kernel: { type:LINEAR }
   C: 1.0000000000000001e-01
   term_criteria: { epsilon:2.2204460492503131e-16, iterations:100 }
   var_all: 128
   var_count: 128
   class_count: 2
   class_labels: !!opencv-matrix
      rows: 1
      cols: 2
      dt: i
      data: [ 0, 1 ]
   sv_total: 1
   support_vectors:
      - [ -1.23494782e-03, -5.82834287e-03, 7.83474126e-04,
          -3.46023613e-03, -1.20623261e-02, 5.42570464e-03,
          8.30737874e-03, -1.32622495e-02, 6.36180537e-03,
          -6.92916755e-03, 2.69215531e-03, -2.96270987e-03,
          -3.55151505e-03, 3.51266656e-03, -1.25723029e-03,
          6.00330939e-04, 6.36087777e-03, 5.92126185e-03,
          -1.59205054e-03, 1.07373409e-04, 2.70023104e-03,
          -6.37072790e-03, -1.96653162e-03, -6.99264347e-04,
          4.92390571e-03, -5.13757206e-03, -4.97861765e-06,
          2.56538298e-03, 4.00152348e-04, 3.97930481e-03, 2.92800833e-03,
          -1.83797930e-03, 9.47560277e-03, 4.70109424e-03,
          5.84252551e-03, -5.07998513e-03, -9.88018699e-03,
          -3.69781256e-03, -4.84121358e-03, -9.18097503e-04,
          3.01563600e-03, 9.38624423e-03, -3.17228423e-03,
          2.20906292e-03, -8.56644416e-04, 2.64450884e-03,
          5.93936490e-03, -2.61604646e-03, 1.50198746e-03,
          3.46043380e-03, -1.69420685e-03, -8.64078058e-04,
          4.27683908e-03, -4.04429971e-04, 4.77331225e-03,
          -1.73322961e-03, -5.69283543e-03, 2.19826773e-03,
          -2.00660597e-03, -9.45002073e-04, -2.96933297e-03,
          2.63941567e-03, 2.58375052e-03, 2.99824495e-03,
          -1.79836189e-03, 4.30335337e-03, 4.18832613e-04,
          1.53089117e-03, 1.05618208e-03, 3.26377049e-05, 2.18340498e-03,
          -7.43147731e-03, -1.09350635e-03, 4.79583954e-03,
          -6.04895875e-04, 1.91317697e-04, 9.02817294e-04,
          2.70889211e-03, 1.76092738e-03, -1.62996619e-03,
          1.18749842e-04, 1.39835163e-03, -2.98984651e-05,
          3.14484187e-03, -5.41262620e-04, 9.46237589e-04,
          7.32654880e-05, 2.76839768e-04, 4.87050391e-04, 1.08759874e-03,
          -3.25924298e-03, 3.80382786e-04, -3.26056470e-04,
          5.53444261e-04, -1.53008685e-03, -7.24499580e-04,
          -1.79769727e-03, 4.73564054e-04, -1.74088869e-03,
          2.58390023e-03, 5.99064166e-04, -1.00748462e-03,
          -8.04180105e-04, 2.12850305e-03, 1.09138188e-03,
          1.25823298e-03, 4.77794791e-04, 1.11308458e-04,
          -7.32946617e-04, 8.79080966e-04, 4.40777541e-04,
          2.92215991e-04, 1.06007814e-04, -7.44991703e-04,
          1.26619358e-04, -8.58711894e-04, -4.36407281e-04,
          1.05375089e-04, -1.85837285e-04, -4.85495722e-04,
          3.52655945e-04, 5.74107864e-04, -2.45963951e-04,
          -4.79992188e-04, 1.38819916e-04, -1.27024585e-04,
          -1.96556764e-04, -2.78954685e-04 ]
   decision_functions:
      -
         sv_count: 1
         rho: -1.9976588609217261e-01
         alpha: [ 1. ]
         index: [ 0 ]
