%YAML:1.0
my_svm: !!opencv-ml-svm
   svm_type: C_SVC
   kernel: { type:LINEAR }
   C: 1.
   term_criteria: { epsilon:2.2204460492503131e-016, iterations:100 }
   var_all: 128
   var_count: 128
   class_count: 2
   class_labels: !!opencv-matrix
      rows: 1
      cols: 2
      dt: i
      data: [ 0, 1 ]
   sv_total: 1
   support_vectors:
      - [ 1.32215687e-003, -9.05735360e-005, -6.62593113e-004,
          6.54053933e-004, 1.71189767e-003, 5.18293004e-004,
          -5.30101941e-004, 1.94328240e-004, -4.81312803e-004,
          -2.86765309e-004, -2.06109704e-004, 1.90249048e-004,
          8.10691126e-005, -4.74807166e-004, 3.59572878e-004,
          3.25721921e-004, 3.77892029e-005, 4.76917689e-004,
          1.41293765e-003, 2.97551334e-004, -1.13302632e-003,
          -2.27026944e-003, -2.45017698e-004, -7.18972180e-004,
          4.70972474e-004, 1.22296158e-003, 6.41524442e-004,
          2.85336340e-004, -1.00709009e-003, -1.14897557e-004,
          2.48671859e-003, -2.92757340e-003, -5.50798140e-005,
          1.01044643e-004, -3.86664062e-004, 6.47249806e-004,
          1.14354258e-003, -3.00213083e-004, -1.01371494e-003,
          -8.45692528e-004, -1.33206951e-003, -1.32049259e-003,
          1.50467840e-003, 3.65867338e-004, -2.25711308e-004,
          -9.61535145e-004, 5.22914852e-005, 6.94559276e-005,
          1.79206603e-003, -5.16064698e-004, -4.37176554e-004,
          6.12293952e-004, 1.28978689e-003, -3.92548449e-004,
          -1.44320936e-003, 1.99897942e-004, 1.56300282e-003,
          2.25371309e-003, 1.54275695e-004, -8.95926612e-004,
          2.39290646e-003, -1.94052234e-004, -5.78747538e-004,
          -1.06221094e-004, 3.58355901e-004, 7.32741319e-004,
          -2.35388448e-004, -6.87222520e-004, 8.33621831e-004,
          3.22236330e-004, -6.10917123e-005, -6.38903119e-004,
          -4.01603844e-004, 6.67167536e-004, 1.02762226e-003,
          5.01836243e-004, 6.40711747e-004, -2.83201924e-004,
          -9.48374334e-004, 1.05165597e-003, 3.11726617e-004,
          2.90419819e-004, 3.72698094e-004, -7.20025913e-004,
          -1.86341151e-003, 1.00251776e-003, -7.59508985e-004,
          1.11814204e-003, 2.13752079e-004, 1.49960909e-003,
          4.95771528e-004, -2.74462713e-004, 1.14384980e-003,
          -4.14339418e-004, 1.43511090e-004, 1.46990351e-003,
          -7.63650809e-004, -3.25192144e-004, -2.29804689e-004,
          -3.10150608e-005, 4.24982165e-004, 8.56284896e-006,
          -3.79659556e-004, -3.08979070e-004, -9.83611913e-004,
          -8.47952251e-005, 1.73887383e-004, -1.36404356e-003,
          -7.17575080e-004, -1.63779710e-004, -2.71552835e-005,
          7.45758240e-004, 5.84134796e-006, -6.03401750e-005,
          1.35878508e-004, -2.38264352e-003, -8.39334331e-004,
          -3.41483741e-004, 4.24921018e-004, 6.84381084e-005,
          4.97404777e-004, -1.80240057e-003, 3.10237927e-004,
          -1.20889483e-004, 2.28614488e-004, -8.40944354e-004,
          1.23249087e-003, 1.91147241e-003 ]
   decision_functions:
      -
         sv_count: 1
         rho: 3.5545495913330294e-001
         alpha: [ 1. ]
         index: [ 0 ]
