%YAML:1.0
my_svm: !!opencv-ml-svm
   svm_type: C_SVC
   kernel: { type:LINEAR }
   C: 1.
   term_criteria: { epsilon:2.2204460492503131e-016, iterations:100 }
   var_all: 128
   var_count: 128
   class_count: 2
   class_labels: !!opencv-matrix
      rows: 1
      cols: 2
      dt: i
      data: [ 0, 1 ]
   sv_total: 1
   support_vectors:
      - [ -2.09392048e-003, 1.03815063e-003, -1.15621067e-003,
          -5.42375026e-003, -5.69479447e-003, -4.69900714e-003,
          3.20456177e-003, 1.86526395e-005, 5.04704611e-003,
          3.01893568e-004, -2.18090159e-003, 1.71589514e-003,
          -5.92815886e-005, 3.35834012e-003, -5.26359212e-003,
          -3.47095134e-004, 4.31154622e-003, 4.05778969e-003,
          3.97664355e-003, -3.75940395e-003, 2.25469877e-004,
          1.77678338e-003, 6.20600651e-004, -2.51138513e-003,
          -1.11869117e-003, -7.14039779e-004, -3.97546357e-003,
          1.08145515e-003, 2.10234357e-004, 2.85577821e-003,
          2.25898693e-003, 3.88376531e-003, 1.36803777e-003,
          2.31791590e-003, 4.88338177e-004, -1.96208293e-003,
          2.51088204e-004, 1.99776236e-003, -6.17311569e-003,
          5.41259162e-003, -2.10963166e-003, -4.36197181e-004,
          1.79069897e-003, 3.91280092e-003, -1.37146434e-003,
          -2.69399863e-003, 6.98520802e-004, 4.26129671e-003,
          -3.00504966e-003, -3.59781610e-004, -8.50698852e-004,
          2.07101787e-003, -1.40005373e-003, 2.48248572e-003,
          1.02358266e-004, 2.37534405e-003, 4.09661327e-003,
          8.25741037e-004, 2.83996412e-003, 2.72403029e-003,
          3.01721855e-003, -4.18159505e-003, 1.61313583e-004,
          -5.00879716e-004, 3.95255687e-004, 1.39047438e-003,
          -1.30073502e-004, 1.50860741e-003, 5.14557818e-003,
          -2.07945495e-003, 7.94060121e-004, 5.86423499e-004,
          1.69663329e-003, 7.27834238e-004, -2.46117334e-003,
          -2.30107363e-003, -3.02489218e-003, 2.19695363e-003,
          1.27768039e-003, 1.15540007e-003, 1.24920974e-004,
          -1.79602869e-003, 1.51008135e-003, -1.42659049e-003,
          -3.04586627e-003, -1.13699690e-003, -4.68251383e-004,
          3.73477320e-007, 5.60175860e-004, 1.68573286e-003,
          9.76617448e-004, 4.03664599e-004, -5.95953898e-004,
          -2.10776064e-003, -1.36617816e-003, -2.11576419e-003,
          2.10528472e-003, 4.89595463e-004, 1.85109512e-003,
          -3.47071735e-004, -3.95654963e-004, 3.98452627e-004,
          1.95033278e-003, -1.33295835e-003, 1.06960710e-003,
          -2.69577978e-003, -3.01060267e-003, -5.11040271e-004,
          -2.83399201e-003, -2.05050665e-003, -1.21285113e-004,
          9.47022811e-004, 5.89327770e-004, 7.43848977e-006,
          1.10293180e-003, -8.87372065e-004, 6.73227478e-004,
          7.95200685e-005, -2.89764663e-004, -6.57892087e-004,
          -3.11525771e-004, -7.28545652e-004, -3.11198703e-004,
          6.08922914e-004, 8.02626135e-004, 5.60993387e-004,
          -6.40872691e-004, -6.86754298e-004 ]
   decision_functions:
      -
         sv_count: 1
         rho: -3.3334741609440116e-001
         alpha: [ 1. ]
         index: [ 0 ]
