%YAML:1.0
my_svm: !!opencv-ml-svm
   svm_type: C_SVC
   kernel: { type:LINEAR }
   C: 1.
   term_criteria: { epsilon:2.2204460492503131e-016, iterations:100 }
   var_all: 128
   var_count: 128
   class_count: 2
   class_labels: !!opencv-matrix
      rows: 1
      cols: 2
      dt: i
      data: [ 0, 1 ]
   sv_total: 1
   support_vectors:
      - [ 3.03171179e-003, 1.27595421e-002, -5.53853763e-003,
          1.97719224e-003, 9.80941765e-003, -1.05612248e-003,
          5.54017583e-003, -2.10923096e-003, -4.84260544e-003,
          1.28825509e-003, -7.79750152e-003, 7.22437212e-003,
          8.44666921e-003, 6.86620711e-004, 1.99039438e-004,
          -8.80384003e-004, -6.76419213e-003, -5.48240670e-004,
          4.24348400e-005, 6.10526826e-004, 6.54427276e-004,
          1.67733198e-003, 2.64125119e-004, -1.08906347e-003,
          -6.38786284e-003, 1.15683791e-003, -3.47251818e-003,
          1.78467071e-005, -3.21139488e-003, -1.65344018e-003,
          -6.94603752e-003, -1.68030558e-003, -1.03435712e-002,
          -3.03518819e-003, 5.42713737e-004, 4.68783593e-003,
          1.36647830e-002, 2.60338141e-003, 3.19271395e-003,
          -4.13728441e-004, -2.95901729e-004, -3.15893162e-003,
          7.77503941e-003, -3.99601832e-003, 5.18985151e-004,
          -3.71374306e-003, 5.54154336e-004, 2.78498861e-003,
          -4.91624523e-004, -4.29732376e-004, -2.44767242e-003,
          -2.67411931e-004, -9.28850262e-004, -2.58938340e-003,
          -7.31018139e-004, -2.60216038e-004, -3.72291368e-004,
          -1.48012815e-003, 2.53328960e-003, -8.18302360e-005,
          2.21309741e-003, -2.83704512e-003, 1.38990139e-003,
          -2.11118395e-003, -2.39531277e-003, -1.28587789e-003,
          4.49388009e-003, 2.04370380e-003, -4.38565435e-003,
          -9.77891730e-004, -3.39443469e-003, 3.00150388e-003,
          -1.84547191e-003, -1.79413788e-003, 7.59915332e-004,
          1.63892291e-005, -1.36895676e-003, -3.17166373e-003,
          -4.60368901e-004, 6.59620098e-004, -8.22150672e-004,
          -2.41817930e-003, 9.88230924e-004, 5.04578638e-004,
          2.05548829e-004, -9.05693087e-005, -2.59620021e-004,
          -8.38473847e-004, -1.75867870e-004, -1.34760269e-003,
          8.84637411e-004, 1.02236500e-005, -3.46525951e-004,
          -1.19544228e-003, -1.45324692e-003, 8.99663486e-004,
          4.30161424e-004, 4.65415244e-004, -5.98452345e-004,
          -1.21053145e-003, 8.00846203e-004, -1.36994393e-004,
          6.33093587e-004, -1.24058058e-003, -5.53089631e-005,
          1.31447217e-004, 1.05551982e-004, 2.72862846e-004,
          1.23950164e-003, -4.20807657e-004, -1.20793295e-004,
          5.57305932e-004, -1.02179358e-003, 8.50119628e-004,
          1.05129009e-004, 6.44416374e-004, 1.09705329e-003,
          5.31380356e-004, 1.14322617e-003, 1.43624056e-004,
          -6.86988278e-006, -2.27790544e-004, 3.71643400e-004,
          1.56615628e-004, -3.34311131e-004, 3.29497241e-004,
          2.20115671e-005, -3.10277537e-004 ]
   decision_functions:
      -
         sv_count: 1
         rho: -6.2802925342512050e-001
         alpha: [ 1. ]
         index: [ 0 ]
