%YAML:1.0
my_svm: !!opencv-ml-svm
   svm_type: C_SVC
   kernel: { type:LINEAR }
   C: 1.
   term_criteria: { epsilon:2.2204460492503131e-16, iterations:100 }
   var_all: 10
   var_count: 10
   class_count: 2
   class_labels: !!opencv-matrix
      rows: 1
      cols: 2
      dt: i
      data: [ 0, 1 ]
   sv_total: 1
   support_vectors:
      - [ -5.36296796e-03, -2.47662561e-03, 3.15323065e-04,
          1.22594368e-03, 1.99330109e-03, -2.16923188e-03,
          -5.90178301e-04, 3.88608722e-04, 2.15028878e-03,
          -7.36633141e-04 ]
   decision_functions:
      -
         sv_count: 1
         rho: -7.7181609134480333e-01
         alpha: [ 1. ]
         index: [ 0 ]
