%YAML:1.0
my_svm: !!opencv-ml-svm
   svm_type: C_SVC
   kernel: { type:LINEAR }
   C: 1.
   term_criteria: { epsilon:2.2204460492503131e-016, iterations:100 }
   var_all: 128
   var_count: 128
   class_count: 2
   class_labels: !!opencv-matrix
      rows: 1
      cols: 2
      dt: i
      data: [ 0, 1 ]
   sv_total: 1
   support_vectors:
      - [ -2.30447087e-003, -9.42193001e-005, -7.81265087e-003,
          -2.51284754e-003, 4.24690137e-004, -1.15743978e-002,
          -9.37418663e-004, -7.37735070e-003, 4.85518621e-003,
          -5.79283200e-003, 6.86551444e-003, -2.58520828e-003,
          8.01163539e-003, 2.49594124e-003, 1.20880688e-002,
          1.60063000e-003, 7.26600550e-003, 4.03149566e-003,
          -7.17512239e-003, -8.93438526e-004, -8.95445875e-004,
          6.55843318e-003, -7.28244102e-003, -1.93626608e-003,
          1.09587843e-003, 2.92523508e-003, 1.49919325e-003,
          -1.70124427e-003, -2.75784358e-003, -1.86515180e-003,
          -2.07918827e-004, 1.26209541e-003, -5.49419038e-003,
          -3.25976731e-003, -1.70179934e-003, -4.90107166e-004,
          -5.64457732e-004, -1.73594314e-003, -2.38200417e-003,
          6.22432097e-004, -2.15183594e-003, -3.55102308e-003,
          2.03023246e-003, 3.33050957e-005, 2.99673132e-003,
          1.47905538e-003, -1.02591643e-003, -1.29188516e-003,
          2.20459769e-003, 4.65174345e-003, 5.27637079e-003,
          1.70321541e-003, 2.68062763e-003, -6.87107560e-004,
          -3.74713389e-004, -9.87002742e-004, 3.45992134e-003,
          5.53548941e-003, 1.54873438e-003, 2.57991487e-004,
          -2.15446413e-003, -5.06566081e-004, 6.64209365e-004,
          3.75555217e-004, -1.15955935e-003, -1.50571612e-003,
          3.25288565e-004, 3.77556402e-003, -2.34415522e-003,
          2.36008619e-003, -1.34072185e-003, -1.73849799e-003,
          1.81696669e-003, -2.57141795e-003, -8.15505846e-005,
          -7.11899658e-004, 2.04492966e-003, 9.18336445e-004,
          -2.50268960e-003, -1.27559528e-003, 7.78302376e-004,
          -1.58632279e-003, -2.54187663e-003, 4.47002356e-004,
          -1.39714242e-003, 1.13481760e-003, 1.95244409e-003,
          -1.50662195e-003, -4.66008962e-004, 9.85206803e-004,
          7.90707069e-004, 5.66821429e-004, -9.75004630e-004,
          8.02970899e-004, 5.40861976e-004, -1.87326630e-003,
          -5.67158160e-004, 7.34701694e-004, 5.55256964e-004,
          1.55033285e-005, -1.08160637e-003, -8.08960758e-004,
          2.05714983e-004, -4.85948869e-004, -2.23429015e-004,
          2.52138893e-003, -7.58421258e-004, 5.80011692e-006,
          4.11256566e-004, 8.21371868e-005, -1.09539379e-003,
          -1.07204053e-003, 3.83740175e-004, 1.36397744e-003,
          1.08351698e-004, 6.58365141e-004, 2.78609805e-004,
          -1.13289170e-004, 2.62561691e-004, -1.92594161e-005,
          -8.83350149e-004, -3.16244172e-004, 9.12175397e-004,
          6.56661403e-004, 1.53403293e-004, -7.49805709e-004,
          -1.99018705e-005, 2.31499274e-004 ]
   decision_functions:
      -
         sv_count: 1
         rho: -1.1578166888966896e+000
         alpha: [ 1. ]
         index: [ 0 ]
