%YAML:1.0
my_svm: !!opencv-ml-svm
   svm_type: C_SVC
   kernel: { type:LINEAR }
   C: 1.0000000000000001e-001
   term_criteria: { epsilon:2.2204460492503131e-016, iterations:100 }
   var_all: 30
   var_count: 30
   class_count: 2
   class_labels: !!opencv-matrix
      rows: 1
      cols: 2
      dt: i
      data: [ 0, 1 ]
   sv_total: 1
   support_vectors:
      - [ 4.61756201e-007, -9.89968498e-007, -7.60808405e-007,
          -3.76850807e-007, -7.64933759e-007, -1.61537514e-006,
          -6.56441955e-007, -8.85091652e-007, -1.08291026e-007,
          2.88793132e-007, -1.08680445e-006, 2.33133079e-007,
          2.33765093e-007, -5.94832045e-007, -2.66131167e-007,
          -1.33539470e-006, 1.53100700e-007, 3.23979208e-007,
          -8.40918233e-007, 1.37985739e-006, -2.17401464e-007,
          -8.62654304e-007, -2.95088967e-007, 1.40200279e-006,
          -1.82059637e-006, -1.22392507e-007, -1.52055190e-006,
          -3.17454919e-006, 8.19125830e-007, -5.13567159e-007 ]
   decision_functions:
      -
         sv_count: 1
         rho: -4.5820673257078576e-001
         alpha: [ 1. ]
         index: [ 0 ]
