%YAML:1.0
my_svm: !!opencv-ml-svm
   svm_type: C_SVC
   kernel: { type:LINEAR }
   C: 1.0000000000000001e-01
   term_criteria: { epsilon:2.2204460492503131e-16, iterations:100 }
   var_all: 128
   var_count: 128
   class_count: 2
   class_labels: !!opencv-matrix
      rows: 1
      cols: 2
      dt: i
      data: [ 0, 1 ]
   sv_total: 1
   support_vectors:
      - [ 3.64095648e-03, 1.29496204e-02, -5.25485165e-03,
          2.17989413e-03, 9.17427056e-03, -1.15251914e-03,
          5.71888452e-03, -1.92018144e-03, -4.87918453e-03,
          1.35843316e-03, -7.75065692e-03, 6.10663043e-03,
          9.00688861e-03, 2.85150978e-04, 7.76203815e-04, 1.39382362e-04,
          -7.27676228e-03, -2.45339674e-04, 1.54795242e-04,
          -6.04721019e-04, 4.94523207e-04, 2.18307972e-03,
          5.15760621e-04, -8.11829814e-04, -6.58155652e-03,
          7.12715497e-04, -3.28539405e-03, -5.58034808e-04,
          -2.86626024e-03, -1.35885645e-03, -7.21766939e-03,
          -1.05351605e-03, -1.04598440e-02, -2.90172105e-03,
          7.72621133e-04, 3.58297629e-03, 1.31987231e-02, 3.43183265e-03,
          2.65784771e-03, -7.65250006e-04, 6.91575464e-04,
          -4.35032696e-03, 7.63013260e-03, -3.49144777e-03,
          -4.01092329e-05, -3.37026455e-03, 7.29563937e-04,
          3.19619570e-03, 5.09394100e-04, 2.07927631e-04,
          -2.42871069e-03, -7.15965070e-05, -1.31729629e-03,
          -2.42126524e-03, -9.87341045e-04, -5.61777153e-04,
          -1.87830432e-04, -1.23390520e-03, 2.61340942e-03,
          -7.11094646e-04, 1.71445590e-03, -2.63542333e-03,
          2.23148917e-03, -1.27970695e-03, -2.83645047e-03,
          -1.64565793e-03, 3.82047147e-03, 2.26407405e-03,
          -4.69789840e-03, -9.82549973e-04, -3.18817701e-03,
          2.78103352e-03, -1.53798307e-03, -1.41386350e-03,
          1.07439328e-03, -6.22568885e-04, -1.31078518e-03,
          -2.78589642e-03, -3.87640379e-04, 9.91421635e-04,
          -1.31897593e-03, -2.45476072e-03, 7.62116804e-04,
          1.12967711e-04, -2.44977971e-04, 2.07445482e-05,
          -3.38520826e-04, -1.11826905e-03, -1.95068962e-04,
          -1.77832600e-03, 8.64378526e-04, -1.90492246e-05,
          -3.38247832e-04, -6.33704534e-04, -1.23150332e-03,
          1.10405392e-03, 2.97169288e-04, 6.41064253e-04,
          -2.49882403e-04, -1.11642538e-03, 8.38909589e-04,
          -1.55750575e-04, 5.43188129e-04, -1.68742926e-03,
          1.20867189e-04, 2.41745292e-04, -3.48891990e-05,
          6.86253188e-05, 1.05193595e-03, -4.07675107e-04,
          -8.29437909e-07, 5.95050748e-04, -7.99163885e-04,
          7.05111073e-04, 2.68836884e-04, 7.99099507e-04, 1.34541607e-03,
          5.72885096e-04, 9.26593028e-04, 1.39335985e-04, 5.23602612e-05,
          -1.84665259e-04, 2.70802120e-04, 3.13093333e-05,
          -4.77495778e-04, 2.34675623e-04, 9.81439298e-05,
          -2.86104885e-04 ]
   decision_functions:
      -
         sv_count: 1
         rho: -6.7415766187134840e-01
         alpha: [ 1. ]
         index: [ 0 ]
