%YAML:1.0
my_svm: !!opencv-ml-svm
   svm_type: C_SVC
   kernel: { type:LINEAR }
   C: 1.
   term_criteria: { epsilon:2.2204460492503131e-016, iterations:100 }
   var_all: 128
   var_count: 128
   class_count: 2
   class_labels: !!opencv-matrix
      rows: 1
      cols: 2
      dt: i
      data: [ 0, 1 ]
   sv_total: 1
   support_vectors:
      - [ -3.56470380e-004, 7.09397765e-003, 6.11150218e-003,
          8.33951589e-003, -7.87063874e-003, -2.73873983e-003,
          -5.87459654e-004, 7.70804239e-003, -9.62374546e-003,
          2.45184032e-003, 6.54831761e-003, -4.87465179e-003,
          -2.22886889e-003, 7.61273410e-003, -1.95017154e-003,
          -4.95284423e-003, 2.37275497e-003, -9.01938416e-004,
          -1.34992425e-003, 2.77771195e-003, 6.02959841e-003,
          -3.24384519e-003, -5.14272647e-003, -8.08229903e-004,
          1.01002003e-003, -2.39173835e-003, -8.96032841e-004,
          -1.55377737e-003, 3.43685481e-003, 7.36233429e-004,
          -2.29599467e-003, -2.50780163e-003, -1.75446947e-003,
          1.87926600e-003, 4.52866152e-005, 1.05899409e-003,
          1.63205352e-003, 4.42926364e-004, -3.44284624e-003,
          -1.11282989e-003, -1.92128681e-003, -1.33014377e-003,
          -2.18717614e-003, 9.90575762e-004, -7.61759700e-004,
          7.46696081e-004, 1.50755909e-003, 2.09808059e-004,
          -1.19070325e-003, 1.22381886e-003, 2.10182532e-003,
          -5.32313366e-004, 1.47098571e-003, 4.47708095e-004,
          7.75916153e-004, 1.81685633e-003, 1.55648007e-003,
          1.39289128e-003, -4.01772268e-005, -1.73297638e-004,
          -4.07448097e-004, 1.20805902e-003, -3.93640075e-004,
          1.47366512e-003, 8.26583768e-004, -7.28416664e-004,
          3.44499073e-004, -7.11348315e-004, -1.03658655e-004,
          5.40773268e-004, -9.17463331e-004, 1.53189292e-004,
          -1.28369092e-003, -1.66090985e-003, -8.14694620e-004,
          -8.83932342e-004, 1.86287492e-004, -6.87137304e-004,
          1.73941269e-004, 8.62609711e-004, 1.31116118e-004,
          6.26841502e-004, 3.90914909e-004, -1.54731839e-004,
          1.47697676e-004, 4.82390169e-004, -6.00689382e-004,
          6.00218133e-004, -7.28651241e-004, 1.93953805e-004,
          2.76984822e-004, 7.17192597e-004, -5.01228380e-004,
          -3.06479196e-004, -4.71107691e-004, -1.95600835e-004,
          5.16787462e-004, -5.45231742e-004, -5.56726067e-004,
          1.10457077e-004, 4.02072073e-005, -1.03381586e-004,
          4.21595381e-004, -5.61587047e-004, 2.64082715e-004,
          2.54016806e-004, 2.75255938e-004, -2.03033342e-005,
          -1.95703411e-004, -1.53576693e-005, -4.65244782e-004,
          -3.96060204e-004, -2.17579931e-004, 1.01676240e-004,
          9.41377657e-005, -1.83418830e-004, 2.14210850e-005,
          -1.72855231e-004, -1.22837504e-004, 2.60046509e-004,
          3.67596404e-005, -2.20257007e-005, 8.93560500e-005,
          3.36934536e-005, -2.01208422e-005, 7.55880828e-005,
          -1.20860968e-004, -8.31137004e-005 ]
   decision_functions:
      -
         sv_count: 1
         rho: -1.1014667112087257e+000
         alpha: [ 1. ]
         index: [ 0 ]
