%YAML:1.0
my_svm: !!opencv-ml-svm
   svm_type: C_SVC
   kernel: { type:LINEAR }
   C: 1.
   term_criteria: { epsilon:2.2204460492503131e-016, iterations:100 }
   var_all: 30
   var_count: 30
   class_count: 2
   class_labels: !!opencv-matrix
      rows: 1
      cols: 2
      dt: i
      data: [ 0, 1 ]
   sv_total: 1
   support_vectors:
      - [ 5.74337970e-003, 1.14697209e-002, 1.06512643e-002,
          -9.71511845e-003, 6.34718407e-003, -4.94143413e-003,
          -2.91321729e-003, -4.53014998e-003, -2.39792350e-003,
          -4.61441377e-004, -3.32281971e-003, -1.66487589e-003,
          8.29354161e-004, -8.98231927e-004, 7.15487346e-004,
          -4.41695505e-004, -1.23753236e-003, 1.02435634e-003,
          2.05097324e-003, 2.88443582e-004, 9.55822121e-004,
          1.50352615e-004, 4.24901984e-004, -4.10671753e-004,
          3.72152717e-004, -6.72939714e-005, -6.06315385e-004,
          8.25460666e-005, 3.77476215e-004, -4.52469307e-004 ]
   decision_functions:
      -
         sv_count: 1
         rho: -3.6372851699851078e-001
         alpha: [ 1. ]
         index: [ 0 ]
