%YAML:1.0
my_svm: !!opencv-ml-svm
   svm_type: C_SVC
   kernel: { type:LINEAR }
   C: 1.0000000000000001e-001
   term_criteria: { epsilon:2.2204460492503131e-016, iterations:100 }
   var_all: 128
   var_count: 128
   class_count: 2
   class_labels: !!opencv-matrix
      rows: 1
      cols: 2
      dt: i
      data: [ 0, 1 ]
   sv_total: 1
   support_vectors:
      - [ 1.90146361e-003, -5.27253491e-004, 3.48444399e-003,
          1.02307519e-003, 4.35685884e-004, 1.08365365e-003,
          2.34703883e-004, 4.93932143e-003, 5.76588511e-003,
          2.84583704e-003, 1.68919004e-003, 6.33336604e-003,
          -3.55947705e-004, -4.97822999e-004, 1.35770964e-003,
          -2.50453735e-003, -7.80080562e-004, -3.00829951e-003,
          3.76538164e-003, 1.51466217e-003, -1.61523081e-003,
          -1.71126320e-003, 2.83199432e-003, -3.61665059e-003,
          -5.27105760e-004, 2.78219464e-003, -3.34535004e-003,
          3.39593343e-003, 5.74821094e-003, -1.98494829e-003,
          -1.69989036e-003, 3.20266350e-003, -2.12988700e-003,
          4.81863215e-004, 2.30126386e-003, 1.53641356e-003,
          1.43568486e-003, -1.30561634e-003, 2.04023160e-003,
          -1.07799642e-004, 3.35871056e-003, 1.16777304e-003,
          1.98477390e-003, 4.18380182e-003, -4.41063941e-003,
          -3.59173585e-003, 2.60725897e-003, -2.82564666e-003,
          5.04512619e-003, 1.66776753e-003, 5.17614186e-003,
          1.33983220e-003, 3.30903102e-003, 1.83229840e-005,
          -3.49826179e-003, -7.54851790e-004, 4.08821361e-004,
          -3.79407476e-003, 2.16163928e-003, -8.18738597e-004,
          1.45352606e-004, 3.91261559e-003, 1.61739410e-006,
          3.54970666e-003, 4.58238152e-004, 1.35512510e-003,
          1.86707301e-003, -7.70695508e-004, -4.91815759e-003,
          4.29938128e-003, -2.85466225e-003, 6.06873073e-004,
          3.98692163e-003, -1.44867832e-003, 1.06350170e-003,
          -3.84312909e-004, 3.31315707e-004, 3.88812448e-004,
          -4.01383120e-004, 8.71221477e-004, 2.59440695e-003,
          -1.26342801e-003, 3.54137301e-004, 4.15629009e-004,
          2.35102628e-003, -1.84625178e-003, -1.91984954e-003,
          -1.27626443e-003, -2.63893814e-003, -1.24246965e-003,
          5.12886967e-004, 1.76886842e-003, -9.56963515e-004,
          -3.41696199e-004, 8.17430322e-004, 2.35193293e-003,
          5.64413320e-004, 1.45949700e-004, 1.22987141e-003,
          -7.92754581e-004, -4.44380858e-005, 1.03726529e-003,
          -1.97356055e-003, -2.35172478e-003, -2.29910409e-004,
          -1.81884505e-003, -1.19121745e-003, 2.42077673e-004,
          -2.57357466e-003, 3.05138266e-004, -8.56016472e-004,
          5.35636966e-004, 1.36193912e-003, 7.83114578e-004,
          1.02090440e-003, 7.86172634e-004, 3.92600225e-004,
          1.75084290e-003, -1.36413844e-004, 2.64780945e-004,
          6.04896668e-005, -8.20757938e-004, 2.84187903e-004,
          -7.11326546e-004, -9.63716535e-004, 1.00595027e-003,
          -1.64292414e-005, 3.79203120e-004 ]
   decision_functions:
      -
         sv_count: 1
         rho: -2.3042602996420009e-001
         alpha: [ 1. ]
         index: [ 0 ]
