%YAML:1.0
my_svm: !!opencv-ml-svm
   svm_type: C_SVC
   kernel: { type:LINEAR }
   C: 1.0000000000000001e-001
   term_criteria: { epsilon:2.2204460492503131e-016, iterations:100 }
   var_all: 60
   var_count: 60
   class_count: 2
   class_labels: !!opencv-matrix
      rows: 1
      cols: 2
      dt: i
      data: [ 0, 1 ]
   sv_total: 1
   support_vectors:
      - [ -2.90476764e-003, 4.49186563e-003, -1.34173408e-002,
          -6.77079428e-003, 3.81569401e-003, 1.01041021e-002,
          3.05107608e-003, -8.32148362e-003, 5.75490063e-003,
          -2.09783744e-002, 4.35395259e-003, -3.01133213e-003,
          4.29455098e-003, -2.56618904e-003, 1.08570307e-002,
          1.44095393e-002, 8.68090242e-003, -6.92546600e-003,
          -8.59756302e-003, 7.78794754e-003, -3.07020219e-003,
          8.78839474e-003, -8.18997528e-003, 1.59909308e-003,
          3.42952413e-003, -5.81132900e-003, 8.87474511e-003,
          3.94944847e-003, -6.25494681e-003, 3.47620435e-003,
          -7.18451105e-003, 4.78635216e-003, -4.71626548e-003,
          -7.61756382e-004, -5.02527517e-004, 6.67775376e-003,
          -3.96978203e-003, 1.92218402e-003, 8.29952478e-004,
          -3.27917351e-003, -3.39819654e-003, -8.33418313e-003,
          2.98702018e-003, 1.83904730e-003, 2.29262048e-003,
          9.80455778e-004, 8.96087382e-003, -2.61883414e-003,
          5.68052242e-003, 2.73776846e-003, -9.49426903e-004,
          -8.13877152e-004, -2.40812311e-003, 2.77613202e-004,
          2.93646799e-003, -7.47298403e-003, 5.89962676e-003,
          1.78823643e-003, 2.46396521e-003, 7.68699159e-004 ]
   decision_functions:
      -
         sv_count: 1
         rho: -1.2955821282179136e+000
         alpha: [ 1. ]
         index: [ 0 ]
