%YAML:1.0
my_svm: !!opencv-ml-svm
   svm_type: C_SVC
   kernel: { type:LINEAR }
   C: 1.
   term_criteria: { epsilon:2.2204460492503131e-016, iterations:100 }
   var_all: 128
   var_count: 128
   class_count: 2
   class_labels: !!opencv-matrix
      rows: 1
      cols: 2
      dt: i
      data: [ 0, 1 ]
   sv_total: 1
   support_vectors:
      - [ -2.98892800e-003, 4.72493906e-004, -1.58977309e-005,
          2.76322651e-004, -3.45036737e-003, 8.54842889e-004,
          -7.23062694e-005, 5.88003313e-003, 6.99361693e-003,
          2.52165436e-003, -1.03415351e-003, 5.85599290e-003,
          1.73616770e-003, 1.96184218e-003, 1.34002080e-003,
          -1.05639093e-003, -1.06421160e-003, -2.95594125e-003,
          5.25254477e-003, -1.11957628e-003, -8.25283118e-004,
          -1.88982987e-003, 2.45690974e-003, -3.25482548e-003,
          1.47327446e-004, 3.35775805e-003, -4.26336890e-003,
          4.76667145e-003, 5.23755420e-003, -1.58799137e-003,
          -1.43006083e-003, 3.80143942e-003, -2.69091362e-003,
          1.47070899e-003, 1.15625176e-003, 1.45216344e-003,
          2.91111501e-004, -1.52692234e-003, 1.07868027e-003,
          2.15893800e-004, 4.25703637e-003, 2.45721219e-003,
          3.27655999e-003, 5.21126529e-003, -4.65940498e-003,
          -4.86399652e-003, 2.16357037e-003, -2.81755696e-003,
          4.84411512e-003, 3.37728672e-003, 4.00305539e-003,
          2.43532821e-003, 3.75117781e-003, 5.49503369e-004,
          -3.12001305e-003, -2.34965305e-003, -4.99120622e-004,
          -2.98203621e-003, 2.61186436e-003, -6.42213738e-004,
          6.73386559e-004, 2.46264739e-003, 6.70557201e-004,
          2.67421338e-003, -5.39741071e-004, 5.42609254e-004,
          1.87129749e-003, -2.21282578e-004, -6.30805036e-003,
          3.98210017e-003, -2.51973397e-003, 2.91426317e-004,
          4.76379925e-003, -2.10792199e-003, 1.47890765e-003,
          -2.38877474e-004, -7.31610111e-004, 6.90062938e-004,
          -1.93535013e-003, 1.81548216e-003, 2.42266990e-003,
          -5.04158088e-004, -4.34484682e-004, -2.85910122e-004,
          2.98438361e-003, -2.44403235e-003, -1.64233672e-003,
          -2.36020098e-003, -2.62618973e-003, -5.25420124e-004,
          5.33752551e-004, 9.95228998e-004, -4.10136767e-004,
          -6.68722671e-004, 6.14093209e-004, 3.36351246e-003,
          -6.05194888e-004, -1.24872907e-003, 8.12857528e-004,
          -1.34934403e-003, 5.52443671e-004, 2.33560975e-004,
          -1.78053824e-003, -1.27145939e-003, 1.33460664e-004,
          -2.38423981e-003, -1.21702789e-003, 3.30506184e-004,
          -2.39556655e-003, 4.46254300e-004, -9.69982764e-004,
          1.30644580e-003, 2.07711826e-003, 4.61294025e-004,
          6.00127038e-004, 1.06926658e-003, 2.58543059e-005,
          1.64825248e-003, -1.12731643e-004, 4.84929740e-004,
          -2.56635076e-006, -1.09468226e-003, 1.98626396e-004,
          -3.03978682e-004, -1.05630723e-003, 8.01824790e-004,
          1.74291199e-004, 5.26578515e-004 ]
   decision_functions:
      -
         sv_count: 1
         rho: -3.5534143124296053e-001
         alpha: [ 1. ]
         index: [ 0 ]
