%YAML:1.0
my_svm: !!opencv-ml-svm
   svm_type: C_SVC
   kernel: { type:LINEAR }
   C: 1.
   term_criteria: { epsilon:2.2204460492503131e-016, iterations:100 }
   var_all: 128
   var_count: 128
   class_count: 2
   class_labels: !!opencv-matrix
      rows: 1
      cols: 2
      dt: i
      data: [ 0, 1 ]
   sv_total: 1
   support_vectors:
      - [ -1.48453373e-005, 2.09452788e-004, -5.52528864e-003,
          -1.93974618e-002, 7.30510335e-003, -1.81380380e-002,
          1.95241021e-003, -2.29515927e-003, 3.26363673e-003,
          -4.36510378e-003, -7.85198587e-004, 2.11218387e-004,
          -6.08491246e-003, -4.70469752e-003, 3.41325975e-003,
          -7.22176768e-003, 3.41789389e-004, 2.89059337e-003,
          -6.78851223e-003, -3.30969179e-003, -3.18080978e-003,
          -8.22514482e-003, -4.95867059e-003, 1.65831018e-003,
          1.38478505e-003, 3.10739619e-003, 6.25747163e-003,
          -5.61569119e-003, 5.98041632e-004, 5.30843483e-003,
          2.88291812e-005, 5.87027112e-004, 1.23475585e-003,
          -2.98765977e-003, -6.88384345e-004, 1.03727058e-002,
          -2.23208778e-003, 2.78635463e-003, 8.62305751e-004,
          8.15908657e-004, -2.90107075e-003, -5.75499050e-003,
          2.32518557e-003, 2.51513586e-004, 8.77212361e-003,
          5.77124674e-003, -1.49144733e-003, -3.87854711e-003,
          -6.68258872e-003, 8.70393496e-003, -3.77688161e-003,
          -7.70239392e-003, 2.07619672e-003, 4.04745294e-003,
          -1.08002324e-003, 2.74405000e-003, -1.43892295e-003,
          -2.07480323e-003, 6.25503963e-005, 6.55619951e-004,
          3.35885677e-004, -2.46230559e-003, 1.74891538e-004,
          2.17080209e-003, 4.97257756e-003, -2.18793075e-003,
          1.61141064e-003, 7.96779466e-004, -2.79493304e-003,
          -2.49054166e-003, 2.19642138e-003, 3.69870337e-003,
          2.14948086e-003, 9.21182916e-004, 1.63932063e-003,
          6.16424833e-004, -8.50344892e-004, -3.67808330e-004,
          -2.27084756e-003, -8.69134325e-004, 6.71992661e-004,
          1.20409555e-003, 1.68761064e-003, 7.54564011e-004,
          3.82338592e-004, -2.17376486e-003, -3.50375834e-004,
          -3.74141440e-004, 1.00441219e-003, 1.36098848e-003,
          -1.02480955e-003, -1.07136148e-003, 5.40892594e-004,
          -1.03972061e-003, -1.11085991e-003, -1.30643509e-003,
          1.16799178e-003, 3.03873039e-005, -4.09100176e-004,
          -1.21387355e-004, -6.18351798e-004, 4.36960574e-004,
          1.71911979e-005, -4.03083541e-004, -4.14144743e-004,
          -2.32915554e-004, 5.76434977e-005, -7.35251087e-005,
          3.86573265e-005, -1.74512752e-004, 1.67438891e-004,
          7.25045044e-004, -4.52848093e-004, -5.42224843e-005,
          3.38524376e-004, -3.16122052e-004, 3.40549945e-004,
          1.61542877e-004, 4.20997181e-004, -1.55157337e-004,
          3.54383665e-004, -1.40800330e-004, 2.27393291e-004,
          1.01096630e-004, 1.02982631e-005, -1.78449758e-004,
          1.06102580e-005, -7.45761572e-005 ]
   decision_functions:
      -
         sv_count: 1
         rho: -4.6937870813255157e-002
         alpha: [ 1. ]
         index: [ 0 ]
