%YAML:1.0
my_svm: !!opencv-ml-svm
   svm_type: C_SVC
   kernel: { type:LINEAR }
   C: 1.
   term_criteria: { epsilon:2.2204460492503131e-016, iterations:100 }
   var_all: 128
   var_count: 128
   class_count: 2
   class_labels: !!opencv-matrix
      rows: 1
      cols: 2
      dt: i
      data: [ 0, 1 ]
   sv_total: 1
   support_vectors:
      - [ -1.11418916e-003, 2.09234378e-004, 9.26322595e-004,
          -7.73542270e-004, -1.01082714e-003, -3.27366346e-004,
          9.87416133e-004, -2.10273807e-004, 2.61758134e-004,
          1.51857676e-004, 3.64566251e-004, -1.24578937e-005,
          1.29458131e-004, 6.61684608e-004, -2.67916301e-004,
          -4.54022083e-004, -3.54641612e-004, -6.84004393e-004,
          -1.30851043e-003, -2.91969453e-004, 1.05063373e-003,
          1.93555478e-003, -4.35428577e-004, 4.43595840e-004,
          -6.48606685e-004, -1.31284690e-003, -5.30655379e-004,
          -3.80431098e-004, 6.70250331e-004, -3.06651695e-004,
          -2.70740408e-003, 2.81088473e-003, 3.81739461e-004,
          3.41244537e-004, 5.85463655e-004, -2.25794472e-004,
          -2.25068099e-004, 9.76006268e-004, 1.00416981e-003,
          7.41605938e-004, 8.49107280e-004, 1.25505030e-003,
          -1.68084668e-003, 2.37452628e-006, 5.58616652e-004,
          7.70954415e-004, -4.57206974e-004, -3.61751881e-004,
          -1.69753912e-003, 1.15577801e-004, -5.26694290e-004,
          -3.36565397e-004, -8.75666738e-004, 7.03036960e-004,
          9.68559762e-004, -2.35651314e-004, -1.85503066e-003,
          -2.44643702e-003, -6.51122711e-004, 3.75779171e-004,
          -3.10739689e-003, -3.24644527e-004, 1.04926396e-004,
          -1.52762936e-004, -8.54099402e-004, -1.59828996e-004,
          2.20120754e-004, 7.44507357e-004, -7.41024327e-004,
          6.50861284e-006, -8.72316668e-005, -2.01640296e-006,
          -2.03539472e-004, -4.32285218e-004, -7.99871108e-004,
          -2.83112779e-004, -8.21142748e-004, 1.75951762e-004,
          9.65660263e-004, -1.12220715e-003, -1.07647764e-004,
          3.85545543e-004, -5.99139967e-005, 4.47626167e-004,
          1.88471819e-003, -6.73112751e-004, 1.07548106e-003,
          -7.62098818e-004, -5.89139469e-004, -1.97974849e-003,
          -7.28762825e-004, 2.62433809e-004, -1.32952328e-003,
          2.04209806e-004, 1.35862909e-004, -1.14999246e-003,
          8.48796975e-004, 3.88183049e-004, 3.60258797e-004,
          2.98922707e-004, 2.95338432e-005, 9.62111575e-004,
          6.98830059e-004, 5.68004965e-004, 7.70299404e-004,
          -1.43809273e-004, -2.79341009e-004, 1.37988536e-003,
          4.92263644e-004, 2.93896766e-004, -4.81804636e-005,
          -1.08127971e-003, 2.92330544e-004, 1.02975534e-003,
          7.65475328e-004, 1.85438164e-003, 6.52704330e-004,
          9.24300402e-004, -9.35950738e-005, -3.35216719e-005,
          -6.25287066e-004, 1.73479912e-003, -2.21674090e-005,
          1.44036108e-004, -5.78337291e-004, 9.04391927e-004,
          -9.31068440e-004, -1.90068106e-003 ]
   decision_functions:
      -
         sv_count: 1
         rho: -3.1624084167497951e-001
         alpha: [ 1. ]
         index: [ 0 ]
