%YAML:1.0
my_svm: !!opencv-ml-svm
   svm_type: C_SVC
   kernel: { type:LINEAR }
   C: 1.
   term_criteria: { epsilon:2.2204460492503131e-016, iterations:100 }
   var_all: 128
   var_count: 128
   class_count: 2
   class_labels: !!opencv-matrix
      rows: 1
      cols: 2
      dt: i
      data: [ 0, 1 ]
   sv_total: 1
   support_vectors:
      - [ 2.28201825e-004, -4.61380667e-004, -5.08577854e-004,
          2.99662905e-004, 6.33576361e-004, -4.21868637e-004,
          -4.71970998e-004, 1.68277926e-004, -2.86255730e-004,
          -9.45048290e-004, -2.13436972e-004, 8.63826543e-004,
          -3.55098164e-004, -1.41093973e-003, 5.58762171e-004,
          3.66182590e-004, 1.77958413e-004, 5.23379189e-004,
          1.76602113e-003, 4.06637409e-004, -2.32592248e-003,
          -4.59454581e-003, 2.24802620e-003, 5.42035152e-004,
          -1.17738219e-003, -6.90953093e-005, 4.89140453e-004,
          9.79081611e-004, 2.58944463e-004, 2.48428842e-004,
          5.94836148e-003, -3.77001800e-003, -1.10742461e-003,
          -5.40401496e-004, -8.39951914e-004, -9.68572393e-004,
          -6.43831911e-004, -2.05196207e-003, -1.92687975e-003,
          -1.39347371e-003, -4.45432612e-004, -1.53279933e-003,
          9.62915423e-004, 1.51442643e-003, -5.47350173e-005,
          -1.45581225e-003, 1.31892230e-004, 6.56206976e-004,
          4.07860568e-003, 1.53980730e-003, 4.02981561e-004,
          1.64389110e-003, 1.28147483e-003, -3.93024820e-004,
          -1.89630245e-003, 1.47822930e-003, 6.88200642e-004,
          1.45038916e-003, 1.55747728e-003, 6.63524319e-004,
          2.67690374e-003, 4.90463921e-004, -5.65477647e-004,
          -9.69162909e-004, -3.05922382e-004, 1.46307552e-003,
          -5.78251900e-004, -1.27865176e-003, 4.30880435e-004,
          2.35827742e-004, -2.60647299e-004, -9.74805909e-004,
          1.13957364e-003, 1.83663890e-003, 8.36892694e-004,
          4.26522456e-004, -3.77774268e-006, 1.67254228e-004,
          -2.01494596e-003, 8.84993875e-004, 1.69383932e-003,
          1.21997704e-003, -4.59642724e-005, 1.14678859e-003,
          -9.14810633e-004, 1.96387409e-003, -1.51743472e-003,
          2.59622163e-003, -1.72415486e-004, 8.07153992e-005,
          2.68785021e-004, 4.45264086e-005, 1.97837036e-003,
          1.70720974e-004, 3.57967183e-005, 8.18394125e-004,
          -1.03197119e-003, -4.19935168e-005, -4.34778980e-004,
          -8.46774026e-004, -4.81853436e-004, -3.11199256e-005,
          -2.79535918e-004, -8.88862996e-004, -1.31132093e-003,
          -6.23781176e-004, -2.02871815e-004, -2.44042207e-003,
          -5.83693152e-004, 3.02338478e-004, -2.23751689e-004,
          -7.05063621e-006, 2.82234163e-004, -5.85152047e-005,
          8.96644488e-004, -3.82040720e-003, -2.08374881e-003,
          1.08598637e-004, 2.58312968e-004, -5.93562028e-004,
          -7.95273925e-004, -3.59096495e-003, 1.29220716e-004,
          3.17422528e-004, 2.81984423e-004, -1.14774948e-003,
          -7.33823807e-004, 2.25424010e-004 ]
   decision_functions:
      -
         sv_count: 1
         rho: 9.2540281930435819e-001
         alpha: [ 1. ]
         index: [ 0 ]
