%YAML:1.0
my_svm: !!opencv-ml-svm
   svm_type: C_SVC
   kernel: { type:LINEAR }
   C: 1.0000000000000001e-001
   term_criteria: { epsilon:2.2204460492503131e-016, iterations:100 }
   var_all: 128
   var_count: 128
   class_count: 2
   class_labels: !!opencv-matrix
      rows: 1
      cols: 2
      dt: i
      data: [ 0, 1 ]
   sv_total: 1
   support_vectors:
      - [ 2.72832392e-003, -4.72210551e-004, 4.33722802e-004,
          9.89231514e-004, 2.19028490e-003, 2.87071266e-003,
          6.12607226e-004, -2.04424118e-003, -5.86473662e-003,
          -1.64787332e-003, -1.89770130e-003, -2.95965327e-003,
          -1.39355171e-003, -1.46572501e-003, -4.17109672e-003,
          5.13847917e-004, -2.72459700e-004, 1.81457784e-003,
          -2.50798115e-003, 1.12200261e-003, 1.83806987e-003,
          -2.46420130e-003, -2.97338492e-003, 4.90157586e-003,
          -2.37813219e-004, -5.39356726e-004, 2.56081880e-003,
          8.52475991e-004, -4.42387955e-003, 2.42706179e-003,
          1.06767879e-003, -2.49265204e-003, 2.46392936e-003,
          1.28002546e-003, -6.64811116e-004, -2.66425149e-003,
          -1.47059141e-003, 1.82666990e-003, -2.16535409e-003,
          1.24411297e-003, -2.84147798e-003, -2.04878557e-003,
          -4.68022889e-004, -2.84593226e-003, 2.78903078e-003,
          1.24032353e-003, -2.45980802e-003, 1.71038893e-003,
          -6.43961877e-003, -2.75208335e-003, -7.37560866e-003,
          -1.49295572e-003, -3.46918846e-003, -9.82672675e-004,
          4.20256844e-003, 1.57644972e-003, -1.53302320e-003,
          1.37102336e-003, -1.23198587e-003, 1.38377992e-003,
          2.49572238e-003, -1.57764845e-003, -5.12814964e-004,
          -3.12941452e-003, 6.41992025e-004, -2.16999906e-003,
          -3.08086607e-003, -1.05968828e-003, 5.38235018e-003,
          -4.22962382e-003, 2.75074481e-003, 1.87936574e-004,
          -2.31026462e-003, 4.00933111e-003, -2.42799753e-003,
          -8.20744375e-004, -3.68849112e-004, 8.13750434e-004,
          1.35675445e-003, 1.95266621e-004, -2.44914391e-003,
          1.37094420e-003, 1.82013784e-004, -2.68368341e-004,
          -1.77276717e-003, 9.25951754e-004, 9.85146151e-004,
          1.29203789e-003, 2.17487989e-003, 8.84973924e-005,
          -5.86493479e-005, -1.51355460e-003, 4.45157901e-004,
          1.81792086e-004, -5.05681790e-004, -5.36619409e-005,
          -6.21865212e-004, 2.19845344e-004, -5.58984291e-004,
          7.73031788e-004, 4.72321932e-004, -1.79878043e-004,
          1.73658726e-003, 2.08366150e-003, 6.64062682e-004,
          -1.71037143e-004, 2.29170406e-003, 4.48780018e-004,
          2.50480836e-003, -3.87271430e-004, 1.12924248e-003,
          -1.35390597e-004, -1.83071301e-003, 2.56565632e-004,
          -4.46036720e-004, -4.25016100e-004, -1.23764249e-003,
          -8.62917281e-004, -6.80035009e-005, -3.26357927e-004,
          5.42241905e-004, 8.87954724e-004, -6.55271651e-006,
          2.72852252e-004, 5.38898108e-004, -6.96955540e-004,
          -1.42032790e-004, -4.87297249e-004 ]
   decision_functions:
      -
         sv_count: 1
         rho: 6.9354793448412513e-002
         alpha: [ 1. ]
         index: [ 0 ]
