%YAML:1.0
my_svm: !!opencv-ml-svm
   svm_type: C_SVC
   kernel: { type:LINEAR }
   C: 1.
   term_criteria: { epsilon:2.2204460492503131e-016, iterations:100 }
   var_all: 128
   var_count: 128
   class_count: 2
   class_labels: !!opencv-matrix
      rows: 1
      cols: 2
      dt: i
      data: [ 0, 1 ]
   sv_total: 1
   support_vectors:
      - [ -3.37398681e-003, 8.53919133e-004, -2.84626585e-004,
          1.55583746e-003, 1.55986683e-003, 1.66816416e-003,
          -1.11741028e-004, -1.51682971e-003, -1.50204776e-003,
          7.73181440e-004, -2.95879738e-003, -1.92063642e-004,
          -4.00347664e-004, -3.31371790e-003, 2.09619422e-004,
          1.27304066e-003, 4.20808938e-004, 4.75500099e-004,
          8.52547877e-004, 1.55230763e-003, 1.09132251e-003,
          -2.55121524e-003, 4.67496429e-004, 9.92269372e-004,
          -2.12287554e-003, 1.40735833e-003, 1.04287756e-003,
          -4.12513968e-003, -7.16504524e-004, 1.86114933e-003,
          -9.37904522e-004, -6.54612668e-004, 3.22599104e-003,
          -1.08099157e-004, 1.52812130e-003, -1.12131494e-003,
          1.60437694e-003, -3.82602704e-003, 9.28786176e-004,
          1.18841301e-004, 4.88725898e-004, -7.25558610e-004,
          -3.93303955e-004, 1.53339747e-003, -2.18070205e-003,
          -1.30947481e-003, 1.14590910e-006, -9.67100437e-004,
          -1.31994695e-003, 6.35111588e-004, 5.54365222e-004,
          8.24018964e-004, 3.49103269e-004, -3.48056201e-004,
          -8.46568786e-004, -1.18859462e-003, -2.21818383e-003,
          -3.82328802e-003, -3.84283689e-004, 7.23978737e-004,
          -1.73099549e-003, 4.09560557e-003, -3.90421395e-004,
          2.28104601e-003, -2.07733014e-003, -6.17129554e-005,
          2.72837840e-003, -2.67136423e-003, -2.66478444e-003,
          -1.99011923e-003, 3.68557929e-004, -1.40032207e-003,
          -6.71044050e-004, -8.97787861e-004, 1.45561469e-004,
          1.18244567e-003, 2.44723400e-004, -7.38039234e-005,
          3.48154805e-004, 1.47893128e-003, 5.45287505e-004,
          -1.24636421e-003, 1.74330478e-003, -1.19210721e-003,
          2.73074111e-004, -7.12154579e-005, -8.81582382e-004,
          -8.24061222e-004, -1.16153166e-003, -8.43264046e-004,
          9.04762419e-004, -1.11760164e-003, 6.19135215e-004,
          -1.14372640e-003, 9.25128290e-004, 7.98910449e-004,
          2.38987943e-003, -2.50651105e-003, -1.06187617e-005,
          -6.96482835e-004, -9.56984004e-004, -1.34188426e-003,
          1.41953304e-003, -7.59261660e-004, 5.55216975e-004,
          2.60926690e-003, 1.22478566e-004, -1.09851744e-003,
          2.95193284e-003, 1.14995660e-003, -5.47889329e-004,
          6.61358528e-004, -2.62355222e-003, 1.67856051e-003,
          -7.25525722e-004, 6.16039673e-004, -2.76647421e-004,
          1.17935031e-003, 4.20320313e-004, 2.86421302e-004,
          8.69330834e-005, 5.11283761e-005, 3.84778832e-004,
          6.03092019e-004, 1.07558782e-003, 1.01415550e-004,
          2.19602443e-005, -2.46238807e-004 ]
   decision_functions:
      -
         sv_count: 1
         rho: -4.8746310583262975e-001
         alpha: [ 1. ]
         index: [ 0 ]
