%YAML:1.0
my_svm: !!opencv-ml-svm
   svm_type: C_SVC
   kernel: { type:LINEAR }
   C: 1.
   term_criteria: { epsilon:2.2204460492503131e-016, iterations:100 }
   var_all: 128
   var_count: 128
   class_count: 2
   class_labels: !!opencv-matrix
      rows: 1
      cols: 2
      dt: i
      data: [ 0, 1 ]
   sv_total: 1
   support_vectors:
      - [ 1.08776359e-004, -1.98453432e-003, -5.50914556e-003,
          -1.98527947e-002, 6.46822108e-003, -1.74722746e-002,
          -4.51096194e-003, 2.70147575e-003, 3.36135901e-003,
          -3.33275436e-003, -1.58118585e-003, 9.17577345e-005,
          4.33742395e-003, -4.21115709e-003, -6.04782626e-003,
          6.39293576e-003, -1.74886512e-003, -4.12591174e-003,
          6.61449460e-003, 3.99405183e-003, -3.23812035e-003,
          5.48635889e-003, 6.21754956e-003, -4.81163338e-003,
          -5.44372655e-004, 3.42782121e-003, 4.68590530e-004,
          6.52045943e-003, -1.53163029e-003, -1.32320984e-003,
          3.34152975e-003, 6.03665039e-003, 7.75635825e-004,
          -1.06755027e-003, -2.30073347e-003, 5.82680048e-004,
          -9.68871545e-003, 3.05893453e-004, -4.28871391e-003,
          1.37233944e-003, 2.69210106e-003, 1.69470627e-003,
          5.93052572e-003, -2.83883326e-003, 4.73767373e-004,
          -1.05584469e-002, -4.33772989e-003, 4.25969833e-004,
          -5.15118986e-003, -2.12146831e-003, 1.62270246e-003,
          -8.08214769e-003, 4.36699158e-003, -5.13899373e-003,
          7.63615547e-003, 1.34887383e-003, -4.57509945e-004,
          2.96787568e-003, -2.77173269e-004, 2.78030377e-004,
          -1.47396687e-003, 2.92983954e-004, 3.12028773e-004,
          6.48993126e-004, -2.18393421e-003, 2.32835719e-003,
          -2.36877054e-003, -3.71783879e-003, -6.00749860e-003,
          -1.86236657e-003, 1.39857363e-003, -2.61571631e-003,
          -1.92084315e-003, -3.62666184e-003, 3.18096345e-003,
          1.06719008e-003, 3.85189021e-004, -3.28884227e-004,
          -2.53505283e-003, -1.44944779e-005, -2.66823568e-003,
          4.53815854e-004, -2.74760532e-004, 8.29196651e-004,
          -4.16928524e-004, -3.23932007e-004, 2.25156033e-003,
          -5.97984937e-004, -4.66789643e-004, 1.01055215e-004,
          -1.55329320e-003, 2.54513026e-004, 8.33427184e-005,
          -1.00447396e-004, -1.76157919e-003, 5.28813282e-004,
          -2.39681732e-003, -3.46481538e-004, 4.21866949e-004,
          3.60693171e-004, 1.79173167e-005, -4.99290880e-004,
          5.67700830e-004, 3.93466980e-005, -4.30265471e-004,
          1.15764466e-004, -3.13450553e-004, -3.96168674e-004,
          -7.65043194e-004, -5.66344417e-004, 2.75130187e-005,
          1.10730669e-003, -2.71751342e-004, -1.01113917e-004,
          7.05194252e-005, 2.05295975e-004, -4.72638130e-005,
          3.18341918e-004, 4.43818833e-004, -3.07715876e-004,
          4.24278725e-004, 1.91688785e-004, -2.53540813e-004,
          -5.81782078e-005, 1.57006827e-004, -7.60810290e-005,
          2.14699481e-004, 3.15625657e-005 ]
   decision_functions:
      -
         sv_count: 1
         rho: 1.3459619190977881e-001
         alpha: [ 1. ]
         index: [ 0 ]
