%YAML:1.0
my_svm: !!opencv-ml-svm
   svm_type: C_SVC
   kernel: { type:LINEAR }
   C: 1.
   term_criteria: { epsilon:2.2204460492503131e-016, iterations:100 }
   var_all: 128
   var_count: 128
   class_count: 2
   class_labels: !!opencv-matrix
      rows: 1
      cols: 2
      dt: i
      data: [ 0, 1 ]
   sv_total: 1
   support_vectors:
      - [ -8.70677992e-004, -5.17328153e-004, -1.25464867e-003,
          -1.30330643e-003, -9.63816885e-004, -5.25549578e-004,
          -9.68583568e-004, -8.92786309e-004, 6.02671469e-004,
          -1.46716979e-004, -9.47041670e-004, -1.49482302e-003,
          -6.14685821e-004, 1.53992965e-004, 8.61139677e-004,
          2.98778585e-004, -2.57522188e-004, -5.87015165e-005,
          -1.57912916e-006, 8.21772801e-007, -3.07430222e-004,
          -3.82176135e-004, 2.48796539e-003, -2.67225434e-004,
          1.65399018e-004, -1.12005432e-006, -3.31184674e-005,
          4.08891239e-004, 1.25367995e-004, 4.28483938e-004,
          3.96505091e-003, 4.80063172e-004, -8.43472197e-004,
          -2.23520692e-004, -7.57186150e-004, -2.61546834e-003,
          -1.51263375e-003, -5.69313765e-004, -3.79810255e-004,
          -1.46896578e-003, 6.48331770e-004, -1.69500563e-004,
          1.11873297e-003, -2.35400094e-005, -9.67781118e-004,
          -5.61287743e-004, 5.84726804e-004, -2.37010259e-004,
          -8.98263999e-004, -3.98108125e-004, 9.99661745e-004,
          1.67427133e-004, -1.51584530e-003, -1.55333232e-003,
          5.71766228e-004, -8.42555426e-004, 2.29464087e-004,
          1.71474158e-003, 2.03792355e-003, 3.56576405e-004,
          1.69814724e-004, 6.56577758e-004, 1.35287677e-003,
          -1.37108800e-004, 1.07780704e-003, 3.60227947e-004,
          -4.02974576e-004, -1.34272280e-003, 2.45400763e-004,
          -6.33039745e-004, -1.04055204e-003, -1.40876486e-003,
          -3.29239439e-004, -5.37190295e-004, -1.32485467e-003,
          -8.08098644e-004, -4.38642834e-004, -5.02238167e-004,
          -1.40420767e-003, -2.46225833e-003, 1.40154129e-003,
          6.60913589e-004, -9.63817001e-005, -2.48148775e-004,
          -4.34205052e-004, 8.83500907e-004, -4.84666787e-004,
          7.20749435e-004, 8.54972342e-004, 2.56200205e-004,
          -3.96617339e-004, -1.53628600e-004, 5.80846914e-004,
          3.65823216e-004, 1.11163221e-003, 6.52398157e-004,
          1.95996428e-004, -4.99870919e-004, -9.94401169e-004,
          -8.99889739e-004, -5.94459598e-005, -3.23198823e-004,
          -4.13913920e-004, -6.40287704e-004, 2.14515347e-003,
          -3.16212245e-004, -1.88777607e-003, -1.02649303e-003,
          4.35240581e-005, -5.81067463e-004, -1.21291610e-003,
          -8.86756679e-005, 3.74138675e-004, -5.23803930e-004,
          -1.32812862e-003, 1.79798531e-004, -1.67913113e-005,
          2.09003614e-004, -1.09391834e-003, 2.00108843e-004,
          1.10041804e-003, 1.32127746e-003, -1.06883293e-003,
          -3.50770657e-004, 1.26232102e-003, 3.24908651e-005,
          -1.06537866e-003, 4.98184469e-004 ]
   decision_functions:
      -
         sv_count: 1
         rho: -5.8176014994955128e-001
         alpha: [ 1. ]
         index: [ 0 ]
