%YAML:1.0
my_svm: !!opencv-ml-svm
   svm_type: C_SVC
   kernel: { type:LINEAR }
   C: 1.
   term_criteria: { epsilon:2.2204460492503131e-016, iterations:100 }
   var_all: 128
   var_count: 128
   class_count: 2
   class_labels: !!opencv-matrix
      rows: 1
      cols: 2
      dt: i
      data: [ 0, 1 ]
   sv_total: 1
   support_vectors:
      - [ 6.32177922e-004, -7.45573035e-003, 4.10050270e-004,
          1.20965680e-002, -1.27375568e-003, 2.36886479e-002,
          6.20880304e-003, -1.14162993e-002, 4.25881799e-003,
          -1.73122808e-003, -3.59909283e-003, 1.46509253e-003,
          -4.38873516e-003, -1.89694460e-003, 5.22921514e-003,
          -9.24538253e-005, 9.58604622e-004, 3.67500284e-003,
          -1.88220234e-003, -4.74206218e-003, -5.31811093e-005,
          -8.66031740e-003, -2.13024719e-003, 3.97587521e-003,
          -9.28667549e-004, -2.14758446e-003, -1.39252737e-003,
          -5.28393034e-003, 2.26004585e-003, 6.31007133e-004,
          7.65582314e-004, -9.03034816e-004, -1.74064678e-003,
          -1.43679394e-003, 4.46621591e-004, -1.33578188e-003,
          4.10593627e-003, -9.75072908e-004, 5.78225311e-003,
          -3.22340918e-003, 2.86516198e-003, 2.63494061e-004,
          -1.52868521e-003, -5.63766691e-004, -2.82092486e-004,
          1.02498317e-002, 4.92563611e-003, 1.69570721e-003,
          9.09979455e-003, 1.37027055e-005, -3.33944336e-003,
          9.39656049e-003, -2.99551431e-003, 5.39709441e-003,
          -8.37149192e-003, -1.46906753e-003, -7.82627496e-004,
          -3.77080636e-003, 1.51929329e-003, -4.94109758e-004,
          1.90372078e-003, -1.44615234e-003, 1.11276680e-003,
          -2.49439734e-003, 2.03459896e-003, -1.69521372e-003,
          3.59834335e-003, 3.70519073e-003, 5.32204751e-003,
          3.04633426e-003, -2.58369907e-003, 2.08843756e-003,
          3.34209856e-003, 5.26891928e-003, -2.06540246e-003,
          -1.50199208e-004, -5.12931903e-004, 1.84555724e-003,
          2.06815824e-003, 3.79854260e-004, 2.72406428e-003,
          -1.74593320e-003, 3.04470013e-004, -7.31697248e-004,
          -9.29578498e-004, -5.07880002e-004, -1.42576138e-003,
          -7.00470409e-004, 5.67031617e-004, 7.36407936e-004,
          2.14224029e-003, -1.04849332e-003, -2.29707875e-004,
          -5.75212762e-004, 1.91043969e-003, -3.59923026e-004,
          1.57890317e-003, 4.20296623e-004, -1.33162857e-005,
          -9.78978816e-004, -1.92267791e-004, 3.30848852e-004,
          -3.56548640e-004, -8.26128889e-005, 6.77326345e-004,
          -2.12973056e-004, 1.93280212e-004, 2.76431674e-004,
          7.08628097e-004, 6.80461584e-004, 4.02135156e-005,
          -6.21797866e-004, 4.63497738e-004, -6.32775264e-005,
          1.18990356e-004, 2.41777350e-004, -8.71879165e-005,
          -1.72988221e-004, 5.22059090e-005, 5.28679302e-005,
          -4.10809764e-004, -2.79807689e-004, 1.31389548e-004,
          1.03100028e-004, -1.27257546e-004, 1.93048727e-005,
          7.90317572e-005, 2.09775113e-004 ]
   decision_functions:
      -
         sv_count: 1
         rho: -2.4922780405872094e-001
         alpha: [ 1. ]
         index: [ 0 ]
