%YAML:1.0
my_svm: !!opencv-ml-svm
   svm_type: C_SVC
   kernel: { type:LINEAR }
   C: 1.0000000000000001e-001
   term_criteria: { epsilon:2.2204460492503131e-016, iterations:100 }
   var_all: 60
   var_count: 60
   class_count: 2
   class_labels: !!opencv-matrix
      rows: 1
      cols: 2
      dt: i
      data: [ 0, 1 ]
   sv_total: 1
   support_vectors:
      - [ -3.25303292e-003, -2.65094405e-003, 3.27546895e-003,
          -1.33643582e-004, 2.85285013e-003, -3.78376397e-004,
          -1.67139422e-003, 6.36856258e-003, 1.00831315e-003,
          -4.87694815e-005, -1.57459243e-003, -2.45555840e-003,
          7.94603489e-004, -1.16774696e-003, 2.19159736e-003,
          -7.12298672e-004, -2.18384457e-003, 3.54355038e-003,
          1.53131632e-003, -2.78640841e-003, 8.87278991e-004,
          1.52290729e-003, -3.68431187e-003, 1.11700583e-003,
          5.43948077e-003, -1.71426684e-003, -4.99604503e-003,
          5.86568937e-003, -5.44276414e-003, -5.09150745e-003,
          2.18165945e-003, 9.06791422e-004, 5.91194024e-004,
          6.67786552e-003, 6.79626036e-003, 3.01860925e-003,
          1.76827144e-003, 4.90382127e-003, 6.18415652e-003,
          1.77006726e-003, -1.14643422e-003, 5.23908157e-003,
          -2.59742211e-003, 3.58408550e-003, 2.51143170e-003,
          -1.93236663e-003, -5.33756684e-004, -6.03210833e-003,
          1.08591212e-005, -1.29933644e-003, -2.04682490e-003,
          4.26580245e-003, -2.35246238e-003, 4.56768321e-003,
          -1.82537781e-003, 1.51599129e-003, 8.60378961e-004,
          -4.67206963e-004, 6.48663903e-004, 3.13706347e-003 ]
   decision_functions:
      -
         sv_count: 1
         rho: -1.6514348142410099e-001
         alpha: [ 1. ]
         index: [ 0 ]
