%YAML:1.0
my_svm: !!opencv-ml-svm
   svm_type: C_SVC
   kernel: { type:LINEAR }
   C: 1.
   term_criteria: { epsilon:2.2204460492503131e-016, iterations:100 }
   var_all: 30
   var_count: 30
   class_count: 2
   class_labels: !!opencv-matrix
      rows: 1
      cols: 2
      dt: i
      data: [ 0, 1 ]
   sv_total: 1
   support_vectors:
      - [ -9.87275038e-003, 4.47515491e-003, 3.21152649e-004,
          4.23386879e-003, -7.43031211e-004, 3.38078156e-004,
          -1.13826699e-003, -3.58058955e-004, 9.95540177e-004,
          1.76529237e-003, 1.63079018e-003, 8.81327607e-004,
          -3.77104996e-004, -6.40236482e-004, 8.00727692e-004,
          -6.17395737e-004, -7.74795481e-005, -3.15192556e-005,
          -8.39884393e-004, 1.04733999e-003, -4.44271223e-004,
          -8.19812194e-005, 3.39151302e-005, -3.07300593e-006,
          -5.06305914e-005, -1.11205363e-005, -1.08872464e-005,
          -2.59316366e-005, 2.07431385e-005, -3.22722271e-003 ]
   decision_functions:
      -
         sv_count: 1
         rho: -8.9022444725035721e-001
         alpha: [ 1. ]
         index: [ 0 ]
