%YAML:1.0
my_svm: !!opencv-ml-svm
   svm_type: C_SVC
   kernel: { type:LINEAR }
   C: 1.
   term_criteria: { epsilon:2.2204460492503131e-016, iterations:100 }
   var_all: 128
   var_count: 128
   class_count: 2
   class_labels: !!opencv-matrix
      rows: 1
      cols: 2
      dt: i
      data: [ 0, 1 ]
   sv_total: 1
   support_vectors:
      - [ 1.49904925e-003, -7.78168021e-003, 8.80129955e-005,
          1.08978478e-002, -8.79457453e-004, 2.35634670e-002,
          -4.90059610e-003, 1.02026276e-002, 4.16928111e-003,
          -2.86543975e-003, -1.65192783e-003, 5.91635890e-003,
          4.50778054e-003, -2.10972154e-004, -4.83437255e-003,
          6.00309111e-004, -2.19411589e-003, -2.19652872e-003,
          3.78115685e-003, 5.65063860e-003, -3.49650974e-003,
          7.13863363e-003, 5.64576592e-003, 7.98874826e-004,
          1.96050038e-003, -1.47801428e-003, -4.84113069e-003,
          2.35131872e-003, -1.57779257e-004, 2.63419643e-004,
          2.16790196e-003, 3.70943150e-003, 1.80406182e-003,
          1.44109759e-003, -1.57838024e-003, -4.77711530e-003,
          2.38308543e-003, -2.29436345e-003, -3.24403797e-003,
          -1.76230271e-003, -1.17245980e-003, -7.62886310e-004,
          -3.05365073e-003, -3.88223771e-003, -7.54740415e-003,
          -8.37294385e-003, 3.76958679e-003, 2.20021675e-003,
          6.03434630e-003, -1.12797124e-002, 5.28332731e-003,
          8.15136544e-003, -5.24907664e-004, -3.92757636e-003,
          -9.69713146e-004, -4.41772304e-003, 1.91489293e-003,
          1.67575304e-003, -1.34636706e-003, -2.80087069e-003,
          2.73045152e-003, 5.30867139e-003, 6.08118658e-004,
          -2.71512452e-003, -4.64300020e-003, 1.61166233e-003,
          -2.11932766e-003, -1.02006318e-003, 2.53444840e-003,
          1.91254099e-003, -4.76116734e-003, -5.34367701e-003,
          -1.91140361e-003, 2.14499465e-004, -1.15734013e-003,
          -2.01128400e-003, -3.88831075e-004, 3.13874567e-004,
          1.14634132e-003, 1.76411727e-003, -5.37553977e-004,
          -7.96004664e-004, -1.67540123e-003, -3.66094086e-004,
          -8.39518732e-004, 9.86592029e-004, -6.59768761e-004,
          4.58889757e-004, -1.71947025e-003, -1.38309924e-003,
          2.04293453e-003, 1.37839757e-003, 7.21864126e-005,
          5.57484047e-004, 1.18693535e-003, 8.88269569e-004,
          -9.97096882e-004, -3.58897756e-004, 9.02754895e-004,
          -3.55843251e-004, 2.70209333e-004, -8.11281730e-004,
          8.17002583e-005, 3.51189519e-004, 4.64105775e-004,
          2.44638475e-004, 5.36671869e-005, 2.32665610e-004,
          -1.37281997e-004, 5.27688186e-004, -7.12799549e-004,
          -3.11011361e-004, 2.37534710e-004, -4.63869306e-004,
          -3.78165336e-004, 1.47214640e-004, -2.16583518e-004,
          -5.00998831e-005, 2.83951114e-004, 1.99759834e-005,
          -1.91510655e-004, 2.20711838e-004, -3.18719940e-005,
          1.66029262e-004, 1.19849035e-004, 1.30991582e-004,
          2.48724769e-004, 3.17460479e-004 ]
   decision_functions:
      -
         sv_count: 1
         rho: -2.1272022574424587e-001
         alpha: [ 1. ]
         index: [ 0 ]
