%YAML:1.0
my_svm: !!opencv-ml-svm
   svm_type: C_SVC
   kernel: { type:LINEAR }
   C: 1.
   term_criteria: { epsilon:2.2204460492503131e-016, iterations:100 }
   var_all: 128
   var_count: 128
   class_count: 2
   class_labels: !!opencv-matrix
      rows: 1
      cols: 2
      dt: i
      data: [ 0, 1 ]
   sv_total: 1
   support_vectors:
      - [ -1.72719813e-003, -7.45241903e-003, 3.39613575e-003,
          9.62893653e-004, 7.92338978e-003, -4.03287029e-003,
          -1.54578593e-002, 1.91413201e-002, -5.88269730e-004,
          5.66271367e-003, 3.30724521e-003, -2.33599893e-003,
          -3.46265570e-003, -2.51279678e-003, 1.90739927e-003,
          -2.37077870e-003, -3.80686345e-003, -3.46146734e-003,
          2.48598191e-003, 5.48178656e-003, -5.34037710e-004,
          6.06402289e-003, 3.06597492e-003, 5.40947961e-003,
          -4.77117999e-003, 6.96473615e-003, 1.61476724e-003,
          7.69885606e-004, 2.07131496e-004, -6.82716584e-003,
          3.96186626e-003, -1.23583281e-003, 1.83303855e-005,
          -1.01240212e-003, -1.01452973e-002, 2.91013595e-004,
          -9.83763020e-004, 5.06854849e-004, 6.81892550e-003,
          4.90643608e-004, -4.12370078e-003, -1.01007111e-002,
          -6.55562180e-005, -7.40697549e-004, -4.75976121e-004,
          -2.35150661e-003, -5.52064693e-003, 1.33343122e-003,
          -2.97349994e-003, -3.45591805e-003, 5.42272767e-003,
          -1.20021577e-003, -2.92460574e-003, 1.55227294e-003,
          -2.42627854e-003, 3.93621810e-003, 6.29656669e-003,
          -2.15394903e-004, 3.81124648e-003, 4.36287373e-003,
          -1.72888744e-004, -4.84315155e-004, -7.96122570e-003,
          -2.19215173e-003, 5.89421950e-003, -5.00248221e-004,
          -6.81411056e-003, -5.17942943e-003, 6.95993798e-003,
          1.22637092e-003, -1.05051207e-003, 5.53693622e-003,
          2.01272778e-003, -3.28674866e-003, 2.29144190e-003,
          1.45311322e-004, -5.11447841e-004, -1.79545756e-003,
          -2.21718056e-003, 1.95928197e-003, 4.08937549e-003,
          -1.50561123e-003, -1.08360581e-003, -5.03268652e-003,
          1.69207086e-003, -1.53936876e-003, -1.37338182e-003,
          -5.58216940e-004, 6.51166250e-004, -9.81583493e-004,
          2.68466049e-003, 1.51793620e-005, 3.17489437e-004,
          -4.05215047e-004, 3.55857774e-003, 1.38546689e-003,
          1.38770486e-003, 6.28531780e-005, 1.91346998e-003,
          -1.10772089e-003, -2.19437853e-003, 7.80903094e-004,
          6.44192740e-004, -2.10163905e-003, -8.52103985e-004,
          -1.96805014e-003, -1.85683963e-003, -1.29118259e-003,
          1.73296983e-004, -4.59660165e-004, -6.01999287e-004,
          5.97532722e-004, 1.31909130e-003, 7.62014883e-004,
          -7.64623459e-004, 7.71942432e-004, -2.88547802e-004,
          -4.83466254e-004, -6.57735043e-004, 1.90636070e-004,
          -5.61971683e-004, -1.03127863e-003, -4.97010362e-004,
          1.64671146e-005, 2.34433814e-004, 4.53364701e-005,
          3.58608551e-004, 6.89080276e-004 ]
   decision_functions:
      -
         sv_count: 1
         rho: -4.9748016841358095e-001
         alpha: [ 1. ]
         index: [ 0 ]
