%YAML:1.0
my_svm: !!opencv-ml-svm
   svm_type: C_SVC
   kernel: { type:LINEAR }
   C: 1.0000000000000001e-001
   term_criteria: { epsilon:2.2204460492503131e-016, iterations:100 }
   var_all: 30
   var_count: 30
   class_count: 2
   class_labels: !!opencv-matrix
      rows: 1
      cols: 2
      dt: i
      data: [ 0, 1 ]
   sv_total: 1
   support_vectors:
      - [ 5.26655094e-005, 0., 0., 0., 0., 1.40129846e-045,
          1.40129846e-045, 1.40129846e-045, 1.40129846e-045,
          1.40129846e-045, 1.40129846e-045, 1.40129846e-045,
          1.40129846e-045, 0., 0., 0., 0., 0., 0., 0., 0., 0., 0., 0.,
          0., 0., 0., 0., 0., 0. ]
   decision_functions:
      -
         sv_count: 1
         rho: -6.6110760192546145e+000
         alpha: [ 1. ]
         index: [ 0 ]
