%YAML:1.0
my_svm: !!opencv-ml-svm
   svm_type: C_SVC
   kernel: { type:LINEAR }
   C: 1.
   term_criteria: { epsilon:2.2204460492503131e-016, iterations:100 }
   var_all: 128
   var_count: 128
   class_count: 2
   class_labels: !!opencv-matrix
      rows: 1
      cols: 2
      dt: i
      data: [ 0, 1 ]
   sv_total: 1
   support_vectors:
      - [ -1.45041122e-004, -5.11210598e-003, -8.80938955e-004,
          1.28622726e-002, -2.43407907e-003, 2.30735093e-002,
          4.96178446e-003, 9.90323070e-003, 3.88783985e-003,
          -3.42031871e-003, -2.72006844e-003, 4.33261879e-003,
          -1.92435493e-003, -3.93406721e-003, 6.96768329e-005,
          -3.40402080e-003, 4.19129152e-003, 1.05626485e-003,
          3.27885291e-003, -2.56450148e-003, 9.72754846e-004,
          -7.97226373e-003, 4.34136530e-003, -2.52348161e-003,
          -1.18532847e-003, -3.00124660e-003, -9.87097807e-003,
          -8.19679408e-005, -2.87171057e-003, -2.87454342e-003,
          2.28969569e-004, 4.49548149e-003, -7.36676680e-004,
          2.31606467e-003, -4.14486043e-004, 4.48839925e-003,
          -9.54972231e-004, 2.39370958e-004, 6.85711624e-003,
          7.76057772e-004, 4.39591589e-004, 3.62366275e-003,
          2.61425250e-003, 1.22874153e-005, 1.02095222e-002,
          1.68735255e-003, -6.22285623e-003, 4.09002323e-003,
          7.21702632e-003, 2.64878175e-003, 6.42597815e-003,
          -1.41508486e-002, 3.08398250e-003, 2.56325258e-003,
          -6.22728141e-003, -1.74740341e-003, 4.68939496e-003,
          -6.86622108e-004, 1.76220899e-003, 5.77761966e-004,
          -6.41636376e-004, 2.96649453e-003, -4.25722636e-003,
          1.99457002e-003, -1.48511049e-003, -3.09792790e-003,
          2.26945034e-003, 2.79431394e-003, -2.83886748e-003,
          2.12038239e-003, -7.22187047e-004, 3.21350642e-003,
          5.19469474e-003, -2.64484389e-003, 1.98332546e-003,
          -3.22375767e-004, 1.16034620e-003, -1.95781002e-003,
          -5.53525926e-004, -1.77960501e-005, -1.29015732e-003,
          -3.80137796e-003, -1.24183448e-003, -1.73927358e-004,
          1.60254224e-003, -9.97457071e-004, -1.40535587e-003,
          -7.85064767e-005, 3.45695677e-004, -1.54505286e-003,
          -9.91011038e-004, 4.77671594e-004, 7.92323146e-004,
          -4.36887203e-004, 7.97519111e-004, 1.58482278e-003,
          4.24993923e-005, 5.63210342e-004, -1.23783888e-003,
          -2.82938621e-004, 2.94056081e-004, -2.83208035e-004,
          1.33676340e-005, -6.42062747e-004, 4.48424340e-004,
          -2.51455203e-004, -7.79159076e-004, 6.55134674e-004,
          6.85798977e-006, 7.10605294e-004, 2.65380193e-004,
          4.08424443e-004, 2.14890504e-004, 2.00134105e-004,
          1.44339429e-004, -3.39727820e-004, -5.38247346e-004,
          -2.70883793e-005, 9.72279086e-005, -1.74110814e-004,
          -3.96421063e-004, -3.14664008e-004, 1.33721842e-004,
          9.79673496e-005, 5.66121817e-005, 3.63025611e-004,
          -1.32199159e-004, 1.78162678e-004 ]
   decision_functions:
      -
         sv_count: 1
         rho: -2.6731747117328009e-001
         alpha: [ 1. ]
         index: [ 0 ]
