%YAML:1.0
my_svm: !!opencv-ml-svm
   svm_type: C_SVC
   kernel: { type:LINEAR }
   C: 1.
   term_criteria: { epsilon:2.2204460492503131e-016, iterations:100 }
   var_all: 60
   var_count: 60
   class_count: 2
   class_labels: !!opencv-matrix
      rows: 1
      cols: 2
      dt: i
      data: [ 0, 1 ]
   sv_total: 1
   support_vectors:
      - [ 8.71548196e-004, -4.72798711e-003, 2.34469655e-003,
          -2.04630385e-004, 7.73857639e-004, 5.37556363e-004,
          -2.46546697e-003, 1.25932356e-003, -4.23307560e-004,
          2.19511194e-003, -4.50166481e-005, -5.81882603e-004,
          -6.70360751e-004, -7.77662150e-004, -8.77181010e-004,
          -3.44987238e-005, 5.46741765e-004, -1.17210962e-003,
          -1.21778483e-003, 1.64133112e-003, 1.52459543e-003,
          -7.50462874e-004, 2.04639928e-003, -8.26934760e-004,
          2.15004035e-003, 1.22566358e-003, 1.76430296e-003,
          2.46555195e-003, -5.26869080e-005, 2.82409810e-003,
          6.09933224e-004, 3.82259139e-003, -2.73273636e-005,
          -2.87735509e-003, 2.34357500e-003, -2.27780570e-003,
          1.64235523e-003, 3.63829604e-004, 1.24693383e-003,
          -1.74956990e-003, 4.79740975e-003, -3.52219236e-003,
          9.25868924e-004, 1.89896417e-003, 2.92107370e-003,
          4.31425823e-003, -1.96483103e-003, -2.60028173e-003,
          1.02875079e-003, -7.76558416e-004, 2.49512075e-003,
          -1.05600676e-003, 1.36598479e-003, -1.70305965e-003,
          -3.34324175e-003, -2.70086247e-003, 7.47493003e-004,
          2.51127291e-003, 2.80226534e-003, -3.64117464e-003 ]
   decision_functions:
      -
         sv_count: 1
         rho: 5.8932740787636655e-002
         alpha: [ 1. ]
         index: [ 0 ]
