%YAML:1.0
my_svm: !!opencv-ml-svm
   svm_type: C_SVC
   kernel: { type:LINEAR }
   C: 1.
   term_criteria: { epsilon:2.2204460492503131e-016, iterations:100 }
   var_all: 128
   var_count: 128
   class_count: 2
   class_labels: !!opencv-matrix
      rows: 1
      cols: 2
      dt: i
      data: [ 0, 1 ]
   sv_total: 1
   support_vectors:
      - [ -1.23934602e-004, 5.83266839e-004, 1.13816035e-003,
          -5.97108083e-005, -1.65578487e-004, 6.19749189e-004,
          9.08362563e-004, -3.63584812e-004, 3.92981077e-004,
          9.10337898e-004, 6.01366570e-004, 2.48649914e-004,
          9.58893273e-004, 1.27389876e-003, -7.56477995e-004,
          -2.87302071e-004, 3.52060524e-005, -8.02444760e-004,
          -2.06680479e-003, -3.25774890e-004, 2.46257847e-003,
          4.31543496e-003, -3.60718602e-003, -1.46434846e-004,
          1.15461973e-003, 3.30072944e-005, -6.40082813e-004,
          -1.10192143e-003, -2.92403769e-004, -4.47329745e-004,
          -6.55738357e-003, 3.83787020e-003, 1.22733857e-003,
          6.79048186e-004, 1.10622519e-003, 1.54461665e-003,
          1.08635076e-003, 2.15103501e-003, 1.93927810e-003,
          8.05320626e-004, 1.28703332e-003, 1.73524092e-003,
          -1.87068456e-003, -1.13757851e-003, 9.96086281e-004,
          1.57765008e-003, -7.45311205e-004, -7.14644906e-004,
          -3.25163314e-003, -1.10029115e-003, -1.78533152e-003,
          -1.72276038e-003, -7.96141685e-004, 5.99126273e-004,
          1.51728326e-003, -1.24156463e-003, -2.43678442e-004,
          -1.99624547e-003, -1.75516098e-003, 1.39684955e-004,
          -2.66205962e-003, -5.95658785e-004, 5.70549688e-004,
          1.51208416e-003, 2.67348427e-004, -1.56568130e-003,
          6.21705083e-004, 1.22343097e-003, -8.15103354e-004,
          -5.42495924e-004, 3.37035854e-005, 4.68792947e-004,
          -4.66563593e-004, -1.26150844e-003, -7.72583939e-004,
          -6.92779955e-004, -3.81598011e-006, 1.04619619e-004,
          1.90337596e-003, -1.00942084e-003, -1.22034620e-003,
          -9.46324435e-004, -2.79103522e-004, -1.23102264e-003,
          1.07381016e-003, -2.04608147e-003, 1.49946962e-003,
          -3.31971678e-003, 8.35763174e-004, -8.40508801e-006,
          -5.47572636e-005, 4.66475438e-004, -2.01352593e-003,
          5.25910491e-006, -1.04435392e-004, -8.01082060e-004,
          1.93333151e-004, -7.58904847e-004, 2.89076008e-004,
          4.46656748e-004, -3.39385122e-004, -4.77441761e-004,
          -7.48102320e-005, 4.08604275e-004, 1.73788855e-003,
          1.28058949e-003, 2.97076942e-004, 2.04643141e-003,
          4.04229271e-004, 1.27433159e-005, 3.95558949e-004,
          -1.82756892e-004, -2.15418491e-004, 8.12408223e-004,
          9.17785801e-005, 3.20415734e-003, 2.08854396e-003,
          4.85334749e-004, 9.35728953e-004, -6.48138666e-005,
          7.04271486e-004, 3.14806448e-003, 6.37159683e-004,
          3.30116483e-004, -6.55459764e-004, 1.16039056e-003,
          8.78852385e-004, -3.64548381e-004 ]
   decision_functions:
      -
         sv_count: 1
         rho: -8.7368067121720416e-001
         alpha: [ 1. ]
         index: [ 0 ]
