%YAML:1.0
my_svm: !!opencv-ml-svm
   svm_type: C_SVC
   kernel: { type:LINEAR }
   C: 1.
   term_criteria: { epsilon:2.2204460492503131e-016, iterations:100 }
   var_all: 128
   var_count: 128
   class_count: 2
   class_labels: !!opencv-matrix
      rows: 1
      cols: 2
      dt: i
      data: [ 0, 1 ]
   sv_total: 1
   support_vectors:
      - [ -7.80431437e-004, 7.17536360e-003, 6.63287705e-003,
          7.99811725e-003, -7.52506824e-003, -3.16532399e-003,
          1.54079928e-004, -6.64042262e-003, -9.41596646e-003,
          4.51501179e-003, 4.31647059e-003, -9.30027384e-003,
          3.25224269e-003, 4.15214105e-003, 4.16926481e-003,
          3.20189749e-003, 2.11956608e-003, -1.03164127e-003,
          1.19262910e-003, -9.11932846e-004, 6.99775899e-003,
          6.37020310e-003, -7.56539288e-004, -1.81298034e-004,
          -9.36145545e-004, -3.02369799e-003, -2.38714390e-003,
          3.64802807e-004, -1.88165996e-003, -4.16181330e-003,
          -1.33249396e-003, -2.70244520e-004, -1.55224663e-003,
          1.58620896e-004, 1.09724328e-003, -1.31547812e-003,
          -1.89944054e-003, 2.08812999e-003, 4.29952452e-005,
          2.25325511e-003, 1.65045820e-003, 1.78433408e-003,
          -1.43184641e-003, 9.50623886e-004, -1.25382096e-003,
          -6.51013979e-005, -1.78235315e-003, 2.00189534e-003,
          1.89779303e-003, 7.43741912e-005, -1.37563469e-003,
          -1.21565943e-003, 5.62296598e-004, 1.18736608e-003,
          1.32888346e-003, 1.76670321e-003, -4.93883563e-004,
          -4.93830827e-004, 7.50857929e-004, 1.27004192e-003,
          1.04029350e-004, -1.47109758e-003, -4.04819701e-004,
          -1.00986543e-003, -4.21568955e-004, 1.00131822e-003,
          6.09318668e-004, -2.84192269e-004, 6.03760345e-005,
          7.71046849e-004, 1.02638372e-003, 1.12829485e-003,
          -8.82750610e-004, 3.99938290e-004, -1.16689317e-003,
          2.98344567e-005, 9.02312924e-004, 1.01338758e-003,
          2.17315610e-004, -1.22481622e-004, -3.79734498e-004,
          4.24993254e-004, 1.15213792e-004, 1.00674783e-003,
          -2.04073640e-005, 4.06488194e-004, 8.00317852e-004,
          -2.45627540e-004, -3.51410126e-004, -5.48685319e-004,
          -1.28052270e-004, -6.87760417e-004, -1.75197609e-004,
          5.16619824e-004, -3.74549476e-004, 1.58574083e-004,
          -6.63196668e-004, 5.70979144e-004, -3.36927420e-004,
          2.38905763e-004, -1.07058237e-004, 3.59968428e-004,
          -1.74455796e-004, 3.45042761e-004, 4.93436877e-004,
          -7.62430500e-005, -1.87854399e-004, -8.71745797e-005,
          -3.97689815e-004, -2.76745617e-004, 1.30424218e-004,
          -3.84928542e-004, 2.14692613e-004, -1.47651037e-004,
          -2.62468646e-004, 1.11214191e-004, -2.42214737e-004,
          -1.00104087e-004, -1.81794938e-004, 2.65128037e-004,
          7.16933937e-005, 9.85825682e-005, -1.78947826e-004,
          -9.20027469e-006, 8.34747916e-005, 8.68418065e-005,
          -8.29500568e-005, -7.39285970e-005 ]
   decision_functions:
      -
         sv_count: 1
         rho: -1.1280210074414427e+000
         alpha: [ 1. ]
         index: [ 0 ]
