%YAML:1.0
my_svm: !!opencv-ml-svm
   svm_type: C_SVC
   kernel: { type:LINEAR }
   C: 1.
   term_criteria: { epsilon:2.2204460492503131e-016, iterations:100 }
   var_all: 30
   var_count: 30
   class_count: 2
   class_labels: !!opencv-matrix
      rows: 1
      cols: 2
      dt: i
      data: [ 0, 1 ]
   sv_total: 1
   support_vectors:
      - [ 3.34943365e-003, -1.48887541e-002, -1.05335480e-002,
          3.53539083e-003, -3.04820319e-003, 1.15327910e-003,
          4.26520919e-003, 3.04130232e-003, -1.99343404e-003,
          -1.73334347e-003, 5.12754137e-004, 2.11513182e-003,
          -2.52407299e-005, 1.67385698e-003, -1.29405037e-003,
          -4.05398110e-004, 1.87144708e-003, -4.31363384e-004,
          5.72102203e-004, -3.73837742e-004, -4.76895628e-004,
          7.49297440e-004, 9.16351128e-005, 7.60035065e-004,
          -6.36477256e-004, -1.14407267e-004, 2.97804567e-004,
          2.13161344e-004, -2.84012465e-004, 2.86063529e-003 ]
   decision_functions:
      -
         sv_count: 1
         rho: -1.1754850967665116e-001
         alpha: [ 1. ]
         index: [ 0 ]
