%YAML:1.0
my_svm: !!opencv-ml-svm
   svm_type: C_SVC
   kernel: { type:LINEAR }
   C: 1.
   term_criteria: { epsilon:2.2204460492503131e-16, iterations:100 }
   var_all: 10
   var_count: 10
   class_count: 2
   class_labels: !!opencv-matrix
      rows: 1
      cols: 2
      dt: i
      data: [ 0, 1 ]
   sv_total: 1
   support_vectors:
      - [ 2.56689568e-03, -3.33374226e-03, -1.78525297e-04,
          -1.09553174e-03, -4.21238923e-03, 1.69717183e-03,
          -2.29311665e-03, -2.97867018e-03, 7.53307249e-04,
          -1.53295707e-03 ]
   decision_functions:
      -
         sv_count: 1
         rho: -2.7857773719133762e-02
         alpha: [ 1. ]
         index: [ 0 ]
