%YAML:1.0
my_svm: !!opencv-ml-svm
   svm_type: C_SVC
   kernel: { type:LINEAR }
   C: 1.
   term_criteria: { epsilon:2.2204460492503131e-016, iterations:100 }
   var_all: 128
   var_count: 128
   class_count: 2
   class_labels: !!opencv-matrix
      rows: 1
      cols: 2
      dt: i
      data: [ 0, 1 ]
   sv_total: 1
   support_vectors:
      - [ 5.79179905e-004, -3.13589844e-004, -5.21937013e-003,
          -1.93596128e-002, 7.49360397e-003, -1.80414021e-002,
          -2.60712090e-003, -6.79978402e-004, 3.97088705e-003,
          -3.73017928e-003, -7.92888313e-005, 3.44851112e-004,
          -1.53240387e-003, 8.04633554e-003, 1.98731621e-004,
          6.08073594e-003, -1.02242315e-003, 2.98243889e-004,
          -6.50421157e-003, 1.22437999e-003, -5.08582033e-003,
          6.79356884e-003, 9.66213061e-004, 4.69629141e-003,
          -1.33281737e-003, 3.09190713e-003, 8.54695030e-003,
          -2.04603397e-003, -1.13732123e-003, 4.08961065e-003,
          2.16935226e-003, 3.78774246e-003, -2.38755718e-003,
          2.33028992e-003, 5.33898245e-004, -9.70230158e-003,
          7.24689860e-004, -2.34558087e-004, -3.29636736e-003,
          3.39008802e-005, 2.14105356e-003, 1.43559068e-003,
          -8.65403563e-004, -4.57366975e-003, -7.46783474e-003,
          -9.19959333e-004, 6.57622982e-003, -4.03945660e-003,
          -5.40543580e-003, -8.82604683e-004, -7.37889903e-003,
          1.21904993e-002, -4.28041304e-003, -3.89285502e-003,
          5.10162394e-003, -1.60563854e-004, -1.75060239e-003,
          1.22585031e-003, -1.81348796e-003, -3.93943221e-004,
          1.30438863e-003, -2.17727874e-003, 2.11181748e-003,
          -2.42124102e-003, 1.46059308e-003, 3.85241630e-003,
          -1.14366715e-003, -2.06913217e-003, 1.73986109e-003,
          -2.77843978e-003, 1.61815202e-004, -9.03923938e-004,
          -4.67488589e-003, 1.64990698e-003, -1.47783838e-003,
          -1.30084821e-003, -1.64934550e-004, 2.18783738e-003,
          -4.18253796e-004, 1.07217091e-003, 1.37041602e-003,
          2.44086469e-003, 8.86853726e-004, -8.32638034e-005,
          -1.38222473e-003, 1.33630552e-003, 1.95205997e-004,
          4.47420869e-004, -4.56982205e-004, 1.70122867e-003,
          4.60663170e-004, -9.39089514e-004, -1.29536632e-003,
          1.45868713e-003, -7.50583888e-004, -1.83227810e-003,
          -2.75745959e-004, -6.91213878e-004, 8.88711074e-004,
          -9.52443734e-005, 4.51633066e-004, 5.65007853e-004,
          4.92269057e-004, 3.57940211e-004, -1.49699976e-004,
          1.99346265e-004, 7.12291629e-004, -3.34242126e-004,
          1.14659852e-004, -6.46584202e-004, -2.99082429e-004,
          -2.47336196e-004, -9.43514169e-005, 1.11306050e-004,
          1.93283238e-004, -1.85665151e-004, 6.94256625e-004,
          1.80052757e-005, 1.27430627e-004, 2.96603714e-004,
          4.55977337e-004, 8.41730580e-005, -8.63665555e-005,
          -1.27951411e-004, 2.74584163e-005, -2.48819088e-005,
          3.63131835e-006, -5.00482156e-006 ]
   decision_functions:
      -
         sv_count: 1
         rho: 6.7670549553921757e-003
         alpha: [ 1. ]
         index: [ 0 ]
