%YAML:1.0
my_svm: !!opencv-ml-svm
   svm_type: C_SVC
   kernel: { type:LINEAR }
   C: 1.0000000000000001e-001
   term_criteria: { epsilon:2.2204460492503131e-016, iterations:100 }
   var_all: 30
   var_count: 30
   class_count: 2
   class_labels: !!opencv-matrix
      rows: 1
      cols: 2
      dt: i
      data: [ 0, 1 ]
   sv_total: 1
   support_vectors:
      - [ -1.03322293e-006, 7.99776899e-007, 6.56195482e-007,
          -4.19146232e-007, 6.90444608e-007, 9.00615362e-007,
          -3.52580429e-007, 6.85951363e-007, 3.33041498e-007,
          1.94540507e-006, 1.41447117e-007, 1.02944102e-006,
          -1.46661512e-006, 2.24888041e-007, 5.96237612e-007,
          3.69611229e-007, 6.13906593e-007, -5.30032651e-007,
          -2.80842386e-007, -5.76349464e-007, -1.10290466e-009,
          6.93130531e-008, 8.41870133e-007, 6.05633318e-007,
          -4.65380936e-007, -8.18922388e-008, 4.43520804e-007,
          9.38026687e-008, 6.39493635e-007, -2.21850485e-007 ]
   decision_functions:
      -
         sv_count: 1
         rho: -4.8792167557120497e-001
         alpha: [ 1. ]
         index: [ 0 ]
