%YAML:1.0
my_svm: !!opencv-ml-svm
   svm_type: C_SVC
   kernel: { type:LINEAR }
   C: 5.0000000000000000e-001
   term_criteria: { epsilon:2.2204460492503131e-016, iterations:100 }
   var_all: 60
   var_count: 60
   class_count: 2
   class_labels: !!opencv-matrix
      rows: 1
      cols: 2
      dt: i
      data: [ 0, 1 ]
   sv_total: 1
   support_vectors:
      - [ 3.45738907e-003, -6.66270498e-004, -1.72405632e-003,
          -1.43847580e-003, -1.38743583e-003, -1.48920470e-003,
          2.60794256e-003, -7.00349547e-003, -3.01837665e-003,
          2.22212658e-003, -1.49491837e-003, 3.84747342e-004,
          1.20838176e-005, 8.83454268e-005, -4.36021853e-003,
          -1.35710661e-003, 6.15953375e-003, -4.59698355e-003,
          1.69751889e-004, -9.46428510e-004, -2.48629646e-003,
          -1.57040532e-003, 3.04888468e-003, 7.08447129e-004,
          -6.23018527e-003, 1.46491942e-003, -2.07237536e-004,
          -6.35329122e-003, 6.64487621e-003, 5.17115463e-003,
          -1.82155368e-003, -1.49310520e-003, -3.67290690e-004,
          -2.74115521e-003, -6.07597781e-003, -2.60560587e-003,
          2.11482766e-004, -4.49846219e-003, -5.22966636e-003,
          -2.47238996e-003, 3.49160656e-003, 2.48552742e-003,
          5.82153327e-004, -4.01705690e-003, -4.67116339e-003,
          1.41734653e-003, -1.10667327e-003, 5.32697374e-003,
          1.64525500e-005, -3.40152823e-004, 2.26065703e-003,
          -5.57126990e-003, 4.38355003e-003, -4.98349685e-003,
          -9.40122234e-004, 1.75613537e-003, -2.71762488e-003,
          2.00389739e-004, -1.94348861e-003, -2.49419175e-003 ]
   decision_functions:
      -
         sv_count: 1
         rho: 1.9973763360948693e-001
         alpha: [ 1. ]
         index: [ 0 ]
