%YAML:1.0
my_svm: !!opencv-ml-svm
   svm_type: C_SVC
   kernel: { type:LINEAR }
   C: 1.
   term_criteria: { epsilon:2.2204460492503131e-016, iterations:100 }
   var_all: 128
   var_count: 128
   class_count: 2
   class_labels: !!opencv-matrix
      rows: 1
      cols: 2
      dt: i
      data: [ 0, 1 ]
   sv_total: 1
   support_vectors:
      - [ -2.84289621e-004, -3.59813625e-004, -3.36616323e-003,
          -2.27173325e-003, -3.11666261e-003, -4.33718204e-004,
          -2.51736399e-003, -2.86432682e-004, -7.64801865e-004,
          1.09257502e-003, -3.19940993e-003, -3.23532382e-003,
          -5.18290792e-004, 1.79805188e-003, 1.30230398e-003,
          -4.82781528e-004, -6.55619369e-004, -2.53300241e-004,
          -2.47327634e-003, 4.39826516e-004, 7.58743263e-004,
          -6.23672793e-004, 3.54442559e-003, -2.10774550e-003,
          -6.76825759e-004, -1.71893812e-003, -2.96502630e-003,
          -1.11773123e-004, -1.92002219e-003, -1.74075493e-003,
          3.22239543e-003, 1.48661376e-003, -1.28705089e-003,
          4.73664986e-004, -1.33705861e-003, -4.49693203e-003,
          -4.03250335e-003, 8.20517656e-004, 5.91125354e-006,
          -1.84263766e-003, -2.02956749e-003, 1.79108803e-003,
          1.31547509e-003, 2.26413089e-004, -3.59326927e-003,
          -1.02378574e-004, 2.37719249e-003, -1.82881288e-003,
          -3.08467704e-003, -3.35932174e-003, 2.07941281e-003,
          2.41977032e-004, -2.71383277e-003, -2.18824251e-003,
          1.82479667e-003, -1.27586711e-003, -1.24059920e-003,
          4.61586096e-005, 6.65693777e-004, -1.82423613e-003,
          -2.83158547e-003, -2.87342141e-003, 1.04092096e-003,
          -1.41538901e-003, 5.33618266e-004, 1.03846297e-003,
          -4.20240176e-005, -1.88378594e-003, 6.39145088e-004,
          1.71558990e-003, -1.60834519e-004, -1.65396812e-003,
          -1.63549429e-003, 1.26918452e-003, -3.52598203e-004,
          1.46316213e-003, 1.23926159e-003, -3.84536543e-004,
          -7.76158937e-004, -2.91149691e-003, 2.53895065e-003,
          -2.35172469e-004, -1.81648415e-003, -3.48463235e-003,
          -1.62879034e-004, -2.09339475e-003, -2.40442296e-003,
          2.68033502e-004, -5.62002184e-004, -3.16624949e-003,
          -2.16826936e-003, -8.11620732e-004, 1.52743852e-003,
          -1.39228767e-003, -4.24464786e-004, -6.73786155e-004,
          1.50417420e-003, 1.08026410e-003, -5.95792662e-004,
          1.04039529e-004, 1.90586585e-003, 2.15306203e-003,
          2.93079735e-004, -9.60955629e-004, 5.35654253e-004,
          -2.55745137e-003, -1.26543269e-003, 1.62117451e-003,
          2.12899409e-003, -7.15242117e-004, -7.48912498e-005,
          2.20502564e-003, 2.31063925e-003, -3.57278273e-004,
          -4.80621494e-003, 1.58130040e-003, -4.00136720e-004,
          -4.89083724e-003, -6.32297248e-003, 1.57599268e-003,
          1.36455998e-003, 1.83651200e-003, -2.92647933e-003,
          -3.17322956e-005, 3.46165034e-003, 1.35220576e-003,
          -1.76720042e-003, 3.65443877e-004 ]
   decision_functions:
      -
         sv_count: 1
         rho: -3.3135635831202763e+000
         alpha: [ 1. ]
         index: [ 0 ]
