%YAML:1.0
my_svm: !!opencv-ml-svm
   svm_type: C_SVC
   kernel: { type:LINEAR }
   C: 1.
   term_criteria: { epsilon:2.2204460492503131e-016, iterations:100 }
   var_all: 60
   var_count: 60
   class_count: 2
   class_labels: !!opencv-matrix
      rows: 1
      cols: 2
      dt: i
      data: [ 0, 1 ]
   sv_total: 1
   support_vectors:
      - [ -2.17377348e-003, 2.91188154e-003, -2.66119628e-003,
          -3.66074289e-003, -6.72748638e-003, -1.10626605e-003,
          1.83628930e-003, 9.44159576e-004, -8.58729240e-004,
          -2.27004984e-005, -5.92248468e-003, -1.60237297e-003,
          -3.48165544e-004, -3.51463049e-003, 1.98410032e-003,
          2.19187397e-003, -2.27446575e-003, -5.80504478e-004,
          -3.70607921e-003, -3.56553867e-003, 5.20724198e-003,
          -1.14361860e-003, 1.05235574e-003, 1.00023311e-003,
          2.94210226e-003, -5.29597839e-003, -2.62730964e-003,
          -1.81270775e-003, -3.03986482e-003, -2.80854548e-003,
          4.39118920e-003, 2.35478883e-003, 1.82652613e-003,
          4.17682342e-003, 1.08528044e-003, -6.54347765e-004,
          -8.32702592e-003, 2.35463306e-003, -4.20046551e-003,
          1.03474467e-003, -9.08810005e-004, -1.98131194e-003,
          -5.64498222e-003, 2.89791333e-003, -1.24191632e-003,
          1.23007514e-003, -1.25276588e-003, 4.93180938e-003,
          7.43291981e-004, 3.17449216e-003, 7.88721954e-004,
          -1.91430189e-003, -2.46244413e-003, 3.98349774e-004,
          6.00178028e-003, 4.26176982e-003, -5.01209230e-004,
          -6.66174921e-004, -8.71915184e-003, 6.64419902e-004 ]
   decision_functions:
      -
         sv_count: 1
         rho: -2.1919221347723480e-001
         alpha: [ 1. ]
         index: [ 0 ]
