%YAML:1.0
my_svm: !!opencv-ml-svm
   svm_type: C_SVC
   kernel: { type:LINEAR }
   C: 1.
   term_criteria: { epsilon:2.2204460492503131e-16, iterations:100 }
   var_all: 256
   var_count: 256
   class_count: 2
   class_labels: !!opencv-matrix
      rows: 1
      cols: 2
      dt: i
      data: [ 0, 1 ]
   sv_total: 1
   support_vectors:
      - [ 1.30187429e-03, 1.97498754e-04, -2.08276161e-03,
          -3.05277412e-03, 2.29948014e-03, -3.08987172e-03,
          -1.76628423e-03, -5.29781391e-04, 9.62556573e-04,
          1.98349007e-04, -2.25786632e-03, 2.50805123e-03,
          -2.01216899e-03, 1.39749306e-03, 6.06152520e-04,
          7.15877570e-04, -7.58083130e-04, 1.34669698e-03,
          -1.86289355e-04, -3.14850302e-04, -8.32676305e-04,
          1.38390122e-03, -4.26319515e-04, -1.22353129e-04,
          1.33818656e-04, 2.38941662e-04, 9.90834553e-04,
          -9.41808685e-04, -3.18217266e-04, 1.32686482e-03,
          3.62362596e-04, 7.15189846e-04, 4.12921479e-04, 1.91867730e-04,
          3.60495149e-04, -2.09281058e-03, -4.33480571e-04,
          -1.61770193e-04, 3.59196885e-04, 1.26558865e-04,
          1.27209642e-03, 5.07539429e-04, -2.84789450e-04,
          -5.04691852e-04, -8.85672052e-04, -7.36223941e-04,
          4.76770423e-04, -4.79725888e-04, -2.32627470e-04,
          7.40047690e-05, -4.48225415e-04, 9.35316377e-04,
          -2.35866799e-04, -4.18331969e-04, 4.72862797e-04,
          -5.15880471e-04, 2.21723545e-04, 1.13593815e-04,
          6.05549649e-05, -1.30813947e-04, 3.68088280e-04,
          -1.58980474e-04, -2.17371300e-04, -3.36196186e-04,
          5.24538627e-04, -6.72814844e-04, -1.54398463e-03,
          3.81307094e-04, -2.46606464e-03, -4.78041405e-03,
          -7.93835381e-04, 6.53589668e-04, 1.36038533e-03,
          3.26967536e-04, -1.68333168e-03, 2.39493814e-03,
          7.66527155e-05, -1.84275326e-04, -7.07253930e-04,
          -9.47318040e-04, -3.19927873e-04, 1.52147419e-04,
          -9.36345255e-04, -1.59759447e-03, -1.61760440e-03,
          -1.48317183e-03, -6.60750724e-04, 2.22255170e-04,
          1.42605859e-03, 6.39470643e-04, 1.76590052e-03,
          -1.29991921e-03, -4.24744532e-04, -6.31841656e-04,
          9.37077639e-05, -1.24032940e-05, -1.27055246e-04,
          1.69003836e-03, -6.75642514e-04, -8.48073905e-05,
          -3.44809727e-04, -8.39228887e-05, -6.32188458e-05,
          -4.31864784e-04, 1.10460271e-03, -6.56571297e-04,
          1.01479562e-03, 5.37968299e-04, -8.34171296e-05,
          -4.37481009e-04, -1.58441675e-04, 4.88406571e-04,
          4.55117028e-04, 4.07117623e-04, -8.11147183e-05,
          8.17016844e-05, -2.82707741e-04, -9.95968439e-05,
          5.76768245e-04, -2.78654537e-04, 3.07876820e-04,
          2.30722493e-04, 4.21963850e-05, -8.90429510e-05,
          -7.12331748e-05, 1.15266492e-04, 1.67935897e-04,
          -3.83419574e-05, 2.35423166e-03, 1.27681659e-03,
          9.33846168e-04, 3.32136289e-04, -8.50907178e-04,
          -7.73412976e-05, 1.11975265e-03, -6.85339328e-04,
          4.48531151e-04, -3.53327283e-04, -1.56284997e-03,
          4.30099957e-04, 1.77262863e-03, 1.02903228e-03,
          -1.76038034e-03, -5.67644194e-04, 1.58363400e-04,
          1.84690303e-04, -1.73797098e-03, -3.23489367e-04,
          -1.30398141e-03, -1.85667234e-03, 1.29729655e-04,
          2.10351520e-03, -2.42921896e-03, -3.39421560e-04,
          9.91978566e-04, 1.24818797e-03, 1.82462274e-03, 4.13268339e-04,
          -1.36504369e-03, 9.43877443e-04, -4.24786675e-04,
          6.51088252e-04, 1.85695928e-04, 7.75989683e-05,
          -3.04238219e-03, 1.27866064e-04, -4.73806285e-04,
          1.90585223e-03, 2.12579174e-03, -4.71581385e-04,
          1.25319450e-04, 2.80694384e-03, -8.62113957e-04,
          -1.23536063e-03, 4.21659322e-04, -6.78269775e-04,
          1.51846861e-03, 6.97692099e-04, -1.90059247e-03,
          2.08417326e-03, 2.45324452e-04, 1.17199798e-03, 1.85519655e-03,
          3.38228513e-03, -1.49555126e-05, -1.38008606e-03,
          1.20745285e-03, 2.04728357e-03, 5.02574025e-04,
          -3.55160737e-04, -2.68439576e-03, -2.83056870e-03, 0., 0., 0.,
          0., 0., 0., 0., 0., 0., 0., 0., 0., 0., 0., 0., 0., 0., 0., 0.,
          0., 0., 0., 0., 0., 0., 0., 0., 0., 0., 0., 0., 0., 0., 0., 0.,
          0., 0., 0., 0., 0., 0., 0., 0., 0., 0., 0., 0., 0., 0., 0., 0.,
          0., 0., 0., 0., 0., 0., 0., 0., 0., 0., 0., 0., 0. ]
   decision_functions:
      -
         sv_count: 1
         rho: -2.0348063075630442e-03
         alpha: [ 1. ]
         index: [ 0 ]
