%YAML:1.0
my_svm: !!opencv-ml-svm
   svm_type: C_SVC
   kernel: { type:LINEAR }
   C: 1.
   term_criteria: { epsilon:2.2204460492503131e-016, iterations:100 }
   var_all: 512
   var_count: 512
   class_count: 2
   class_labels: !!opencv-matrix
      rows: 1
      cols: 2
      dt: i
      data: [ 0, 1 ]
   sv_total: 1
   support_vectors:
      - [ -5.93393961e-005, 2.44068331e-004, -2.73582438e-004,
          2.26533995e-003, -1.02643215e-003, 1.57964556e-003,
          5.74037840e-004, -2.09929631e-003, -2.69454718e-003,
          4.13872069e-004, -3.26506823e-004, -1.71002978e-003,
          1.27276668e-004, 1.92693633e-003, 1.73560972e-003,
          1.23695529e-004, 1.20283823e-006, -8.90609736e-005,
          -5.94987301e-004, 4.10169043e-004, 9.54629213e-004,
          6.60872727e-004, -5.30272548e-004, 3.70831491e-004,
          7.39027222e-004, -1.07819971e-003, 8.93348537e-004,
          3.93181341e-004, 8.52060984e-005, -3.59209982e-004,
          -1.69207735e-004, -1.72687840e-004, -6.28789057e-005,
          -6.06059970e-004, -1.61764365e-005, -5.95659018e-004,
          3.63877160e-004, -2.75431259e-004, 7.09838874e-004,
          3.79428420e-005, 2.80321256e-004, 6.49622118e-004,
          2.10828905e-004, 4.77078029e-005, -1.08352513e-003,
          -5.48899581e-004, 5.97148464e-005, 1.94689819e-005,
          -8.57525010e-005, 4.47430320e-005, -1.03837614e-004,
          -8.41415313e-005, -2.34909443e-004, -9.64429273e-005,
          4.99102534e-005, -2.45606323e-004, 4.38484742e-004,
          8.96981419e-006, 4.78068869e-005, -1.36743809e-004,
          -7.08847365e-005, 6.45701366e-005, -1.67619786e-004,
          3.44497937e-004, 1.01007616e-004, 8.23056471e-005,
          -8.42525696e-005, 1.54069930e-004, 2.06001845e-004,
          -1.37970856e-004, 2.86857568e-004, -1.63387551e-004,
          -1.57610557e-004, 1.01143087e-005, -2.01131661e-005,
          1.33693524e-004, 2.72018569e-005, -2.13135980e-004,
          2.46968149e-004, 2.42754308e-004, -1.79594441e-004,
          -2.22617164e-005, 3.11498443e-005, 6.40084691e-005,
          3.31375923e-005, 6.54541582e-005, -8.78476421e-005,
          -4.88129517e-005, -1.77241100e-006, -7.55862930e-005,
          -2.35996358e-005, -1.47434344e-004, -1.44821694e-004,
          -5.22213268e-005, 7.33122724e-005, 3.25048131e-005,
          6.37535341e-005, 1.82640200e-004, 7.08262451e-005,
          -5.39453031e-005, -5.04744348e-005, 5.84002482e-005,
          -5.63031208e-005, -4.12763402e-005, -2.55865461e-006,
          -7.33244974e-007, 3.82545186e-005, 4.30476466e-005,
          -1.19886347e-004, -4.81398492e-005, -8.34911771e-005,
          -1.97837726e-005, 6.27128029e-005, -4.09035601e-005,
          -1.17066770e-006, -2.23541811e-005, -2.11621282e-005,
          3.94941781e-005, -2.50810281e-005, -4.45325350e-005,
          8.49030403e-005, 3.88158369e-005, -6.11087671e-006,
          -4.21801906e-006, -2.40628724e-005, -1.73431431e-006,
          3.30781622e-005, 3.84702398e-005, 9.40305064e-004,
          5.52836573e-004, -1.39641599e-003, -1.03516714e-003,
          -2.95759691e-003, -2.34650727e-003, -5.57851978e-004,
          1.47201901e-003, 1.35617261e-003, 4.83082520e-004,
          -1.02851089e-004, -5.76407416e-004, -1.91279943e-003,
          7.86951219e-004, -1.01536652e-003, -5.09348349e-004,
          4.07302141e-004, 5.91584540e-004, 2.04913304e-004,
          1.20378878e-004, -1.93739295e-004, 1.69080668e-004,
          7.85018492e-004, 1.39997678e-003, 4.77606169e-004,
          -1.42613455e-004, 1.86801408e-004, -6.96294446e-005,
          6.71648886e-004, 1.74552741e-004, 2.39857443e-004,
          1.64475859e-004, -1.13024248e-003, 8.11347389e-004,
          -2.34382402e-004, -2.24363845e-004, 1.09985027e-004,
          6.40020531e-004, -7.42596167e-004, 3.93426890e-004,
          2.30444697e-004, -6.02931832e-004, 9.48755769e-006,
          -9.03821492e-005, 1.76609799e-004, 2.24275616e-004,
          -1.40660413e-004, 7.32741202e-004, 3.08777118e-004,
          3.07115552e-004, 4.90472412e-005, -3.34299024e-004,
          7.71855921e-005, 7.47597733e-005, 5.28981855e-006,
          -3.28537026e-005, 4.46299906e-004, -1.24729922e-004,
          8.35068131e-005, -4.79938142e-004, -1.05490421e-004,
          -3.24273831e-004, 8.37611442e-005, -1.17154603e-004,
          6.67262357e-005, -6.95288327e-005, -1.48123057e-004,
          -2.11383958e-004, 2.27445184e-004, -3.61165206e-004,
          -5.72811268e-006, 8.45448267e-006, 1.46271865e-004,
          -8.68307543e-005, 1.04435981e-004, 1.12660418e-004,
          1.09471868e-004, -2.44240277e-004, 2.06418204e-004,
          -6.91977266e-006, 1.19407858e-004, -2.34853636e-004,
          -6.47771085e-005, -1.91523632e-005, -2.29466550e-005,
          -1.43190555e-004, 9.78339958e-005, 4.03718332e-005,
          9.88014290e-005, -1.94319568e-004, -1.34300208e-004,
          -7.49284518e-005, 3.03146026e-005, 1.28124040e-004,
          -1.21624900e-004, 5.59446271e-005, -7.58579263e-005,
          -8.55826966e-006, 9.78770404e-005, -5.95283636e-005,
          7.69412582e-005, -4.29976826e-005, 5.30583166e-005,
          -9.99523472e-005, -2.25208296e-005, 1.40604476e-004,
          -6.62564198e-005, 1.04544933e-005, -9.33046322e-005,
          1.09015891e-005, 2.53331691e-005, 1.39314143e-005,
          -7.23056364e-005, 1.33449512e-005, -4.02727892e-006,
          2.05216238e-005, -9.00576706e-005, 7.10351887e-005,
          3.10314281e-005, -4.38307052e-006, -3.81481841e-005,
          1.69202522e-005, -9.36668002e-005, -2.72532498e-006,
          -3.88845547e-005, 4.98931913e-005, 1.95690900e-005,
          -4.71088024e-005, -1.86069147e-003, -6.85376069e-003,
          -2.23517208e-003, -3.76974902e-004, -6.06790278e-003,
          2.86836713e-003, -1.01465860e-003, 4.97093610e-003,
          -4.62312018e-004, -3.94432200e-003, -3.98285314e-003,
          -3.90383718e-003, 8.58798623e-003, -9.35322605e-003,
          -1.74274028e-003, -1.85862929e-003, -6.27750717e-003,
          4.47977427e-003, 2.08671379e-004, 7.61480210e-003,
          3.76307522e-003, 2.91472796e-004, -1.25716375e-002,
          -2.43423507e-003, 4.67019016e-003, 6.23575586e-004,
          2.41483026e-003, -5.07117668e-003, -2.20227265e-003,
          -6.35427656e-003, -1.24892290e-003, 4.43054270e-003,
          -6.26175478e-003, 1.44701882e-003, 1.75233011e-003,
          2.74750171e-003, 3.42591084e-003, -1.40424224e-003,
          3.28446715e-003, 3.39075970e-003, -2.86144466e-004,
          -8.06470960e-003, -3.50591633e-003, -2.63652438e-003,
          -5.99643972e-004, 3.31865693e-003, -1.33182551e-003,
          3.13102920e-003, 4.61740186e-003, -1.09695096e-003,
          2.17375369e-003, -3.86279216e-003, -6.05117204e-003,
          -5.37832780e-003, 4.07946762e-003, -2.03580339e-003,
          1.43455353e-003, -2.47040624e-003, 2.80628586e-003,
          -2.30101505e-004, -5.00669819e-004, 7.36614340e-004,
          -3.53922788e-003, -7.63046788e-004, -2.42149923e-003,
          1.09633396e-003, -1.49079761e-003, -1.81083495e-004,
          5.41945174e-003, -2.15162057e-003, 1.70532707e-003,
          4.54023015e-003, -8.93906981e-004, 9.30353825e-004,
          1.84287142e-003, 1.39051047e-003, 2.81937490e-003,
          4.45168978e-003, -2.61663040e-003, -5.20727597e-004,
          -5.56535181e-003, -5.08023950e-004, -1.36750261e-003,
          2.52769655e-003, -3.18203424e-003, 1.54289172e-003,
          -8.01679445e-004, 1.29426760e-003, -2.38896348e-003,
          -2.67314236e-003, -5.59818473e-005, 3.91712878e-003,
          7.73962587e-004, -1.87691208e-003, -6.54034608e-004,
          1.41132344e-003, -1.14217086e-003, -1.74432504e-003,
          2.73734157e-004, 3.36296577e-003, 1.11863762e-003,
          -7.79685506e-004, -5.99658699e-004, 4.20923531e-003,
          -1.38018222e-003, 3.95488387e-005, -2.91726156e-003,
          -2.38960865e-003, -2.33051856e-003, -1.51091383e-003,
          -1.94713089e-003, 1.54742727e-003, -1.87372265e-004,
          -1.28561014e-003, 2.39086361e-003, -1.64816040e-003,
          -2.56574858e-004, 2.08161329e-003, 9.26631154e-004,
          -1.98759045e-003, 8.94956989e-004, 1.94784324e-003,
          1.08524720e-004, -3.41119856e-004, 1.08477660e-003,
          -1.75358553e-003, -9.21137631e-004, -8.05076415e-005, 0., 0.,
          0., 0., 0., 0., 0., 0., 0., 0., 0., 0., 0., 0., 0., 0., 0., 0.,
          0., 0., 0., 0., 0., 0., 0., 0., 0., 0., 0., 0., 0., 0., 0., 0.,
          0., 0., 0., 0., 0., 0., 0., 0., 0., 0., 0., 0., 0., 0., 0., 0.,
          0., 0., 0., 0., 0., 0., 0., 0., 0., 0., 0., 0., 0., 0., 0., 0.,
          0., 0., 0., 0., 0., 0., 0., 0., 0., 0., 0., 0., 0., 0., 0., 0.,
          0., 0., 0., 0., 0., 0., 0., 0., 0., 0., 0., 0., 0., 0., 0., 0.,
          0., 0., 0., 0., 0., 0., 0., 0., 0., 0., 0., 0., 0., 0., 0., 0.,
          0., 0., 0., 0., 0., 0., 0., 0., 0., 0., 0., 0., 0., 0. ]
   decision_functions:
      -
         sv_count: 1
         rho: -1.4136228049478330e+000
         alpha: [ 1. ]
         index: [ 0 ]
