%YAML:1.0
my_svm: !!opencv-ml-svm
   svm_type: C_SVC
   kernel: { type:LINEAR }
   C: 1.
   term_criteria: { epsilon:2.2204460492503131e-16, iterations:100 }
   var_all: 256
   var_count: 256
   class_count: 2
   class_labels: !!opencv-matrix
      rows: 1
      cols: 2
      dt: i
      data: [ 0, 1 ]
   sv_total: 1
   support_vectors:
      - [ 5.11242892e-04, 1.12847600e-03, -1.01830461e-03,
          2.01377668e-03, -4.63136443e-04, 2.24585808e-03,
          -8.41702422e-05, -2.25040573e-03, -1.44690834e-03,
          1.01511809e-03, 7.23634148e-05, -2.77483137e-03,
          9.46886430e-05, -1.48384448e-03, 7.68640311e-04,
          1.10949695e-04, -3.99886252e-04, -8.10876780e-04,
          -5.10615413e-04, 8.05722739e-05, 8.69106560e-04,
          -1.07426931e-04, -5.41589339e-04, 4.36428410e-04,
          -6.75410673e-04, -9.76799056e-04, 1.27274427e-03,
          4.00051358e-04, 5.90046286e-04, -2.08954370e-04,
          -5.30454796e-04, -7.86731835e-04, 9.62477425e-05,
          -1.84135803e-04, 3.83928738e-04, 6.83310849e-04,
          5.83066780e-04, 1.31603752e-04, -1.93941392e-04,
          2.67283060e-04, -3.34898272e-04, -7.60448689e-04,
          -5.18942194e-04, 2.89237592e-04, 6.06367947e-04,
          3.41757521e-04, -6.15167781e-04, 2.59229040e-04,
          6.59333673e-05, -1.01832062e-04, -9.30050446e-05,
          -2.70700810e-04, 3.07582173e-04, 2.23403375e-04,
          3.23838089e-04, 1.15913841e-04, 2.52639205e-04,
          -3.17652506e-04, -1.96882276e-04, -1.10019653e-04,
          5.63049289e-05, 2.98775878e-04, -6.42883169e-05,
          1.03313490e-04, 1.22525159e-03, 4.33442154e-04,
          -1.81643886e-03, -6.51414332e-04, 3.64213577e-03,
          1.94413576e-03, -6.81426027e-04, -2.14106380e-03,
          9.55486961e-04, 1.19749235e-03, -6.39291247e-04,
          -3.01381631e-04, -9.96415736e-04, -5.81464847e-04,
          -6.75360905e-04, 8.81088723e-04, 1.69791005e-04,
          -7.53364468e-04, 1.07130746e-03, 2.20702757e-04,
          -3.57119163e-04, -3.68827052e-04, -4.79423237e-04,
          1.60061894e-03, -2.68825097e-04, 1.00541154e-04,
          -5.39221917e-04, 3.61037411e-04, 5.22887043e-04,
          1.72220360e-04, -5.06969409e-05, -8.78212013e-05,
          1.17155304e-03, -1.11358357e-03, -5.86431008e-04,
          6.81077654e-05, -8.49632779e-05, 5.30780584e-04,
          2.55653460e-04, 8.65806593e-04, -7.83865326e-05,
          -4.36382281e-04, 2.08990677e-04, -7.16704002e-04,
          -3.59147962e-05, -2.64564500e-04, 1.41937038e-04,
          1.72850516e-04, -6.07940194e-04, -1.25469480e-04,
          2.85448023e-05, 3.33385338e-04, -4.80498245e-04,
          2.64054834e-04, 8.80724328e-05, -9.81975245e-05,
          1.28736428e-04, -6.30569237e-04, -7.72367639e-05,
          2.91041506e-04, 3.36184254e-04, -5.14518433e-05,
          -4.46347898e-04, -2.23527211e-04, -1.67496491e-03,
          -6.51269173e-03, -3.62827815e-03, -1.45048858e-03,
          -6.16842741e-03, -1.64702081e-03, -1.13565905e-03,
          5.61263692e-03, 1.20495004e-03, 1.95224804e-03,
          -3.87178222e-03, -3.33273481e-03, -6.56059198e-03,
          -9.58580151e-03, 9.97739029e-04, -1.55239506e-03,
          -6.20042766e-03, 3.32333846e-03, -8.49576172e-05,
          -8.93312041e-03, 1.98011007e-03, -3.76655720e-03,
          1.40532898e-02, -7.45015917e-03, -2.22027116e-03,
          9.24410357e-04, -5.23638446e-03, 5.22694970e-03,
          -2.90285749e-03, 1.13008497e-03, -6.66258158e-03,
          -1.64395920e-03, 8.04685242e-03, 1.16093433e-03,
          8.15580774e-04, -7.41204480e-03, -3.76893184e-03,
          4.47573984e-04, -1.24495244e-03, 3.98491882e-03,
          -1.66294267e-04, -8.42161383e-03, 6.27122680e-03,
          -4.44154767e-03, 1.91220548e-03, 8.34207749e-04,
          3.20369354e-03, -7.51909101e-04, -5.01631433e-03,
          3.32456548e-03, 4.57469327e-03, -5.48126502e-03,
          4.98278951e-03, 5.88659104e-03, -3.24566197e-03,
          -1.98477693e-03, 4.05713124e-03, -5.45945892e-04,
          -5.60097210e-03, -1.27310705e-04, 8.09477817e-04,
          -2.14623380e-03, 4.49983578e-04, 1.95550194e-04, 0., 0., 0.,
          0., 0., 0., 0., 0., 0., 0., 0., 0., 0., 0., 0., 0., 0., 0., 0.,
          0., 0., 0., 0., 0., 0., 0., 0., 0., 0., 0., 0., 0., 0., 0., 0.,
          0., 0., 0., 0., 0., 0., 0., 0., 0., 0., 0., 0., 0., 0., 0., 0.,
          0., 0., 0., 0., 0., 0., 0., 0., 0., 0., 0., 0., 0. ]
   decision_functions:
      -
         sv_count: 1
         rho: -1.5372139692027440e+00
         alpha: [ 1. ]
         index: [ 0 ]
