%YAML:1.0
my_svm: !!opencv-ml-svm
   svm_type: C_SVC
   kernel: { type:LINEAR }
   C: 1.
   term_criteria: { epsilon:2.2204460492503131e-016, iterations:100 }
   var_all: 512
   var_count: 512
   class_count: 2
   class_labels: !!opencv-matrix
      rows: 1
      cols: 2
      dt: i
      data: [ 0, 1 ]
   sv_total: 1
   support_vectors:
      - [ 2.14888569e-005, 3.92077171e-004, -1.86055992e-003,
          -3.03477142e-003, 7.35373469e-004, -2.15992937e-003,
          5.46169933e-004, -1.40057266e-004, -4.88974365e-005,
          7.10521825e-004, -7.68292870e-004, 1.13485754e-003,
          1.36686896e-004, -2.13737017e-003, 2.26338350e-004,
          -7.28244253e-004, 3.18789913e-004, -1.00638461e-003,
          -8.53541656e-004, -2.20392656e-004, -8.68522038e-004,
          -1.09880895e-003, 6.15586934e-004, -2.24234391e-004,
          7.20698736e-004, 1.01334081e-004, 3.74649098e-004,
          -5.59622771e-004, -1.47786923e-004, 9.29223665e-004,
          3.31834453e-004, -4.00993216e-004, 5.58268448e-006,
          -1.10349839e-003, 3.70817201e-004, 1.02246576e-003,
          -6.83647930e-004, 4.73464577e-004, -8.60741711e-005,
          6.81364618e-004, -3.12212855e-004, -8.40760535e-004,
          2.75024475e-004, 3.66004242e-004, 6.28398615e-004,
          4.22091660e-004, -2.81411019e-004, -1.06517233e-004,
          -1.46352031e-004, 2.44938856e-004, -1.53576566e-005,
          -5.61960624e-004, -1.11551808e-005, 4.50499065e-004,
          -5.41479210e-004, 1.66414233e-004, -5.57250223e-006,
          -2.33056940e-004, 3.40764382e-005, -2.23867755e-004,
          -1.26431132e-005, 1.00727462e-004, 6.87114589e-005,
          3.21161424e-005, 9.86518062e-005, -3.75315140e-004,
          1.30305743e-005, -7.12757828e-005, -4.40872042e-004,
          -1.13141847e-004, 9.07062640e-005, 1.71693566e-004,
          1.59607822e-004, -2.04481385e-005, 5.17925582e-005,
          1.39028009e-004, -1.94867811e-004, -6.48348287e-005,
          -1.39040800e-004, -1.63460907e-004, 7.94364460e-005,
          -2.64563296e-005, 1.51992472e-005, 2.36884716e-005,
          -1.27814172e-004, -2.88497176e-005, -1.53846577e-006,
          7.84755030e-005, -1.47610317e-005, -2.61738951e-005,
          -1.03102366e-005, 9.95267910e-005, -7.94502484e-005,
          4.02797195e-005, -1.05438039e-005, -1.23207035e-004,
          -3.07888986e-005, -8.63040623e-005, -1.21417972e-004,
          -9.75563817e-005, 4.43312638e-005, -2.74774884e-005,
          1.99124934e-005, 3.88531407e-005, -7.86383680e-005,
          4.08899868e-005, 1.29411041e-004, 4.19837634e-005,
          -8.02642971e-005, -2.71623721e-005, 3.05665781e-005,
          3.25758447e-005, -3.44925247e-005, 1.97558511e-005,
          -6.07483071e-006, 9.16101726e-006, 9.67791129e-006,
          6.93526308e-005, -4.63238575e-005, -8.95318954e-006,
          6.90890156e-005, 2.86444333e-006, -1.63304285e-005,
          2.83441077e-005, 1.28474503e-005, 5.45070543e-006,
          -3.35854784e-005, -1.38625282e-005, 1.01031153e-003,
          1.74043654e-003, -1.02061767e-003, 8.15801555e-004,
          2.90811830e-003, 3.05896532e-003, -9.89523018e-004,
          -3.50014656e-004, 9.48336266e-004, 2.47183169e-004,
          2.68559321e-004, 3.20116320e-004, 2.83501693e-004,
          7.04453996e-005, -7.85857614e-004, 3.60739708e-004,
          -7.74494081e-004, -5.01578732e-004, -1.46373335e-004,
          -1.26675388e-003, -8.53430887e-004, 5.83968358e-004,
          6.33134914e-005, -4.63142089e-004, -1.99489034e-004,
          3.94328468e-004, 4.17024305e-004, 9.85213439e-004,
          -1.48608326e-003, -5.62902133e-004, -3.22169362e-005,
          -1.22103083e-003, -2.34760839e-004, -7.80043949e-004,
          -3.50265560e-004, -5.33881794e-005, 1.75476926e-005,
          -5.87925257e-004, 2.98616942e-004, 4.54359630e-004,
          2.35984466e-004, -8.03401403e-004, -7.98653869e-004,
          -2.79524102e-004, -2.01807037e-004, 3.92142014e-004,
          -2.59004504e-004, -1.04053237e-004, -4.06247505e-004,
          -3.96573392e-004, -5.81244822e-005, -1.31494249e-004,
          1.60423704e-004, -9.79118413e-005, 4.28383355e-004,
          6.88234359e-005, -3.41599778e-004, 1.39214477e-004,
          3.02667759e-005, -2.10036396e-005, -3.45227054e-005,
          3.51794646e-004, -4.81281822e-005, -1.56339403e-004,
          2.00374547e-004, 1.88820311e-004, 2.54453364e-004,
          2.12353421e-004, -1.18108495e-004, -5.76712810e-005,
          -3.06044094e-004, -2.08186364e-004, -1.88701481e-004,
          5.43893402e-005, 1.28438231e-004, -1.67674370e-004,
          8.25281022e-005, -1.30501634e-004, -1.36484814e-005,
          -1.69301886e-004, -1.69659965e-004, -5.85008602e-005,
          -3.04901441e-005, 1.97738955e-005, -2.49637014e-005,
          -5.38778768e-005, 2.83076643e-005, 8.59539068e-005,
          3.67682378e-006, 1.20243596e-004, 7.30840475e-005,
          -1.89833081e-004, 3.27099478e-005, -1.84227138e-005,
          7.13462068e-005, -3.96641226e-005, 6.38444180e-005,
          1.80761490e-005, -1.16324751e-004, -2.23437164e-005,
          3.46122542e-005, -4.06093604e-005, 6.17216356e-005,
          9.19637750e-005, -1.56908191e-005, -1.82037300e-004,
          -1.39151825e-006, -6.97880751e-005, -4.03894337e-005,
          -9.58644068e-006, -7.10904860e-005, -3.97226868e-005,
          -4.79730370e-005, 1.93147243e-005, 5.34639994e-008,
          -3.43306965e-005, 4.79745686e-005, -8.51219113e-007,
          2.77152685e-005, -1.74482295e-006, -2.71100657e-006,
          3.59284168e-005, 5.55939914e-005, 3.64816187e-005,
          5.41506633e-005, -3.73253242e-005, -7.74709861e-006,
          1.51036775e-005, 9.42616316e-004, -1.97268324e-003,
          9.02083586e-004, -1.40296808e-003, 1.30208689e-004,
          3.60837439e-003, -4.18790965e-004, -1.30544882e-003,
          3.35076533e-004, -2.04547658e-004, 2.33850136e-004,
          2.01648130e-004, -1.22959504e-003, 1.05229043e-003,
          -1.05712621e-003, -1.16004737e-003, -9.96976625e-004,
          -6.22195075e-004, -1.35455246e-003, -7.38838222e-004,
          -4.66185011e-004, 1.36381004e-005, -5.31607002e-005,
          3.51758720e-003, 2.29681167e-003, 7.63211923e-004,
          -7.46988633e-004, 1.56294019e-003, -1.86295854e-003,
          -2.64289265e-004, -1.02032244e-003, -2.24861479e-003,
          -1.45436556e-003, -1.21472997e-003, 4.06433857e-004,
          9.41404796e-005, -1.47404592e-003, -1.19385635e-003,
          1.89854612e-003, -8.53200036e-004, 2.02774140e-003,
          3.80855665e-004, -5.18564135e-004, 2.81285029e-003,
          -1.38972769e-003, -2.43303529e-003, 2.45755273e-005,
          -6.32585070e-005, -2.76988000e-003, -1.60351905e-004,
          -2.52475869e-003, -8.33906597e-005, 1.89318816e-004,
          9.79703618e-004, -3.83196538e-003, 2.96203722e-003,
          -1.97535031e-003, -1.39678549e-003, -1.22698222e-003,
          1.58648379e-003, 1.94024353e-003, -1.02400652e-003,
          -3.08622803e-005, -1.46487495e-003, -1.54953985e-003,
          1.89586938e-003, -2.37234100e-003, 3.16854013e-004,
          -1.88816703e-004, 1.23568764e-003, 1.45448605e-003,
          -1.86303840e-003, -1.72621832e-004, 1.49573816e-003,
          -2.40433088e-004, 2.15360872e-003, -3.19618802e-003,
          -1.66079658e-003, 7.00886594e-005, 4.15559905e-003,
          -5.18709363e-004, -2.22579902e-003, -2.31052749e-003,
          -1.70942477e-003, 1.22377789e-003, -7.50618055e-004,
          -3.42160696e-004, -4.58614086e-004, 7.93789921e-004,
          -3.64776672e-004, -4.07574771e-006, -9.65567779e-006,
          9.29832691e-004, -2.09701015e-003, 1.87863095e-003,
          -4.99887625e-004, -2.89214798e-003, -6.14580931e-004,
          6.91815978e-004, 4.06297622e-004, -8.52082099e-004,
          1.02077203e-003, -1.27232145e-003, 2.62294104e-003,
          -8.12390819e-004, -1.18651769e-004, 2.13710102e-003,
          -3.09700309e-003, -8.78124789e-004, -9.73997870e-004,
          1.43141617e-004, -1.11101812e-003, 5.41739901e-005,
          1.81741401e-004, -6.20044244e-004, 1.38551564e-004,
          -1.70111691e-003, -6.37827034e-004, 1.03246176e-003,
          -2.90567783e-004, 1.79314462e-004, -7.41473341e-004,
          3.35281744e-004, -6.87349020e-005, -7.31397187e-004,
          1.16718722e-004, -8.33267928e-004, 2.41194095e-004, 0., 0., 0.,
          0., 0., 0., 0., 0., 0., 0., 0., 0., 0., 0., 0., 0., 0., 0., 0.,
          0., 0., 0., 0., 0., 0., 0., 0., 0., 0., 0., 0., 0., 0., 0., 0.,
          0., 0., 0., 0., 0., 0., 0., 0., 0., 0., 0., 0., 0., 0., 0., 0.,
          0., 0., 0., 0., 0., 0., 0., 0., 0., 0., 0., 0., 0., 0., 0., 0.,
          0., 0., 0., 0., 0., 0., 0., 0., 0., 0., 0., 0., 0., 0., 0., 0.,
          0., 0., 0., 0., 0., 0., 0., 0., 0., 0., 0., 0., 0., 0., 0., 0.,
          0., 0., 0., 0., 0., 0., 0., 0., 0., 0., 0., 0., 0., 0., 0., 0.,
          0., 0., 0., 0., 0., 0., 0., 0., 0., 0., 0., 0., 0. ]
   decision_functions:
      -
         sv_count: 1
         rho: 2.3620211974534536e-001
         alpha: [ 1. ]
         index: [ 0 ]
