%YAML:1.0
my_svm: !!opencv-ml-svm
   svm_type: C_SVC
   kernel: { type:LINEAR }
   C: 1.
   term_criteria: { epsilon:2.2204460492503131e-16, iterations:100 }
   var_all: 256
   var_count: 256
   class_count: 2
   class_labels: !!opencv-matrix
      rows: 1
      cols: 2
      dt: i
      data: [ 0, 1 ]
   sv_total: 1
   support_vectors:
      - [ -1.59290314e-04, -8.78122810e-04, -3.22286214e-05,
          2.73274956e-03, -1.75165909e-03, 2.70720245e-03,
          1.16771623e-03, 1.52916997e-03, -6.31604460e-04,
          6.77332515e-04, -1.17394418e-04, -2.81919842e-04,
          4.67682461e-04, -8.12822022e-04, -4.00804594e-04,
          -9.80922836e-04, 1.31650560e-03, 9.68421664e-05,
          -3.71225906e-04, -5.41949761e-04, 5.85774309e-04,
          -1.51408231e-03, 5.90671516e-05, 7.30688334e-04,
          6.39673090e-04, 4.87663958e-04, -5.37958811e-04,
          -3.82948725e-04, 6.98814867e-04, -1.01876759e-03,
          -2.11114049e-04, 7.83327268e-04, -1.21886923e-03,
          6.22353691e-04, -4.61596035e-04, 1.82402821e-03,
          7.21215387e-04, 4.14650858e-04, 2.17404639e-04,
          -8.97026621e-05, -2.27301953e-05, 2.87201343e-04,
          -3.66417895e-04, -1.69953390e-04, 9.43771563e-04,
          -6.47659108e-05, -3.28239490e-04, 5.01261151e-04,
          -1.53429515e-04, 3.30271025e-04, 1.10558067e-05,
          -8.98531871e-04, 1.40015894e-04, 4.90034465e-04,
          -4.21796518e-04, 9.21488463e-05, 4.87122015e-05,
          -2.30814388e-04, -2.73404032e-04, -2.98891318e-05,
          -2.14285392e-04, 1.18587144e-04, 1.12721609e-04,
          2.59812776e-04, -1.68148603e-03, -3.43660265e-03,
          1.41559017e-03, 9.98177100e-04, 1.79995480e-03, 3.10539408e-03,
          2.58509791e-03, 1.00414164e-03, -1.63019088e-03,
          -2.38256552e-03, 2.53965240e-03, -4.05455561e-04,
          3.45412380e-04, -7.72817759e-04, -1.00954276e-04,
          7.35208669e-05, -3.50085495e-04, 7.00878678e-04,
          7.19887437e-04, 1.23799709e-03, 1.32743386e-03, 1.35613885e-03,
          1.61146585e-04, -1.00514619e-03, -6.43277483e-04,
          -1.25823237e-04, -7.62037700e-04, 1.07188860e-03,
          1.33789587e-03, 1.03796239e-03, -9.72294656e-04,
          6.82749553e-04, -4.67357197e-04, -4.42599732e-04,
          4.56244088e-05, 6.35449484e-04, -3.40205210e-04,
          -7.81832670e-04, 8.65483671e-05, 1.68763014e-04,
          -4.84480202e-04, 1.35982328e-03, -1.29010528e-03,
          -4.12553840e-04, 4.18922282e-04, 6.60689489e-04,
          1.50665481e-04, 6.75738382e-04, 2.11658153e-05,
          -2.38724708e-04, 3.96161573e-04, 7.67872916e-05,
          -1.69428877e-05, 2.75368238e-05, -2.27286189e-04,
          3.37779813e-04, -3.79663019e-04, -1.35675087e-04,
          -1.32634756e-04, -2.06703444e-05, -4.26352868e-04,
          -1.16793955e-04, 2.64802347e-05, 1.90659222e-04,
          2.36260542e-03, -3.88844404e-04, 1.16821662e-04,
          -3.56700417e-04, -2.02842184e-05, 1.40647357e-03,
          -3.78616707e-04, 2.16780318e-04, -1.60438579e-03,
          5.94628451e-04, 2.26461142e-03, -8.10191152e-04,
          1.72952830e-04, 2.74138059e-03, 2.08729622e-03, 2.52280850e-03,
          1.27509749e-03, -2.29186553e-04, 9.09262511e-04,
          -3.25151777e-04, 8.75590835e-04, 1.07376289e-03,
          -2.77550396e-04, -2.02431181e-03, 2.95214844e-03,
          -1.84869386e-05, 1.66963699e-04, 3.18998500e-04,
          -8.49037140e-04, -2.68455642e-05, 9.75850504e-04,
          -7.84539792e-04, 6.55254524e-04, -2.93509709e-03,
          -1.27212319e-03, -7.86014367e-04, 1.90090120e-03,
          8.72402568e-04, 3.16212280e-03, -1.39697758e-03,
          -1.10475824e-03, 8.78394290e-04, -7.47690094e-04,
          -2.80148722e-03, -1.94536208e-03, 1.42162282e-03,
          4.94869077e-04, 8.85596557e-04, -6.80262689e-04,
          -4.01441648e-04, 1.73533242e-03, -1.54076493e-04,
          -1.33396662e-03, -1.43175793e-03, -1.64781394e-03,
          -3.15911463e-03, 4.11614979e-04, 3.82386061e-04,
          -3.63661151e-04, -2.67394911e-03, -1.31876091e-03,
          2.40296722e-04, 1.62844092e-03, 2.04731920e-03, 0., 0., 0., 0.,
          0., 0., 0., 0., 0., 0., 0., 0., 0., 0., 0., 0., 0., 0., 0., 0.,
          0., 0., 0., 0., 0., 0., 0., 0., 0., 0., 0., 0., 0., 0., 0., 0.,
          0., 0., 0., 0., 0., 0., 0., 0., 0., 0., 0., 0., 0., 0., 0., 0.,
          0., 0., 0., 0., 0., 0., 0., 0., 0., 0., 0., 0. ]
   decision_functions:
      -
         sv_count: 1
         rho: 1.3545490192935891e-01
         alpha: [ 1. ]
         index: [ 0 ]
