%YAML:1.0
my_svm: !!opencv-ml-svm
   svm_type: C_SVC
   kernel: { type:LINEAR }
   C: 1.
   term_criteria: { epsilon:2.2204460492503131e-016, iterations:100 }
   var_all: 512
   var_count: 512
   class_count: 2
   class_labels: !!opencv-matrix
      rows: 1
      cols: 2
      dt: i
      data: [ 0, 1 ]
   sv_total: 1
   support_vectors:
      - [ -6.89003791e-004, -1.25258591e-003, 5.35933068e-004,
          2.01159017e-003, 5.36738080e-004, 2.64960527e-003,
          -5.86016104e-004, 1.37904368e-003, 1.36769177e-005,
          -1.33851101e-003, -9.93691385e-004, -5.62925648e-004,
          8.92639335e-004, 3.38270038e-004, -1.13072945e-003,
          8.43174523e-004, -8.81293556e-004, 1.00991700e-003,
          8.76739447e-004, 3.42375075e-004, 6.49158203e-004,
          -2.03978707e-004, 1.30438042e-004, 1.59273238e-003,
          -2.60351168e-004, 6.14642282e-004, 1.35163675e-004,
          2.83243135e-004, -2.81888089e-004, -8.58684070e-004,
          5.11122198e-006, 3.56095523e-004, 4.46750128e-005,
          1.88100632e-004, -9.36827681e-004, -7.35660840e-004,
          9.79703982e-005, 4.83739532e-005, -2.21848211e-004,
          -5.82347449e-004, -1.07760476e-004, 4.02440084e-004,
          -2.10258702e-004, -3.28545895e-004, -6.59895653e-004,
          -2.43575632e-004, 1.55634450e-004, 1.51804532e-004,
          1.90257211e-004, -5.99809864e-004, -5.93066216e-005,
          4.09068452e-004, -1.04590152e-004, -6.24370703e-004,
          3.15651094e-004, -8.38060951e-005, 1.96960740e-004,
          3.38268001e-004, -1.24050974e-004, -7.71081886e-006,
          -1.99616306e-006, -3.25538538e-004, -3.13228884e-005,
          -1.18190233e-004, -4.77103255e-004, 2.75942963e-004,
          -1.89570041e-004, 3.79448375e-006, 3.25178495e-004,
          5.30698162e-005, -2.38463646e-004, -3.20036517e-004,
          -2.35177176e-005, -9.58088731e-006, 2.60509260e-005,
          -2.77628918e-004, 1.06692103e-004, 1.04737104e-004,
          9.31663744e-005, 2.01978022e-004, -9.26351913e-006,
          8.87763381e-005, -1.67522501e-006, -1.68228053e-005,
          5.51255434e-005, 6.44458487e-005, -7.19608652e-005,
          -1.76409158e-005, -3.58666694e-005, 6.97381756e-006,
          6.81432866e-005, -7.52050400e-005, 7.28081068e-005,
          1.10891244e-006, 1.17026466e-004, 1.19318815e-004,
          -2.37380664e-005, 4.83015610e-005, 9.11385214e-005,
          7.94213192e-005, -7.58401711e-006, -1.80306160e-005,
          -2.63774145e-005, 4.21460245e-005, 6.05260357e-005,
          -4.85419951e-005, -1.31053705e-004, -6.32030715e-005,
          6.73148315e-005, 3.81264108e-005, -2.32226939e-005,
          -6.54767355e-005, 2.61752120e-005, -1.43250372e-005,
          2.07166486e-005, -1.05852796e-005, -4.50270818e-006,
          -7.69714243e-005, 3.38081409e-005, 1.38710438e-005,
          -5.03444207e-005, -1.42725530e-005, 1.52927150e-005,
          -2.93963458e-005, -3.39943381e-006, 1.98642520e-005,
          4.41736011e-005, 3.52879533e-006, 8.37692860e-005,
          -2.29376042e-003, 2.40891799e-003, 8.52365396e-004,
          -1.49104814e-003, -2.24091043e-003, 1.89119542e-003,
          -5.08072670e-004, -1.33077498e-003, -1.74135866e-003,
          -1.38205080e-003, -6.55007141e-004, 4.04395018e-004,
          6.86262327e-004, 6.53095602e-004, -4.26618819e-004,
          1.32933713e-003, -8.87322472e-004, -3.86330881e-004,
          1.60682306e-003, 6.43634470e-004, -7.57502974e-004,
          2.37894608e-004, -9.90783214e-004, 6.00914609e-005,
          -2.20028509e-004, -2.71001365e-004, -4.31932625e-004,
          7.86403718e-004, 3.72947252e-005, 5.73254714e-004,
          5.07768826e-004, 4.65140998e-004, 7.57367292e-004,
          9.30705282e-005, -6.10146148e-004, 6.74956769e-004,
          -1.31793713e-004, -1.82939257e-004, -2.75960308e-004,
          1.86481804e-004, 8.77307844e-004, 5.58367174e-004,
          -1.50477194e-004, -1.17713673e-004, -5.10368438e-004,
          3.52614414e-004, 1.39688564e-004, -1.61696385e-004,
          2.17194800e-004, 1.91478597e-004, 1.77524256e-004,
          -3.13773082e-004, -1.66904094e-004, -4.69799561e-004,
          -1.67378879e-004, 2.55730236e-004, -6.90887828e-005,
          -4.68399276e-006, -4.30916225e-005, 4.06952167e-004,
          -2.34718274e-004, -2.61861169e-005, -5.02148978e-005,
          8.76862759e-005, -4.77292087e-006, -7.83891373e-005,
          8.21359790e-005, 2.30827151e-004, 1.38271906e-004,
          3.04766261e-004, 3.64999760e-005, 5.35204344e-005,
          -9.81553458e-005, 1.84559267e-005, -8.74933903e-005,
          2.90108783e-005, 1.86482110e-004, 2.10488404e-004,
          1.81137482e-004, 1.00850695e-004, 3.94108156e-006,
          1.04278457e-004, 1.45160666e-005, -6.12341391e-005,
          4.69240986e-005, -4.95183485e-005, -8.75379701e-005,
          -5.76640232e-005, -4.11963374e-005, -1.08418266e-004,
          1.36182047e-004, -1.42823556e-005, -7.75633089e-005,
          -6.07317706e-005, 1.87367623e-005, -1.51695873e-004,
          -4.65631711e-005, 1.51410510e-004, 6.38852362e-005,
          -6.20131323e-005, 3.09905336e-005, -7.25427744e-005,
          -6.78444558e-005, 1.63288732e-005, 1.34975635e-004,
          5.18934212e-006, 8.42784430e-005, 1.93183878e-005,
          -3.01933096e-006, 3.40441875e-005, 2.10582621e-005,
          2.38461489e-005, -2.65665549e-005, 5.26311442e-006,
          5.21773982e-005, -6.62444018e-006, -4.70590294e-006,
          -1.05465333e-005, 5.25877249e-006, 4.16209969e-006,
          -3.92559632e-005, -7.83046635e-005, -5.81854074e-005,
          -5.70019001e-005, 5.24533207e-005, 2.77785948e-005,
          -1.69166942e-005, 2.01872922e-003, -9.82795143e-004,
          -8.25065828e-004, 5.16860862e-004, 4.97248722e-004,
          -1.78814644e-003, 2.13875854e-003, 4.10345034e-004,
          -2.40184396e-004, 4.44401929e-004, 1.30164833e-003,
          -8.10625443e-006, 7.17302377e-004, 2.48521566e-003,
          2.76581547e-003, 1.39453413e-003, 1.18716981e-003,
          4.81660973e-004, 1.69657962e-003, 3.84933628e-005,
          9.79550066e-004, -1.63354725e-003, -5.34927822e-004,
          -3.11257504e-003, -3.02884821e-003, -1.45967945e-003,
          5.79176063e-004, 1.02994940e-003, 8.08750046e-004,
          -1.45757847e-004, -7.75578257e-004, 2.51015823e-004,
          1.57342805e-003, 2.86945328e-003, 6.66178588e-004,
          1.06090831e-003, -2.51150719e-004, 2.99436147e-006,
          -1.29770511e-003, -1.67305639e-003, -2.06274958e-003,
          9.34285810e-004, -1.18124427e-003, -3.08299065e-003,
          1.84764434e-003, 1.99546618e-003, -5.24246483e-004,
          -1.94473390e-003, 2.37292051e-003, 6.73173690e-006,
          1.29081355e-003, -9.30209819e-004, 8.64081143e-004,
          -4.21120552e-004, 4.16175509e-003, -2.54639611e-003,
          1.52981060e-003, 2.19515711e-003, -2.82510537e-005,
          -1.84318458e-003, -1.61978160e-003, 2.66329385e-004,
          9.39453370e-004, 1.30981661e-003, 2.03625741e-003,
          -1.18490355e-003, 2.30575213e-003, 8.10419268e-004,
          -1.48537115e-003, -3.32573807e-004, -1.07942685e-003,
          6.73753908e-004, 9.48182249e-004, -1.25188357e-003,
          3.19020983e-005, -1.95773714e-003, 2.08018650e-003,
          9.97525058e-004, 1.29133451e-003, -2.46404903e-003,
          1.55561825e-003, 2.71616830e-003, 1.60309603e-003,
          3.82895669e-005, -7.20342563e-004, 1.58892386e-003,
          1.07926244e-004, 5.23264694e-004, -7.71199062e-004,
          7.94487132e-004, -2.47217686e-004, 7.36960355e-005,
          -3.60534672e-004, 1.07973383e-003, -6.28899783e-004,
          -1.56302296e-003, 3.82378418e-003, 5.71194687e-004,
          -1.20279891e-003, -8.26845760e-004, 1.44437153e-003,
          -3.21305997e-004, 1.93115193e-004, -1.99778588e-003,
          7.48619903e-004, -2.16006287e-004, -5.50319965e-004,
          2.84322980e-003, 3.00847343e-004, -7.17467046e-005,
          3.18548380e-004, 1.03924936e-003, 5.03289513e-004,
          -1.11603236e-003, 1.63387530e-003, -5.95402147e-004,
          2.55525461e-003, 4.51751839e-004, -1.02366658e-003,
          7.39205745e-004, -7.35264912e-004, 3.71093076e-004,
          8.48391210e-004, 1.90985927e-004, 9.67924192e-004,
          -2.71522906e-004, 1.81525829e-003, 8.23004011e-005, 0., 0., 0.,
          0., 0., 0., 0., 0., 0., 0., 0., 0., 0., 0., 0., 0., 0., 0., 0.,
          0., 0., 0., 0., 0., 0., 0., 0., 0., 0., 0., 0., 0., 0., 0., 0.,
          0., 0., 0., 0., 0., 0., 0., 0., 0., 0., 0., 0., 0., 0., 0., 0.,
          0., 0., 0., 0., 0., 0., 0., 0., 0., 0., 0., 0., 0., 0., 0., 0.,
          0., 0., 0., 0., 0., 0., 0., 0., 0., 0., 0., 0., 0., 0., 0., 0.,
          0., 0., 0., 0., 0., 0., 0., 0., 0., 0., 0., 0., 0., 0., 0., 0.,
          0., 0., 0., 0., 0., 0., 0., 0., 0., 0., 0., 0., 0., 0., 0., 0.,
          0., 0., 0., 0., 0., 0., 0., 0., 0., 0., 0., 0., 0. ]
   decision_functions:
      -
         sv_count: 1
         rho: 1.1060183971338658e-003
         alpha: [ 1. ]
         index: [ 0 ]
