%YAML:1.0
my_svm: !!opencv-ml-svm
   svm_type: C_SVC
   kernel: { type:LINEAR }
   C: 1.0000000000000001e-001
   term_criteria: { epsilon:2.2204460492503131e-016, iterations:100 }
   var_all: 60
   var_count: 60
   class_count: 2
   class_labels: !!opencv-matrix
      rows: 1
      cols: 2
      dt: i
      data: [ 0, 1 ]
   sv_total: 1
   support_vectors:
      - [ -3.86594492e-003, -2.14085774e-003, 1.38961570e-003,
          2.63494061e-004, 1.41322249e-004, -1.33855909e-003,
          7.44152348e-004, 3.56395100e-003, 1.99785619e-003,
          -2.62260297e-003, 1.14011485e-003, 1.71808177e-003,
          -2.71934853e-003, 2.94983550e-003, 2.88582081e-003,
          -1.05397264e-003, 1.05962530e-003, -1.36440271e-003,
          1.63612352e-003, -1.65238662e-003, 9.84864964e-005,
          -1.47437866e-004, 2.02749437e-003, -2.44100182e-003,
          3.07933573e-004, -1.00054021e-003, 1.67269621e-003,
          1.11295038e-003, 7.22919533e-004, -1.41578761e-003,
          1.63322524e-003, -6.15045254e-004, -1.15563301e-003,
          1.40804681e-003, 3.51686194e-003, -2.78509804e-003,
          1.02766545e-003, 1.54514459e-003, 1.83399499e-003,
          -2.13432126e-003, 3.65703390e-003, -3.49864527e-003,
          -1.01294916e-003, -7.33461755e-004, -3.12268524e-003,
          1.63979756e-004, -2.66624172e-003, 1.78866938e-003,
          -3.57023469e-004, -3.43763473e-004, 1.02826871e-003,
          1.65866327e-003, -2.67856312e-003, 3.05465097e-003,
          7.05348270e-004, 1.54061208e-003, 1.63999433e-003,
          -1.48019032e-003, 5.63661044e-004, -1.90484466e-003 ]
   decision_functions:
      -
         sv_count: 1
         rho: 2.8645430260322396e-001
         alpha: [ 1. ]
         index: [ 0 ]
