%YAML:1.0
my_svm: !!opencv-ml-svm
   svm_type: C_SVC
   kernel: { type:LINEAR }
   C: 1.
   term_criteria: { epsilon:2.2204460492503131e-016, iterations:100 }
   var_all: 128
   var_count: 128
   class_count: 2
   class_labels: !!opencv-matrix
      rows: 1
      cols: 2
      dt: i
      data: [ 0, 1 ]
   sv_total: 1
   support_vectors:
      - [ -5.57730021e-003, -8.09474941e-003, 6.19508210e-004,
          -4.29291232e-003, -2.76757707e-003, -5.70637733e-003,
          7.65281962e-003, 7.62323663e-003, -4.84187994e-003,
          7.56486971e-003, -8.12573917e-003, -5.19507052e-003,
          -1.62088498e-002, -1.56752691e-002, 3.94036906e-004,
          -1.81615702e-003, -4.77590086e-003, 6.94576930e-003,
          1.72552842e-004, -8.53328314e-003, -4.32087894e-004,
          -5.80257794e-004, -3.42426868e-003, -8.65625590e-003,
          -8.18809203e-004, -2.82727974e-003, -2.94191693e-003,
          3.47978505e-003, -7.19961151e-003, -3.56855453e-003,
          -6.57527475e-003, -1.94369536e-003, 3.78454779e-003,
          4.76903701e-003, -8.10297206e-003, -3.96627374e-003,
          8.86287307e-004, 8.48483108e-003, 5.34589402e-004,
          -2.57769902e-003, -3.74853436e-004, -4.95119160e-003,
          5.48986765e-003, -6.64123194e-003, 1.56811567e-003,
          -1.82292273e-003, -2.27417168e-003, -9.52973496e-004,
          2.36033951e-003, -3.99442110e-003, -4.83500585e-003,
          -6.40255120e-003, -6.63992297e-003, 2.36835354e-003,
          1.78098201e-003, 1.26118318e-003, 3.59907025e-003,
          -9.27237677e-004, -4.58026683e-004, 5.94940409e-003,
          -4.07612277e-003, 2.64409115e-003, 2.09516194e-003,
          3.65622318e-003, 1.69485994e-003, -1.70499319e-003,
          -4.95318836e-003, -1.10507186e-003, -4.25314624e-003,
          7.81790644e-004, -2.58387509e-003, 1.54371629e-003,
          2.12972239e-003, -4.58318414e-003, 1.34955533e-003,
          -8.42181791e-004, 1.54244516e-003, 2.98124785e-003,
          -5.30153140e-003, -2.37242272e-003, -1.72281347e-003,
          -5.59582468e-003, 3.72231659e-003, 1.42173798e-004,
          -3.99187859e-003, -1.53591100e-004, -1.71951670e-003,
          -1.58482569e-003, 1.21239095e-003, 5.10800583e-003,
          2.66777794e-003, 1.62018475e-003, 6.61656260e-004,
          -4.97232795e-005, -3.90730187e-004, 4.49404528e-004,
          5.85216272e-004, 4.41636046e-004, -7.01149460e-004,
          -1.85294333e-003, -1.78329309e-003, 9.10978823e-004,
          -1.50486117e-003, 6.93474358e-005, 4.80186281e-004,
          -5.44509094e-004, -7.52512016e-004, 1.69579405e-003,
          -1.80019683e-003, -2.18460965e-003, -1.64008711e-003,
          7.98645488e-004, 1.94682449e-004, -1.17077772e-003,
          -2.88640382e-003, 1.83687569e-003, 2.01569754e-003,
          6.19425497e-004, 1.20892772e-003, 9.24394466e-004,
          -2.33989849e-004, -1.15423999e-003, 1.22460537e-003,
          -1.21114275e-003, 1.18113868e-003, 3.29945615e-004,
          -1.29819193e-004, -1.68323598e-003 ]
   decision_functions:
      -
         sv_count: 1
         rho: -1.4586357642542391e+000
         alpha: [ 1. ]
         index: [ 0 ]
