%YAML:1.0
my_svm: !!opencv-ml-svm
   svm_type: C_SVC
   kernel: { type:LINEAR }
   C: 1.
   term_criteria: { epsilon:2.2204460492503131e-016, iterations:100 }
   var_all: 128
   var_count: 128
   class_count: 2
   class_labels: !!opencv-matrix
      rows: 1
      cols: 2
      dt: i
      data: [ 0, 1 ]
   sv_total: 1
   support_vectors:
      - [ -7.59326620e-004, -5.27684996e-003, 2.86021357e-004,
          -9.44858592e-004, 6.86534913e-003, -1.82567339e-003,
          -7.44845113e-003, 6.51712995e-004, -1.90628283e-002,
          1.40680382e-002, 7.58233992e-003, -3.87310516e-003,
          2.77203880e-003, -3.10449745e-003, -8.14077351e-003,
          -2.78584455e-004, -2.33359565e-003, -3.47740902e-003,
          1.65778212e-003, 3.04020214e-004, -6.18699612e-003,
          -5.36082964e-003, 1.17515412e-003, -6.42857002e-003,
          -1.59671123e-003, -3.57868476e-003, 4.38388577e-003,
          -1.30217487e-003, -9.11125634e-003, 1.26381486e-003,
          6.16967387e-004, -4.99338051e-003, -4.09665925e-004,
          1.47270810e-004, 5.87884244e-003, -2.07850267e-003,
          6.98858406e-003, 2.85619259e-004, 6.85506361e-003,
          2.73353723e-003, 5.46889473e-003, -1.17676065e-003,
          -2.77297129e-003, -2.42352509e-003, 1.45264785e-003,
          2.08135135e-003, 2.33026524e-003, 8.48301779e-003,
          -6.21418119e-004, -4.88602417e-003, -3.38575151e-003,
          3.27132817e-004, -7.79999560e-003, -2.96856073e-004,
          5.27680479e-003, -1.79825781e-003, 3.18282284e-004,
          1.20941259e-003, -1.32064929e-003, -2.11864989e-003,
          -1.60508184e-003, 6.82596467e-004, 2.17783358e-003,
          -7.36147573e-004, -5.71104356e-005, 2.77078082e-003,
          1.59706164e-003, -3.69103113e-003, 4.01179830e-004,
          3.59166472e-004, 3.29478318e-003, 1.26653258e-003,
          1.98551686e-003, -4.00155364e-003, -1.77071872e-003,
          -1.79286235e-005, 2.98502739e-004, -1.97264482e-003,
          4.63189650e-003, -3.55946878e-003, -7.51104031e-004,
          -2.21596030e-003, -1.06792070e-003, -7.12256238e-004,
          -1.51424843e-003, 1.23387086e-003, -3.06093949e-003,
          -1.15929905e-003, -5.69764525e-004, -3.55987530e-003,
          -1.53636606e-003, 5.40261772e-006, 1.64807576e-003,
          -3.31282662e-003, 2.76517891e-003, -1.02853018e-003,
          -3.77226650e-004, 2.83038500e-003, 1.64729031e-003,
          -1.48176984e-003, -2.18272000e-003, -5.15804102e-004,
          1.21286104e-003, -4.99113172e-004, 1.12937717e-003,
          1.35055243e-003, 1.77062477e-003, -2.04912736e-003,
          -3.02402070e-004, 1.96438399e-003, 5.78028965e-004,
          1.50508364e-003, -4.19001793e-004, 1.55160844e-003,
          -1.12474489e-003, -8.64219852e-004, -3.87707492e-004,
          -1.11817382e-003, 2.79006013e-003, 1.04461925e-003,
          -1.94027356e-003, 4.98728419e-004, -4.40932345e-004,
          -7.44889316e-004, -7.86044577e-004, 1.08717824e-004,
          -1.10580854e-003, 2.34363659e-004 ]
   decision_functions:
      -
         sv_count: 1
         rho: -1.3485221768282625e+000
         alpha: [ 1. ]
         index: [ 0 ]
