%YAML:1.0
my_svm: !!opencv-ml-svm
   svm_type: C_SVC
   kernel: { type:LINEAR }
   C: 1.0000000000000001e-01
   term_criteria: { epsilon:2.2204460492503131e-16, iterations:100 }
   var_all: 128
   var_count: 128
   class_count: 2
   class_labels: !!opencv-matrix
      rows: 1
      cols: 2
      dt: i
      data: [ 0, 1 ]
   sv_total: 1
   support_vectors:
      - [ -2.69915047e-03, 5.97276812e-05, 8.01934395e-04,
          -4.17152187e-04, -2.26647151e-03, 1.19274424e-03,
          -1.13191386e-03, -2.05419119e-03, 2.08022841e-03,
          1.64940429e-03, 2.22241785e-03, 2.05550482e-03,
          -1.58684561e-03, -7.70462037e-04, 3.05046793e-03,
          -1.68459152e-03, 3.73523938e-03, -1.71962008e-03,
          4.27266554e-04, -5.20545640e-04, -4.70671395e-04,
          6.63458544e-04, 5.05273638e-04, -5.40233508e-04,
          -1.60403884e-04, 3.77890863e-03, -7.45792466e-04,
          1.37405412e-03, -3.26234644e-04, -1.01022550e-03,
          7.08011270e-04, -4.03368520e-03, 1.11949781e-03,
          -3.40943644e-03, -9.82431695e-04, 1.52273671e-04,
          1.26496643e-05, -1.22346950e-03, 9.17283702e-04,
          -4.95176006e-04, -1.90538762e-03, -1.04923802e-03,
          1.28350442e-03, 4.04056591e-05, 2.80771143e-04, 4.37219720e-03,
          2.03840295e-03, -9.75370407e-04, 9.67844157e-04,
          -2.67265248e-03, -1.11374678e-03, -1.06276653e-03,
          -1.66091035e-04, -9.07022797e-04, 6.61926577e-04,
          9.08824964e-04, 1.04184379e-04, 8.12903803e-04,
          -2.18570436e-04, -9.15510464e-05, 2.31732684e-03,
          4.34763497e-03, 5.00327675e-04, -8.17353197e-04,
          -5.05380332e-04, 1.07613672e-03, -1.83980330e-03,
          3.35984351e-03, -1.42482563e-03, -6.94853603e-04,
          -7.39661977e-04, -1.51066761e-03, -2.74528493e-03,
          1.02384936e-03, -1.32372312e-03, -9.43873310e-04,
          1.29737702e-04, 3.77390767e-04, 2.80566793e-03, 6.45135413e-04,
          1.18552265e-03, 1.88692915e-03, -5.11208709e-05,
          1.24320749e-03, 3.43934080e-04, 9.17026715e-04, 9.25096218e-04,
          -1.07235776e-03, 2.23184907e-04, -2.82378896e-04,
          1.27804335e-04, -1.58164231e-03, 1.45058229e-03,
          7.06953113e-04, 9.99188051e-04, -1.07472960e-03,
          -3.98505828e-04, -6.34993950e-04, -5.26861440e-05,
          8.24429371e-05, 3.03278037e-04, 2.87685776e-03, 1.74703309e-03,
          1.33556896e-03, -3.48744477e-04, 3.44741740e-04,
          1.11657614e-03, 4.00479679e-04, -1.71875139e-03,
          1.41600461e-03, 3.16711725e-04, 8.50080862e-04, 3.82620608e-04,
          -1.85240549e-03, -4.18688636e-04, -1.56908890e-03,
          1.33074028e-03, -2.38454304e-05, 2.14573025e-04,
          1.58536539e-03, -1.05089636e-03, 4.16295545e-04,
          -4.45631566e-04, -5.43835515e-04, -1.13337371e-03,
          -3.16408608e-04, -5.07159450e-04, 6.30468363e-04 ]
   decision_functions:
      -
         sv_count: 1
         rho: -7.5634573994648652e-02
         alpha: [ 1. ]
         index: [ 0 ]
