%YAML:1.0
my_svm: !!opencv-ml-svm
   svm_type: C_SVC
   kernel: { type:LINEAR }
   C: 1.
   term_criteria: { epsilon:2.2204460492503131e-016, iterations:100 }
   var_all: 128
   var_count: 128
   class_count: 2
   class_labels: !!opencv-matrix
      rows: 1
      cols: 2
      dt: i
      data: [ 0, 1 ]
   sv_total: 1
   support_vectors:
      - [ 3.83065315e-004, 1.07149035e-003, -5.33536891e-004,
          -1.33614021e-003, -7.78622634e-004, 3.21369997e-004,
          5.68196992e-005, -6.52480114e-004, -7.30680709e-004,
          -4.89693135e-004, 1.78039691e-003, 4.60790965e-004,
          2.24435629e-004, -6.69289846e-004, 1.04855117e-003,
          -2.84030219e-004, 1.62183959e-003, 5.94989513e-004,
          3.61910264e-004, 6.28832728e-004, 3.00014648e-003,
          -1.68401864e-003, -5.87794522e-004, 1.66992540e-004,
          6.27238041e-005, 2.49738398e-004, -1.26184299e-004,
          1.88750506e-004, 1.07537233e-003, -4.01216239e-004,
          1.49542626e-004, -2.28346864e-004, -1.10428559e-003,
          1.46748440e-003, -4.41832439e-004, -1.23062730e-003,
          -1.42117462e-003, -6.85207488e-004, -7.21523422e-004,
          -3.87755950e-004, -5.69477910e-004, -4.32375818e-004,
          1.18687388e-003, -1.99445803e-003, -1.20626448e-003,
          3.89242312e-004, 1.08522282e-003, -2.56819738e-004,
          4.77997761e-004, -1.47060747e-003, 5.84229478e-004,
          -1.58806097e-006, 1.42415857e-003, 1.19378354e-004,
          1.03017443e-003, 2.59615308e-006, -3.44922621e-004,
          6.71354210e-005, -6.06086571e-004, -1.78757342e-004,
          2.77230487e-004, -3.70976282e-004, -4.18554468e-004,
          -3.15760699e-004, 4.86505363e-004, -2.83192931e-004,
          -4.54457389e-004, -1.08804135e-003, -2.12691212e-003,
          7.52453052e-005, -7.78218324e-004, -1.37023453e-003,
          -4.93320345e-004, 7.89264857e-004, 1.93630927e-004,
          5.53200487e-004, -4.54321358e-004, -6.43375854e-004,
          -1.90457562e-004, -1.54018251e-003, 5.25384443e-004,
          -6.04281260e-004, -4.40771400e-004, 1.73445034e-003,
          1.30694313e-003, -2.96908431e-004, -3.06945672e-004,
          3.43587744e-004, 2.12188301e-004, -7.39542593e-005,
          -2.23318943e-006, 1.51707776e-004, 5.36061416e-004,
          -6.52818344e-005, 3.44341708e-004, -1.48053696e-005,
          4.22945479e-004, 2.65557610e-004, 6.09813025e-004,
          -3.03094683e-004, -1.15547329e-003, -1.03861668e-004,
          2.94463098e-004, 3.09160896e-005, -1.43576472e-004,
          -2.43744836e-003, 4.19988809e-003, 2.91422621e-004,
          4.61903808e-004, 3.95314972e-004, 4.59648290e-004,
          -6.33025134e-004, 1.66593585e-003, 3.52151096e-006,
          2.00077565e-003, -4.40039410e-004, 7.95941218e-004,
          -6.06063986e-004, -1.61587214e-003, 1.31884054e-003,
          3.04740068e-004, -8.11465782e-007, 1.59187519e-004,
          -4.25609673e-004, 5.83906716e-004, 3.74429190e-004,
          4.01337675e-005, -4.06114159e-005 ]
   decision_functions:
      -
         sv_count: 1
         rho: 2.2424457776842632e-001
         alpha: [ 1. ]
         index: [ 0 ]
