%YAML:1.0
my_svm: !!opencv-ml-svm
   svm_type: C_SVC
   kernel: { type:LINEAR }
   C: 1.
   term_criteria: { epsilon:2.2204460492503131e-16, iterations:100 }
   var_all: 10
   var_count: 10
   class_count: 2
   class_labels: !!opencv-matrix
      rows: 1
      cols: 2
      dt: i
      data: [ 0, 1 ]
   sv_total: 1
   support_vectors:
      - [ -2.57508876e-03, 1.70522043e-03, 3.68085835e-04,
          6.82829937e-04, 3.76847136e-04, 6.38532569e-04, 5.87625545e-04,
          7.02849647e-05, -6.72054535e-04, -1.82492344e-03 ]
   decision_functions:
      -
         sv_count: 1
         rho: 6.3953060196989708e-02
         alpha: [ 1. ]
         index: [ 0 ]
