%YAML:1.0
my_svm: !!opencv-ml-svm
   svm_type: C_SVC
   kernel: { type:LINEAR }
   C: 1.
   term_criteria: { epsilon:2.2204460492503131e-016, iterations:100 }
   var_all: 128
   var_count: 128
   class_count: 2
   class_labels: !!opencv-matrix
      rows: 1
      cols: 2
      dt: i
      data: [ 0, 1 ]
   sv_total: 1
   support_vectors:
      - [ 3.48883169e-003, 6.14636228e-004, 1.75945024e-004,
          -4.51519666e-003, 2.26944615e-003, -2.21869233e-003,
          -7.97548913e-004, 7.69140024e-004, 3.04020126e-003,
          2.75593647e-003, -1.26637600e-003, -4.03044652e-003,
          6.90758636e-004, -1.41050667e-003, 2.19850615e-003,
          4.76868445e-004, 1.60306355e-003, 2.13083834e-003,
          3.98257887e-003, 8.74324411e-004, 5.17144508e-004,
          1.64526602e-004, -5.79066807e-004, 5.46775234e-004,
          -2.09755870e-003, 3.13531817e-003, -1.47202681e-003,
          1.34015898e-003, -3.09565384e-003, 1.15598890e-003,
          -5.10331243e-004, 2.89800786e-003, 2.18507205e-003,
          1.56872463e-003, 2.57512671e-004, 2.29175948e-003,
          4.21459600e-003, -1.00335851e-003, 1.48636068e-003,
          -3.31571419e-003, -2.82042241e-003, 1.01302518e-003,
          -2.13145651e-003, 3.79267003e-004, -1.25389069e-003,
          3.03904060e-003, 1.85634490e-004, 5.66249888e-004,
          3.90698784e-004, -1.46887545e-003, 5.25429314e-005,
          7.18051102e-004, 4.25601332e-003, 2.08952901e-004,
          3.02578381e-004, -2.40120385e-003, -1.58488157e-003,
          5.20551065e-003, 2.05661869e-003, -1.83184922e-003,
          1.50045496e-003, 5.71383571e-004, -1.15904061e-003,
          -1.55827758e-004, 3.08726984e-003, -3.79786834e-005,
          1.32404722e-003, -2.92500807e-003, -8.58226034e-004,
          1.76501938e-003, 3.06876202e-004, -1.04873441e-003,
          -8.72791628e-004, -2.76492303e-003, 3.32056335e-003,
          -3.53884068e-004, -8.79135390e-004, 3.32056987e-003,
          -4.42593533e-004, 8.13017483e-004, 3.75038304e-004,
          2.56355596e-003, 9.04449786e-004, -2.17499933e-003,
          -1.60393922e-003, 8.60198270e-005, 1.55774341e-003,
          1.10618433e-003, 3.70204245e-004, 1.03335164e-003,
          -7.66645069e-004, 4.92666441e-004, 2.49187765e-003,
          1.55688985e-003, -3.48130881e-004, -8.98195489e-004,
          -1.45949563e-003, 5.88374096e-004, 1.80240560e-004,
          -7.19000527e-005, 7.41089578e-004, -1.89666497e-003,
          -5.48864424e-004, -6.90612942e-004, 8.54130893e-004,
          9.85629857e-004, -1.10422168e-003, -2.12134467e-003,
          -4.50766762e-004, 1.21850136e-003, 1.05404521e-004,
          7.10379565e-004, 2.93128192e-003, -6.51794486e-004,
          -1.63861769e-004, -1.41765550e-003, -1.60138108e-004,
          -1.05095690e-003, 1.52332778e-003, 1.32820103e-003,
          9.95029113e-004, -6.47814479e-004, -1.58056570e-003,
          -5.50895784e-005, -1.18542404e-004, -9.86419152e-004,
          -1.72896660e-004, -4.26477520e-004 ]
   decision_functions:
      -
         sv_count: 1
         rho: -3.0621399711333691e-001
         alpha: [ 1. ]
         index: [ 0 ]
