%YAML:1.0
my_svm: !!opencv-ml-svm
   svm_type: C_SVC
   kernel: { type:LINEAR }
   C: 1.0000000000000001e-001
   term_criteria: { epsilon:2.2204460492503131e-016, iterations:100 }
   var_all: 30
   var_count: 30
   class_count: 2
   class_labels: !!opencv-matrix
      rows: 1
      cols: 2
      dt: i
      data: [ 0, 1 ]
   sv_total: 1
   support_vectors:
      - [ 2.90302024e-003, -1.62859680e-003, 7.76423083e-004,
          2.37665172e-005, -1.59510237e-003, 1.24351110e-003,
          1.50326616e-003, -3.25935241e-003, 2.57885573e-003,
          -1.49650744e-003, 2.89429515e-003, 3.96160083e-003,
          -3.08508123e-003, -2.05980963e-003, 4.07628575e-003,
          9.07077570e-004, 1.72099029e-003, -2.30822968e-003,
          -1.80886965e-003, 2.54592788e-003, 1.63381384e-003,
          3.22554843e-003, -4.76995832e-004, 6.23497553e-003,
          8.43359274e-004, -8.24945397e-004, 2.87395110e-003,
          -1.08611397e-003, 3.96112492e-003, -8.73353740e-004 ]
   decision_functions:
      -
         sv_count: 1
         rho: -1.2117574142946370e+000
         alpha: [ 1. ]
         index: [ 0 ]
