%YAML:1.0
my_svm: !!opencv-ml-svm
   svm_type: C_SVC
   kernel: { type:LINEAR }
   C: 1.
   term_criteria: { epsilon:2.2204460492503131e-016, iterations:100 }
   var_all: 128
   var_count: 128
   class_count: 2
   class_labels: !!opencv-matrix
      rows: 1
      cols: 2
      dt: i
      data: [ 0, 1 ]
   sv_total: 1
   support_vectors:
      - [ -4.14609257e-003, -8.61610472e-003, 9.88783082e-004,
          -4.73291799e-003, -2.99485330e-003, 6.01129793e-003,
          -6.54398464e-003, 7.74377398e-003, -5.59365610e-003,
          -7.62760686e-003, -9.24709626e-003, -4.32157842e-003,
          1.68689620e-002, -1.38928257e-002, -2.97064311e-004,
          -1.49669917e-003, -7.01003009e-003, 5.74067328e-003,
          1.43603786e-004, 6.09223219e-003, -2.47424701e-003,
          3.89191962e-004, 1.74503110e-003, -9.96093918e-003,
          2.91062798e-003, 1.52404211e-003, 1.84005511e-003,
          -6.78866124e-003, 2.24962947e-003, -8.72629043e-003,
          -5.12611074e-003, 2.38039112e-003, -4.73128539e-003,
          -3.17332963e-003, 6.91545941e-003, -4.32925764e-004,
          7.75823276e-003, 2.66557373e-003, -1.50637422e-003,
          -1.70044973e-003, 1.53389864e-003, -4.47599497e-003,
          -9.15257912e-003, -5.16884774e-003, -4.65103704e-003,
          5.23446652e-004, -2.91579403e-004, 5.54331858e-003,
          -4.29701107e-003, 6.14592223e-004, -3.09133390e-003,
          -7.48222740e-003, 5.30534191e-003, -3.20016406e-003,
          -7.74836692e-004, 1.62686640e-003, 1.21640880e-003,
          -2.93278322e-003, 2.03923346e-003, 2.59195804e-003,
          3.95160913e-003, -6.09560171e-004, 3.97719815e-003,
          2.22249539e-003, -6.94619725e-004, 9.98185948e-004,
          -3.11603374e-003, -4.00874903e-003, 2.43018055e-003,
          2.23096740e-003, -1.50726363e-003, -2.40085833e-003,
          4.70124139e-003, 3.16857011e-003, 1.64844131e-003,
          -2.70792167e-003, 1.03701837e-003, 1.93804165e-003,
          2.91837007e-003, 5.71490359e-003, -1.31559698e-003,
          4.44869697e-003, -6.75261859e-003, -4.28645918e-003,
          1.90936401e-003, -8.17104417e-004, -2.35843472e-003,
          1.91178441e-003, -3.27700516e-003, -2.25266488e-003,
          4.63676965e-003, 1.89941959e-003, -3.70715017e-004,
          -4.11444635e-004, 7.32881153e-006, 2.34701525e-004,
          6.57466939e-004, 3.77595949e-004, -2.74404389e-004,
          -1.51436799e-003, 3.55393603e-003, 3.86549073e-004,
          -1.87322104e-004, 5.75152371e-005, -2.84313952e-004,
          3.61125148e-003, 2.29898235e-003, -8.94468336e-004,
          1.14429051e-004, -8.71093420e-004, -2.69699539e-003,
          3.01690288e-005, 1.57082384e-003, 3.91810492e-004,
          -3.36239277e-003, -2.65306258e-003, 4.59511648e-004,
          1.48327008e-003, -3.00374028e-004, -7.67390127e-004,
          -2.05788901e-003, 1.80398999e-003, 1.70617970e-003,
          3.79477075e-004, -1.66802655e-003, -1.80231640e-004,
          2.27127661e-004, 2.01051822e-003 ]
   decision_functions:
      -
         sv_count: 1
         rho: -1.4305584068518225e+000
         alpha: [ 1. ]
         index: [ 0 ]
