%YAML:1.0
my_svm: !!opencv-ml-svm
   svm_type: C_SVC
   kernel: { type:LINEAR }
   C: 1.0000000000000001e-001
   term_criteria: { epsilon:2.2204460492503131e-016, iterations:100 }
   var_all: 30
   var_count: 30
   class_count: 2
   class_labels: !!opencv-matrix
      rows: 1
      cols: 2
      dt: i
      data: [ 0, 1 ]
   sv_total: 1
   support_vectors:
      - [ -1.14463456e-003, 3.28273769e-003, -4.29716473e-003,
          -1.64095184e-003, 1.22578337e-003, 2.92044110e-003,
          -3.93740274e-003, 2.70643178e-003, 1.14776217e-003,
          1.71025295e-003, -1.95156119e-003, -2.34380923e-003,
          5.85859583e-004, -1.26252626e-003, -1.11902098e-003,
          -6.90688554e-004, -3.19011859e-003, 2.14773021e-003,
          2.52843089e-003, -2.11882056e-003, -1.84853130e-003,
          -3.52938572e-004, -1.63668080e-003, -6.81812037e-003,
          1.44921694e-004, -1.90152170e-003, 6.65386964e-004,
          1.90664688e-003, 2.51590228e-003, 3.06525966e-004 ]
   decision_functions:
      -
         sv_count: 1
         rho: -2.7380096734861958e-001
         alpha: [ 1. ]
         index: [ 0 ]
