%YAML:1.0
my_svm: !!opencv-ml-svm
   svm_type: C_SVC
   kernel: { type:LINEAR }
   C: 1.
   term_criteria: { epsilon:2.2204460492503131e-016, iterations:100 }
   var_all: 50
   var_count: 50
   class_count: 2
   class_labels: !!opencv-matrix
      rows: 1
      cols: 2
      dt: i
      data: [ 0, 1 ]
   sv_total: 1
   support_vectors:
      - [ 2.41798186e-003, -1.51417800e-003, 1.11351078e-002,
          -6.91116834e-003, 5.64255100e-003, 1.35094654e-002,
          3.82761727e-003, -7.85818556e-004, -3.73843824e-003,
          -6.93743676e-003, -2.91649532e-003, -1.02921133e-003,
          -1.45870249e-003, 5.26060117e-003, -2.83287093e-003,
          -1.31090020e-003, -1.05827011e-003, 1.59346964e-003,
          -5.68018621e-003, 1.74830155e-003, 3.07739293e-003,
          2.11968157e-003, 4.74958913e-004, -3.13426252e-004,
          -5.30857651e-004, 2.08712136e-003, -1.34895393e-003,
          2.07074918e-004, -2.51156138e-003, -2.63265637e-003,
          -6.09453593e-004, 9.81727731e-004, 1.02762028e-003,
          4.55655594e-004, -6.06499263e-004, -2.67899566e-004,
          -4.06153296e-004, 2.63712689e-004, -1.70939835e-004,
          3.24462657e-004, -5.54837497e-005, 3.89672001e-004,
          7.47436279e-005, -1.78084316e-004, 1.45137281e-004,
          1.31066321e-004, -3.02812314e-005, 5.15020329e-005,
          -4.24792188e-006, 6.32820418e-004 ]
   decision_functions:
      -
         sv_count: 1
         rho: -7.1325944869246360e-001
         alpha: [ 1. ]
         index: [ 0 ]
