%YAML:1.0
my_svm: !!opencv-ml-svm
   svm_type: C_SVC
   kernel: { type:LINEAR }
   C: 1.0000000000000001e-001
   term_criteria: { epsilon:2.2204460492503131e-016, iterations:100 }
   var_all: 128
   var_count: 128
   class_count: 2
   class_labels: !!opencv-matrix
      rows: 1
      cols: 2
      dt: i
      data: [ 0, 1 ]
   sv_total: 1
   support_vectors:
      - [ -2.45881476e-003, 8.18061642e-004, -8.06270284e-004,
          -6.77595381e-004, 7.11370434e-004, 3.79957026e-003,
          3.41861113e-003, 1.74240093e-003, -1.70387200e-003,
          -6.44980348e-004, 3.42560094e-003, 2.10491451e-003,
          1.68531260e-003, 1.43220159e-003, -1.67237932e-003,
          -7.91833561e-004, -1.68242410e-003, -2.17916956e-003,
          1.32903946e-003, 1.15497177e-003, 1.23699103e-003,
          -2.97493977e-003, -1.91245170e-004, -3.53263947e-003,
          -6.27961569e-003, -9.29027097e-004, -2.17534555e-003,
          5.32898521e-005, 5.74363105e-004, -4.24181984e-004,
          1.98560301e-003, 7.10202032e-004, 9.65695130e-004,
          3.10770189e-003, 2.35569431e-003, -4.40685835e-004,
          9.13849333e-004, -2.34726071e-003, 2.20273156e-003,
          3.41167412e-004, 5.43783593e-004, 9.12649441e-004,
          1.98504352e-003, -1.58750580e-003, -3.90651403e-003,
          1.29484420e-003, 1.12545805e-003, 6.35474967e-003,
          3.29504791e-003, -3.18232994e-003, 2.20349873e-003,
          1.38488668e-003, 3.78047291e-004, -5.98878483e-004,
          3.70431080e-005, -1.74016203e-003, -5.70179662e-004,
          -4.75164130e-003, -6.72766764e-004, -2.21057003e-003,
          -1.10104238e-003, -3.73612694e-003, -7.79322174e-004,
          7.25549005e-004, 5.51012694e-004, -2.29416415e-003,
          8.05575168e-004, -1.50985565e-004, -8.59287160e-004,
          -1.16145622e-003, -1.83300569e-003, 2.49585672e-003,
          -8.14173894e-004, -4.18945635e-003, -9.75382747e-004,
          -6.79786201e-004, -2.66665546e-003, 2.08358234e-003,
          -1.72049273e-003, -2.95867817e-003, -1.01713557e-003,
          -1.96299423e-003, 1.48070033e-003, -2.03554111e-004,
          6.76674827e-004, 2.64071301e-003, -5.87476185e-004,
          2.03517775e-005, 9.61410929e-004, -2.42306432e-003,
          -3.85423977e-004, -1.52207480e-003, -1.05266902e-003,
          2.06729979e-003, -1.01833185e-003, 6.14727556e-004,
          1.15737598e-003, -6.52842224e-004, 1.62797631e-003,
          -1.22344907e-004, 7.67436752e-004, -1.18804793e-003,
          -2.10128608e-004, -1.36097695e-003, 1.98860560e-003,
          -3.09686846e-004, 6.12209915e-005, 1.03886158e-003,
          2.76991195e-004, 7.54720822e-004, 6.15836179e-004,
          -5.20788424e-004, -1.59248326e-003, 1.85015984e-003,
          -1.55317399e-003, -4.80753306e-006, -1.22291024e-003,
          6.20518054e-004, -3.94962844e-004, 8.80393025e-004,
          4.66312369e-004, -4.91132378e-004, -1.51635392e-003,
          -3.44872911e-004, 1.00907648e-003, -2.32106704e-005,
          4.88791207e-004, 4.57076210e-004 ]
   decision_functions:
      -
         sv_count: 1
         rho: -1.3865067824212080e-001
         alpha: [ 1. ]
         index: [ 0 ]
