%YAML:1.0
my_svm: !!opencv-ml-svm
   svm_type: C_SVC
   kernel: { type:LINEAR }
   C: 1.0000000000000001e-01
   term_criteria: { epsilon:2.2204460492503131e-16, iterations:100 }
   var_all: 128
   var_count: 128
   class_count: 2
   class_labels: !!opencv-matrix
      rows: 1
      cols: 2
      dt: i
      data: [ 0, 1 ]
   sv_total: 1
   support_vectors:
      - [ -1.62814674e-03, -1.92716287e-03, 6.47990324e-04,
          4.54525696e-03, 3.38243408e-04, -6.42321713e-04,
          -7.82102637e-04, 9.43659048e-04, -1.91867503e-03,
          -6.08078390e-03, -3.32196243e-03, -8.50001001e-04,
          2.40959949e-03, -1.49553071e-03, -2.39831721e-03,
          4.48261574e-03, -4.28137975e-03, 1.50133134e-03,
          2.04010343e-04, 2.51365430e-03, -3.46945657e-04,
          -5.32376301e-03, -1.49177120e-03, 2.96914973e-03,
          5.17568667e-04, -1.97727815e-04, 9.39158635e-05,
          -1.62865501e-03, -1.00300691e-04, -7.37467664e-04,
          -1.14090205e-03, 5.18803427e-04, 1.03890954e-03,
          2.94015300e-03, 1.27343531e-03, -9.00255691e-05,
          2.83736619e-03, -3.22847773e-04, -3.79852392e-03,
          1.06754934e-03, -2.69127719e-04, 3.96859978e-04,
          1.09347247e-03, 1.00704121e-04, 1.77586311e-03,
          -1.75163464e-03, 8.75127444e-04, -6.38827682e-04,
          -9.06725647e-04, 1.32813270e-03, -1.73772874e-04,
          -2.68606422e-03, 3.15024611e-03, -1.60686625e-03,
          9.42039362e-04, -1.02279172e-03, 1.15594058e-03,
          2.75938166e-03, -1.47353520e-03, -2.73202010e-03,
          -8.52473604e-04, -1.02351909e-03, -6.84793864e-04,
          -6.16767735e-04, 8.52427038e-04, -7.24246376e-04,
          8.91601609e-04, -1.59093423e-03, 8.98142636e-04,
          1.79425546e-03, -1.34444353e-03, 1.21795107e-03,
          -3.01711517e-03, -1.54170312e-03, -2.74821511e-03,
          -5.37847169e-04, -1.74534833e-03, 5.47462376e-04,
          1.06653175e-03, 1.33214786e-03, 3.58027290e-04, 9.27985457e-05,
          -1.28887326e-03, 1.13156904e-03, 1.96819054e-03,
          -1.30010303e-03, 9.76253883e-04, -2.86905444e-04,
          5.91925869e-04, -2.07303581e-03, -1.61605130e-03,
          3.34059238e-04, 8.37033731e-04, -1.28380791e-03,
          -5.18748595e-04, 5.62767684e-03, 2.04581860e-03,
          -1.56769564e-03, -3.98390228e-04, 1.77947187e-03,
          -3.06105940e-04, -1.04274729e-03, -3.21743824e-03,
          -5.99700084e-04, -7.56226073e-04, -4.74182016e-04,
          -9.99672804e-04, 1.30440725e-03, 7.18784402e-04,
          -6.84455677e-04, -5.74812992e-04, -2.75537698e-03,
          -4.79994895e-04, -7.49060709e-04, -1.33039430e-03,
          1.19575753e-03, -1.40782096e-03, 2.43550952e-04,
          -1.15361356e-03, -6.62567152e-04, 1.06915017e-03,
          -2.18010173e-04, 2.27792445e-03, 1.44661567e-03,
          1.63810654e-03, 4.01723461e-04, 5.95750287e-04,
          -5.67324350e-05 ]
   decision_functions:
      -
         sv_count: 1
         rho: 1.4222514126991064e-02
         alpha: [ 1. ]
         index: [ 0 ]
