%YAML:1.0
my_svm: !!opencv-ml-svm
   svm_type: C_SVC
   kernel: { type:LINEAR }
   C: 1.
   term_criteria: { epsilon:2.2204460492503131e-016, iterations:100 }
   var_all: 128
   var_count: 128
   class_count: 2
   class_labels: !!opencv-matrix
      rows: 1
      cols: 2
      dt: i
      data: [ 0, 1 ]
   sv_total: 1
   support_vectors:
      - [ -1.39314064e-003, -5.99864325e-005, -2.38074674e-004,
          -1.32422964e-003, -1.35921570e-003, -5.18781075e-004,
          4.44089033e-004, -1.58138899e-003, 9.17671889e-004,
          -4.99242218e-004, 6.19672472e-004, -2.09507323e-003,
          -2.84984824e-003, -1.35924853e-003, -6.29746588e-004,
          -1.94578723e-003, 1.19798782e-003, 5.62547764e-004,
          5.59886335e-004, -1.51448196e-003, -4.98491048e-004,
          -1.18564954e-003, -7.15012837e-004, 3.53792333e-004,
          -7.02042598e-004, -1.36353599e-004, 1.73121414e-004,
          8.39844346e-004, 2.14954559e-003, 1.34581423e-004,
          4.49451618e-004, 2.64199160e-004, -6.52317889e-004,
          4.55215661e-004, 1.49758325e-005, 5.09032165e-004,
          1.15158669e-004, -2.09329155e-004, 7.32943474e-004,
          -1.77645794e-004, 1.20572979e-003, -6.95082490e-005,
          -1.64422017e-004, -2.82844389e-003, -3.14202346e-003,
          -4.09095919e-005, -3.01252410e-004, -6.99252298e-004,
          1.63571420e-003, -9.04632441e-004, 3.75006959e-004,
          4.61512900e-005, 1.08190863e-004, 1.64841025e-004,
          3.62447099e-005, 1.22136204e-003, -1.36468362e-003,
          -1.18567252e-004, -4.53838322e-004, 8.82320572e-004,
          1.26304058e-003, 2.12060753e-004, -1.39576310e-004,
          -5.56920073e-004, -1.30857003e-003, -1.76069874e-003,
          -8.26631265e-004, 1.22990095e-004, -2.38212975e-004,
          4.36981827e-006, 7.69536942e-004, 2.65556999e-004,
          8.77600920e-004, 1.42798841e-003, -1.76071166e-003,
          -2.01352243e-003, -1.48026447e-003, -1.16921309e-003,
          -5.79552492e-004, 1.08578056e-003, 2.63290619e-003,
          1.54264912e-003, -6.24372507e-004, 2.11677467e-003,
          1.32597936e-003, -1.30968881e-004, -6.55353011e-004,
          2.97987997e-003, -7.97338958e-004, 3.36002733e-004,
          -3.20684048e-004, 5.23441297e-004, 8.93093878e-004,
          2.97719758e-004, 2.27082593e-004, 1.62358920e-004,
          -8.39544111e-004, -2.79755448e-004, -1.55763482e-004,
          4.18545736e-004, -2.67814175e-004, 2.16843328e-004,
          3.35194112e-004, -6.18870370e-004, -3.03551817e-004,
          -2.20950213e-004, 1.56289944e-003, -1.79820301e-004,
          -6.60537451e-004, -8.48192212e-005, 6.50147485e-005,
          3.55910364e-004, 7.31229724e-004, 1.03112179e-004,
          1.80759991e-003, 1.12911745e-003, -2.82717345e-004,
          -7.32766872e-004, -1.30749156e-003, 8.78110586e-004,
          -6.34346390e-004, -2.03655200e-005, 2.91998294e-004,
          4.21737408e-004, -3.15601173e-005, -3.87375709e-004,
          -4.63300210e-004, -1.87120502e-004 ]
   decision_functions:
      -
         sv_count: 1
         rho: -9.6103379973517511e-001
         alpha: [ 1. ]
         index: [ 0 ]
