%YAML:1.0
my_svm: !!opencv-ml-svm
   svm_type: C_SVC
   kernel: { type:LINEAR }
   C: 1.0000000000000001e-001
   term_criteria: { epsilon:2.2204460492503131e-016, iterations:100 }
   var_all: 128
   var_count: 128
   class_count: 2
   class_labels: !!opencv-matrix
      rows: 1
      cols: 2
      dt: i
      data: [ 0, 1 ]
   sv_total: 1
   support_vectors:
      - [ -1.86507765e-003, -1.77300966e-003, 2.78936815e-003,
          8.07293516e-004, -2.47715245e-004, -2.74938485e-003,
          -1.47903990e-003, -1.12746982e-003, 3.14505654e-003,
          -4.32564848e-004, -3.14506795e-003, -2.41855552e-004,
          -6.75340882e-003, 3.71185830e-003, 2.74568796e-003,
          1.32738333e-003, 1.69212313e-003, 3.23201925e-003,
          -2.09966721e-003, 1.26696099e-003, -5.68341406e-004,
          7.21144665e-004, -7.98253226e-004, 2.89040594e-003,
          4.15632641e-003, 7.30310800e-004, 1.54535018e-003,
          -2.10981909e-003, -1.31162768e-003, 2.78099324e-003,
          -9.84579325e-004, -1.42290746e-003, 1.60291651e-003,
          -2.20884453e-003, -2.33485131e-003, -1.09070294e-004,
          -1.25700471e-005, -2.55915831e-004, -2.47208658e-003,
          -5.55664825e-004, -2.12391745e-003, 5.56661980e-004,
          -4.95666463e-004, 2.41321162e-003, 4.59016347e-003,
          -5.48359647e-004, 1.58846925e-003, -3.78226140e-003,
          -3.62711377e-003, 2.40142504e-003, -4.75660339e-003,
          -3.14024207e-003, 9.32302355e-005, -3.93658207e-004,
          -1.62481482e-003, -1.77468042e-004, 1.13177393e-003,
          5.30323526e-003, 1.02642334e-004, 1.13757642e-003,
          2.40015658e-003, 3.05666472e-003, 1.81510998e-003,
          -2.62513594e-003, 5.16043401e-005, 1.91017694e-003,
          5.95088059e-004, 6.13087905e-004, -1.26848824e-003,
          2.10534479e-003, 2.10401719e-003, -1.68100628e-003,
          -8.71896569e-004, 7.85835553e-004, 1.31593039e-003,
          2.61258654e-004, 3.09627270e-003, -1.36926305e-003,
          1.45440095e-003, 3.46990628e-003, 5.80856518e-004,
          2.46825721e-006, -1.29431544e-003, 2.23938128e-004,
          -5.87253307e-004, -1.53727538e-003, -9.72628652e-004,
          -1.54976646e-004, -7.77459063e-005, 2.72228383e-003,
          -1.13572984e-003, 9.05617955e-004, 3.29146016e-004,
          -2.68128025e-003, 1.07900519e-003, -1.54150344e-004,
          -1.38558261e-003, 1.25373379e-004, -1.23642967e-003,
          1.31002453e-003, -9.27207759e-004, 5.10822167e-004,
          7.06834020e-004, -2.94085912e-005, -2.65070470e-003,
          -7.50419713e-005, 6.34589756e-004, -6.77064992e-004,
          5.17197186e-004, 6.50032307e-005, -6.09866111e-004,
          6.54899923e-004, -3.33372154e-004, -8.04289244e-004,
          1.96291949e-003, 7.55799920e-005, 1.71831471e-003,
          -1.14034663e-003, 8.27126380e-004, -6.20396517e-004,
          -4.80547635e-004, 7.03258498e-004, 1.12063682e-003,
          8.53467791e-005, -9.28111724e-004, 3.06166185e-004,
          -6.52746123e-004, -2.83867150e-004 ]
   decision_functions:
      -
         sv_count: 1
         rho: 1.8352338470386859e-001
         alpha: [ 1. ]
         index: [ 0 ]
