%YAML:1.0
my_svm: !!opencv-ml-svm
   svm_type: C_SVC
   kernel: { type:LINEAR }
   C: 1.
   term_criteria: { epsilon:2.2204460492503131e-16, iterations:100 }
   var_all: 10
   var_count: 10
   class_count: 2
   class_labels: !!opencv-matrix
      rows: 1
      cols: 2
      dt: i
      data: [ 0, 1 ]
   sv_total: 1
   support_vectors:
      - [ 3.28730140e-03, 7.63351738e-04, 3.39751656e-04,
          -5.36490872e-04, -5.76809631e-04, 4.79638955e-04,
          5.39684028e-04, 4.38394229e-04, -7.47201266e-04,
          7.87680328e-04 ]
   decision_functions:
      -
         sv_count: 1
         rho: -3.3765930229716640e-01
         alpha: [ 1. ]
         index: [ 0 ]
