%YAML:1.0
my_svm: !!opencv-ml-svm
   svm_type: C_SVC
   kernel: { type:LINEAR }
   C: 1.
   term_criteria: { epsilon:2.2204460492503131e-016, iterations:100 }
   var_all: 128
   var_count: 128
   class_count: 2
   class_labels: !!opencv-matrix
      rows: 1
      cols: 2
      dt: i
      data: [ 0, 1 ]
   sv_total: 1
   support_vectors:
      - [ -1.66957255e-003, -2.10412400e-004, 3.08001996e-003,
          4.92356252e-004, 8.22107133e-004, -3.51227261e-003,
          1.15774863e-003, -7.25678052e-004, 3.94393690e-003,
          -1.96028990e-003, -3.69027257e-003, -1.55708333e-003,
          3.47914197e-003, 1.67804246e-003, -7.25882303e-004,
          -8.27388256e-004, 1.85503601e-003, -4.15702676e-003,
          -2.38169194e-003, 1.05580001e-003, -2.55057937e-003,
          -1.09674211e-003, -1.00477750e-003, 4.28441959e-003,
          -5.94426226e-003, -6.67259505e-004, -2.01211614e-003,
          1.56899459e-005, 1.73999870e-003, -1.00006745e-003,
          1.04541250e-003, 1.08307844e-003, -1.07207382e-003,
          3.74540221e-003, -1.44984492e-003, 1.08406332e-003,
          3.93838796e-004, 1.82242395e-004, 2.89600599e-003,
          -2.33336259e-003, 1.28295494e-003, 9.72219917e-004,
          -1.06374500e-003, 2.31868541e-003, 7.17658317e-004,
          -1.32159330e-003, 3.64327780e-003, -1.89412758e-003,
          6.41774153e-003, -1.59552874e-004, 1.54566742e-003,
          1.83469290e-003, 2.48912442e-003, -1.94929820e-003,
          -1.21526781e-003, 1.96900661e-003, 4.02450183e-004,
          -9.10241040e-004, -1.37413328e-003, 2.12459988e-003,
          1.64595852e-003, 4.09046654e-003, -2.45363754e-003,
          -4.12689056e-003, 1.42275996e-003, 2.33199884e-004,
          4.46911690e-005, 7.06660096e-004, -6.44157932e-004,
          -1.03130215e-003, 3.48325563e-003, 3.02898441e-003,
          -1.90812701e-004, -3.00357491e-003, -1.96461356e-003,
          2.77773361e-004, -2.20993673e-003, -8.51225806e-004,
          -7.15029950e-004, -2.36157025e-003, 8.92056967e-004,
          4.58108902e-004, 1.27859018e-003, 1.78489112e-003,
          -2.27873633e-003, 4.20630211e-004, -9.47050052e-004,
          -1.13901007e-003, -1.60374650e-004, 1.96440704e-003,
          2.72738351e-003, -4.86621168e-004, -4.13643924e-004,
          -1.10844756e-003, 2.47258140e-004, -1.11859874e-003,
          -2.39772652e-003, -2.83771486e-004, -2.13839393e-003,
          1.99213857e-003, 5.56514249e-004, 5.03246905e-004,
          1.03828286e-004, 2.94081674e-005, 2.99430056e-003,
          8.71461583e-004, 2.27689845e-004, -7.72022293e-004,
          -1.38884177e-003, -9.04208689e-004, -4.44990234e-004,
          -3.92655202e-004, 8.32060527e-004, -5.27975790e-004,
          4.14649810e-004, -1.28549186e-003, -1.49642571e-003,
          1.14426926e-004, -2.48999830e-004, -1.50172424e-003,
          7.01593817e-004, 1.46040483e-003, 1.49852224e-003,
          -1.84182674e-004, 7.57316244e-004, -1.25259148e-005,
          -1.18670322e-003, -4.81882671e-005 ]
   decision_functions:
      -
         sv_count: 1
         rho: 4.9549045490879941e-002
         alpha: [ 1. ]
         index: [ 0 ]
