%YAML:1.0
my_svm: !!opencv-ml-svm
   svm_type: C_SVC
   kernel: { type:LINEAR }
   C: 1.0000000000000001e-001
   term_criteria: { epsilon:2.2204460492503131e-016, iterations:100 }
   var_all: 30
   var_count: 30
   class_count: 2
   class_labels: !!opencv-matrix
      rows: 1
      cols: 2
      dt: i
      data: [ 0, 1 ]
   sv_total: 1
   support_vectors:
      - [ 2.09259987e-002, 7.01428438e-003, -1.21939508e-003,
          5.40881371e-003, -8.42682365e-003, 8.58077873e-003,
          -2.23743971e-002, 5.99361304e-003, -1.94447711e-002,
          7.74630066e-003, -1.34350853e-002, 8.11184943e-003,
          2.24621240e-002, -1.51857445e-002, -6.90509984e-003,
          -4.07232670e-003, 1.63531508e-002, -2.09155474e-002,
          6.60160836e-003, -1.23584196e-002, 1.25684133e-002,
          -3.89463129e-003, 9.12067294e-003, -5.22432569e-003,
          1.07802264e-002, -7.93980958e-004, -6.55115722e-003,
          5.23796026e-003, -1.97804300e-003, 2.55857892e-002 ]
   decision_functions:
      -
         sv_count: 1
         rho: -2.8501902871202467e+000
         alpha: [ 1. ]
         index: [ 0 ]
