%YAML:1.0
my_svm: !!opencv-ml-svm
   svm_type: C_SVC
   kernel: { type:LINEAR }
   C: 1.
   term_criteria: { epsilon:2.2204460492503131e-016, iterations:100 }
   var_all: 128
   var_count: 128
   class_count: 2
   class_labels: !!opencv-matrix
      rows: 1
      cols: 2
      dt: i
      data: [ 0, 1 ]
   sv_total: 1
   support_vectors:
      - [ -1.42212317e-003, -2.44906754e-003, 1.36781181e-003,
          -8.33247846e-004, 1.14885787e-003, 1.25839398e-003,
          2.30601639e-003, -3.16507299e-003, -1.78415282e-003,
          2.31076498e-003, -2.10843957e-003, 2.52636313e-003,
          6.49196911e-004, 3.40283965e-003, -3.09512997e-003,
          -1.73067884e-003, -4.46685543e-003, -1.86509476e-003,
          -3.15255928e-003, 1.96057442e-003, 3.31649702e-004,
          2.56125326e-003, 1.34497392e-003, -1.69720908e-003,
          -5.29241515e-004, -3.22216749e-003, -1.37641246e-003,
          2.03794427e-003, 5.97303733e-004, 1.04671496e-003,
          1.54353108e-003, -2.38867407e-003, -2.12809863e-003,
          -1.81408110e-003, 7.95152853e-004, -1.45585940e-003,
          -4.83761723e-005, 5.88419265e-004, 9.96827264e-004,
          1.51587464e-003, 2.64992449e-003, -1.77049730e-003,
          8.56577128e-004, 5.47182339e-004, -6.64808380e-004,
          -4.26125107e-003, -7.85933051e-004, -2.46179290e-004,
          -9.01604712e-004, 7.99724075e-004, 9.92391841e-004,
          6.49294234e-004, -1.23719685e-003, -1.25382270e-003,
          -9.11529467e-004, 1.25676510e-003, 1.74581062e-003,
          -1.24563766e-003, -9.63054714e-004, -5.59164444e-004,
          -4.12503118e-003, -1.00566621e-003, -3.20164487e-003,
          -6.32379553e-004, 2.06320561e-004, -1.96556258e-003,
          -1.64434873e-003, 2.65660766e-003, -3.43025604e-004,
          5.84442809e-004, -3.49153037e-004, 7.74247514e-004,
          3.83172592e-004, 2.54713744e-003, -2.81657279e-003,
          4.64854566e-005, -7.44693389e-005, -3.12044704e-003,
          9.23161570e-004, -1.38450635e-003, -7.41135504e-004,
          -2.38026003e-003, 1.33067975e-003, -1.31810069e-004,
          -1.11218705e-003, -7.20655429e-004, -2.67319265e-003,
          -1.48996094e-003, -1.25491468e-003, -5.99792867e-004,
          -2.95644335e-004, -7.03973346e-004, -7.11427478e-004,
          5.43477014e-004, 1.70690939e-003, -1.14990638e-004,
          -2.51199264e-004, -3.00005395e-005, -1.35876366e-003,
          -1.11841294e-003, -6.52887247e-005, 1.26342184e-003,
          3.56765115e-003, 9.35709031e-005, 9.92366695e-004,
          -1.56726222e-003, 1.37928745e-003, -4.44432924e-004,
          -9.50511836e-004, -1.59070606e-003, 7.95143715e-005,
          6.75354968e-004, -7.50253268e-004, -1.36718177e-003,
          1.33298815e-003, 2.64743436e-003, -1.07438653e-003,
          -4.54769861e-007, -2.52259139e-004, -2.67326995e-003,
          2.85805636e-005, -6.53622847e-004, 2.49177479e-004,
          1.16137846e-003, -2.53621431e-004, -2.06762372e-004,
          -9.96540883e-004, 2.08110767e-004 ]
   decision_functions:
      -
         sv_count: 1
         rho: 1.9707462913121659e-001
         alpha: [ 1. ]
         index: [ 0 ]
