%YAML:1.0
my_svm: !!opencv-ml-svm
   svm_type: C_SVC
   kernel: { type:LINEAR }
   C: 1.
   term_criteria: { epsilon:2.2204460492503131e-16, iterations:100 }
   var_all: 10
   var_count: 10
   class_count: 2
   class_labels: !!opencv-matrix
      rows: 1
      cols: 2
      dt: i
      data: [ 0, 1 ]
   sv_total: 1
   support_vectors:
      - [ -2.68944539e-03, 1.58557366e-03, -8.14886414e-04,
          9.68565000e-05, 1.50213746e-04, -1.03936344e-03,
          4.10748937e-04, 4.20507655e-04, -1.42934132e-05,
          1.59903560e-04 ]
   decision_functions:
      -
         sv_count: 1
         rho: -7.8547171826876455e-02
         alpha: [ 1. ]
         index: [ 0 ]
