%YAML:1.0
my_svm: !!opencv-ml-svm
   svm_type: C_SVC
   kernel: { type:LINEAR }
   C: 1.
   term_criteria: { epsilon:2.2204460492503131e-016, iterations:100 }
   var_all: 128
   var_count: 128
   class_count: 2
   class_labels: !!opencv-matrix
      rows: 1
      cols: 2
      dt: i
      data: [ 0, 1 ]
   sv_total: 1
   support_vectors:
      - [ -3.35209514e-003, -7.15777325e-003, 2.00571070e-004,
          -4.16299142e-003, -1.78809557e-003, -4.83045401e-003,
          -6.23953575e-003, 6.39429735e-003, -5.55723440e-003,
          6.93956763e-003, -7.88266864e-003, -4.60726442e-003,
          1.86370704e-002, -1.34831760e-002, -9.67017666e-004,
          -6.89906185e-004, -4.11989447e-003, -6.20708521e-003,
          2.81504006e-003, 6.04258943e-003, 1.26567471e-003,
          4.06282721e-003, 1.04568119e-003, -9.50751733e-003,
          1.42564939e-003, 1.45387521e-003, 3.38042225e-003,
          6.01374591e-003, 3.48357717e-003, -5.25208982e-003,
          5.39502315e-003, 1.69200229e-003, -3.53366439e-003,
          -3.04686511e-003, -8.20112601e-003, -1.72909605e-003,
          -6.39152247e-003, -4.13687740e-005, -8.23303417e-004,
          4.16114600e-003, 1.52629369e-003, -2.12592841e-003,
          4.97302227e-003, -9.36912838e-003, 1.05595635e-003,
          -1.21361949e-003, 3.34694353e-003, -1.51108811e-003,
          -1.30976317e-003, 5.98149607e-003, 4.88329120e-003,
          7.11821951e-003, 6.31136773e-003, -3.21830693e-003,
          1.99560984e-003, 6.12748991e-005, -2.14470364e-003,
          1.70743803e-003, -1.75287656e-003, 1.80688396e-003,
          4.58032312e-003, -5.30283025e-004, 3.11246002e-003,
          3.29156104e-003, -7.65238132e-004, -3.55545920e-003,
          3.48753762e-003, -4.17856127e-003, -4.55348566e-003,
          -3.73812462e-003, -5.80342370e-004, -3.19424551e-003,
          -1.29260719e-004, 4.69468813e-003, 1.18511752e-003,
          -3.54009145e-003, -4.90229577e-004, 3.49277840e-003,
          -5.18348254e-003, 2.58022221e-003, 9.83493752e-004,
          -4.84179560e-004, 7.09236739e-003, 1.83851877e-003,
          -2.07558367e-003, -1.96222821e-003, -2.74135638e-003,
          -2.01880047e-003, -2.12995289e-003, 4.93037608e-003,
          -2.69111875e-003, 6.13207521e-004, 1.54228951e-003,
          -6.42681553e-004, 7.96445122e-004, 7.80544069e-004,
          1.58460182e-003, -9.41629289e-004, -8.11583377e-005,
          -1.99201400e-003, -2.88147246e-003, 5.07379940e-004,
          -7.79969327e-004, 8.81916203e-004, 5.09232807e-004,
          -1.79508328e-003, 6.15297831e-005, -2.93357973e-003,
          -1.05446472e-003, -6.18002668e-004, -7.35746406e-004,
          -1.33663137e-003, -1.32440880e-003, -1.43912539e-003,
          -6.80333877e-004, 4.10647364e-003, -1.73854502e-003,
          -6.67168817e-004, -7.82103889e-005, 1.76062470e-003,
          1.93672939e-004, -1.50868099e-003, 2.56130937e-003,
          4.45735524e-004, -7.59168412e-004, -3.67366556e-005,
          1.52736568e-004, 2.16410658e-003 ]
   decision_functions:
      -
         sv_count: 1
         rho: -1.3253154112884924e+000
         alpha: [ 1. ]
         index: [ 0 ]
