%YAML:1.0
my_svm: !!opencv-ml-svm
   svm_type: C_SVC
   kernel: { type:LINEAR }
   C: 1.0000000000000001e-001
   term_criteria: { epsilon:2.2204460492503131e-016, iterations:100 }
   var_all: 128
   var_count: 128
   class_count: 2
   class_labels: !!opencv-matrix
      rows: 1
      cols: 2
      dt: i
      data: [ 0, 1 ]
   sv_total: 1
   support_vectors:
      - [ -4.45087813e-003, -6.25004247e-003, 1.19689573e-003,
          -3.28771141e-003, -2.15909514e-003, -5.03827026e-003,
          -6.92595122e-003, 7.05124903e-003, -8.27249233e-003,
          6.41014474e-003, -6.89648883e-003, -2.72630597e-003,
          1.79012045e-002, -1.27273956e-002, -7.38033705e-005,
          -2.11609039e-003, -6.00878336e-003, -7.43245147e-003,
          4.44115605e-004, 5.95589075e-003, 1.69758848e-003,
          3.29407956e-003, 9.71438247e-004, -9.95252747e-003,
          2.59092939e-003, 1.08151769e-004, 3.31298495e-003,
          6.03173813e-003, 4.36689286e-003, -4.21804236e-003,
          5.13301743e-003, 2.66304938e-003, -4.55413293e-003,
          -3.12323705e-003, -7.31800823e-003, -1.77059579e-003,
          -7.22311018e-003, 7.20940938e-004, -1.77536381e-003,
          3.71536682e-003, 6.50712827e-005, -2.93095526e-003,
          3.28187202e-003, -8.08678102e-003, 7.80689064e-004,
          -2.36230809e-003, 3.44172399e-003, -1.88481295e-003,
          -2.08215928e-003, 6.42412063e-003, 3.01979086e-003,
          7.54924770e-003, 4.78629861e-003, -2.46325415e-003,
          3.37225595e-003, 2.95537815e-004, -7.03352387e-004,
          2.83669680e-003, -1.19301630e-003, 2.37042992e-003,
          4.77656163e-003, -7.66423997e-004, 3.94783309e-003,
          3.33614484e-003, -8.78303137e-004, -1.11214467e-003,
          2.50193267e-003, -3.91771644e-003, -4.60608210e-003,
          -4.26035421e-003, 2.82991183e-004, -2.68566608e-003,
          -1.63230707e-003, 4.27270774e-003, 1.76842418e-003,
          -4.25843988e-003, -1.54740433e-003, 2.95914174e-003,
          -5.82804950e-003, 2.32082070e-003, 1.18191540e-003,
          8.90229305e-004, 7.04374956e-003, 2.44241464e-003,
          -1.86139427e-003, -2.95397826e-003, -2.13491335e-003,
          -1.57731888e-003, -1.60844962e-003, 4.92321979e-003,
          -3.38227209e-003, 7.15745841e-007, 7.02212972e-004,
          -4.53461544e-004, 6.91175403e-004, 4.49087645e-004,
          6.74545649e-004, -9.61198122e-004, 1.16582458e-004,
          -1.39854546e-003, -2.09812867e-003, 5.03279676e-004,
          -3.81783990e-004, 4.53143410e-004, 2.73433921e-004,
          -2.10445886e-003, -8.54628859e-004, -3.16190929e-003,
          -8.76470644e-004, -3.65410204e-004, -1.22632575e-003,
          -7.97903223e-004, -4.83529060e-004, -8.89001531e-004,
          -1.12810824e-003, 3.95385921e-003, -1.83415320e-003,
          -2.77011335e-004, -2.28086879e-004, 1.90268666e-003,
          2.74290451e-005, -1.33433659e-003, 2.34337291e-003,
          3.94350296e-004, -1.03649765e-003, 1.93697357e-004,
          2.34767693e-004, 2.07562675e-003 ]
   decision_functions:
      -
         sv_count: 1
         rho: -1.3935510788356757e+000
         alpha: [ 1. ]
         index: [ 0 ]
