%YAML:1.0
my_svm: !!opencv-ml-svm
   svm_type: C_SVC
   kernel: { type:LINEAR }
   C: 1.0000000000000001e-001
   term_criteria: { epsilon:2.2204460492503131e-016, iterations:100 }
   var_all: 60
   var_count: 60
   class_count: 2
   class_labels: !!opencv-matrix
      rows: 1
      cols: 2
      dt: i
      data: [ 0, 1 ]
   sv_total: 1
   support_vectors:
      - [ -7.36719789e-003, -9.13216919e-003, 2.84587528e-004,
          2.00819690e-003, 5.42882923e-003, -1.49577204e-002,
          -1.57575998e-002, -8.92675295e-003, 3.04082903e-004,
          7.24832388e-003, 4.22358559e-003, -9.60805267e-003,
          1.54749211e-003, 5.61573496e-003, -6.38583326e-004,
          9.52379592e-003, -2.88801221e-003, 5.72782650e-004,
          -4.72614449e-003, -2.86662299e-003, 2.37503145e-002,
          5.74449124e-003, -8.24459922e-003, 6.38540974e-003,
          -1.05024753e-002, -1.02511961e-002, -3.69382161e-003,
          -3.31160449e-003, 1.13172363e-003, 6.57038251e-003,
          2.96361255e-003, 1.22708874e-002, -8.51216167e-003,
          3.13055492e-003, -5.38341142e-003, -9.99913737e-003,
          -2.00272352e-003, -6.09824900e-003, 8.06689670e-004,
          -1.67603919e-003, 1.89415012e-002, -1.21815316e-003,
          -1.92407111e-003, 2.07819021e-003, -1.65264972e-003,
          -5.12313331e-004, -5.72964456e-003, 7.16080517e-003,
          3.76135297e-003, -2.24403897e-003, -6.61503430e-003,
          -5.40546421e-003, -1.25536313e-002, 5.27274935e-003,
          -5.90562122e-003, -7.18292734e-003, -1.94964383e-003,
          4.32636030e-003, -1.44934503e-003, -3.94038251e-003 ]
   decision_functions:
      -
         sv_count: 1
         rho: -1.3710002538103543e+000
         alpha: [ 1. ]
         index: [ 0 ]
