%YAML:1.0
my_svm: !!opencv-ml-svm
   svm_type: C_SVC
   kernel: { type:LINEAR }
   C: 1.0000000000000001e-001
   term_criteria: { epsilon:2.2204460492503131e-016, iterations:100 }
   var_all: 30
   var_count: 30
   class_count: 2
   class_labels: !!opencv-matrix
      rows: 1
      cols: 2
      dt: i
      data: [ 0, 1 ]
   sv_total: 1
   support_vectors:
      - [ -5.84647921e-007, 5.03197953e-007, -1.14565182e-006,
          -4.96049040e-007, -7.62750574e-007, -7.66583810e-007,
          6.21514914e-007, -1.03236209e-006, 1.08426798e-006,
          2.37141398e-006, 1.62417280e-006, 1.51258826e-006,
          5.19764740e-007, 3.18713631e-007, -2.59287617e-007,
          1.12285261e-006, 6.92887880e-008, -3.39258321e-007,
          9.11108486e-007, -1.22833683e-006, 4.00796296e-007,
          1.86208567e-007, 5.41559018e-007, -1.17498075e-006,
          1.12731072e-006, -2.87243495e-007, -2.35062387e-007,
          -6.82307189e-007, 1.40326335e-006, 7.70962060e-007 ]
   decision_functions:
      -
         sv_count: 1
         rho: 5.0460046307480777e-001
         alpha: [ 1. ]
         index: [ 0 ]
