%YAML:1.0
my_svm: !!opencv-ml-svm
   svm_type: C_SVC
   kernel: { type:LINEAR }
   C: 1.
   term_criteria: { epsilon:2.2204460492503131e-016, iterations:100 }
   var_all: 128
   var_count: 128
   class_count: 2
   class_labels: !!opencv-matrix
      rows: 1
      cols: 2
      dt: i
      data: [ 0, 1 ]
   sv_total: 1
   support_vectors:
      - [ -1.55235187e-003, -4.14431361e-006, 2.53378227e-003,
          1.28265948e-003, 6.04278466e-004, 2.88767833e-003,
          -2.39578541e-003, -1.61572930e-003, 4.69627976e-003,
          1.06500892e-003, -3.47186229e-003, -1.03576621e-003,
          -5.73526230e-003, 3.94694181e-003, -2.83483835e-003,
          -4.88665886e-004, 2.50812341e-003, -3.53876385e-003,
          -4.33752313e-003, -3.48484493e-004, 3.28163122e-004,
          4.42658784e-003, 4.10030247e-004, 5.53216040e-003,
          5.00787003e-003, 1.51931914e-003, 5.05110540e-004,
          1.21582730e-003, -1.86452153e-003, 2.09788978e-003,
          -9.33361298e-004, -3.12094158e-003, -6.45909051e-004,
          -2.84066657e-003, 2.59917416e-003, -2.92485091e-003,
          1.46482926e-004, -1.00582617e-003, -2.47490383e-003,
          -2.44644121e-003, 5.53152116e-004, 2.17273459e-003,
          -7.77631940e-005, 1.71496230e-003, -1.53756165e-003,
          -1.25454727e-003, -3.76496639e-004, 2.39346456e-003,
          -3.85159720e-003, -3.15100793e-003, 1.91281666e-003,
          3.89657030e-003, -7.19608448e-004, 1.96823128e-003,
          1.35226676e-003, 1.52315455e-003, -4.83785232e-004,
          -3.66063835e-003, 7.48158549e-004, 2.57155113e-003,
          -4.00419405e-004, -2.94410391e-003, 9.79161588e-004,
          -2.16395990e-003, 1.96762593e-003, 9.12956253e-004,
          1.41250982e-003, -9.03136936e-007, -8.85046145e-004,
          -1.73047837e-003, 1.23422570e-003, -3.09197884e-003,
          -4.72368527e-004, 8.67444251e-005, -3.72433825e-003,
          -3.68137425e-003, -2.92345090e-003, -1.95567869e-003,
          -2.28400272e-003, 2.88882176e-003, -6.86219311e-004,
          -5.95349120e-004, 6.15966797e-004, -8.88295064e-004,
          1.62313529e-003, -8.52523488e-004, -3.04889982e-004,
          1.71778549e-003, 1.26727798e-003, -5.99951658e-004,
          2.69343029e-003, -5.45718765e-004, 6.10577627e-005,
          -6.29749033e-004, 2.34162714e-003, -3.96110670e-004,
          -7.33544759e-004, 1.47881001e-004, -3.61716811e-004,
          1.63688709e-003, 3.28117225e-004, 7.52163702e-004,
          -2.53511418e-004, 7.13419286e-004, -1.70456490e-003,
          -1.76664558e-004, 1.59980112e-003, 5.00649505e-004,
          5.81680390e-004, 2.97117105e-004, -2.14039479e-004,
          3.73592105e-004, -1.79478421e-003, 1.20840583e-003,
          1.62103563e-004, 7.51131040e-004, -2.07216782e-003,
          1.27729843e-004, 6.11866650e-004, 1.04477117e-003,
          7.29878957e-004, -1.24235102e-003, 1.30738888e-003,
          2.37353117e-004, -6.72275841e-004, 2.35500440e-004,
          -9.16572462e-004, 2.80971635e-005 ]
   decision_functions:
      -
         sv_count: 1
         rho: 1.1676059233502983e-001
         alpha: [ 1. ]
         index: [ 0 ]
