%YAML:1.0
my_svm: !!opencv-ml-svm
   svm_type: C_SVC
   kernel: { type:LINEAR }
   C: 1.
   term_criteria: { epsilon:2.2204460492503131e-016, iterations:100 }
   var_all: 128
   var_count: 128
   class_count: 2
   class_labels: !!opencv-matrix
      rows: 1
      cols: 2
      dt: i
      data: [ 0, 1 ]
   sv_total: 1
   support_vectors:
      - [ -1.86059813e-004, -3.02908302e-004, -6.18294755e-004,
          -1.83190813e-003, -1.98459276e-003, -1.70122436e-003,
          -8.51816032e-004, -8.59173946e-004, 2.51772976e-003,
          -4.91465442e-004, 2.09650188e-003, -9.10418894e-005,
          -8.47275733e-005, 3.57879064e-004, -4.44630190e-004,
          -9.35201824e-004, 1.15213823e-003, 2.71154247e-004,
          1.44139747e-003, -8.56919156e-004, -6.02970540e-004,
          -1.17813272e-003, 2.72231875e-004, 6.83551945e-004,
          -9.73319227e-004, 1.61594129e-004, 3.06211732e-004,
          7.19654607e-004, 1.61326269e-003, 5.46526921e-004,
          7.05792045e-004, 6.72504713e-004, -1.26348448e-003,
          -9.91120236e-004, -1.30857190e-003, -1.51385557e-005,
          -1.77901564e-003, -3.07131326e-003, -2.54910381e-004,
          -5.11508202e-004, -7.92614708e-004, -1.36522437e-003,
          -1.29430066e-003, -2.79644644e-003, -3.46640288e-003,
          -2.42700102e-003, -6.92455855e-004, -8.69481824e-004,
          1.62431342e-003, -5.26582997e-004, 1.48257153e-004,
          1.16750198e-004, -8.21518071e-004, -1.38775993e-003,
          1.14503945e-003, 1.75350136e-003, -8.16104875e-004,
          1.61641263e-004, -7.48469669e-004, 1.34307973e-003,
          2.41516205e-003, -1.83326520e-005, -4.70684201e-004,
          2.64621212e-005, -6.29410613e-004, -2.09569652e-003,
          -1.50778319e-003, 8.71672528e-004, -5.89179574e-004,
          -8.85792775e-004, -9.18683290e-005, 4.24594182e-004,
          -3.53226991e-004, 2.75343395e-004, -1.36726652e-003,
          -5.21369162e-004, -3.22864228e-003, -2.42402707e-003,
          2.50849611e-004, 1.50042621e-003, 2.13331776e-003,
          2.22115428e-003, 1.06631298e-004, 3.11854971e-003,
          7.81318347e-004, 3.67765053e-004, 1.08759000e-003,
          2.86420598e-003, -1.30092097e-003, 3.32257303e-004,
          -8.74689023e-004, 1.30502158e-003, 1.43427367e-003,
          -6.64828040e-005, -6.83498802e-004, -8.47350311e-005,
          -5.66862174e-004, -3.58780671e-004, -6.10760122e-004,
          -1.88459468e-004, -4.76446621e-005, -3.23467684e-004,
          -1.46592990e-003, -1.27168983e-004, -4.16126015e-004,
          -3.61583021e-004, 1.27059850e-003, -2.05618839e-004,
          -1.04078779e-003, -1.03803701e-003, -1.19748164e-003,
          4.20479337e-004, -3.66734603e-004, 1.09028311e-004,
          1.50859368e-003, 5.04999829e-004, -1.11196015e-003,
          -7.36360962e-004, -6.29497983e-004, 5.44088311e-004,
          -1.03793689e-003, -2.47761345e-004, -1.31031105e-004,
          5.18833462e-004, 3.06296832e-004, -4.90705192e-004,
          -8.47715070e-004, -2.51528923e-004 ]
   decision_functions:
      -
         sv_count: 1
         rho: -1.8019242849348103e+000
         alpha: [ 1. ]
         index: [ 0 ]
