%YAML:1.0
my_svm: !!opencv-ml-svm
   svm_type: C_SVC
   kernel: { type:LINEAR }
   C: 1.0000000000000001e-001
   term_criteria: { epsilon:2.2204460492503131e-016, iterations:100 }
   var_all: 60
   var_count: 60
   class_count: 2
   class_labels: !!opencv-matrix
      rows: 1
      cols: 2
      dt: i
      data: [ 0, 1 ]
   sv_total: 1
   support_vectors:
      - [ -4.13730228e-003, 9.57755838e-004, -2.19361344e-003,
          -1.40950398e-003, -3.05350358e-003, 1.60379265e-003,
          -1.51384040e-003, -3.54931550e-003, -2.05901265e-003,
          1.40913692e-003, -9.56342847e-004, -1.51806988e-003,
          3.15433973e-003, -1.58021052e-003, -1.01485953e-003,
          1.86988793e-003, 1.27433718e-003, -1.15758798e-003,
          -2.09348951e-003, 2.02432368e-003, -7.89948157e-004,
          -1.70701736e-004, -2.19208142e-003, 3.06354696e-003,
          1.01417315e-003, 2.94188294e-003, -3.91773973e-003,
          -1.04270503e-003, 2.84949172e-004, 4.48516244e-003,
          -2.42386013e-003, -1.56710681e-003, 3.86383763e-004,
          -1.63998583e-003, -2.01613014e-003, 2.69111153e-003,
          -3.98700824e-004, 1.20522105e-004, -2.20172293e-003,
          -3.96404575e-005, -6.88257068e-003, 4.49970318e-003,
          -1.30390178e-003, -1.26266270e-003, 3.57176270e-003,
          3.46271321e-003, 2.56173662e-003, -3.14589939e-003,
          -3.22735170e-003, -1.65692612e-003, -1.78963703e-003,
          -2.69247132e-004, 2.24724179e-003, -1.90339307e-003,
          -2.08834582e-003, -5.01502538e-004, -1.26874424e-003,
          6.33841206e-004, -1.80267889e-004, 1.51169416e-003 ]
   decision_functions:
      -
         sv_count: 1
         rho: 3.0342405326041801e-002
         alpha: [ 1. ]
         index: [ 0 ]
