%YAML:1.0
my_svm: !!opencv-ml-svm
   svm_type: C_SVC
   kernel: { type:LINEAR }
   C: 1.
   term_criteria: { epsilon:2.2204460492503131e-016, iterations:100 }
   var_all: 50
   var_count: 50
   class_count: 2
   class_labels: !!opencv-matrix
      rows: 1
      cols: 2
      dt: i
      data: [ 0, 1 ]
   sv_total: 1
   support_vectors:
      - [ 2.08540866e-003, 1.97889120e-003, -2.58915732e-003,
          1.16168777e-003, 7.92584382e-003, -1.75927039e-002,
          -1.79386064e-002, -2.00056611e-003, 5.45195816e-003,
          1.49418646e-003, 1.09510245e-002, 1.48426965e-002,
          -2.29162956e-003, -1.13897696e-002, -3.83114070e-003,
          1.19914878e-002, -4.12711827e-003, 5.02008107e-003,
          1.50613133e-002, -1.10605750e-002, -1.28724077e-003,
          -3.90729122e-003, 3.68086179e-003, 2.96631781e-003,
          -5.13611641e-003, 3.53367883e-003, 4.12360299e-003,
          -3.33838607e-003, 5.38956141e-003, 2.69180466e-003,
          2.38237530e-003, -2.38341023e-003, -6.15502475e-003,
          2.53127073e-003, 4.74502286e-003, -1.27018895e-003,
          2.30729417e-003, -1.54311012e-003, -1.24459050e-003,
          -2.50322864e-005, 3.48332396e-004, -1.26659509e-003,
          -3.09370589e-005, 3.38221405e-004, 2.36646563e-004,
          -3.35882389e-004, 5.83965972e-004, -3.47051769e-004,
          -4.49965555e-005, 9.94158909e-004 ]
   decision_functions:
      -
         sv_count: 1
         rho: -2.3159295183432532e-001
         alpha: [ 1. ]
         index: [ 0 ]
