%YAML:1.0
my_svm: !!opencv-ml-svm
   svm_type: C_SVC
   kernel: { type:LINEAR }
   C: 1.0000000000000001e-001
   term_criteria: { epsilon:2.2204460492503131e-016, iterations:100 }
   var_all: 30
   var_count: 30
   class_count: 2
   class_labels: !!opencv-matrix
      rows: 1
      cols: 2
      dt: i
      data: [ 0, 1 ]
   sv_total: 1
   support_vectors:
      - [ 1.48445599e-006, 2.74899799e-006, -2.14349188e-006,
          -3.41308646e-006, -1.47611587e-007, 1.87911496e-006,
          -3.70572138e-007, -1.52905170e-006, 3.91669209e-006,
          -1.68866666e-006, -3.27029142e-007, 4.64138679e-007,
          -4.14785546e-007, 3.93647088e-006, -1.29615088e-007,
          1.30807189e-006, -6.08426490e-007, -1.02563240e-006,
          3.55369139e-007, -2.28844578e-006, 1.42202225e-006,
          1.34805146e-006, 2.92319623e-006, 2.18812511e-006,
          -5.07549771e-007, -3.72024670e-006, 4.89859246e-007,
          -1.73343290e-006, -9.15413864e-007, 5.94626286e-008 ]
   decision_functions:
      -
         sv_count: 1
         rho: 4.0998520726635945e-001
         alpha: [ 1. ]
         index: [ 0 ]
