%YAML:1.0
my_svm: !!opencv-ml-svm
   svm_type: C_SVC
   kernel: { type:LINEAR }
   C: 1.
   term_criteria: { epsilon:2.2204460492503131e-016, iterations:100 }
   var_all: 60
   var_count: 60
   class_count: 2
   class_labels: !!opencv-matrix
      rows: 1
      cols: 2
      dt: i
      data: [ 0, 1 ]
   sv_total: 1
   support_vectors:
      - [ 3.76911112e-003, 1.12793804e-003, -7.16455514e-004,
          2.43368652e-003, 1.35984563e-003, -3.59810586e-003,
          1.15953526e-003, 5.60673245e-004, 7.71219668e-004,
          -1.29529729e-003, 2.20678005e-004, 2.88122706e-003,
          2.46083550e-003, -1.86473932e-004, 3.96462019e-005,
          3.48852528e-003, -1.82021712e-003, 1.53948891e-003,
          -2.14740122e-003, 6.73427770e-004, -1.05811656e-003,
          2.29073630e-004, 3.04809352e-003, -4.90733946e-004,
          2.53996026e-004, -2.99885956e-004, 2.68640765e-003,
          2.72052106e-003, 1.23440288e-003, -2.73649022e-003,
          1.95836474e-005, -5.06790821e-004, 4.10741661e-003,
          -2.36697099e-003, 1.99840870e-003, -1.67199134e-004,
          -3.02640442e-003, -1.63091102e-003, 3.20275873e-003,
          -1.42009510e-003, -1.37385202e-003, -1.17236003e-003,
          1.29071611e-003, -4.18736087e-003, -5.21530584e-003,
          5.24512725e-004, -2.46693869e-003, -1.36420445e-003,
          -8.61684675e-005, -1.44142576e-003, -2.04224349e-003,
          -3.80900293e-003, 7.18223164e-004, -5.87714603e-003,
          -5.69185184e-004, -1.87798112e-003, -7.26876824e-005,
          -1.50970664e-004, 5.97233069e-004, -4.62067692e-004 ]
   decision_functions:
      -
         sv_count: 1
         rho: -3.8108072334769122e-001
         alpha: [ 1. ]
         index: [ 0 ]
