%YAML:1.0
my_svm: !!opencv-ml-svm
   svm_type: C_SVC
   kernel: { type:LINEAR }
   C: 1.
   term_criteria: { epsilon:2.2204460492503131e-016, iterations:100 }
   var_all: 128
   var_count: 128
   class_count: 2
   class_labels: !!opencv-matrix
      rows: 1
      cols: 2
      dt: i
      data: [ 0, 1 ]
   sv_total: 1
   support_vectors:
      - [ -2.55168090e-003, 8.27623226e-005, 5.62685542e-004,
          -1.44320074e-003, -1.09832361e-003, -2.37130793e-004,
          -2.10014661e-003, -1.87293987e-003, 7.83953874e-004,
          2.70334422e-003, 3.47596640e-003, 2.95337895e-003,
          -1.63729815e-003, 4.28534928e-004, 3.08460300e-003,
          -1.90667552e-003, 3.13264248e-003, -2.16445536e-003,
          9.32876195e-004, -2.46532820e-003, 2.25632728e-004,
          1.79477385e-003, 5.02351846e-004, 1.06671627e-003,
          -5.52617013e-004, 3.38297244e-003, 6.63221988e-004,
          1.12736248e-003, -1.02331443e-003, -5.32925013e-004,
          1.33324880e-003, -4.21700161e-003, 1.49342779e-003,
          -2.79996614e-003, -7.86720600e-004, 3.08527669e-004,
          -1.16767245e-003, -6.59336045e-004, 1.47929147e-003,
          -1.21658552e-004, -1.94330479e-003, -8.33218219e-004,
          1.65756326e-003, 2.58965301e-004, -4.24166268e-004,
          3.64110735e-003, 2.78898585e-003, 6.86839398e-004,
          8.81043030e-004, -3.11474921e-003, -9.37745499e-004,
          -7.97629124e-004, 1.62184529e-004, -1.19281863e-003,
          1.27749483e-003, 5.01505565e-004, -3.05140857e-004,
          9.38051962e-004, -6.33309421e-004, 1.55137468e-003,
          3.25366715e-003, 5.03569283e-003, -6.59233658e-004,
          -7.38035364e-004, -5.85755683e-004, 2.96547776e-004,
          -2.31212215e-003, 3.00424360e-003, -1.27166533e-003,
          -1.43372081e-003, -1.32566248e-003, -2.58879241e-004,
          -2.75299465e-003, 2.25245696e-003, -1.46525365e-003,
          -1.20421837e-003, -4.08639928e-004, 6.35375443e-004,
          2.18388042e-003, 4.07180196e-004, 1.25083054e-004,
          -2.09973587e-004, 4.55325237e-004, 3.06951464e-004,
          1.91902174e-004, 1.33894698e-003, 1.30594778e-003,
          -1.46824808e-003, 6.05712885e-005, -1.26786809e-003,
          -5.95959791e-005, 1.01869297e-003, 1.06000423e-003,
          7.47379672e-004, -2.84745533e-004, -1.23009481e-003,
          -4.25684761e-004, 6.67543427e-005, 3.40612809e-004,
          -4.72023676e-004, -1.15708343e-003, 1.83147262e-003,
          2.57573579e-003, 7.90833496e-004, -1.42425619e-004,
          1.36364752e-003, 7.73952866e-004, 1.41129931e-004,
          -1.43755914e-003, 6.17032463e-004, -5.37174237e-005,
          2.11980048e-004, 5.34883475e-005, -1.49747788e-003,
          -6.40974846e-004, -9.47025197e-004, 9.02739062e-004,
          9.14914999e-004, -7.15936767e-005, 1.45349838e-003,
          -1.05696765e-003, 3.10754149e-005, -2.14759944e-004,
          -6.46623026e-004, -8.33778409e-004, 1.16915093e-004,
          -8.91884323e-004, 7.21607532e-004 ]
   decision_functions:
      -
         sv_count: 1
         rho: -6.7205010459201436e-002
         alpha: [ 1. ]
         index: [ 0 ]
