%YAML:1.0
my_svm: !!opencv-ml-svm
   svm_type: C_SVC
   kernel: { type:LINEAR }
   C: 1.
   term_criteria: { epsilon:2.2204460492503131e-016, iterations:100 }
   var_all: 60
   var_count: 60
   class_count: 2
   class_labels: !!opencv-matrix
      rows: 1
      cols: 2
      dt: i
      data: [ 0, 1 ]
   sv_total: 1
   support_vectors:
      - [ -4.12364351e-003, 5.78752952e-004, -1.16340339e-003,
          1.44936005e-003, 2.02848623e-003, 3.10824742e-003,
          4.62002878e-004, 1.14219822e-003, 1.21584919e-003,
          1.10349210e-003, -1.42356718e-003, 1.51209044e-003,
          -2.31219246e-003, -1.09381319e-004, 4.74582845e-003,
          1.78316288e-004, 6.86229207e-004, -6.60961785e-004,
          -3.92926362e-004, 1.88694845e-004, -6.84024184e-004,
          8.86807800e-004, -1.89298938e-003, 1.26175326e-003,
          4.64568584e-004, -9.07626585e-004, -1.56886247e-003,
          -2.71357549e-003, -1.90968549e-005, -7.16027804e-004,
          -7.46668549e-004, 4.05680295e-003, 1.23760829e-005,
          3.69927293e-004, -1.59167487e-003, 1.63782341e-003,
          2.54359306e-003, 1.63419847e-003, -2.03526160e-003,
          2.20334710e-004, -1.41794935e-005, -1.04906480e-003,
          2.47362826e-004, 4.40008426e-003, -1.24036786e-004,
          -1.57560920e-003, -4.26553539e-004, -2.52571865e-003,
          -2.23120349e-003, 3.55831551e-004, 1.30307057e-003,
          2.91723479e-003, -4.11156827e-004, 2.39695003e-003,
          -1.02968328e-003, 2.94323219e-003, 2.73276400e-003,
          3.28573701e-003, 6.75195712e-004, -9.99539508e-004 ]
   decision_functions:
      -
         sv_count: 1
         rho: -1.6895820815371226e-001
         alpha: [ 1. ]
         index: [ 0 ]
