%YAML:1.0
my_svm: !!opencv-ml-svm
   svm_type: C_SVC
   kernel: { type:LINEAR }
   C: 1.
   term_criteria: { epsilon:2.2204460492503131e-016, iterations:100 }
   var_all: 128
   var_count: 128
   class_count: 2
   class_labels: !!opencv-matrix
      rows: 1
      cols: 2
      dt: i
      data: [ 0, 1 ]
   sv_total: 1
   support_vectors:
      - [ -1.67369517e-003, -7.32375775e-005, -3.25968559e-003,
          1.87069806e-003, -1.73496269e-003, 5.90133294e-003,
          3.10189230e-003, -2.12994302e-004, -2.30270042e-003,
          2.33775994e-004, 5.24193980e-003, 5.05414559e-003,
          1.78734970e-003, 6.83761784e-004, -2.48333695e-003,
          -1.92633050e-003, -2.95012048e-003, -2.22559040e-003,
          1.79436721e-003, -2.56745203e-004, 1.82452437e-003,
          -2.61331513e-003, -1.50002097e-003, -2.00883928e-003,
          -6.86772773e-003, -2.62838043e-003, -1.88470760e-003,
          1.48879903e-004, 7.01468089e-004, -1.44706736e-003,
          2.11203587e-003, 3.26037756e-004, 1.46207970e-003,
          3.76437418e-003, 2.20793718e-003, -2.19186395e-003,
          2.51995889e-003, -2.36508623e-003, 4.09050938e-003,
          5.28840428e-005, 1.82257313e-003, 2.13870406e-003,
          1.14466588e-003, -6.34956697e-004, -4.11495892e-003,
          1.00288168e-003, 1.19889260e-003, 4.60169092e-003,
          4.50114440e-003, -3.91131360e-003, 1.47949625e-003,
          1.28758803e-003, 1.24281424e-003, 1.83071228e-004,
          1.02524471e-003, -8.81829124e-004, 8.16956337e-004,
          -5.83578693e-003, 2.99961830e-004, -2.90464406e-004,
          -1.58895785e-003, -3.69591871e-003, -1.60299276e-003,
          1.16453494e-003, 4.16636438e-004, -2.97233392e-003,
          1.47825584e-003, 5.80754480e-004, -1.91195717e-003,
          -1.31537963e-003, -2.57525779e-003, 2.15421198e-003,
          -4.40867589e-004, -3.81589308e-003, -4.63366945e-004,
          -1.18735700e-003, -2.30987300e-003, 6.10304938e-004,
          -7.13814807e-004, -2.94117001e-003, -2.06581317e-004,
          -2.15398660e-003, 1.44856411e-003, -2.28343089e-003,
          1.30896433e-003, 2.90321419e-003, -3.20360617e-004,
          5.88174793e-004, 1.09268306e-003, -2.42825458e-003,
          7.51053682e-004, -1.94741925e-003, -8.08027922e-004,
          1.85720692e-003, -4.23918071e-004, -6.58044650e-004,
          1.25608488e-003, -7.36036280e-004, 2.04663398e-003,
          3.73510120e-004, -9.83162754e-005, -4.40750853e-004,
          -3.09894240e-005, -1.28037343e-003, 3.38718062e-003,
          1.63237462e-004, 6.97435811e-004, 1.69387495e-003,
          1.19444635e-003, 1.18249108e-003, 5.20953909e-004,
          -3.08858551e-004, -1.13890273e-003, 1.58085790e-003,
          -1.78760674e-003, 1.79391267e-004, -1.01839320e-003,
          1.39857724e-003, 1.41162272e-005, 9.59824130e-004,
          1.83611028e-005, -2.33266008e-004, -1.41383463e-003,
          -6.18600170e-004, 5.75019396e-004, -4.22428537e-004,
          9.42782732e-004, 1.64353827e-004 ]
   decision_functions:
      -
         sv_count: 1
         rho: -1.9022692882733908e-002
         alpha: [ 1. ]
         index: [ 0 ]
