%YAML:1.0
my_svm: !!opencv-ml-svm
   svm_type: C_SVC
   kernel: { type:LINEAR }
   C: 1.
   term_criteria: { epsilon:2.2204460492503131e-016, iterations:100 }
   var_all: 128
   var_count: 128
   class_count: 2
   class_labels: !!opencv-matrix
      rows: 1
      cols: 2
      dt: i
      data: [ 0, 1 ]
   sv_total: 1
   support_vectors:
      - [ -6.00321626e-004, -2.25724489e-003, -3.19224340e-003,
          4.64409124e-004, 8.40067049e-004, 7.12536601e-003,
          -3.61704896e-003, 8.86296111e-005, -1.98328448e-003,
          -2.14681332e-003, 5.04660932e-003, 2.66639236e-003,
          -2.35329079e-003, 2.10433602e-004, 1.91680377e-003,
          1.76940463e-003, -2.38099438e-003, 2.76737171e-003,
          2.24816240e-003, -2.12581399e-005, 1.66274456e-003,
          1.10777398e-003, 1.28516607e-004, -2.75085797e-003,
          6.14941679e-003, -1.86316702e-005, 8.21105437e-004,
          1.94068867e-004, -7.46259931e-004, -8.53283738e-004,
          -2.90785567e-004, -6.97373238e-004, 9.75996605e-004,
          -4.94280690e-003, 2.59285816e-003, -4.01240715e-004,
          -2.11081305e-003, -1.98645587e-003, -2.81427382e-003,
          3.46459402e-003, -2.26691365e-003, -5.59814449e-004,
          1.29979942e-003, -1.98695180e-003, -3.40747694e-003,
          3.30330059e-003, -3.70960496e-003, 3.21570027e-004,
          -7.13305082e-003, 1.52243651e-003, -6.25017565e-004,
          -1.39556592e-003, -1.62767607e-003, 1.11624511e-004,
          -5.11433871e-004, -2.05568224e-003, -1.70405640e-003,
          1.80484354e-003, 9.05062014e-004, -3.03249736e-003,
          -1.21901755e-003, -3.11013055e-003, 2.57078907e-003,
          2.96172430e-003, -9.35540476e-004, -1.80264399e-003,
          -1.30709668e-004, -1.83608301e-003, 8.00810056e-004,
          -7.04509075e-005, -3.22900806e-003, -1.97715731e-003,
          7.96605891e-005, 2.14561867e-003, 2.09715171e-003,
          2.19138339e-004, 2.87012313e-003, 1.05233653e-003,
          -6.93465641e-004, 3.61841428e-003, -5.10849932e-004,
          -1.42761657e-003, -7.36058166e-004, -2.09753611e-003,
          3.24277789e-003, -1.62837168e-004, 1.94021617e-004,
          8.01204820e-004, -1.26341975e-003, -2.78065051e-003,
          -3.13516241e-003, -1.67720631e-004, -8.27112817e-004,
          9.36021446e-004, -7.98440946e-004, 1.94398826e-003,
          1.13370141e-003, 4.61354910e-004, 2.14326987e-003,
          -4.56549693e-004, -3.27129441e-004, -1.57466612e-003,
          1.43163372e-004, 1.29733095e-003, -2.50665797e-003,
          -2.21932400e-003, -1.21111225e-003, -4.98808455e-004,
          8.69918789e-004, 9.96726449e-004, 7.77426001e-004,
          9.36308817e-004, -1.35628774e-003, -3.70345748e-004,
          5.75984268e-005, 6.50141097e-004, 1.17841107e-003,
          -1.87463243e-004, -3.14827892e-004, 1.56626408e-003,
          -7.12893438e-004, -6.18058548e-004, -1.29035534e-003,
          -2.46672687e-004, -1.03149249e-003, -1.87316153e-004,
          7.89731042e-004, -4.41828481e-004 ]
   decision_functions:
      -
         sv_count: 1
         rho: 2.7859030345314145e-001
         alpha: [ 1. ]
         index: [ 0 ]
