%YAML:1.0
my_svm: !!opencv-ml-svm
   svm_type: C_SVC
   kernel: { type:LINEAR }
   C: 1.
   term_criteria: { epsilon:2.2204460492503131e-016, iterations:100 }
   var_all: 50
   var_count: 50
   class_count: 2
   class_labels: !!opencv-matrix
      rows: 1
      cols: 2
      dt: i
      data: [ 0, 1 ]
   sv_total: 1
   support_vectors:
      - [ -6.01912849e-003, 1.40668685e-003, -1.18402103e-002,
          7.59025756e-003, -1.29900323e-002, 2.44465726e-003,
          1.29855601e-002, 2.92345672e-003, -1.08199101e-003,
          4.53789905e-003, -8.99363682e-003, -5.61132701e-003,
          3.30925640e-003, 2.40961253e-003, 2.40747817e-003,
          -6.93688961e-003, 2.92995316e-003, -1.04826910e-003,
          -2.89067999e-003, 5.22848975e-004, -1.54840131e-003,
          -2.89657502e-003, -1.21201051e-003, -2.04826193e-003,
          3.00234137e-003, -5.04993077e-004, -4.13036533e-003,
          1.54008580e-004, -2.55654217e-004, -1.09924853e-003,
          -2.84374831e-003, 1.81124185e-003, 2.71952781e-003,
          -5.11251041e-004, -1.54137204e-003, 9.36069526e-004,
          -1.97453634e-003, 8.43368995e-004, 1.27357058e-003,
          8.67632043e-005, -2.60385888e-004, 5.40864014e-004,
          -2.38084685e-004, 2.10185026e-004, 2.38130073e-004,
          3.62625695e-004, -3.85847343e-005, 2.55874940e-004,
          2.91965080e-006, -1.27938064e-003 ]
   decision_functions:
      -
         sv_count: 1
         rho: -4.7828663430537344e-001
         alpha: [ 1. ]
         index: [ 0 ]
