%YAML:1.0
my_svm: !!opencv-ml-svm
   svm_type: C_SVC
   kernel: { type:LINEAR }
   C: 1.
   term_criteria: { epsilon:2.2204460492503131e-016, iterations:100 }
   var_all: 128
   var_count: 128
   class_count: 2
   class_labels: !!opencv-matrix
      rows: 1
      cols: 2
      dt: i
      data: [ 0, 1 ]
   sv_total: 1
   support_vectors:
      - [ -1.60312187e-003, -1.93014203e-004, -3.36926128e-003,
          1.88393448e-003, 3.85115796e-004, -5.67270722e-003,
          2.57679890e-003, -5.24830073e-004, -2.41627474e-003,
          -1.06768077e-003, 5.61502296e-003, 5.21940133e-003,
          1.94610714e-003, 6.24366003e-005, 1.25602400e-003,
          1.83106784e-003, -2.91297049e-003, 1.29535713e-003,
          2.53779860e-003, -1.22975194e-004, 3.75047712e-005,
          -3.15775629e-003, -3.53032560e-003, -1.85048953e-003,
          -6.00453420e-003, -2.22255499e-003, -7.64964905e-004,
          -9.46312721e-005, 1.69271673e-003, -1.78773736e-003,
          -1.47657178e-003, -3.25088680e-004, 1.28870399e-003,
          3.95447528e-003, -2.54849275e-003, 2.54369550e-003,
          -1.52898254e-003, -1.25322922e-003, 4.61777207e-003,
          1.30294915e-003, -1.56938110e-003, -3.68872983e-003,
          -3.36503552e-004, -1.00869464e-003, 3.68887000e-003,
          7.22739787e-004, 2.11804057e-003, -3.77437822e-003,
          5.98915480e-003, 3.59457126e-003, -1.33309513e-003,
          -1.56011153e-003, 1.23084395e-003, -5.54878847e-004,
          -8.31322686e-004, -9.86608560e-004, -6.84960542e-005,
          5.70579572e-003, 6.13691445e-005, -1.55826693e-003,
          -3.09213443e-004, 3.47618130e-003, -1.47287804e-003,
          2.14576395e-003, -3.49863479e-003, -2.52673810e-004,
          -1.38617866e-003, 1.08110823e-003, 2.49862392e-003,
          1.57286215e-003, -1.47364452e-003, 3.51206865e-003,
          6.42473926e-004, -1.69817160e-003, 1.06121930e-004,
          2.20000767e-003, 2.12097168e-003, 5.24921925e-004,
          2.40254821e-003, -1.51706452e-003, -8.76747014e-004,
          2.24924530e-003, 1.86386053e-004, 3.25012929e-003,
          -2.08178163e-003, 8.21623544e-004, -4.71139007e-004,
          -9.74982628e-004, 1.00631232e-003, 9.11056180e-004,
          -2.65952642e-003, 9.21803177e-004, 5.42040740e-004,
          7.09151442e-004, -2.41718465e-003, 8.14247935e-004,
          9.03341628e-004, -2.97178078e-004, 1.80312572e-003,
          -1.33729621e-003, -7.05751358e-004, -1.80971372e-004,
          -3.00568732e-004, -1.68660225e-003, 3.39476764e-003,
          -4.77784051e-004, -7.40373507e-004, 1.41404499e-003,
          -1.45693062e-004, 1.26366314e-004, 2.50715995e-004,
          9.01294814e-004, 1.28508091e-003, -2.09914823e-003,
          5.50358091e-004, -2.50490266e-004, 1.73557515e-003,
          -5.82585868e-004, -1.03092229e-004, -8.01592018e-004,
          -6.56975550e-004, 4.06627485e-004, -1.17770256e-003,
          -7.59359624e-004, 6.26083347e-004, -1.80676725e-004,
          1.09223416e-003, 2.06944722e-004 ]
   decision_functions:
      -
         sv_count: 1
         rho: -3.0336797219866100e-002
         alpha: [ 1. ]
         index: [ 0 ]
