%YAML:1.0
my_svm: !!opencv-ml-svm
   svm_type: C_SVC
   kernel: { type:LINEAR }
   C: 1.
   term_criteria: { epsilon:2.2204460492503131e-016, iterations:100 }
   var_all: 128
   var_count: 128
   class_count: 2
   class_labels: !!opencv-matrix
      rows: 1
      cols: 2
      dt: i
      data: [ 0, 1 ]
   sv_total: 1
   support_vectors:
      - [ 8.33079743e-004, 3.21784965e-003, 2.97264452e-003,
          -2.12385785e-003, 3.78319644e-003, 1.64246105e-003,
          4.14960115e-004, 3.53325903e-003, 5.19309985e-003,
          -9.43487743e-004, -4.34687501e-003, -3.49170831e-003,
          3.01717664e-003, -1.43137717e-004, 7.45676504e-003,
          -2.08050339e-003, 1.76617655e-003, -6.56490028e-003,
          -1.40778651e-003, -7.96040345e-004, -8.79332889e-004,
          1.14043639e-003, 5.75883838e-004, 4.89687605e-004,
          -2.59411725e-004, -3.71875358e-003, -1.37697178e-004,
          -2.02745781e-004, 7.12886686e-003, -1.37720420e-003,
          -3.60006606e-003, -4.17099521e-003, -3.17730359e-003,
          -7.52738619e-004, -3.61586059e-003, -2.98004504e-003,
          -2.18601874e-003, -3.40689509e-003, 2.44716648e-003,
          -3.84693104e-003, -1.16226857e-003, 3.41652427e-003,
          -2.07842374e-003, 4.25860938e-003, 3.46703199e-003,
          6.53452531e-004, -1.21199840e-003, 1.74602214e-003,
          -1.83662504e-003, 2.47358717e-003, -2.75826687e-003,
          -4.37829149e-004, -1.37715228e-003, -8.89356132e-004,
          -3.24165891e-003, 2.23284168e-003, 1.74204190e-003,
          -1.59522274e-003, -1.16564624e-003, 1.33751181e-003,
          -1.66605390e-003, -2.29933718e-003, -1.07236335e-003,
          -1.25465565e-003, 2.78900540e-003, -8.27062642e-004,
          -2.42813537e-003, -7.43977376e-004, 4.65582265e-003,
          4.01659694e-004, -8.54626123e-004, 1.62409712e-003,
          -2.04492302e-004, 4.18845273e-004, 1.13060942e-003,
          -1.90505164e-003, -1.37263536e-003, 5.60281158e-004,
          1.03082764e-003, 8.88801223e-005, -2.28758636e-005,
          1.77905092e-003, -2.41299835e-003, -3.10138566e-003,
          6.71558839e-004, -3.18883429e-003, -1.91189290e-003,
          -3.36831436e-003, -1.22413784e-003, -3.13841132e-003,
          -2.78484635e-003, -1.20980025e-003, -3.09165480e-004,
          2.73187994e-003, -8.74919060e-004, -1.00000366e-003,
          -1.65518047e-003, -2.30225865e-004, -8.46174837e-004,
          -8.98802071e-004, -7.38664166e-005, 4.81684168e-004,
          1.65174692e-003, 2.05404242e-003, -1.58289142e-004,
          2.94710626e-004, 2.76232662e-004, -6.81084130e-005,
          4.34021000e-004, -1.39358419e-003, -2.29027844e-003,
          -1.25468208e-003, -1.93743632e-004, 1.70631625e-003,
          -1.92778546e-003, 1.30743982e-004, 1.40421605e-003,
          -1.20812911e-003, -6.52411603e-004, 5.20338595e-004,
          1.44488571e-004, -7.96394423e-004, 3.09927535e-004,
          2.00045572e-004, -5.58841683e-004, -4.10688168e-004,
          -3.86953470e-004, 2.73748185e-004 ]
   decision_functions:
      -
         sv_count: 1
         rho: -3.9031393573325512e-001
         alpha: [ 1. ]
         index: [ 0 ]
