%YAML:1.0
my_svm: !!opencv-ml-svm
   svm_type: C_SVC
   kernel: { type:LINEAR }
   C: 1.
   term_criteria: { epsilon:2.2204460492503131e-016, iterations:100 }
   var_all: 128
   var_count: 128
   class_count: 2
   class_labels: !!opencv-matrix
      rows: 1
      cols: 2
      dt: i
      data: [ 0, 1 ]
   sv_total: 1
   support_vectors:
      - [ -2.88491079e-004, -1.15172239e-003, 5.11388178e-004,
          1.23690255e-003, 7.81509851e-004, -3.73869698e-004,
          2.37644257e-004, 8.79334286e-004, -1.04390216e-004,
          5.02655212e-006, -1.32072787e-003, -5.33308368e-004,
          -1.64434474e-004, 5.19386667e-004, -6.68686349e-004,
          2.71339668e-005, -1.60538417e-003, -6.68672001e-005,
          -8.25693482e-004, -6.44275919e-004, -1.96842011e-003,
          1.52175012e-003, 5.12265600e-004, -3.13821569e-004,
          2.39944711e-004, -7.02180914e-005, 3.91933791e-005,
          -3.12321907e-004, -8.83796078e-004, 5.38327382e-004,
          -1.83309487e-004, 1.53501998e-004, 1.09021703e-003,
          -9.70460940e-004, 1.05120335e-003, 1.22538011e-003,
          1.60414306e-003, 9.39602556e-004, 9.60452890e-004,
          2.73559446e-004, -8.71145130e-006, 1.01315862e-004,
          -7.02580262e-004, 2.43203458e-003, 1.79362530e-003,
          -4.65770536e-005, -8.17336608e-004, 7.25142483e-004,
          -5.95698890e-004, 1.23363419e-003, -1.54936744e-003,
          4.28625266e-004, -5.56470943e-004, -1.10176705e-004,
          -1.52193638e-003, 3.33872158e-004, 6.41139806e-004,
          1.74916320e-004, 6.63774728e-004, -1.86867401e-004,
          -6.61468424e-004, 1.94012828e-004, 1.45367303e-004,
          1.99124464e-004, -9.29491187e-004, 2.85835442e-004,
          5.57847437e-004, 7.32305576e-004, 1.56277523e-003,
          -2.07659341e-005, 1.00620766e-003, 1.31042406e-003,
          3.60290869e-004, -2.83428497e-004, 4.85664990e-004,
          -5.52981801e-004, 1.45476763e-004, 1.56683871e-003,
          1.43385911e-003, 2.01094826e-003, -1.07078627e-003,
          2.29378260e-004, 3.21697444e-005, -1.48568628e-003,
          -6.95631839e-004, 5.04222931e-004, 6.64926949e-004,
          -1.24004716e-003, -1.63108343e-004, -3.20241161e-005,
          -1.58992669e-004, -5.43602102e-004, -9.41370265e-004,
          3.88878507e-005, -5.12277300e-004, -1.08322674e-004,
          -7.57400529e-004, -2.77317362e-004, -4.56464943e-004,
          1.66162310e-004, 9.05506953e-004, 1.98063499e-004,
          -3.30102135e-004, -1.71570122e-004, -1.49076819e-004,
          2.13281019e-003, -3.69156618e-003, -1.04155559e-004,
          -5.05864795e-004, -4.71264531e-004, -1.18995039e-003,
          4.44418401e-004, -1.09287957e-003, 1.85330675e-004,
          -2.06235703e-003, 1.55200440e-004, -3.65203625e-004,
          5.52702521e-004, 7.66023877e-004, -2.16899067e-003,
          -5.97574726e-005, 1.20440702e-004, -6.33271993e-005,
          3.46925430e-004, -7.33871711e-004, -3.00980813e-004,
          -4.87328616e-005, 2.85132483e-005 ]
   decision_functions:
      -
         sv_count: 1
         rho: -2.1148440564982091e-001
         alpha: [ 1. ]
         index: [ 0 ]
