%YAML:1.0
my_svm: !!opencv-ml-svm
   svm_type: C_SVC
   kernel: { type:LINEAR }
   C: 1.
   term_criteria: { epsilon:2.2204460492503131e-016, iterations:100 }
   var_all: 128
   var_count: 128
   class_count: 2
   class_labels: !!opencv-matrix
      rows: 1
      cols: 2
      dt: i
      data: [ 0, 1 ]
   sv_total: 1
   support_vectors:
      - [ -2.06088088e-003, -1.20208296e-003, 1.23298343e-003,
          6.63471781e-003, 1.08846137e-003, 1.43127108e-003,
          1.82123086e-003, 1.63342338e-003, -4.44332312e-004,
          -4.81130090e-003, -4.07903688e-003, -6.91834488e-004,
          2.83601624e-003, -3.65719839e-004, -2.20437092e-003,
          3.00112111e-003, -2.02988274e-003, 2.18504248e-003,
          1.55074161e-003, 8.93988530e-004, -1.11179281e-004,
          -5.26343985e-003, -1.39734882e-003, 4.02846001e-003,
          1.44659061e-004, -3.91355316e-005, -2.99404521e-004,
          -6.86077052e-004, 5.37216139e-004, 6.70959358e-004,
          -5.32863778e-004, 1.60989453e-004, 5.27015247e-004,
          1.81324396e-003, 1.58914970e-003, -1.23955018e-004,
          1.82996492e-003, -6.06840826e-004, -2.97186850e-003,
          3.70835158e-004, -1.76744151e-003, 7.70698767e-004,
          2.05626202e-004, 6.64503241e-005, 1.21492811e-003,
          -1.44838251e-003, 2.09062733e-003, -7.33055582e-004,
          -3.17936909e-004, 1.52418879e-003, 1.63971141e-004,
          -1.81967416e-003, 2.62023113e-003, -1.74988108e-003,
          1.14425365e-003, -2.78717675e-003, 5.64296439e-004,
          2.06917408e-003, -9.12478485e-004, -2.52319430e-003,
          -2.80350796e-003, -2.87482329e-003, -6.92021276e-004,
          -4.72118954e-005, 1.23281905e-004, 9.40921673e-005,
          1.17672561e-003, -8.20626155e-004, -3.30604758e-004,
          2.12973240e-003, -1.25340314e-003, 6.44293497e-004,
          -2.31438898e-003, -1.50233984e-003, -2.29070662e-003,
          -1.28379161e-003, -2.57522473e-003, 8.99998529e-004,
          3.04616144e-004, -1.89764018e-004, 2.46734417e-004,
          -8.82032153e-004, -3.68375622e-004, 1.79275055e-003,
          1.52035512e-003, -1.45044446e-003, -4.21637669e-004,
          3.53906253e-005, 8.39792425e-004, -7.09356857e-004,
          -1.75169494e-003, -6.11822295e-004, -3.62417341e-004,
          -3.98312986e-004, -5.93625184e-004, 5.97859779e-003,
          2.23453110e-003, -1.76765048e-003, 1.07704589e-004,
          9.73899092e-004, 3.44831089e-004, -3.98915698e-004,
          -2.86081340e-003, -3.51309456e-004, 5.57222520e-005,
          -1.29411300e-003, -9.15795797e-004, 1.51173980e-003,
          6.40028797e-004, 3.61476152e-004, -4.46018559e-004,
          -2.81695672e-003, 2.02853160e-004, -3.26328271e-004,
          -1.52643083e-003, 1.01641740e-003, -9.72926442e-004,
          5.00490831e-004, -1.09723909e-003, -6.74332376e-004,
          4.89810714e-004, 1.43639481e-005, 2.14645290e-003,
          1.67313463e-003, 1.63523573e-003, 6.57660930e-005,
          1.02761923e-003, -2.58451852e-004 ]
   decision_functions:
      -
         sv_count: 1
         rho: -2.2238982665400763e-002
         alpha: [ 1. ]
         index: [ 0 ]
