%YAML:1.0
my_svm: !!opencv-ml-svm
   svm_type: C_SVC
   kernel: { type:LINEAR }
   C: 1.0000000000000001e-001
   term_criteria: { epsilon:2.2204460492503131e-016, iterations:100 }
   var_all: 30
   var_count: 30
   class_count: 2
   class_labels: !!opencv-matrix
      rows: 1
      cols: 2
      dt: i
      data: [ 0, 1 ]
   sv_total: 1
   support_vectors:
      - [ 9.30353394e-007, 1.01805074e-006, 8.31619445e-007,
          5.23461097e-007, 5.33783862e-007, 1.68979386e-006,
          7.11797952e-007, 8.17967077e-007, -8.20470518e-007,
          -1.73611613e-006, -5.70309510e-007, -5.81887718e-007,
          -2.17215347e-006, 8.40766518e-007, 1.04284175e-006,
          -7.82255427e-007, -1.11138172e-006, -5.75895001e-007,
          1.08917057e-007, -7.89403543e-007, 3.10900248e-007,
          -6.24131530e-007, 1.34750428e-006, -8.65410584e-007,
          -4.80510323e-007, 9.52689561e-007, -1.21676078e-006,
          1.30538339e-007, -9.82780307e-007, -1.47557466e-006 ]
   decision_functions:
      -
         sv_count: 1
         rho: -8.7879221584662631e-002
         alpha: [ 1. ]
         index: [ 0 ]
