%YAML:1.0
my_svm: !!opencv-ml-svm
   svm_type: C_SVC
   kernel: { type:LINEAR }
   C: 1.
   term_criteria: { epsilon:2.2204460492503131e-016, iterations:100 }
   var_all: 128
   var_count: 128
   class_count: 2
   class_labels: !!opencv-matrix
      rows: 1
      cols: 2
      dt: i
      data: [ 0, 1 ]
   sv_total: 1
   support_vectors:
      - [ 3.07655521e-003, -6.49694353e-004, 5.70282922e-004,
          6.06789580e-003, 2.24342119e-004, 1.46184093e-003,
          -1.44143170e-003, 1.53841847e-003, 3.96486081e-004,
          -5.74468356e-003, 4.54719132e-003, -2.75982288e-003,
          -3.81537410e-003, -3.54736112e-003, 2.14691716e-003,
          4.37003048e-003, 2.07211333e-003, 1.55385467e-003,
          1.67344813e-004, -2.64288113e-003, -1.10470271e-003,
          -2.85743922e-003, 2.34423904e-003, 3.38078686e-003,
          1.40569208e-003, -9.46320652e-005, -1.93117485e-005,
          -1.08745776e-003, -1.67931803e-003, -8.45494505e-004,
          -8.00611626e-004, 1.45471859e-004, 8.53923324e-004,
          2.78791692e-003, -8.73253099e-004, -1.51911052e-003,
          -3.13726673e-003, 2.29503799e-004, -3.00254929e-003,
          2.58504413e-003, 3.10030242e-004, 6.87396037e-004,
          1.78131042e-003, 5.05405886e-004, 1.75595889e-003,
          1.19811029e-003, 1.07784546e-003, -1.28856290e-003,
          8.42102047e-004, -2.63799191e-003, 2.80625653e-004,
          -7.05248385e-004, -4.59893281e-003, -1.21091492e-003,
          2.16623489e-003, -1.10008637e-003, 2.48154742e-004,
          -1.67216687e-003, 3.96410003e-004, 2.48934980e-003,
          1.69715832e-003, 5.32966515e-004, 1.27603463e-003,
          -1.40332943e-003, -2.22538528e-003, 1.69230544e-003,
          6.44181389e-004, 2.46537238e-004, 9.26860608e-004,
          -5.32220467e-004, 2.59087002e-003, 9.75054398e-004,
          2.59684515e-003, 7.17097137e-004, -3.84045835e-003,
          5.64089860e-004, 1.31100032e-003, -1.39167288e-003,
          7.34784815e-004, -4.37504023e-005, 3.92902293e-004,
          -2.03745483e-004, 2.07916557e-004, 8.31356912e-004,
          3.25384014e-003, -7.89038662e-004, -1.04653498e-003,
          -1.46802658e-005, -4.38915828e-004, -5.97877312e-004,
          -2.00005175e-004, 6.12926146e-004, -1.66985381e-003,
          -2.59805913e-003, -2.12068437e-003, 1.24250865e-003,
          5.09754615e-003, -8.52283847e-004, 1.79813860e-003,
          2.39039445e-003, -7.95362110e-004, 1.55399350e-004,
          -2.72142049e-003, -1.17399206e-003, -1.14946370e-003,
          -3.78340665e-005, -1.02602935e-003, 1.30580307e-003,
          1.37387746e-004, 1.08257344e-004, 3.09385679e-004,
          -1.85663369e-003, -1.87045010e-003, 2.04970525e-003,
          4.35036372e-006, -4.59276693e-004, 2.04909616e-003,
          3.64085145e-006, -8.11647915e-004, 2.91631208e-004,
          -9.67235188e-004, 1.08629547e-003, 1.90023903e-003,
          -1.28839735e-003, -1.14716392e-003, 1.07212306e-003,
          4.95201268e-004, 2.14682397e-004 ]
   decision_functions:
      -
         sv_count: 1
         rho: -3.0598098962005077e-001
         alpha: [ 1. ]
         index: [ 0 ]
