%YAML:1.0
my_svm: !!opencv-ml-svm
   svm_type: C_SVC
   kernel: { type:LINEAR }
   C: 1.
   term_criteria: { epsilon:2.2204460492503131e-016, iterations:100 }
   var_all: 128
   var_count: 128
   class_count: 2
   class_labels: !!opencv-matrix
      rows: 1
      cols: 2
      dt: i
      data: [ 0, 1 ]
   sv_total: 1
   support_vectors:
      - [ -1.39217009e-003, 1.94102860e-004, 1.23083475e-003,
          1.71529828e-003, 8.64801812e-004, 5.37750078e-004,
          -8.10656784e-005, 9.08024609e-004, 3.90389250e-005,
          2.97611026e-004, -4.25867649e-004, 4.84382617e-004,
          1.88649399e-004, 5.10387530e-004, 6.42861269e-005,
          1.44693360e-003, -2.37961509e-003, -1.23138586e-003,
          2.44840397e-004, 4.58446943e-004, -1.52241369e-003,
          5.73114550e-004, 6.96652627e-004, 5.69582277e-004,
          1.06751220e-003, 1.30501983e-003, 8.22691945e-004,
          2.05858189e-004, -1.77962636e-003, 1.76469781e-004,
          -3.85300460e-004, 6.12672244e-004, 1.12094637e-003,
          -5.90758515e-004, 1.56545360e-003, 9.97662544e-004,
          1.23336830e-003, 1.60001556e-003, 2.06452748e-003,
          5.42455819e-004, 5.13415027e-004, -3.27713788e-004,
          -5.41751506e-004, 2.90509942e-003, 7.94353953e-004,
          1.29611130e-004, -6.46248867e-004, 3.87603388e-004,
          -8.10981262e-004, 2.40121293e-003, -1.19643065e-003,
          -7.66163692e-004, -1.12179131e-003, 5.53580350e-004,
          -7.61732925e-004, -8.42607842e-005, 1.03900698e-003,
          3.15341131e-005, 4.58548951e-004, -2.00599592e-004,
          -7.93212559e-004, -4.40569362e-004, 3.19523184e-004,
          1.59833394e-003, -9.38446494e-004, 4.01716447e-004,
          9.11524578e-004, 3.96844931e-004, 5.81168802e-004,
          -1.24828564e-003, -2.42933733e-004, -5.93268662e-004,
          7.81152266e-005, -4.16877709e-004, 5.73944009e-004,
          6.31003059e-005, 8.54220300e-004, 7.81884242e-004,
          -3.05660447e-004, 7.87431840e-004, -4.49440937e-004,
          2.99314008e-004, 5.78324369e-004, -1.39671203e-003,
          -3.39341408e-004, 8.89149669e-004, -5.36329986e-004,
          -1.16219511e-003, 5.33900224e-004, 3.93286260e-004,
          3.12633638e-004, -1.16945431e-003, -1.82006985e-003,
          2.69454875e-004, -2.81216169e-004, 8.00631897e-005,
          -4.79531154e-004, -8.16640386e-004, -1.08567334e-003,
          -5.25800919e-004, -4.41145181e-004, -3.68687412e-004,
          -1.72049753e-004, -4.11642162e-004, -4.34276444e-005,
          1.68104807e-003, -4.69940342e-003, -6.02722517e-004,
          -1.41780925e-004, 6.80302503e-004, 3.33903969e-004,
          -1.76482383e-004, -1.16093620e-003, 3.40524093e-005,
          -3.23336734e-003, -1.26325723e-003, -2.90481112e-004,
          9.08008893e-004, 1.51609851e-003, -1.23741780e-003,
          1.42686054e-004, 3.50457965e-004, -1.66895494e-004,
          -4.41881100e-004, -9.41673352e-004, 1.90051258e-004,
          4.29300737e-004, 2.73643498e-004 ]
   decision_functions:
      -
         sv_count: 1
         rho: 2.0852842764407023e-001
         alpha: [ 1. ]
         index: [ 0 ]
