%YAML:1.0
my_svm: !!opencv-ml-svm
   svm_type: C_SVC
   kernel: { type:LINEAR }
   C: 1.
   term_criteria: { epsilon:2.2204460492503131e-016, iterations:100 }
   var_all: 128
   var_count: 128
   class_count: 2
   class_labels: !!opencv-matrix
      rows: 1
      cols: 2
      dt: i
      data: [ 0, 1 ]
   sv_total: 1
   support_vectors:
      - [ -2.96025351e-003, 6.39931415e-004, -4.74916451e-004,
          -4.70869103e-003, 1.80822157e-003, -1.92263245e-003,
          1.23819965e-003, 6.03225955e-004, 5.77649917e-004,
          2.20619002e-003, 9.73772199e-004, -1.98207167e-003,
          -3.23891145e-004, 1.96996145e-003, -5.71233395e-004,
          -3.32074938e-004, -2.33462383e-003, 9.06394678e-004,
          -1.08922040e-003, -5.42837544e-004, -6.62767561e-005,
          -1.60348034e-004, 1.36159547e-003, -3.99310346e-004,
          -2.15619872e-003, -2.63248268e-003, -2.12378078e-003,
          3.98518954e-004, 1.61699497e-003, 1.41433114e-003,
          -3.42033687e-004, 2.95434031e-003, -1.99100492e-003,
          2.18027830e-003, 3.75135452e-004, 1.15828135e-003,
          -1.54371187e-003, 1.14675693e-003, 2.96519342e-004,
          -2.64328878e-006, 2.62332521e-003, 6.72012742e-004,
          -2.20274599e-003, 2.14048661e-004, -2.29551899e-003,
          -2.49515846e-003, -2.19371193e-003, -2.81189743e-004,
          -8.57977371e-004, 2.27721012e-003, 2.73043115e-004,
          2.85851746e-003, -2.13084952e-003, -4.25041741e-004,
          -1.27066346e-003, -2.69190432e-003, -8.61152366e-004,
          -4.77791345e-003, 1.70008384e-003, -1.12143101e-003,
          -2.07178411e-003, -1.92041171e-003, 2.35950039e-003,
          -9.25235508e-004, -1.88562658e-003, -3.20570660e-004,
          -1.01815851e-003, -3.28898802e-003, -8.03284405e-004,
          -1.25820015e-003, -9.28097928e-004, 1.90436153e-003,
          1.46213756e-003, -7.84172953e-005, 1.76044845e-003,
          1.55610987e-003, 1.10139837e-003, -2.41633342e-003,
          -3.54908430e-003, -9.64261184e-004, -1.72923750e-003,
          -1.38264778e-003, 7.03912694e-004, -1.42143015e-003,
          -3.03788739e-003, -1.26363331e-004, -1.53452880e-003,
          1.68111722e-003, -1.77723996e-003, 1.73784897e-003,
          6.60544247e-005, -5.78276289e-004, -8.91422736e-004,
          -7.54825713e-004, 8.31321056e-004, -2.41174875e-003,
          -7.22775061e-004, -1.10724883e-003, 1.97278656e-004,
          -1.06803584e-003, -1.46054968e-004, -9.55830794e-004,
          -2.73331127e-004, 3.99293349e-005, -6.60129663e-005,
          -3.37014382e-004, -6.12091448e-004, -9.68590437e-004,
          1.73165742e-003, -1.12064113e-003, -8.08063633e-005,
          1.83643808e-003, -9.21920509e-005, 1.84702943e-003,
          8.85834219e-004, 3.51482653e-004, 2.11623337e-005,
          -3.91150679e-005, 2.00531562e-003, -7.53028842e-004,
          8.98773957e-004, -1.09900131e-004, -1.32565526e-003,
          -1.58645015e-003, 6.01892360e-004, -8.85293877e-004,
          -3.51701165e-004, -2.53127248e-004 ]
   decision_functions:
      -
         sv_count: 1
         rho: -1.2944022614109982e-001
         alpha: [ 1. ]
         index: [ 0 ]
