%YAML:1.0
my_svm: !!opencv-ml-svm
   svm_type: C_SVC
   kernel: { type:LINEAR }
   C: 1.
   term_criteria: { epsilon:2.2204460492503131e-016, iterations:100 }
   var_all: 128
   var_count: 128
   class_count: 2
   class_labels: !!opencv-matrix
      rows: 1
      cols: 2
      dt: i
      data: [ 0, 1 ]
   sv_total: 1
   support_vectors:
      - [ -2.49671843e-003, 2.43870352e-004, -9.89283508e-005,
          1.02156552e-003, -7.00660748e-003, 9.83026111e-004,
          -3.58270860e-004, -5.95160434e-003, -1.79436919e-003,
          -3.21078813e-003, 1.92470429e-003, 5.09700226e-003,
          -5.19802386e-004, 2.82603945e-003, -3.99879552e-003,
          1.02660723e-003, -3.29060690e-003, 7.51712592e-003,
          8.02785449e-004, -2.20444053e-003, 2.54011899e-003,
          1.58248213e-003, -8.08269135e-004, -1.09713734e-003,
          1.04985476e-004, 4.74375533e-003, 3.48667454e-005,
          1.13199849e-003, -4.64966334e-003, 7.87953555e-004,
          2.87065096e-003, 7.23838247e-003, 3.35832220e-003,
          -1.28282991e-004, 5.47117306e-005, 3.92995868e-003,
          2.31753150e-003, 1.86231360e-003, -4.54495940e-003,
          2.24863831e-003, 7.05915736e-004, -3.04406323e-003,
          3.44050303e-003, -6.95118355e-003, -5.14756236e-003,
          1.77062509e-004, -1.12047780e-003, -1.94715534e-003,
          2.45645340e-003, 1.19031720e-004, 2.47439649e-003,
          -7.94774736e-004, 1.56159839e-003, 1.68978481e-003,
          1.29148492e-003, -3.69342393e-003, 1.22473482e-003,
          8.05327902e-004, 8.94550350e-004, -1.96707179e-003,
          1.05595856e-003, 1.14514015e-003, -1.24271737e-005,
          2.40469212e-003, -3.48321535e-003, -1.51772075e-003,
          2.89689936e-003, -7.52077962e-004, -3.41995247e-003,
          -3.54687974e-004, -3.39302496e-004, -1.25687686e-003,
          -2.13889405e-003, 4.33265552e-004, -5.77704690e-004,
          1.15054264e-003, 1.31017342e-003, -5.95375197e-004,
          -1.31501909e-003, 2.69149692e-004, -1.57013373e-003,
          -1.39602891e-003, 2.62055057e-003, 2.06926581e-003,
          -1.11652433e-003, 1.05418044e-003, 2.62154662e-003,
          3.84813617e-003, 1.67570790e-004, 3.22429696e-003,
          1.51054515e-003, 1.45787242e-004, 5.25886018e-004,
          -3.71066650e-004, 4.51427186e-005, -5.66817944e-005,
          2.07609590e-003, -1.69784646e-004, 8.88279697e-004,
          8.97168880e-004, 1.49317770e-004, -1.30923593e-003,
          -6.87795575e-004, -2.03480409e-003, 1.10077462e-003,
          1.89759812e-004, 4.61343647e-004, 7.13758869e-004,
          2.72401841e-004, 1.43711150e-004, 2.14237836e-003,
          1.08304026e-003, 3.03727604e-004, -2.03068345e-003,
          1.78753352e-003, 4.34043846e-004, -9.37628560e-004,
          6.28962065e-004, 1.79580384e-004, -1.13992579e-003,
          2.42040958e-004, 6.56133343e-004, -2.10051454e-004,
          -3.71441012e-004, 3.29728064e-004, 3.96426389e-004,
          7.17304705e-004, -1.07842367e-004 ]
   decision_functions:
      -
         sv_count: 1
         rho: 2.0317095020117287e-002
         alpha: [ 1. ]
         index: [ 0 ]
