%YAML:1.0
my_svm: !!opencv-ml-svm
   svm_type: C_SVC
   kernel: { type:LINEAR }
   C: 1.
   term_criteria: { epsilon:2.2204460492503131e-016, iterations:100 }
   var_all: 60
   var_count: 60
   class_count: 2
   class_labels: !!opencv-matrix
      rows: 1
      cols: 2
      dt: i
      data: [ 0, 1 ]
   sv_total: 1
   support_vectors:
      - [ -2.19426258e-003, 1.10527129e-004, 3.69846262e-003,
          -4.83218394e-003, -1.87936076e-003, -2.02024332e-003,
          -1.06153733e-004, -3.48779303e-003, -4.22020024e-003,
          2.33614515e-003, 1.25265680e-003, -4.85020736e-003,
          5.07380930e-004, 1.79751485e-003, -6.76246546e-003,
          -4.28932812e-003, 2.28652294e-004, -2.76456121e-003,
          1.83808303e-003, -1.55659823e-003, 2.61254120e-003,
          7.85675307e-004, 1.28254574e-003, -1.99288875e-003,
          2.74167606e-003, 1.43934123e-003, -3.80537682e-003,
          -1.68346358e-003, -1.79594697e-003, 4.54065250e-003,
          2.08257954e-003, -1.95924984e-003, -1.37336494e-003,
          1.41993829e-003, -1.78925379e-003, -3.38591146e-003,
          -1.30297616e-003, -2.36444059e-004, -3.08845518e-003,
          -7.52119231e-004, 2.66084168e-003, 8.73861078e-004,
          -2.97891791e-003, 1.83696428e-003, 8.29812791e-003,
          5.26522519e-004, 1.23982290e-005, 2.11130315e-003,
          1.70052703e-003, 8.69760042e-005, 1.16858142e-003,
          3.33036110e-003, 1.28244946e-003, 2.93539395e-003,
          2.86850915e-003, -4.19877188e-006, -5.88357635e-003,
          -4.89350921e-003, -2.18256610e-004, 1.72562129e-003 ]
   decision_functions:
      -
         sv_count: 1
         rho: -1.4420446368300938e-001
         alpha: [ 1. ]
         index: [ 0 ]
