%YAML:1.0
my_svm: !!opencv-ml-svm
   svm_type: C_SVC
   kernel: { type:LINEAR }
   C: 1.0000000000000001e-01
   term_criteria: { epsilon:2.2204460492503131e-16, iterations:100 }
   var_all: 128
   var_count: 128
   class_count: 2
   class_labels: !!opencv-matrix
      rows: 1
      cols: 2
      dt: i
      data: [ 0, 1 ]
   sv_total: 1
   support_vectors:
      - [ -2.84689781e-03, -1.76718298e-04, -2.08616443e-03,
          -5.27277729e-03, 1.80862975e-04, -1.46314653e-03,
          -1.21385179e-04, 3.75870179e-04, 2.39104585e-04,
          1.53896143e-03, 3.35877296e-04, -1.82093470e-03,
          -4.35686467e-04, 1.13302818e-03, -9.11477196e-04,
          1.22217496e-03, -2.47413339e-03, 1.03168632e-03,
          -1.81319076e-03, -2.27940154e-06, 4.58926079e-05,
          1.86684960e-03, 1.91651029e-03, -2.78865846e-05,
          -7.62523559e-04, -2.92717875e-03, -8.38808075e-04,
          -1.10249493e-04, 6.16514124e-04, 1.02637056e-03,
          -1.31825870e-03, 3.71686649e-03, -1.77223678e-03,
          1.74121698e-03, -6.01771229e-04, -5.55126055e-04,
          -2.01246026e-03, 1.80780177e-03, 5.79767395e-04,
          -1.91629108e-03, 2.71713501e-03, 3.80655896e-04,
          -1.13251898e-03, 6.09241892e-04, -1.79138430e-03,
          -2.53734039e-03, -1.73549366e-03, -2.72862497e-04,
          -1.38154253e-03, 2.60288338e-03, 1.07104995e-03,
          2.65810266e-03, -1.19470397e-03, 1.77446447e-04,
          -3.11979093e-04, -1.42013456e-03, -7.91401253e-04,
          -3.47419805e-03, 2.24316679e-03, -1.22001849e-03,
          -9.56428703e-04, -1.43385225e-03, 2.69096182e-03,
          -1.47783442e-03, -1.43239694e-03, -4.34298767e-04,
          1.16313191e-03, -2.86731473e-03, 2.83371744e-04,
          -1.49592187e-03, 9.09633469e-04, 5.33957616e-04,
          2.24096468e-03, -1.07306533e-03, 2.29927595e-03,
          1.61518273e-03, 1.03690021e-03, -2.09445530e-03,
          -2.29698163e-03, -1.22865522e-03, -8.17403023e-04,
          -2.01067465e-04, 7.01474550e-04, -1.94116228e-03,
          -2.38276273e-03, -1.50302169e-03, -2.00234354e-03,
          1.75045361e-03, 2.90277909e-04, 2.40562903e-03,
          -7.97909510e-04, -5.21630864e-04, -1.20536610e-03,
          -1.11808011e-03, 2.35673011e-04, -1.86352502e-03,
          -6.73485862e-04, -1.43758638e-03, -2.03609234e-05,
          -5.26551914e-04, 9.52434842e-04, -1.20493176e-03,
          5.85587171e-04, -7.17866496e-05, -3.83987965e-04,
          -1.97343790e-04, -1.18325661e-04, -1.37025467e-03,
          2.00674194e-03, -1.23573979e-03, -8.91922507e-04,
          2.45250738e-03, 1.14013487e-03, 2.00023758e-03, 1.09468692e-03,
          6.16930658e-04, -4.82100804e-05, -1.90935025e-04,
          1.59686047e-03, -1.29558356e-03, 5.10767801e-04,
          -1.82714095e-04, -1.40646531e-03, -1.61585072e-03,
          6.11351745e-04, -1.12060632e-03, -2.91138967e-05,
          -5.86557435e-04 ]
   decision_functions:
      -
         sv_count: 1
         rho: -5.7952723820373926e-02
         alpha: [ 1. ]
         index: [ 0 ]
