%YAML:1.0
my_svm: !!opencv-ml-svm
   svm_type: C_SVC
   kernel: { type:LINEAR }
   C: 1.
   term_criteria: { epsilon:2.2204460492503131e-016, iterations:100 }
   var_all: 128
   var_count: 128
   class_count: 2
   class_labels: !!opencv-matrix
      rows: 1
      cols: 2
      dt: i
      data: [ 0, 1 ]
   sv_total: 1
   support_vectors:
      - [ 2.91898614e-003, 8.82317363e-006, 1.14706182e-003,
          3.01924825e-004, -1.15191920e-004, -2.49610422e-003,
          -1.76815304e-003, -9.86842788e-004, 4.67324583e-003,
          -1.01092260e-003, -3.14256991e-003, -8.87298549e-004,
          -4.95355064e-003, 2.33856589e-003, 3.04684229e-003,
          9.36304918e-004, 2.48451182e-003, 5.39979106e-003,
          -4.05876432e-003, 1.22363074e-003, 2.64261180e-005,
          1.83234899e-003, 8.96260608e-004, 5.84872859e-003,
          4.74619633e-003, 1.69955997e-003, 1.91097718e-003,
          6.18605933e-004, -7.35946349e-004, 6.61508238e-004,
          2.54596263e-004, -2.57652835e-003, -4.55365196e-004,
          -2.18048994e-003, -8.34691164e-004, 2.11112434e-003,
          2.95207137e-004, 5.25757088e-004, -4.30258131e-003,
          2.60902860e-004, -2.03240407e-003, -2.16874923e-003,
          -6.53295312e-004, 2.04933435e-003, 3.36445379e-003,
          8.57050982e-005, 1.65448838e-003, -3.04167462e-003,
          -3.67457629e-003, 2.73758336e-003, -2.74409214e-003,
          -3.75808426e-003, -4.65085555e-004, -1.21983502e-003,
          -1.62667618e-003, 1.08090311e-003, -5.03399002e-004,
          4.31748526e-003, -1.24038069e-003, 2.46449490e-003,
          1.19380443e-003, 2.68917787e-003, 3.65361659e-004,
          -2.39502313e-003, 1.03523163e-003, 1.68892543e-003,
          -1.71532831e-003, 7.61713076e-004, 7.82686519e-004,
          1.71041396e-003, 2.90646311e-003, -1.63309556e-003,
          -4.83191630e-004, 1.37511862e-003, 2.90426007e-003,
          1.26715400e-003, 2.99820933e-003, -1.25707538e-005,
          8.71971890e-004, 3.01911402e-003, 7.16466864e-004,
          1.24445779e-003, -1.02656195e-003, 1.79191600e-004,
          -1.01713068e-003, -2.41795485e-003, 7.51427608e-004,
          -2.69037148e-004, -3.01637192e-004, 3.91672226e-003,
          -3.48960340e-004, 1.56407990e-003, 5.61193796e-004,
          -1.39622390e-003, 7.50217470e-004, 1.12640322e-003,
          -2.05042074e-003, 7.71292544e-004, -2.02413090e-003,
          6.27650006e-004, 9.50006419e-004, 9.90408007e-004,
          1.03927520e-003, 7.12947862e-004, -2.94388761e-003,
          -5.19135850e-004, 4.72323649e-004, -4.62604483e-004,
          -9.15839410e-005, -9.52547882e-004, -4.34389833e-004,
          1.50238775e-004, 3.71067697e-004, -1.57388905e-003,
          1.98394759e-003, -2.82204477e-004, 1.43085467e-003,
          -2.16901815e-003, 8.99578328e-004, -1.34863856e-003,
          3.66307322e-005, 7.83472788e-004, 9.38671001e-004,
          7.71469844e-004, -6.31107483e-004, 4.60892421e-004,
          -7.83233438e-004, 2.28202829e-004 ]
   decision_functions:
      -
         sv_count: 1
         rho: -9.7015402988185982e-003
         alpha: [ 1. ]
         index: [ 0 ]
