%YAML:1.0
my_svm: !!opencv-ml-svm
   svm_type: C_SVC
   kernel: { type:LINEAR }
   C: 1.
   term_criteria: { epsilon:2.2204460492503131e-016, iterations:100 }
   var_all: 128
   var_count: 128
   class_count: 2
   class_labels: !!opencv-matrix
      rows: 1
      cols: 2
      dt: i
      data: [ 0, 1 ]
   sv_total: 1
   support_vectors:
      - [ -1.51294167e-003, -5.67602972e-003, -8.53613578e-003,
          6.19523739e-003, 9.55675449e-003, 1.12566724e-003,
          2.30747811e-003, -1.07136846e-003, 6.83757523e-003,
          1.36103444e-002, -3.72622861e-003, 6.57101744e-004,
          -1.18597858e-002, -3.82435648e-003, 7.36391777e-003,
          1.87606364e-003, -8.79127649e-004, -3.78444185e-003,
          1.73272646e-003, -9.86886304e-003, -8.73291027e-003,
          3.06045590e-003, -9.54865571e-003, -2.56416941e-004,
          -5.05448971e-003, 9.69199277e-003, 7.08597293e-003,
          -5.20003820e-003, -5.67799248e-003, -5.38570993e-003,
          1.00100215e-003, -5.56765997e-004, -6.20065723e-003,
          -3.68690747e-003, 2.60023470e-003, 9.02942661e-003,
          -2.04455317e-003, -1.20512756e-004, -3.66979209e-003,
          9.54909157e-003, -4.26768837e-003, 3.39204958e-003,
          -4.06806066e-004, -1.64220447e-003, 3.35877854e-003,
          4.27376619e-003, -2.14828062e-003, 8.75978614e-004,
          -3.38559767e-004, -1.42853067e-003, -3.35596665e-003,
          -6.11192733e-003, 1.82244647e-003, -3.39884893e-003,
          2.42390134e-003, 2.47341255e-003, -7.00452074e-004,
          2.85569951e-003, 7.40232761e-004, -2.37913104e-003,
          3.08093819e-004, -1.61258155e-003, -3.24118329e-004,
          -1.25076366e-003, -1.35364709e-003, -1.69023208e-003,
          2.78132665e-003, 1.23234664e-003, 9.76040392e-005,
          6.97735930e-003, 3.93097661e-003, 1.98119995e-003,
          2.12424365e-003, -8.44361784e-004, -3.22650163e-003,
          1.21233352e-005, -1.19590107e-003, -1.85944512e-003,
          -7.20879820e-004, 1.08836894e-003, 7.74646003e-004,
          1.52178074e-003, 3.42202256e-003, -8.36356368e-004,
          2.14649714e-003, 1.04157596e-004, -3.49723385e-004,
          1.21522741e-003, -1.93092087e-003, -2.34226845e-005,
          5.32347895e-003, -1.23786251e-003, 1.10286404e-003,
          3.84604093e-003, -5.41799353e-004, -1.35412454e-004,
          2.99971341e-003, 8.89720628e-004, 6.65196101e-004,
          -3.35094286e-003, 1.73648458e-003, 5.08150028e-004,
          4.91269864e-004, -1.07792893e-003, -3.06321494e-003,
          -2.38691852e-003, -2.71874573e-003, 3.53570824e-004,
          -2.77883868e-004, -6.36025157e-004, -4.85948200e-004,
          -3.80098325e-004, -2.41261837e-003, 2.91844504e-003,
          -9.66718129e-004, -2.07627469e-004, -9.69107896e-006,
          2.10709448e-004, 7.09547312e-004, 6.36757875e-004,
          -1.28021042e-004, -7.93980493e-004, -7.11194240e-004,
          3.43766878e-004, 1.15841487e-003, -1.47413881e-003,
          -1.35529306e-004, 6.01618260e-004 ]
   decision_functions:
      -
         sv_count: 1
         rho: -1.4498319568127456e+000
         alpha: [ 1. ]
         index: [ 0 ]
