%YAML:1.0
my_svm: !!opencv-ml-svm
   svm_type: C_SVC
   kernel: { type:LINEAR }
   C: 1.0000000000000001e-001
   term_criteria: { epsilon:2.2204460492503131e-016, iterations:100 }
   var_all: 30
   var_count: 30
   class_count: 2
   class_labels: !!opencv-matrix
      rows: 1
      cols: 2
      dt: i
      data: [ 0, 1 ]
   sv_total: 1
   support_vectors:
      - [ 3.93238724e-006, 3.18100956e-006, -2.46051468e-006,
          6.04902084e-007, -2.49134928e-006, -3.57210411e-006,
          6.50338166e-007, -3.38899838e-007, 9.52603614e-007,
          -1.01695571e-006, -2.78846164e-006, 1.52993357e-006,
          -2.89364357e-006, 1.40709801e-006, -3.11889039e-006,
          1.83644556e-006, -3.26858890e-006, -4.24364225e-006,
          -2.78392463e-006, 3.60793501e-006, 1.26234767e-007,
          1.12695886e-006, 3.87202635e-006, -8.40725249e-007,
          1.61963897e-006, 2.78675975e-006, -2.51079314e-006,
          -2.83683016e-006, 2.43354208e-007, 2.05002516e-006 ]
   decision_functions:
      -
         sv_count: 1
         rho: 2.4640544397372626e+000
         alpha: [ 1. ]
         index: [ 0 ]
