%YAML:1.0
my_svm: !!opencv-ml-svm
   svm_type: C_SVC
   kernel: { type:LINEAR }
   C: 1.
   term_criteria: { epsilon:2.2204460492503131e-016, iterations:100 }
   var_all: 128
   var_count: 128
   class_count: 2
   class_labels: !!opencv-matrix
      rows: 1
      cols: 2
      dt: i
      data: [ 0, 1 ]
   sv_total: 1
   support_vectors:
      - [ 2.79952073e-003, 1.27007265e-003, -3.81801883e-003,
          5.43076359e-003, -4.79155970e-005, 8.80991633e-004,
          2.31237360e-003, -2.86187831e-004, -1.65386102e-003,
          -5.13248472e-003, 4.08183623e-005, -8.86682596e-004,
          -3.38270213e-003, -5.05015207e-003, -5.14616200e-004,
          -7.07201485e-004, 1.18327362e-003, 8.13813298e-004,
          3.19099054e-003, -2.31036684e-003, -1.84609744e-004,
          3.26079084e-003, -5.48805669e-003, -5.17641054e-003,
          -3.02150659e-003, -1.64681557e-003, -1.85006903e-003,
          -1.34805887e-004, 2.88376468e-004, -2.18189368e-003,
          -3.65833635e-003, 1.85688236e-003, 1.82023912e-003,
          9.71839065e-004, 7.64775497e-004, -1.14215747e-003,
          4.86229965e-003, -5.56759362e-004, 3.59683461e-003,
          3.33967828e-003, -3.66606121e-003, -4.53463610e-004,
          -3.25623387e-003, 1.63162639e-003, 3.29581439e-003,
          -2.65263836e-003, -3.15521378e-003, -3.79942730e-003,
          4.63908631e-003, -8.86731141e-004, -2.40655078e-004,
          1.23735261e-003, -3.07047553e-003, 2.88469746e-004,
          -1.87892455e-003, -7.05972197e-004, 1.22222928e-005,
          -1.08444539e-003, 6.15760125e-003, -1.22119300e-003,
          2.07117829e-003, -1.76139525e-003, -1.91193679e-003,
          2.19449564e-003, 4.90415376e-004, 1.40768199e-004,
          -1.39686186e-003, -1.56073982e-003, 1.67284429e-003,
          -2.22352581e-004, -3.58727470e-004, -6.78311393e-004,
          1.70890393e-003, 1.19755941e-003, -7.96726847e-004,
          -1.15279481e-003, 2.72541330e-003, -2.35652621e-003,
          2.85385596e-003, -2.12726556e-003, -1.73537832e-004,
          1.94846559e-003, -2.22332892e-003, 1.67551904e-003,
          1.47444895e-003, -4.59141855e-004, -1.98970246e-003,
          -3.91267892e-003, -9.52318020e-004, -5.08124765e-004,
          2.57016672e-003, 2.82696844e-003, -1.73403206e-003,
          1.62838696e-004, -1.38931349e-003, -2.27241125e-003,
          4.58553527e-003, 1.87246792e-003, 2.88378797e-004,
          7.26041791e-004, -1.25819352e-003, 4.03698970e-004,
          -2.19538063e-003, -1.61356060e-003, -6.11176249e-004,
          -1.26194116e-003, 1.26692292e-004, 3.63594457e-003,
          2.08655387e-004, -6.93791138e-004, 8.33118102e-004,
          1.29585897e-004, 1.36342936e-003, 4.46616032e-005,
          6.30033377e-004, -5.24344650e-005, 1.34612608e-003,
          7.67469348e-004, -7.49511062e-004, 3.47650354e-003,
          3.51163530e-004, 5.89165953e-004, 1.92997407e-003,
          -1.39256788e-003, -1.96425826e-003, 7.80836970e-004,
          -2.57784905e-005, -5.71050332e-004 ]
   decision_functions:
      -
         sv_count: 1
         rho: -4.7951891967300386e-001
         alpha: [ 1. ]
         index: [ 0 ]
