%YAML:1.0
my_svm: !!opencv-ml-svm
   svm_type: C_SVC
   kernel: { type:LINEAR }
   C: 1.
   term_criteria: { epsilon:2.2204460492503131e-16, iterations:100 }
   var_all: 10
   var_count: 10
   class_count: 2
   class_labels: !!opencv-matrix
      rows: 1
      cols: 2
      dt: i
      data: [ 0, 1 ]
   sv_total: 1
   support_vectors:
      - [ 3.26161785e-03, -6.59326732e-04, 5.65932598e-04,
          -5.04833413e-04, -6.26890804e-04, -1.11819967e-03,
          1.47313738e-04, 2.90089840e-04, 1.15664727e-04, 1.01286022e-03 ]
   decision_functions:
      -
         sv_count: 1
         rho: -1.1087951678825968e-01
         alpha: [ 1. ]
         index: [ 0 ]
