%YAML:1.0
my_svm: !!opencv-ml-svm
   svm_type: C_SVC
   kernel: { type:LINEAR }
   C: 1.
   term_criteria: { epsilon:2.2204460492503131e-16, iterations:100 }
   var_all: 10
   var_count: 10
   class_count: 2
   class_labels: !!opencv-matrix
      rows: 1
      cols: 2
      dt: i
      data: [ 0, 1 ]
   sv_total: 1
   support_vectors:
      - [ -2.44101183e-03, 1.27506489e-03, -5.08136931e-04,
          -6.58641104e-04, 3.62480147e-04, 5.50836092e-04,
          2.65931158e-04, -5.11527702e-04, -1.43825868e-03,
          6.57174329e-04 ]
   decision_functions:
      -
         sv_count: 1
         rho: -1.5322010763764368e-01
         alpha: [ 1. ]
         index: [ 0 ]
