%YAML:1.0
my_svm: !!opencv-ml-svm
   svm_type: C_SVC
   kernel: { type:LINEAR }
   C: 1.
   term_criteria: { epsilon:2.2204460492503131e-016, iterations:100 }
   var_all: 128
   var_count: 128
   class_count: 2
   class_labels: !!opencv-matrix
      rows: 1
      cols: 2
      dt: i
      data: [ 0, 1 ]
   sv_total: 1
   support_vectors:
      - [ -1.11667156e-004, 2.64585880e-003, 2.04417878e-003,
          -1.51108694e-003, 7.31283217e-004, -4.03973652e-004,
          -2.25162366e-003, 5.19479683e-004, -1.88618165e-003,
          -2.74487026e-003, 2.79657892e-003, 3.51153128e-003,
          -2.44111661e-003, -2.71558971e-003, -1.82900796e-004,
          -2.30956660e-003, -2.13607028e-003, 7.87287718e-005,
          -2.38736699e-004, -7.77549634e-004, 7.98694266e-004,
          9.54882707e-004, -2.52173049e-003, -1.46271777e-003,
          -2.52624042e-003, -2.48899625e-004, -2.85982247e-003,
          1.26553210e-003, -2.72234948e-003, 7.80848030e-004,
          -2.49962002e-004, 2.88162148e-003, -2.19583302e-003,
          2.55440432e-003, -1.90958078e-003, 1.75385841e-003,
          -3.93633178e-004, -7.38538103e-004, -1.60094281e-003,
          -2.54018651e-003, 1.74250780e-003, 1.73290537e-004,
          -3.41482460e-003, 2.64699641e-003, 2.91710458e-004,
          -2.96140136e-003, 9.50282672e-004, 1.49426400e-003,
          2.10120415e-004, 2.50359881e-003, 1.18619573e-004,
          2.63479934e-003, 1.78318052e-003, -1.04211061e-003,
          -1.12163404e-003, -3.53205629e-004, -1.71273376e-003,
          1.42161478e-003, 2.16206559e-003, 1.01376371e-003,
          7.26002327e-004, 1.43624016e-003, 3.05418530e-003,
          -3.32105858e-003, -2.50997458e-004, 2.77290517e-003,
          -3.34755547e-004, -2.82344176e-003, 7.23029079e-004,
          2.14277441e-003, 5.96523285e-004, -3.56796919e-003,
          -2.04717554e-003, 2.86457664e-003, 8.15648236e-005,
          -1.21541496e-003, -2.72486242e-003, 1.53676304e-003,
          -3.05603934e-003, -6.39530714e-004, -4.06149030e-003,
          1.38231588e-003, 3.23824328e-003, 1.10629771e-003,
          -6.08998409e-004, -2.36285478e-003, -1.49638532e-003,
          -1.31086225e-003, 2.32864241e-003, 3.51842958e-004,
          -1.90313265e-003, 2.53967359e-004, 1.76469085e-003,
          3.79731937e-004, 8.29425408e-004, -3.90751613e-003,
          -6.34147029e-004, 1.25706010e-003, 7.54976878e-004,
          3.03294812e-003, 1.06927422e-004, -3.78412893e-004,
          -1.09919434e-004, -9.41658509e-004, -1.29407132e-003,
          -3.04547255e-004, -1.84833363e-003, -4.21548844e-004,
          -4.75498295e-004, 1.06624200e-003, -8.63378591e-006,
          1.12325384e-003, 3.47727619e-004, 1.70781495e-004,
          4.29217063e-004, 2.84651003e-004, -1.25341269e-003,
          1.85229804e-003, -1.33700401e-003, -4.90149076e-004,
          1.75949725e-004, 1.39942407e-004, -7.27077248e-004,
          5.21837268e-004, -1.20748871e-003, -1.53873733e-003,
          -2.84208014e-004, -2.10948943e-004 ]
   decision_functions:
      -
         sv_count: 1
         rho: -3.2238576499004068e-001
         alpha: [ 1. ]
         index: [ 0 ]
