%YAML:1.0
my_svm: !!opencv-ml-svm
   svm_type: C_SVC
   kernel: { type:LINEAR }
   C: 1.
   term_criteria: { epsilon:2.2204460492503131e-016, iterations:100 }
   var_all: 128
   var_count: 128
   class_count: 2
   class_labels: !!opencv-matrix
      rows: 1
      cols: 2
      dt: i
      data: [ 0, 1 ]
   sv_total: 1
   support_vectors:
      - [ 3.06654023e-003, -1.26667309e-003, 4.39936441e-004,
          -2.59867217e-003, 8.88270151e-004, -1.64569379e-003,
          -1.61256664e-003, -5.24175004e-004, -1.39726171e-005,
          3.60821770e-003, -5.41281700e-003, -1.00523315e-003,
          2.77033221e-004, -6.98494900e-004, 2.62919784e-004,
          1.48801552e-003, -5.11447666e-004, -1.12760253e-003,
          -9.69453467e-005, 1.31485122e-003, 2.70072022e-003,
          -1.67250051e-003, 1.36053516e-003, 8.61172972e-004,
          3.26395413e-004, 1.91829260e-003, 1.36320177e-003,
          -2.66099145e-004, 8.24191899e-004, 1.74989586e-003,
          9.00681829e-004, -1.46122207e-003, 1.84406771e-003,
          -2.17314530e-003, -7.48998718e-004, 2.56494875e-003,
          -1.36351725e-003, -5.12799481e-004, -5.80123917e-004,
          1.62205019e-004, 2.90470989e-003, -1.09206396e-003,
          -6.71525486e-004, 7.79141090e-004, -1.81296829e-003,
          1.08090544e-003, -1.80394016e-003, 4.84825490e-004,
          -1.93830044e-003, 7.99322384e-004, 1.37183396e-003,
          -7.41347845e-004, -2.25518277e-004, -3.08384909e-003,
          8.24311632e-004, 4.73961321e-004, 1.02253689e-003,
          4.79239476e-004, -2.62512267e-003, -1.82705757e-003,
          1.78166165e-003, 1.40006014e-003, -3.26719164e-004,
          -1.66667125e-003, 2.80655781e-003, -1.35372672e-003,
          -3.29121904e-005, -3.03783396e-004, -3.39878025e-003,
          4.54530178e-004, -1.70192125e-005, -4.98879526e-004,
          -2.10472569e-003, 4.51725267e-004, -6.69260335e-005,
          -1.20628218e-003, 3.43974592e-004, 8.17509717e-004,
          1.27253181e-003, 3.97122931e-003, 1.47618412e-003,
          -3.37828533e-003, -1.97233079e-004, 2.73083773e-004,
          2.97743408e-003, -3.13116494e-003, -1.94864080e-003,
          -1.93456584e-003, 2.86751357e-003, 6.71754024e-005,
          1.97984069e-003, 7.55563378e-005, -1.66748872e-003,
          7.13023241e-004, -1.09495613e-005, -2.87946640e-003,
          6.20635910e-005, -1.74031849e-003, 3.04492540e-003,
          -8.16570391e-005, -1.94615184e-003, 2.09109136e-003,
          2.07615551e-003, -2.97376653e-004, 3.40498897e-004,
          2.49309768e-003, 1.37917197e-003, -1.59367209e-003,
          1.59599585e-003, 1.52765133e-004, 4.04413149e-004,
          -5.05714619e-004, 5.23419003e-005, -7.39325187e-004,
          6.38161844e-004, -4.30681306e-004, -6.72443188e-004,
          1.29154578e-004, 7.51190644e-004, -2.15970431e-004,
          8.11333070e-004, 1.02821148e-004, 1.65844453e-004,
          5.43260176e-005, 2.80466699e-003, -1.34064327e-003,
          3.83155420e-004, -5.26357151e-004 ]
   decision_functions:
      -
         sv_count: 1
         rho: 9.8219340751445922e-002
         alpha: [ 1. ]
         index: [ 0 ]
