%YAML:1.0
my_svm: !!opencv-ml-svm
   svm_type: C_SVC
   kernel: { type:LINEAR }
   C: 1.0000000000000001e-01
   term_criteria: { epsilon:2.2204460492503131e-16, iterations:100 }
   var_all: 128
   var_count: 128
   class_count: 2
   class_labels: !!opencv-matrix
      rows: 1
      cols: 2
      dt: i
      data: [ 0, 1 ]
   sv_total: 1
   support_vectors:
      - [ 2.77949939e-03, 1.58732524e-03, 2.72087636e-03,
          -2.38687708e-03, -1.23141753e-03, 2.47760909e-04,
          -1.30655977e-03, 2.00995174e-03, 4.92006191e-04,
          -8.13244318e-04, 2.22553010e-03, 1.34529185e-03,
          8.56266706e-04, 6.47544570e-04, -6.95971714e-04,
          6.29262940e-04, 2.56657437e-03, -1.90506293e-03,
          -1.40625925e-04, 1.02169078e-03, -1.72024025e-04,
          -1.09402603e-03, -4.39040268e-05, -1.41764490e-03,
          1.39471993e-03, -1.07027986e-03, 1.23532373e-03,
          -6.90558983e-04, 7.81153969e-04, -4.03684913e-04,
          6.62850944e-05, 9.15094046e-04, 1.13027298e-03,
          -1.98709592e-03, -9.00723215e-04, -2.16034218e-03,
          4.95857967e-04, -4.04853723e-04, 8.08710523e-04,
          1.80710852e-03, -2.40309237e-04, -2.92336545e-03,
          -3.04931356e-03, -8.06358352e-04, -2.39521312e-03,
          3.07298033e-03, 1.39146415e-03, -4.69897408e-04,
          1.32613396e-03, -7.57539310e-05, -2.35516508e-03,
          2.09700479e-03, 1.47767353e-03, -1.66570605e-03,
          -1.42548245e-03, 1.07324286e-03, -2.33873236e-03,
          6.68832858e-04, -1.61414687e-03, -9.20091232e-04,
          -3.29428981e-03, 1.13766443e-03, 9.84176644e-04,
          -3.04841902e-04, -1.65210722e-03, 1.11104525e-03,
          8.75652186e-04, -5.16961387e-04, 1.57019112e-03,
          6.75454561e-04, -1.99503358e-03, 9.70926078e-04,
          -8.17876891e-04, -2.28367880e-05, -3.86708445e-04,
          -1.95011625e-03, -1.30154542e-03, 3.33089801e-03,
          3.39476578e-03, -7.31512730e-04, -9.81330755e-04,
          -9.88641055e-04, 6.21245534e-04, -1.80298975e-03,
          7.00396893e-04, -3.91111942e-03, -6.62226113e-04,
          -1.31419860e-03, -2.11033577e-04, -6.11084106e-04,
          -3.58629902e-03, -9.05723835e-04, -2.25787330e-03,
          4.07281914e-04, -1.29819801e-03, -9.19060694e-05,
          -2.59081111e-03, 1.55310950e-03, -5.09803882e-04,
          3.45689990e-03, -3.30677256e-03, 7.75872904e-04,
          1.01679831e-03, -3.03098466e-04, -1.26625656e-03,
          8.60857894e-04, -6.73892559e-04, -1.32658298e-03,
          1.72590189e-05, 6.83771679e-04, 1.93086584e-04,
          -5.37810731e-04, 1.00195932e-04, -7.00162724e-04,
          1.36236055e-03, 3.92145652e-04, -8.31690704e-05,
          -2.25416679e-05, 7.14744325e-04, 7.15256610e-04,
          4.20136552e-04, 1.53628731e-04, -7.33716937e-04,
          1.03583175e-03, 9.38311103e-04, -2.15367007e-04,
          9.85022867e-04, 1.62274155e-04 ]
   decision_functions:
      -
         sv_count: 1
         rho: -2.1237810851729680e-01
         alpha: [ 1. ]
         index: [ 0 ]
