%YAML:1.0
my_svm: !!opencv-ml-svm
   svm_type: C_SVC
   kernel: { type:LINEAR }
   C: 1.
   term_criteria: { epsilon:2.2204460492503131e-016, iterations:100 }
   var_all: 128
   var_count: 128
   class_count: 2
   class_labels: !!opencv-matrix
      rows: 1
      cols: 2
      dt: i
      data: [ 0, 1 ]
   sv_total: 1
   support_vectors:
      - [ -2.16757623e-003, -5.24811773e-003, -7.96302408e-003,
          7.32585648e-003, -8.48683715e-003, 3.57587007e-004,
          2.74293497e-003, 8.96274520e-004, 3.33867408e-003,
          -1.45299006e-002, 3.64593905e-003, 1.12954163e-004,
          -1.17987851e-002, -4.48774686e-003, 5.95335104e-003,
          -1.62226148e-003, 1.28607347e-003, 3.40115745e-003,
          -1.59859413e-003, 1.07929548e-002, 7.25980289e-003,
          4.45382437e-003, -6.56935014e-003, -1.64241949e-003,
          -7.00930133e-003, -4.13487153e-003, 7.29101477e-003,
          7.88535364e-003, -9.36994213e-004, 6.81101112e-003,
          1.49304618e-003, 5.68045676e-003, -1.61091716e-003,
          4.66799689e-003, -6.82306418e-004, -8.22562631e-003,
          -8.29546340e-003, -3.37098935e-003, 9.13960394e-003,
          -2.57962547e-005, -1.87619065e-003, 1.02774170e-003,
          -2.06228415e-003, 2.45362497e-003, -4.93067317e-003,
          2.60017859e-003, -9.36584140e-004, 2.34017661e-003,
          4.95984626e-004, -9.19768587e-004, 6.08428009e-003,
          6.94976281e-003, -6.22797583e-004, -7.09271175e-004,
          -7.43941171e-004, -2.03721016e-003, -6.48531597e-004,
          2.29384159e-006, -2.09186037e-005, 3.22631514e-003,
          -9.59660392e-004, -8.61759181e-004, 2.37383414e-003,
          -2.77107861e-003, -1.05018809e-003, 1.19976397e-003,
          -2.55212444e-003, 2.38585562e-004, 2.68992269e-003,
          -4.78050113e-003, -2.29693716e-003, -4.39528003e-003,
          7.19654316e-004, 3.83730652e-003, -8.04810552e-004,
          -2.06322060e-003, 2.60423729e-003, 4.43976605e-004,
          6.21694489e-004, 3.71148999e-005, -1.81085872e-003,
          -1.27421564e-003, 3.36700748e-003, 3.17970011e-003,
          -2.29971344e-003, 3.14004283e-004, 1.78969977e-003,
          3.93409922e-004, 3.08795243e-005, -2.12445878e-003,
          -5.34521043e-003, 1.70333928e-003, -1.80969248e-003,
          -1.00030191e-003, 2.47563375e-003, 3.39378300e-003,
          -1.61423959e-004, 4.77363908e-004, 3.22212372e-003,
          -1.19614520e-003, 4.34473302e-004, -1.76310050e-003,
          -6.58019155e-004, 2.77817220e-004, 2.08205823e-003,
          -2.66315346e-003, 2.59701954e-003, -1.60743517e-003,
          2.13880776e-004, -3.98865319e-004, 4.27210325e-005,
          1.00402324e-003, -2.86255241e-003, 2.29177950e-003,
          2.75101513e-004, -4.61712007e-005, 3.03878565e-004,
          4.69162245e-004, 9.69284083e-005, 1.16381689e-003,
          1.30499119e-003, -3.03374709e-005, -3.34346405e-005,
          -3.96783085e-004, 7.17118790e-004, -1.87216420e-003,
          5.15416556e-004, -3.63054336e-004 ]
   decision_functions:
      -
         sv_count: 1
         rho: -1.4668178779761150e+000
         alpha: [ 1. ]
         index: [ 0 ]
