%YAML:1.0
my_svm: !!opencv-ml-svm
   svm_type: C_SVC
   kernel: { type:LINEAR }
   C: 1.
   term_criteria: { epsilon:2.2204460492503131e-016, iterations:100 }
   var_all: 55
   var_count: 55
   class_count: 2
   class_labels: !!opencv-matrix
      rows: 1
      cols: 2
      dt: i
      data: [ 0, 1 ]
   sv_total: 1
   support_vectors:
      - [ -2.09041708e-003, -5.43993711e-003, 8.06529075e-003,
          5.30271791e-003, 7.20627001e-003, -1.31694805e-002,
          -1.54365879e-003, -1.81997544e-003, -1.31299393e-002,
          -1.35642122e-002, 3.18994443e-003, 1.43635971e-003,
          5.76746557e-003, -1.05125357e-004, 4.46846336e-003,
          3.55853862e-003, 8.26948509e-003, -7.16627389e-003,
          1.68444414e-003, -6.66820118e-003, 1.54334737e-003,
          1.28043173e-002, -9.12000984e-003, -7.75951939e-003,
          1.26972608e-003, 7.57719483e-003, -5.87662356e-003,
          4.72442684e-004, -2.44283257e-003, 1.39558734e-003,
          -1.28508138e-003, 3.61551269e-004, -1.71965128e-003,
          -1.79402402e-003, -6.49697671e-004, 3.24163795e-003,
          4.83651034e-004, -1.00772036e-003, 1.86961947e-003,
          5.11674967e-004, -5.27613913e-004, 8.29993747e-004,
          -3.10919277e-004, 1.97820191e-004, -4.58043738e-004,
          -1.26898187e-004, -4.39352298e-004, -6.78940793e-004,
          6.46343397e-005, 4.95662447e-004, 7.79835973e-005,
          4.32021625e-005, 6.94064729e-005, 5.30430756e-004,
          -1.92929874e-004 ]
   decision_functions:
      -
         sv_count: 1
         rho: -5.6981979537480587e-001
         alpha: [ 1. ]
         index: [ 0 ]
