%YAML:1.0
my_svm: !!opencv-ml-svm
   svm_type: C_SVC
   kernel: { type:LINEAR }
   C: 1.
   term_criteria: { epsilon:2.2204460492503131e-016, iterations:100 }
   var_all: 128
   var_count: 128
   class_count: 2
   class_labels: !!opencv-matrix
      rows: 1
      cols: 2
      dt: i
      data: [ 0, 1 ]
   sv_total: 1
   support_vectors:
      - [ -2.12366180e-003, 6.82550832e-004, -4.32910770e-003,
          5.12523297e-003, -9.63064085e-004, -1.03756867e-003,
          3.28867114e-003, -1.68019009e-003, -2.80150515e-003,
          -2.60017347e-003, 1.38297200e-003, -1.70819543e-003,
          -3.30953696e-003, -4.33790078e-003, 5.91682328e-004,
          5.79995220e-004, 1.98849291e-003, -8.35807703e-004,
          1.78426015e-003, -3.25588416e-003, 2.04107258e-003,
          4.12861258e-003, -3.78140155e-003, 4.07407433e-003,
          -2.35918676e-003, -1.04551448e-003, -2.30612815e-003,
          5.33881888e-004, -6.20879000e-004, 3.30909807e-003,
          2.74186046e-003, 2.57320167e-003, -5.09268953e-004,
          -8.39895511e-004, 3.41498264e-004, -4.00335528e-003,
          -3.72197782e-003, 5.51643083e-004, 4.04418586e-003,
          -3.05881165e-003, 5.00536291e-003, -3.42331681e-004,
          3.25166760e-003, -2.87592527e-003, 2.94429599e-003,
          -9.52106784e-004, -2.17896560e-003, -5.61510306e-003,
          1.29598542e-004, -9.97172436e-004, -2.43913397e-004,
          -2.38605891e-003, -1.24480505e-003, 8.60622909e-004,
          -1.09184254e-003, 4.75116918e-004, 1.04060827e-003,
          -3.89106572e-003, 1.50344102e-003, 3.49033042e-004,
          2.07556496e-008, -1.65202993e-003, -9.78728873e-004,
          -2.01304955e-003, -5.07058750e-004, -2.23981377e-004,
          -1.74037297e-003, -2.03927862e-003, 1.35089736e-003,
          1.11941400e-003, -1.85137324e-004, 4.80498449e-004,
          -6.16577920e-004, -7.32869434e-004, -1.68086507e-003,
          3.20320530e-003, 3.43560963e-003, -3.31487012e-004,
          -1.02684856e-003, 3.50133912e-003, -7.26592334e-005,
          -1.56448444e-003, -2.83510331e-003, -7.85221637e-004,
          -1.01288443e-003, 1.91609829e-003, 1.17393932e-003,
          3.62372212e-003, -1.65504788e-003, 9.09144990e-004,
          2.48864479e-003, 1.22775452e-003, 2.30006990e-004,
          -4.81200055e-004, 5.87339164e-004, 3.79010366e-004,
          2.65260576e-003, -2.67263176e-003, 4.31204360e-004,
          -2.60041235e-003, 1.41324278e-003, -9.93204420e-004,
          9.39505524e-004, -1.59401516e-003, -2.42804686e-004,
          -8.38700042e-004, 1.73121609e-003, 2.47372407e-003,
          1.15167827e-003, -2.51079164e-003, -4.93809988e-004,
          1.68881356e-003, 9.00299172e-004, 4.87756683e-004,
          -3.72321119e-005, -2.45903851e-004, 1.11869886e-003,
          1.66081896e-004, -2.51963944e-003, 1.32067024e-003,
          4.68960672e-004, 8.78462102e-004, 9.86292842e-004,
          -1.99393393e-003, 1.83158577e-003, -4.09968634e-004,
          7.65533361e-004, -2.45727075e-004 ]
   decision_functions:
      -
         sv_count: 1
         rho: -3.6289160677557369e-001
         alpha: [ 1. ]
         index: [ 0 ]
