%YAML:1.0
my_svm: !!opencv-ml-svm
   svm_type: C_SVC
   kernel: { type:LINEAR }
   C: 1.0000000000000001e-001
   term_criteria: { epsilon:2.2204460492503131e-016, iterations:100 }
   var_all: 128
   var_count: 128
   class_count: 2
   class_labels: !!opencv-matrix
      rows: 1
      cols: 2
      dt: i
      data: [ 0, 1 ]
   sv_total: 1
   support_vectors:
      - [ -1.94374670e-003, -5.35322912e-003, -8.22194945e-003,
          6.28748257e-003, -9.48872790e-003, 1.37796614e-003,
          -2.58963276e-003, -7.45595025e-005, 3.49558727e-003,
          1.38839139e-002, 2.00644624e-003, 7.95365719e-004,
          -1.23752085e-002, 6.03598170e-003, 3.48808570e-003,
          -2.20520975e-004, -1.53934187e-003, -3.84514919e-003,
          -6.15238678e-004, 9.43298731e-003, -9.53571964e-003,
          -3.57522210e-003, 6.97129965e-003, 5.04320906e-003,
          7.44181033e-003, 2.25318107e-003, -7.00756675e-003,
          -7.16347806e-003, 5.68972551e-004, -3.68821272e-003,
          -2.17528851e-003, -3.91907385e-003, 6.74839132e-003,
          1.46425155e-003, 1.70726460e-004, 9.65332799e-003,
          -1.34282862e-003, -5.00768470e-003, -2.93475552e-003,
          7.87781086e-003, 8.16181768e-004, -3.48155783e-003,
          -8.53311794e-004, 3.21062282e-003, 3.80972982e-003,
          -1.72931969e-003, -1.54107984e-004, 6.40792248e-004,
          2.28288025e-003, 3.59789556e-005, 1.55407423e-003,
          -7.28414953e-003, -3.27632151e-004, -1.28134474e-004,
          1.78521755e-003, 6.85432984e-004, -8.00588168e-004,
          -3.16217402e-003, 1.99222378e-003, 1.68503332e-003,
          7.74639891e-004, 2.82991352e-003, -1.12164870e-003,
          2.33753514e-003, 4.42309683e-004, -1.63961889e-003,
          -1.87265978e-003, -1.54341524e-003, 2.05704477e-004,
          -4.74131899e-003, -4.25295578e-003, -1.19357742e-003,
          -1.61409634e-003, 1.81616226e-003, -1.96080701e-003,
          1.52095722e-003, 1.52782444e-003, 6.92405039e-004,
          -5.15450141e-004, -1.70095591e-003, 2.61168141e-004,
          -3.56671546e-004, -4.35557589e-003, 4.80231800e-004,
          -2.28267070e-003, 6.51136972e-004, -4.78495240e-005,
          8.39497021e-004, 7.62991083e-004, 2.92353518e-003,
          -3.75495222e-003, 5.56873297e-003, -3.31823045e-004,
          -6.22623411e-005, 1.34116635e-004, -1.67725515e-003,
          -6.25458371e-004, 3.50799237e-005, 2.37662485e-003,
          -8.10005760e-004, -2.10723886e-003, 8.36330510e-005,
          -4.76802088e-004, 2.04763375e-004, 2.65786028e-003,
          2.04759324e-003, 1.05688337e-003, -2.78467755e-003,
          -4.04374041e-005, 7.93966232e-004, 7.10750319e-005,
          -1.38378423e-003, -3.33038205e-003, -7.22753583e-004,
          5.98801242e-004, -9.98425530e-004, -2.00821916e-004,
          -1.02289545e-003, 6.29441522e-004, 6.36133656e-004,
          6.33858785e-004, 4.46885155e-004, 5.61192050e-004,
          -3.85793741e-004, 3.46015266e-004, 1.20961177e-003,
          2.69088894e-004, 7.74266606e-004 ]
   decision_functions:
      -
         sv_count: 1
         rho: -1.3898451730173591e+000
         alpha: [ 1. ]
         index: [ 0 ]
