%YAML:1.0
my_svm: !!opencv-ml-svm
   svm_type: C_SVC
   kernel: { type:LINEAR }
   C: 5.0000000000000000e-001
   term_criteria: { epsilon:2.2204460492503131e-016, iterations:100 }
   var_all: 30
   var_count: 30
   class_count: 2
   class_labels: !!opencv-matrix
      rows: 1
      cols: 2
      dt: i
      data: [ 0, 1 ]
   sv_total: 1
   support_vectors:
      - [ 2.38111261e-006, -2.71923318e-006, 6.42677719e-007,
          8.14468493e-010, -7.73757790e-007, -2.37134529e-007,
          1.87464173e-006, 1.49836239e-007, 1.21016251e-006,
          -1.77180175e-006, 3.25888465e-007, 2.22272934e-006,
          4.82207270e-007, 1.72180341e-006, -1.43599163e-006,
          1.30025160e-006, 2.76562332e-006, -1.35689095e-006,
          1.23996949e-006, -2.44026569e-006, 2.18757393e-007,
          7.38980361e-007, 1.91698950e-006, -1.12914677e-006,
          1.01948451e-007, -1.42455929e-006, -1.48690970e-006,
          -9.19742718e-007, -1.32419279e-006, -1.97178338e-007 ]
   decision_functions:
      -
         sv_count: 1
         rho: 1.0887914685935127e+000
         alpha: [ 1. ]
         index: [ 0 ]
