%YAML:1.0
my_svm: !!opencv-ml-svm
   svm_type: C_SVC
   kernel: { type:LINEAR }
   C: 1.
   term_criteria: { epsilon:2.2204460492503131e-016, iterations:100 }
   var_all: 55
   var_count: 55
   class_count: 2
   class_labels: !!opencv-matrix
      rows: 1
      cols: 2
      dt: i
      data: [ 0, 1 ]
   sv_total: 1
   support_vectors:
      - [ -4.82521020e-003, 1.41914119e-003, -1.11603746e-002,
          -8.64708424e-003, -1.07805505e-002, -4.84247971e-003,
          -6.27667585e-004, 4.42807237e-003, -7.16377748e-004,
          3.84334265e-003, 1.88073376e-003, -1.09148221e-002,
          1.82957901e-003, -1.80244481e-003, -1.75520778e-003,
          -5.30569162e-003, 9.73060494e-004, 1.78321963e-004,
          -9.87862935e-004, -3.11247562e-003, 1.73683243e-003,
          8.20609333e-004, 1.27978774e-003, 3.40331317e-004,
          1.36210653e-003, 2.19005928e-003, 1.57755858e-003,
          3.11685901e-004, -2.87660107e-004, -1.77839960e-004,
          7.21855904e-004, 6.26173351e-005, -1.65424848e-004,
          2.70811006e-006, 7.36064336e-004, 3.34533106e-004,
          2.42874550e-004, -2.97417399e-004, 3.40314509e-005,
          -4.87781392e-004, 4.41012322e-004, 1.37621508e-004,
          2.19780530e-004, 1.04211562e-004, 4.38046591e-005,
          -2.72637350e-004, 1.12615446e-004, -9.50579997e-005,
          -1.67355654e-004, -1.28757718e-004, 1.10372948e-005,
          -6.26888504e-005, 1.21066910e-006, 1.57188097e-005,
          -1.17630395e-003 ]
   decision_functions:
      -
         sv_count: 1
         rho: -4.5908474308320363e-001
         alpha: [ 1. ]
         index: [ 0 ]
