%YAML:1.0
my_svm: !!opencv-ml-svm
   svm_type: C_SVC
   kernel: { type:LINEAR }
   C: 1.
   term_criteria: { epsilon:2.2204460492503131e-16, iterations:100 }
   var_all: 10
   var_count: 10
   class_count: 2
   class_labels: !!opencv-matrix
      rows: 1
      cols: 2
      dt: i
      data: [ 0, 1 ]
   sv_total: 1
   support_vectors:
      - [ -2.89218361e-03, 1.35143555e-03, -8.07949633e-04,
          9.12942400e-04, 4.67949227e-04, 9.17166180e-04, 1.19094842e-03,
          -1.40216481e-03, -5.68179472e-04, -1.26588298e-03 ]
   decision_functions:
      -
         sv_count: 1
         rho: -5.7718726447367796e-01
         alpha: [ 1. ]
         index: [ 0 ]
