%YAML:1.0
my_svm: !!opencv-ml-svm
   svm_type: C_SVC
   kernel: { type:LINEAR }
   C: 1.
   term_criteria: { epsilon:2.2204460492503131e-016, iterations:100 }
   var_all: 128
   var_count: 128
   class_count: 2
   class_labels: !!opencv-matrix
      rows: 1
      cols: 2
      dt: i
      data: [ 0, 1 ]
   sv_total: 1
   support_vectors:
      - [ 2.51143007e-003, 9.43696068e-004, 1.70924948e-004,
          3.76371347e-004, 6.28858281e-004, 1.55845552e-003,
          1.15709531e-003, -1.03318132e-003, 5.20505710e-003,
          -4.77844937e-004, 2.92909477e-004, -1.11523375e-003,
          3.83068505e-003, 2.28767958e-003, -5.71602541e-005,
          1.92161114e-003, 2.31528116e-004, -2.10924377e-003,
          -6.54110336e-004, -4.99686925e-003, 1.02815466e-004,
          -2.40537501e-003, 8.43197748e-004, -1.86546042e-003,
          -1.52036652e-003, -5.48571022e-003, 1.34671340e-004,
          -2.46844650e-003, 2.57344940e-003, -1.68899505e-003,
          1.76685245e-003, 2.47554039e-003, 1.27429108e-003,
          1.54886837e-003, 2.67773983e-003, -7.39282521e-004,
          -2.70712399e-003, -3.42293037e-003, 5.44611411e-003,
          -1.91933461e-004, 3.54140648e-005, -4.13967716e-003,
          -4.27066989e-004, 2.99896637e-004, -1.74736197e-003,
          2.44157913e-004, 2.46963836e-003, 4.20197786e-004,
          4.08077985e-003, 5.21079462e-004, 3.20442952e-003,
          -6.98615971e-004, -2.99161253e-003, 1.32733060e-003,
          -1.10379362e-003, -3.65836592e-003, -5.55603532e-004,
          1.65265542e-003, 6.97637588e-005, 2.27723364e-003,
          7.28826330e-004, 5.22021321e-004, -2.81614455e-004,
          -2.51609366e-003, -1.26752467e-003, 1.70881185e-003,
          3.59912985e-003, 9.45280830e-004, -3.80598498e-003,
          1.60255795e-003, -4.03315527e-003, -3.15300934e-003,
          -3.87682900e-004, -1.03677611e-003, 3.58657824e-004,
          1.79569016e-003, 2.73745949e-003, -1.26121042e-004,
          -4.09545668e-004, 3.20745818e-003, -1.82758900e-003,
          6.14060846e-004, 5.91428136e-004, -1.13789679e-003,
          -6.75518357e-004, 2.74736504e-003, -6.39157137e-004,
          -4.12173197e-003, -2.83422240e-004, 1.83936104e-003,
          -2.69845990e-003, 2.93970981e-004, 8.98338913e-004,
          -2.04953458e-003, 1.45370455e-003, -1.77351886e-003,
          -2.82196025e-003, 1.11049786e-003, 8.71660246e-004,
          -3.04668979e-003, 5.97867940e-004, 1.11416879e-003,
          -1.18276640e-003, 1.59273657e-003, -5.70220698e-004,
          2.73813494e-004, -7.54090943e-005, -7.34297373e-006,
          6.85213017e-004, -3.43253225e-004, 1.14869373e-003,
          -1.69774122e-003, 1.55275105e-003, -2.66656771e-005,
          -3.08381597e-004, 7.88018689e-004, -1.11161196e-003,
          -6.54704287e-004, 9.76307958e-004, -1.95535598e-003,
          -9.51623253e-004, 1.40957150e-003, 9.67964530e-004,
          2.72604171e-004, 1.13769504e-003, -6.95726369e-004,
          7.60592666e-005, 5.48679905e-004 ]
   decision_functions:
      -
         sv_count: 1
         rho: -2.2802534337208264e-002
         alpha: [ 1. ]
         index: [ 0 ]
