%YAML:1.0
my_svm: !!opencv-ml-svm
   svm_type: C_SVC
   kernel: { type:LINEAR }
   C: 1.0000000000000001e-001
   term_criteria: { epsilon:2.2204460492503131e-016, iterations:100 }
   var_all: 30
   var_count: 30
   class_count: 2
   class_labels: !!opencv-matrix
      rows: 1
      cols: 2
      dt: i
      data: [ 0, 1 ]
   sv_total: 1
   support_vectors:
      - [ 3.40111342e-006, -1.09672260e-006, 2.47793821e-008,
          1.54117208e-006, -7.42758232e-007, -3.76939215e-006,
          -5.95473125e-007, 2.52187624e-006, -9.18285025e-007,
          4.99088742e-007, -8.99033921e-007, -1.33003323e-006,
          7.15360386e-007, 3.33474145e-006, -2.92996791e-008,
          -3.47330058e-007, -4.68226091e-007, -3.98157368e-007,
          5.19236835e-007, -9.17211707e-007, -8.64647063e-007,
          -1.87415037e-006, 3.83686165e-006, -4.49134376e-007,
          -3.04948998e-007, 6.89245837e-007, -7.48989635e-007,
          -3.07384539e-007, 7.01471734e-008, -3.90521336e-006 ]
   decision_functions:
      -
         sv_count: 1
         rho: 1.1471958603143468e+000
         alpha: [ 1. ]
         index: [ 0 ]
