%YAML:1.0
my_svm: !!opencv-ml-svm
   svm_type: C_SVC
   kernel: { type:LINEAR }
   C: 1.
   term_criteria: { epsilon:2.2204460492503131e-016, iterations:100 }
   var_all: 128
   var_count: 128
   class_count: 2
   class_labels: !!opencv-matrix
      rows: 1
      cols: 2
      dt: i
      data: [ 0, 1 ]
   sv_total: 1
   support_vectors:
      - [ 2.02821312e-003, -3.82270897e-004, -9.26962355e-004,
          -3.84832892e-005, 2.84963899e-004, -2.78734631e-004,
          -8.52762023e-004, 5.52817015e-004, -3.42635089e-004,
          7.40049756e-004, -8.01489048e-004, -1.77464879e-003,
          -1.10059476e-003, -3.72518640e-004, -6.69680448e-005,
          -1.85706513e-003, -1.86041711e-004, 1.70914049e-004,
          -4.55473433e-004, 5.59188484e-004, 4.09782042e-005,
          -7.88995239e-004, 2.32706025e-005, -2.87873292e-004,
          -8.78049817e-004, 1.79490235e-004, -7.17136078e-004,
          4.89127066e-004, 6.38475933e-004, 5.67014678e-004,
          -3.21885949e-004, -5.95939964e-005, 3.01521318e-003,
          -6.28932205e-004, 1.24508779e-005, 8.28360033e-004,
          2.75805779e-003, 1.13710889e-003, 3.27614805e-004,
          1.05757290e-003, -2.63012294e-003, -1.49806589e-003,
          -1.46037620e-003, -2.55164620e-003, -1.60230976e-003,
          -1.26939116e-003, -5.78002073e-004, -2.04146723e-003,
          -8.95779114e-004, -4.33291600e-004, -2.55062897e-003,
          -3.70513112e-003, -1.14190811e-003, -3.15142260e-003,
          1.41440061e-004, -1.19864056e-003, -1.27312844e-003,
          4.36551141e-004, -1.26422587e-004, 1.23958755e-003,
          1.80276041e-003, 4.69612802e-004, 1.94623382e-004,
          -2.25063253e-004, 8.62658664e-004, 1.72511511e-003,
          7.21648976e-004, 1.01765187e-003, 8.75450438e-004,
          9.17129975e-004, 8.62883055e-004, 7.49071536e-004,
          -1.29404617e-003, 4.62552911e-004, -6.75267831e-004,
          -7.88814446e-004, -1.21238397e-003, -5.08444849e-004,
          -6.90584362e-004, -3.17387487e-004, 1.60096257e-004,
          3.30880430e-004, -6.83349615e-004, -1.03888684e-003,
          -5.61081688e-004, -1.28116901e-003, -7.64018623e-004,
          2.29871061e-004, -2.14723451e-003, -5.81825210e-004,
          -1.36229687e-003, 1.29560893e-003, 1.68126317e-005,
          -9.37863952e-004, -8.38253880e-004, -4.96650173e-004,
          2.21369602e-003, 1.38469436e-003, -4.76350659e-004,
          -9.57063385e-005, 4.34605841e-004, 2.29240992e-004,
          -6.32503477e-004, 3.04305595e-005, -7.70291255e-004,
          -7.14757247e-004, -6.73534756e-004, 3.19354062e-004,
          8.10602854e-004, 3.26903275e-004, 5.77849511e-004,
          4.83879441e-004, -1.45702186e-004, 3.81778154e-005,
          -3.03080771e-004, 9.82864993e-004, 2.62881775e-004,
          -1.01890264e-003, -1.14632654e-004, 7.27176608e-004,
          -1.18231645e-003, -4.22949233e-005, -1.32259825e-004,
          3.41236562e-004, -1.37487237e-004, -6.38109865e-004,
          -4.44633566e-004, -9.81384292e-005 ]
   decision_functions:
      -
         sv_count: 1
         rho: -2.1633798245732137e+000
         alpha: [ 1. ]
         index: [ 0 ]
