%YAML:1.0
my_svm: !!opencv-ml-svm
   svm_type: C_SVC
   kernel: { type:LINEAR }
   C: 1.0000000000000001e-001
   term_criteria: { epsilon:2.2204460492503131e-016, iterations:100 }
   var_all: 30
   var_count: 30
   class_count: 2
   class_labels: !!opencv-matrix
      rows: 1
      cols: 2
      dt: i
      data: [ 0, 1 ]
   sv_total: 1
   support_vectors:
      - [ -1.48433242e-006, 3.98466773e-006, 1.25255451e-006,
          9.53854737e-007, -2.77583638e-007, 1.98905559e-006,
          5.06797960e-007, 1.43080933e-006, -4.88191347e-007,
          3.54940903e-006, -1.50339304e-007, -2.73351043e-006,
          -1.42895681e-006, -1.80910774e-007, 8.05756258e-007,
          2.98100588e-007, -3.57455156e-006, 7.17605133e-007,
          -1.99655142e-006, 1.29717364e-006, 6.38854885e-007,
          -1.09430039e-006, 6.95601841e-007, 3.05646665e-007,
          -9.57672114e-007, -1.34350319e-006, 5.62129685e-008,
          1.27196074e-006, 1.38058783e-006, -1.06229926e-007 ]
   decision_functions:
      -
         sv_count: 1
         rho: 8.9268805055576161e-002
         alpha: [ 1. ]
         index: [ 0 ]
