%YAML:1.0
my_svm: !!opencv-ml-svm
   svm_type: C_SVC
   kernel: { type:LINEAR }
   C: 1.
   term_criteria: { epsilon:2.2204460492503131e-016, iterations:100 }
   var_all: 60
   var_count: 60
   class_count: 2
   class_labels: !!opencv-matrix
      rows: 1
      cols: 2
      dt: i
      data: [ 0, 1 ]
   sv_total: 1
   support_vectors:
      - [ 2.37458316e-003, 1.89283292e-003, -2.00282855e-004,
          1.03764178e-004, 1.32464815e-003, 3.03781853e-004,
          -1.90643594e-003, 6.71133675e-005, 2.31984159e-004,
          3.44353844e-004, -1.13083876e-003, 2.26374180e-003,
          8.51084420e-004, 1.24236603e-005, -2.62041599e-003,
          -1.64111902e-004, -2.59741698e-003, 1.99657236e-003,
          9.62003542e-004, 4.46746359e-004, 6.28040172e-004,
          -2.38972178e-004, -5.89483359e-004, -2.06870819e-003,
          -2.04893807e-003, 8.98567669e-004, -1.70391845e-003,
          9.77423042e-004, -3.73388961e-004, 3.92815564e-003,
          4.70596045e-004, 1.98253809e-004, 1.50234811e-003,
          -1.75655319e-003, -2.07699742e-003, -9.16347781e-004,
          6.89994893e-004, 1.62656652e-004, 1.40403921e-003,
          -8.15013133e-004, 1.15747890e-003, -1.92226039e-003,
          -2.28889941e-004, -4.48519451e-004, 1.79475395e-003,
          3.12455301e-003, -2.12538987e-003, -1.62696291e-003,
          -3.79069126e-003, 1.45373560e-004, 8.82425753e-004,
          -2.64347298e-003, -2.26585637e-003, 7.48508028e-004,
          2.69964174e-003, 1.39754103e-003, 1.34784938e-003,
          3.36239464e-005, -6.82340251e-005, 6.65800006e-004 ]
   decision_functions:
      -
         sv_count: 1
         rho: 6.3511481302557626e-002
         alpha: [ 1. ]
         index: [ 0 ]
