%YAML:1.0
my_svm: !!opencv-ml-svm
   svm_type: C_SVC
   kernel: { type:LINEAR }
   C: 1.
   term_criteria: { epsilon:2.2204460492503131e-016, iterations:100 }
   var_all: 60
   var_count: 60
   class_count: 2
   class_labels: !!opencv-matrix
      rows: 1
      cols: 2
      dt: i
      data: [ 0, 1 ]
   sv_total: 1
   support_vectors:
      - [ -3.01535102e-003, -7.18212046e-004, 1.72594865e-003,
          3.05573456e-004, -2.46968493e-003, 1.72970851e-003,
          -1.06230902e-003, 4.71009727e-004, 7.87208031e-004,
          -5.50723460e-004, 1.50766410e-003, -4.96775669e-004,
          -2.13893945e-003, -1.70403789e-003, 4.65822825e-003,
          2.12815613e-003, 8.55798484e-004, -2.46638199e-003,
          -2.49539589e-004, -1.05826161e-003, -1.76684046e-003,
          2.70458695e-004, 1.62786484e-004, 2.85886810e-004,
          3.08083341e-004, -3.01181665e-003, 2.59850617e-003,
          -1.04583916e-003, -2.93814274e-003, -4.50920500e-003,
          2.58002983e-004, -1.55540754e-003, 2.09084409e-003,
          2.16848752e-003, 3.60959268e-004, -9.27346933e-004,
          9.08203874e-005, 5.69982330e-005, 9.49905370e-004,
          4.73791646e-004, -7.44597404e-004, -3.46175791e-003,
          -6.80287849e-005, 6.88223052e-004, -1.62790809e-003,
          -2.71878275e-003, 1.22934824e-003, 2.77581566e-004,
          2.38230661e-003, -2.89782952e-003, -1.09378260e-003,
          1.05872215e-003, 4.22547571e-003, -2.19040900e-003,
          -1.18042948e-003, -1.28992822e-003, -1.22011953e-003,
          -1.74114495e-004, -2.51401478e-004, -5.97225677e-004 ]
   decision_functions:
      -
         sv_count: 1
         rho: -2.4410834957536456e-001
         alpha: [ 1. ]
         index: [ 0 ]
