%YAML:1.0
my_svm: !!opencv-ml-svm
   svm_type: C_SVC
   kernel: { type:LINEAR }
   C: 1.
   term_criteria: { epsilon:2.2204460492503131e-016, iterations:100 }
   var_all: 128
   var_count: 128
   class_count: 2
   class_labels: !!opencv-matrix
      rows: 1
      cols: 2
      dt: i
      data: [ 0, 1 ]
   sv_total: 1
   support_vectors:
      - [ -1.03734492e-003, -2.66906573e-004, -5.31149562e-004,
          -1.34804856e-003, -1.46778300e-003, -4.09491826e-004,
          -5.97759907e-004, -1.38731208e-003, 1.18918880e-003,
          1.00372324e-003, 5.82254841e-004, 5.82622422e-004,
          1.48176320e-003, 4.99630114e-004, 2.98334722e-004,
          4.44317957e-005, -1.76016110e-004, -1.58718787e-004,
          6.56111797e-006, -2.00045411e-004, 5.66542847e-004,
          -4.21894511e-004, 2.67733471e-004, -4.42100136e-005,
          1.38654970e-004, 2.51305446e-005, -7.72278727e-005,
          -8.89138755e-005, -5.71476470e-004, -3.45360662e-004,
          1.34475456e-004, 3.13668599e-004, -1.97843555e-003,
          -5.14410611e-004, -7.10388296e-004, -1.10273703e-003,
          -1.92490418e-003, -9.09097551e-004, -4.04811115e-004,
          -1.13306311e-003, 6.06169284e-004, 1.30887187e-004,
          3.50201328e-004, -1.98231137e-004, 2.90260505e-004,
          -1.31571942e-004, 1.73538225e-004, 1.52004228e-004,
          3.16453981e-004, -4.02205013e-004, 6.53392926e-004,
          -5.58623695e-004, 5.66366012e-004, -3.63040454e-004,
          1.92835985e-004, 3.52112169e-004, 3.58271733e-004,
          5.87092654e-004, 7.29812135e-004, -6.03403241e-005,
          -8.79447733e-004, 7.81235212e-005, 6.23651373e-004,
          5.10729093e-004, -8.45295028e-004, -8.29912315e-004,
          -1.73115070e-004, 1.34244750e-004, -1.14834969e-004,
          1.54204245e-004, -8.54145696e-008, 2.36332882e-004,
          -3.19725572e-004, -4.25260732e-005, 1.17083627e-003,
          -3.22166481e-004, 3.59606114e-004, -3.17201280e-004,
          5.65709954e-004, 5.27055636e-005, 4.98696638e-004,
          -3.09817784e-004, 9.57501063e-004, 6.18646154e-004,
          2.25868513e-004, -8.18009896e-004, 2.77205923e-004,
          1.09601373e-004, 9.85091669e-004, 5.99144492e-004,
          2.83863978e-004, -2.20476475e-004, -5.42976079e-004,
          2.75939063e-004, 4.11651970e-004, 3.29756120e-004,
          -6.08868664e-004, 8.69234937e-005, 8.53363250e-004,
          1.00883452e-004, -1.17367068e-004, 6.77664866e-005,
          1.55807953e-004, -2.31914382e-004, -5.22336166e-004,
          -4.39931318e-004, 1.08345773e-003, 4.09992033e-004,
          3.52791481e-004, -6.94466929e-004, -9.09605646e-004,
          2.16124263e-005, 4.47360799e-004, 1.40894244e-005,
          6.30624781e-005, -2.28181190e-004, -2.44877097e-004,
          -4.11932851e-004, -1.20948919e-003, 2.19464346e-004,
          5.61015855e-004, 4.56557114e-004, 2.47868098e-004,
          -2.41163027e-004, -3.16044490e-004, 1.59458956e-004,
          1.70555635e-004, 1.33914364e-004 ]
   decision_functions:
      -
         sv_count: 1
         rho: -1.8288888417620897e-001
         alpha: [ 1. ]
         index: [ 0 ]
