%YAML:1.0
my_svm: !!opencv-ml-svm
   svm_type: C_SVC
   kernel: { type:LINEAR }
   C: 1.
   term_criteria: { epsilon:2.2204460492503131e-016, iterations:100 }
   var_all: 128
   var_count: 128
   class_count: 2
   class_labels: !!opencv-matrix
      rows: 1
      cols: 2
      dt: i
      data: [ 0, 1 ]
   sv_total: 1
   support_vectors:
      - [ -1.79685897e-003, 3.14641627e-004, -4.38301882e-004,
          -7.88932841e-004, -8.00210400e-004, -8.93645571e-004,
          1.30400236e-003, 7.55583969e-005, -1.35742885e-003,
          3.48926382e-003, 2.60892371e-003, 2.91683455e-003,
          -1.75748288e-003, 2.22036056e-003, -2.23094993e-003,
          -1.28584006e-003, 2.00362713e-003, -1.31808541e-004,
          1.41312159e-003, -1.27206952e-003, -3.17709288e-004,
          -1.41685712e-003, 1.69700524e-003, 1.97338086e-004,
          2.40325020e-003, -5.44911250e-004, 1.35741045e-003,
          -4.82524803e-004, 1.45473436e-003, -6.54427509e-004,
          -6.06330112e-004, -1.84014614e-003, -1.18095241e-003,
          -2.78553111e-003, 5.14008524e-003, -3.03732674e-003,
          1.47381763e-003, -2.94486852e-003, -2.96990597e-003,
          5.46052644e-004, 3.02057411e-003, 4.00154851e-003,
          -2.49357079e-003, -5.37726271e-004, 7.10912514e-004,
          3.97117017e-003, 3.11594194e-004, -1.29376783e-003,
          -4.82750329e-004, 1.67174742e-003, -2.30490183e-003,
          -2.55353516e-003, 2.87404400e-004, -1.85332564e-003,
          8.01371585e-004, 8.62704564e-006, 1.74997712e-003,
          -7.16387818e-004, 9.43329069e-004, 1.25921506e-003,
          7.27087390e-005, 2.21954309e-003, 1.45783985e-003,
          1.56585756e-003, -3.00364569e-004, -3.25022056e-003,
          1.06962444e-003, 2.57019978e-003, 7.37781927e-004,
          2.75193888e-004, -3.13016865e-003, -8.12936923e-004,
          2.19991594e-003, -1.89453550e-003, -7.48536142e-004,
          1.39951392e-003, 5.27262338e-004, 1.73637760e-003,
          -2.86824023e-003, 1.84651604e-003, 1.75722095e-003,
          -1.95850432e-003, 1.77076110e-003, -3.11196037e-003,
          1.62631995e-003, -3.48863570e-004, 3.66391789e-004,
          -1.66610663e-003, -8.22403381e-005, -3.89439915e-003,
          2.49219942e-004, -1.18911616e-003, 1.42766712e-005,
          6.02376938e-004, 2.89375638e-003, -2.00246577e-003,
          7.81575858e-004, -7.37361494e-004, 1.56461482e-003,
          -4.54752287e-003, 8.47074320e-004, -5.33644401e-004,
          1.28216180e-003, -2.37282109e-003, -1.12608413e-003,
          4.56225273e-004, 1.58463127e-003, -1.55582745e-003,
          1.04463857e-003, 2.04917183e-003, -3.89481429e-004,
          -7.96583190e-004, -1.42066390e-003, 3.75950563e-004,
          6.09300798e-004, -3.11473064e-004, -1.20310404e-003,
          4.22379118e-004, 6.74301918e-005, -7.76022673e-004,
          -9.59408935e-004, 1.18869153e-004, 1.00969663e-003,
          -3.89934256e-004, -1.88523391e-003, 8.43026733e-004,
          -7.12995170e-005, -6.93329377e-004 ]
   decision_functions:
      -
         sv_count: 1
         rho: -1.4823488504088930e-001
         alpha: [ 1. ]
         index: [ 0 ]
