%YAML:1.0
my_svm: !!opencv-ml-svm
   svm_type: C_SVC
   kernel: { type:LINEAR }
   C: 1.
   term_criteria: { epsilon:2.2204460492503131e-016, iterations:100 }
   var_all: 128
   var_count: 128
   class_count: 2
   class_labels: !!opencv-matrix
      rows: 1
      cols: 2
      dt: i
      data: [ 0, 1 ]
   sv_total: 1
   support_vectors:
      - [ -1.80128741e-003, 1.11629383e-003, -1.24800578e-003,
          -2.48137675e-003, -6.95712399e-004, 5.30330755e-004,
          -1.43960444e-003, 1.34385866e-003, 8.41861241e-004,
          1.10420922e-003, 2.60546152e-003, 8.90120573e-004,
          1.93521124e-003, 2.40835571e-003, -2.45831558e-003,
          -3.97968892e-004, 5.14499960e-004, 2.99975020e-003,
          -5.22980699e-004, -8.22345901e-004, -1.11142558e-003,
          -1.92763424e-003, 1.18618656e-003, 1.54618302e-003,
          -4.93395783e-004, -9.99135547e-004, 6.59523881e-004,
          -7.45643410e-005, -1.10126147e-003, -6.15452824e-004,
          1.21651986e-003, -7.29132560e-004, -1.73848029e-003,
          1.88809703e-003, 1.32760080e-003, -5.70262608e-004,
          -1.88789170e-004, 1.08616776e-004, -3.90157773e-004,
          -2.74072844e-003, -1.23678299e-003, 2.63250479e-003,
          2.53009726e-003, -3.09809158e-003, -2.23294459e-003,
          6.13586628e-004, 5.48375538e-003, 1.57371964e-004,
          -1.66076538e-003, 2.59739783e-004, -2.27155257e-003,
          -2.32870574e-003, -1.04345600e-004, 2.89765280e-003,
          -2.08913279e-003, 1.46557298e-003, -2.94185546e-003,
          -1.93630008e-003, -8.09808262e-005, 5.31133637e-003,
          -1.98597112e-003, 3.25343979e-004, 1.63019192e-003,
          -9.84238228e-004, -3.08527565e-003, 2.17419886e-003,
          1.49538508e-003, 1.29964261e-003, 1.46184966e-003,
          5.88366645e-004, 4.33439214e-004, 1.59032570e-004,
          1.80125481e-003, -6.99127151e-004, -4.44410362e-005,
          3.80260614e-003, -6.39290840e-004, -1.09465478e-003,
          -2.23121722e-003, -1.16199581e-003, -9.20002494e-005,
          2.48254091e-003, -4.15541872e-004, -4.48001447e-005,
          -3.28569021e-003, 1.51831494e-003, 1.55643094e-003,
          2.12865486e-003, -2.88321957e-004, -1.16646319e-004,
          -3.70947667e-003, -1.02339068e-003, 2.67701247e-003,
          -1.79981044e-003, -6.98227610e-004, 2.69592833e-003,
          -3.51304607e-003, 8.31763551e-004, -1.30779133e-003,
          1.66699255e-003, 2.50634924e-003, -1.59924303e-003,
          -1.49258308e-003, 2.44289433e-004, -1.52663386e-003,
          -7.28348328e-004, -1.68817234e-003, -4.34236048e-004,
          -7.47914659e-004, -1.19538186e-003, -1.44947480e-004,
          4.41988494e-004, -1.81701951e-004, 5.09119302e-004,
          -9.16159828e-004, 5.66687158e-005, -2.23249473e-004,
          -2.63540715e-004, 2.22393268e-004, -2.76707258e-004,
          -1.54446147e-003, 7.80830742e-005, -1.09545479e-003,
          8.03673815e-004, -1.80035830e-003, 2.95426289e-004,
          -6.79465709e-004, -3.15483427e-004 ]
   decision_functions:
      -
         sv_count: 1
         rho: -2.4904252230561016e-001
         alpha: [ 1. ]
         index: [ 0 ]
