%YAML:1.0
my_svm: !!opencv-ml-svm
   svm_type: C_SVC
   kernel: { type:LINEAR }
   C: 1.
   term_criteria: { epsilon:2.2204460492503131e-016, iterations:100 }
   var_all: 128
   var_count: 128
   class_count: 2
   class_labels: !!opencv-matrix
      rows: 1
      cols: 2
      dt: i
      data: [ 0, 1 ]
   sv_total: 1
   support_vectors:
      - [ 1.09831977e-003, 3.05190100e-004, 6.34377298e-004,
          9.75436531e-004, 1.29139051e-003, 5.06011653e-004,
          4.60579933e-004, 6.98595191e-004, -1.95461238e-004,
          -3.37871606e-004, -4.48548730e-004, 2.49367527e-004,
          9.27592264e-005, -2.15474880e-004, -1.35062588e-003,
          -3.61373386e-004, 5.55602455e-005, 2.67361436e-004,
          -3.87047388e-004, -1.36281678e-005, -4.66433237e-004,
          -7.05154322e-004, -1.48101640e-003, -1.96331399e-004,
          -1.43344063e-004, 3.90918023e-004, 2.12926781e-004,
          -5.46658521e-005, -2.28355129e-004, -1.04271181e-004,
          1.84639503e-005, -3.88525339e-004, 1.18578353e-003,
          1.25904146e-004, 6.72633469e-004, 1.17188436e-003,
          1.10444881e-003, 4.12334077e-004, 2.76280887e-004,
          7.68638507e-004, -1.46550403e-004, 3.33479809e-004,
          -5.54294325e-004, 5.47839329e-004, 1.67047358e-004,
          3.70602676e-004, -1.53665591e-004, 1.81867304e-004,
          -5.81933069e-004, -5.85399721e-006, -9.16987949e-004,
          -1.03913495e-004, -2.20835733e-004, -5.96230908e-004,
          -4.15249990e-004, -4.43740922e-004, -1.07476313e-003,
          -1.85510842e-004, -2.39953210e-004, -2.69140699e-004,
          -1.02668861e-003, -2.78369436e-004, 9.65744312e-006,
          -8.08470533e-004, 5.06487442e-004, 8.27065305e-005,
          1.02409249e-004, 5.81611821e-005, -2.85456859e-004,
          -4.03827289e-004, -4.05267565e-005, 2.59103166e-004,
          7.18441443e-004, 1.84161123e-004, -1.11969246e-003,
          1.32127534e-004, 3.20861000e-004, 2.94572557e-004,
          -6.46049273e-004, -3.90980684e-004, -5.00407827e-004,
          -4.66174533e-004, -1.04912254e-003, -4.40995995e-004,
          -1.67119666e-004, 7.20663636e-004, -4.50322375e-004,
          -5.82950888e-004, -9.52998176e-004, -3.00829968e-004,
          3.60707083e-004, 9.23547996e-005, -1.37579977e-003,
          -2.54362385e-004, 1.63533579e-004, 2.91856355e-004,
          1.15170697e-004, -1.69684310e-004, 1.85934929e-004,
          -9.24909036e-005, -1.25056642e-004, 1.49190100e-005,
          4.80844377e-004, 1.33267677e-004, 3.02604138e-004,
          8.46213879e-005, 1.38536998e-004, 6.81940874e-005,
          1.91990803e-005, 3.44003318e-004, 1.04941404e-003,
          -2.53705279e-004, -7.02263147e-004, -1.72911838e-004,
          -1.13150243e-004, -1.97933885e-004, -2.71551136e-004,
          -8.17548971e-006, 4.37450508e-004, -7.60013470e-004,
          -7.24130368e-005, -7.65657023e-005, 3.92071554e-004,
          4.61439922e-004, -1.87848316e-004, -2.50428537e-004,
          5.88585754e-005, 3.49531416e-004 ]
   decision_functions:
      -
         sv_count: 1
         rho: -3.8630946950524897e-001
         alpha: [ 1. ]
         index: [ 0 ]
