%YAML:1.0
my_svm: !!opencv-ml-svm
   svm_type: C_SVC
   kernel: { type:LINEAR }
   C: 1.
   term_criteria: { epsilon:2.2204460492503131e-016, iterations:100 }
   var_all: 128
   var_count: 128
   class_count: 2
   class_labels: !!opencv-matrix
      rows: 1
      cols: 2
      dt: i
      data: [ 0, 1 ]
   sv_total: 1
   support_vectors:
      - [ -1.58297818e-003, 1.68386940e-003, 1.86644623e-003,
          -1.37795939e-003, 9.18744539e-004, -8.26903910e-004,
          6.13955141e-004, 7.25371414e-004, 1.72346015e-003,
          2.05059745e-003, -2.93853763e-003, -8.72802106e-004,
          -1.62380442e-004, 1.20193209e-003, -2.55136023e-004,
          3.80055892e-004, -4.01309785e-003, 2.04039295e-003,
          1.81295516e-004, 5.77197934e-004, -2.00859387e-003,
          -2.21640081e-003, 1.38011255e-005, -7.95156346e-004,
          7.65741162e-004, 1.35466992e-003, 1.97652145e-004,
          -9.05355206e-004, -7.84875709e-004, -2.20282353e-003,
          -1.77983916e-003, -9.74387731e-005, -1.04933628e-003,
          1.50535745e-003, 5.68725693e-004, 3.11534852e-003,
          -9.60735313e-004, -5.88466646e-004, -7.52836291e-004,
          -9.49959387e-004, -4.13735537e-003, 2.14662380e-003,
          1.48681633e-003, 2.24386947e-003, -5.29184530e-004,
          -2.03929772e-003, 3.37172882e-004, 3.96244787e-003,
          -2.96232919e-003, 9.11157695e-005, 3.09584592e-003,
          6.67236396e-004, 4.08929336e-004, 3.19095887e-003,
          4.01687063e-003, -1.56861753e-003, 1.26195920e-003,
          1.80334877e-003, -4.78562637e-004, -7.09319196e-004,
          1.28508511e-003, 1.63049856e-003, -1.35236664e-003,
          4.54302033e-004, 5.24114294e-004, -4.76822286e-004,
          4.30352113e-004, 2.80736317e-003, -1.63757207e-003,
          -1.63093198e-003, 2.33259564e-003, -1.53381913e-003,
          1.06372383e-004, -9.75622912e-004, 9.18218284e-004,
          3.84614570e-004, -3.42040265e-004, -2.13266700e-003,
          -3.06960265e-003, -3.39639839e-004, 1.77525368e-003,
          1.34970481e-003, -7.44713994e-004, 3.01310909e-003,
          -1.15728923e-004, 3.52940662e-003, 1.16379764e-004,
          -6.96254792e-005, 2.20201421e-003, -1.18471927e-003,
          1.68885803e-003, -5.49875622e-005, 8.80922249e-004,
          -4.02063131e-004, 1.42829970e-003, -9.10716073e-004,
          1.12775422e-003, -9.47476365e-004, 2.80837383e-004,
          -2.51310621e-003, 2.31938530e-003, 2.72803940e-004,
          1.28534960e-003, 8.94303026e-004, -2.62317364e-004,
          -1.95530523e-003, -1.15239446e-003, 4.73951195e-006,
          -1.56052585e-004, 1.47635269e-003, 6.65201282e-004,
          3.26037203e-004, -4.72279615e-004, 1.81285810e-004,
          -1.04432239e-003, 1.71192762e-004, -7.65699719e-004,
          1.20453059e-003, 1.56625721e-003, -9.94431670e-004,
          -2.39826768e-004, 8.89645380e-005, -2.80008593e-004,
          7.31234439e-004, -1.78464525e-003, -4.84325952e-004,
          -9.69668792e-004, -7.30254513e-004 ]
   decision_functions:
      -
         sv_count: 1
         rho: -3.2254938673497752e-001
         alpha: [ 1. ]
         index: [ 0 ]
