%YAML:1.0
my_svm: !!opencv-ml-svm
   svm_type: C_SVC
   kernel: { type:LINEAR }
   C: 1.
   term_criteria: { epsilon:2.2204460492503131e-016, iterations:100 }
   var_all: 128
   var_count: 128
   class_count: 2
   class_labels: !!opencv-matrix
      rows: 1
      cols: 2
      dt: i
      data: [ 0, 1 ]
   sv_total: 1
   support_vectors:
      - [ 1.92305062e-003, -8.72807286e-004, 1.99381146e-003,
          2.52115802e-004, 5.82859102e-005, -3.69333400e-004,
          -6.90353510e-004, 3.67346394e-004, 1.00178644e-003,
          4.93846210e-006, 2.55130278e-003, 8.93803022e-004,
          1.62988424e-003, 2.20879051e-003, -7.26213795e-004,
          5.83083718e-004, 2.19345186e-003, -1.20474386e-003,
          8.69268551e-005, 3.73514747e-004, 8.01488233e-004,
          6.55756856e-004, 8.37444270e-004, -1.42457569e-003,
          2.32864113e-004, -2.13155383e-003, 1.68480247e-003,
          1.24214124e-003, 2.57800892e-003, 1.51653832e-003,
          -6.18916471e-004, 6.43744832e-004, 1.92536609e-004,
          1.31581590e-004, -1.65696442e-003, -2.32988154e-003,
          2.28354102e-003, -1.26551731e-006, 1.72353711e-003,
          1.25903229e-003, 5.41596964e-004, -3.23705608e-003,
          -2.21374910e-003, -8.92463373e-004, -9.83412261e-004,
          2.85614235e-003, 1.75118202e-003, -1.31783576e-003,
          1.61776831e-003, -3.63934269e-005, -1.58819999e-003,
          2.01005745e-003, 1.34604063e-003, -2.49401270e-003,
          -2.22727330e-003, 1.85157161e-003, -2.15794612e-003,
          1.48775114e-003, -1.15206139e-003, -8.12705199e-004,
          -5.06604090e-003, 3.62093910e-004, 1.47966668e-003,
          1.75857800e-004, -1.63433875e-003, 1.91384100e-003,
          7.64717406e-004, -1.56790647e-003, 1.64368039e-003,
          1.38019014e-003, -2.08635931e-003, -1.04694103e-003,
          1.83439770e-004, 6.46583561e-004, 4.92702347e-005,
          -2.37801834e-003, -2.08313018e-003, 2.74734152e-003,
          3.08551989e-003, -1.20077305e-003, -1.02630572e-003,
          -7.78443064e-004, 1.17795425e-004, -2.24838103e-003,
          -2.01901839e-005, -3.27427336e-003, -3.28789640e-004,
          -1.45335379e-003, -7.91173195e-004, -1.66581900e-004,
          -3.04347766e-003, -3.08292656e-004, -2.10844306e-003,
          -2.45155650e-004, -8.09484744e-004, 5.44961251e-004,
          -3.80911492e-003, 1.43186981e-003, -1.49975822e-004,
          2.39628321e-003, -3.25081241e-003, 1.24899918e-004,
          2.98406638e-004, -1.17934821e-003, -1.53641624e-003,
          1.25870330e-003, -1.16662134e-003, -6.40894810e-004,
          -8.29960569e-004, 8.34888197e-004, 6.81550182e-006,
          6.72088208e-005, -6.29107017e-005, -2.00849492e-004,
          1.27316243e-003, 2.47505144e-004, 2.52976752e-005,
          1.44663558e-004, 3.87151609e-004, 1.49712232e-005,
          2.04598240e-004, -3.25357163e-004, -8.74823309e-004,
          1.13371527e-003, 1.28168042e-003, 3.54746153e-004,
          1.32148620e-003, 1.90776685e-004 ]
   decision_functions:
      -
         sv_count: 1
         rho: -4.4429122346020269e-002
         alpha: [ 1. ]
         index: [ 0 ]
