%YAML:1.0
my_svm: !!opencv-ml-svm
   svm_type: C_SVC
   kernel: { type:LINEAR }
   C: 1.
   term_criteria: { epsilon:2.2204460492503131e-016, iterations:100 }
   var_all: 128
   var_count: 128
   class_count: 2
   class_labels: !!opencv-matrix
      rows: 1
      cols: 2
      dt: i
      data: [ 0, 1 ]
   sv_total: 1
   support_vectors:
      - [ 6.11867639e-004, 7.53428321e-005, -2.48249678e-004,
          -5.67850191e-004, -6.82063110e-004, -2.55555380e-004,
          -2.50501587e-004, 4.49676794e-004, -5.46934934e-005,
          5.26086311e-004, 1.06024719e-003, 4.96672757e-004,
          -9.54838106e-005, -2.39942674e-004, 1.78229436e-003,
          -2.81366756e-005, -3.20666877e-005, 2.71297584e-004,
          7.53015163e-004, 1.03597448e-003, 4.51462431e-004,
          -6.86065992e-004, 1.50423055e-003, -1.14619092e-003,
          3.61889368e-004, 1.58285548e-004, 2.22879331e-004,
          4.61302028e-004, 1.00190472e-003, -3.88077955e-004,
          -8.98947328e-005, 2.93520658e-004, 1.40838980e-004,
          9.09776194e-004, 3.88064154e-006, -9.51625232e-004,
          2.47779099e-004, -1.06402289e-003, -5.72633871e-004,
          -5.54750091e-004, -4.27636260e-004, 5.28798148e-004,
          8.91085831e-004, 1.39080535e-003, 3.31216797e-005,
          1.27857435e-004, 8.34510196e-004, -2.49527191e-004,
          3.66670109e-004, 1.95981818e-003, 2.62156449e-004,
          -4.35499387e-004, 2.34193285e-003, 1.58450345e-003,
          9.83021346e-006, 4.20594297e-004, -1.47751090e-003,
          6.33859308e-004, 6.92301910e-005, 5.28757635e-004,
          1.02471991e-003, 3.12023592e-004, -2.63149675e-004,
          -6.07979018e-004, -3.45863606e-004, -1.79635070e-004,
          -4.86964302e-004, -1.28963089e-003, -1.28267531e-003,
          -1.77124853e-003, -4.73722524e-004, -4.50012623e-004,
          -1.49565749e-003, -4.96449298e-004, 5.32162303e-005,
          -9.22793464e-004, -3.90284025e-004, 5.04994932e-005,
          -3.59813821e-005, -1.82861098e-004, -3.92805523e-004,
          -7.88088946e-004, 2.26111573e-004, -1.07293279e-004,
          1.58331462e-003, 1.84465069e-004, -2.50622514e-004,
          2.00407172e-004, -1.01777422e-003, -2.37317814e-004,
          -5.50519093e-004, -1.45133366e-004, 3.93558264e-004,
          7.37839291e-005, -1.39946686e-004, 5.49138167e-005,
          2.43276489e-004, -2.15380176e-004, -6.99577620e-004,
          -1.00743247e-003, -1.52514607e-003, -9.35341406e-004,
          2.40011796e-004, 1.94081338e-004, -4.66655591e-004,
          4.26956860e-004, -1.93084838e-004, -3.36729601e-004,
          -6.04942907e-004, 1.76486632e-004, 1.19767187e-003,
          -4.84217919e-004, 7.93639862e-004, -3.55168304e-005,
          -1.53997462e-004, 2.14636885e-003, 1.96070923e-003,
          9.84848710e-004, -8.60021799e-004, 1.21507945e-003,
          1.49735381e-004, 1.04063525e-004, -1.04872110e-004,
          -1.06086081e-004, 3.57830286e-004, -1.78670132e-004,
          -4.11852525e-004, -4.16823605e-004 ]
   decision_functions:
      -
         sv_count: 1
         rho: 9.2100195826585918e-001
         alpha: [ 1. ]
         index: [ 0 ]
