%YAML:1.0
my_svm: !!opencv-ml-svm
   svm_type: C_SVC
   kernel: { type:LINEAR }
   C: 1.
   term_criteria: { epsilon:2.2204460492503131e-016, iterations:100 }
   var_all: 128
   var_count: 128
   class_count: 2
   class_labels: !!opencv-matrix
      rows: 1
      cols: 2
      dt: i
      data: [ 0, 1 ]
   sv_total: 1
   support_vectors:
      - [ 6.43826439e-004, -2.53942708e-004, -6.74859621e-004,
          -6.14213859e-005, -5.85172093e-004, 2.25520216e-005,
          -1.54363064e-004, -1.47506784e-004, 8.15479900e-004,
          1.26443652e-003, 1.43989659e-004, -7.35293550e-004,
          -4.20254190e-004, -9.38632758e-004, 5.13607774e-005,
          -2.59655964e-004, 4.87918180e-004, 6.65071944e-004,
          1.10020116e-003, 7.37029419e-004, 7.79283233e-004,
          5.44420269e-004, 1.89056143e-003, 1.29207561e-003,
          -6.36729703e-004, -5.12519677e-004, -2.43970280e-004,
          2.11761595e-004, 1.17218099e-003, 4.67072328e-004,
          1.38880408e-004, 1.29057298e-004, 6.98945660e-004,
          -1.08473841e-003, -9.12790128e-004, -1.50024716e-004,
          -3.86322383e-004, -1.20364840e-003, -1.12804642e-003,
          -4.78429924e-004, 7.10170658e-004, -1.40413211e-003,
          -1.91101176e-003, -2.04339135e-003, 3.40901926e-004,
          -4.08216612e-004, -1.87877577e-003, -8.85895104e-004,
          1.32970535e-003, 8.12059501e-004, -6.13144075e-004,
          -1.27172796e-003, 4.26142302e-004, -8.56338360e-004,
          3.95378265e-005, 1.96723267e-004, 2.45166419e-004,
          -1.47480605e-004, -5.98934828e-004, 1.11589429e-003,
          3.50451889e-003, 1.79916315e-004, -1.30656335e-004,
          6.51428010e-004, -2.47774273e-003, 1.00895959e-004,
          -3.35139979e-004, -2.27686507e-003, -2.74544978e-003,
          -1.11034059e-003, -6.28799549e-004, -9.89427324e-004,
          -1.44646247e-003, -3.18080594e-004, 2.47349060e-004,
          -1.51507393e-003, -1.32513326e-003, -1.24017126e-003,
          -2.59591383e-003, -3.29213421e-004, 1.11031032e-003,
          -8.50836368e-005, 1.82019663e-004, 8.70945107e-004,
          -5.18753019e-004, -1.68028672e-003, -5.08907651e-005,
          1.14534271e-003, -9.12687916e-004, -5.09052712e-004,
          -7.27130100e-004, 1.48322270e-003, 1.19807513e-003,
          -5.77604922e-004, -6.07511436e-004, -5.46344791e-006,
          8.76120117e-004, 1.93935804e-004, -1.27029268e-003,
          -2.64250702e-004, 6.38818368e-004, 7.12672598e-004,
          -3.42911488e-004, 4.40645788e-004, -1.15581520e-003,
          -1.35655410e-003, -2.75016855e-003, -1.36873638e-003,
          -8.62711226e-004, 1.01042504e-003, 1.17456540e-003,
          4.27945808e-004, 6.59854501e-004, 2.47770571e-004,
          -5.25057956e-004, 6.51735347e-004, 2.88042502e-004,
          -3.52575560e-004, 1.46841293e-003, 1.81332289e-003,
          -5.55621344e-004, -2.25932250e-004, -5.62133755e-005,
          8.44906259e-004, 4.80942515e-004, -1.27813037e-005,
          -1.58626950e-004, 1.99522838e-004 ]
   decision_functions:
      -
         sv_count: 1
         rho: -1.7830912822309837e+000
         alpha: [ 1. ]
         index: [ 0 ]
