%YAML:1.0
my_svm: !!opencv-ml-svm
   svm_type: C_SVC
   kernel: { type:LINEAR }
   C: 1.
   term_criteria: { epsilon:2.2204460492503131e-016, iterations:100 }
   var_all: 128
   var_count: 128
   class_count: 2
   class_labels: !!opencv-matrix
      rows: 1
      cols: 2
      dt: i
      data: [ 0, 1 ]
   sv_total: 1
   support_vectors:
      - [ -7.16446550e-004, 1.92356983e-003, -1.32432510e-003,
          -2.68345088e-004, -2.59025583e-005, 5.09003003e-004,
          1.15902210e-003, 1.02273608e-003, -2.43571866e-003,
          -3.14853783e-003, -1.34372571e-003, 4.38492745e-003,
          -2.66059279e-003, 1.92907685e-003, -7.23774603e-004,
          1.25602272e-003, -2.50019901e-003, 3.56275967e-004,
          2.45683547e-003, 1.45024643e-003, 4.79340059e-004,
          -2.11680715e-004, 3.29840928e-003, 2.55895895e-003,
          9.93539463e-004, -1.20731210e-003, 1.17118435e-003,
          6.33450283e-004, 1.82016543e-003, -1.51843263e-003,
          -3.03155975e-004, -4.71784530e-004, 1.54997630e-004,
          4.33493219e-003, -1.12913002e-003, 2.86589726e-003,
          1.82820449e-003, -2.94657284e-003, -1.13283517e-003,
          3.13035445e-004, 2.97412556e-003, 1.76374265e-003,
          3.91341792e-003, -1.18252309e-003, -2.52777827e-004,
          2.94342777e-003, -2.22276230e-006, 9.27304500e-004,
          -1.52765901e-003, -1.88314519e-003, 6.72350870e-004,
          2.82979105e-003, 5.11465536e-004, 5.14001295e-004,
          -2.27138936e-003, 4.86407225e-004, 1.09261216e-003,
          1.57351315e-003, 6.50883478e-004, -1.96150853e-003,
          -7.41012918e-004, 2.06974661e-003, 1.04772707e-005,
          3.29097896e-003, 2.00689508e-004, 4.36594058e-003,
          1.05592643e-003, 2.79418379e-003, 3.48037691e-004,
          -1.57830748e-003, -1.77621341e-003, 2.17979541e-003,
          6.53930067e-004, 1.54562586e-003, -2.20128498e-003,
          -8.57830688e-004, -4.95995046e-004, 8.06191005e-004,
          -4.77471575e-003, -1.09134440e-003, -3.82833090e-003,
          -2.29873433e-004, -5.15830936e-004, 1.23763923e-003,
          -8.92548123e-004, 1.06846227e-003, 3.38706397e-003,
          9.02227242e-004, 2.80349068e-005, -1.83910853e-003,
          -1.90404709e-003, -5.64591377e-004, 2.46872450e-003,
          -8.00184731e-004, -1.57862285e-003, 1.40566600e-003,
          1.71390444e-003, 8.11103324e-004, -2.39234744e-003,
          -1.54804753e-003, 3.00932396e-003, -5.50071360e-004,
          -8.68858024e-006, 9.44290077e-004, 2.78930704e-004,
          -7.95177999e-004, 9.02172644e-004, 1.51306146e-003,
          1.15863723e-003, 7.71867752e-004, 9.36943106e-004,
          1.55962235e-003, -4.87132435e-004, -3.19759012e-004,
          -2.39078054e-005, -1.52750930e-004, -1.60388264e-003,
          -1.80313597e-003, -7.40792428e-004, -6.66825450e-004,
          9.30910406e-004, -6.57150464e-004, 6.26663095e-004,
          -1.17668533e-003, -1.17318518e-003, 1.19821785e-003,
          8.81762942e-004, -3.47274792e-004 ]
   decision_functions:
      -
         sv_count: 1
         rho: -2.9896276558453666e-001
         alpha: [ 1. ]
         index: [ 0 ]
