%YAML:1.0
my_svm: !!opencv-ml-svm
   svm_type: C_SVC
   kernel: { type:LINEAR }
   C: 1.
   term_criteria: { epsilon:2.2204460492503131e-016, iterations:100 }
   var_all: 60
   var_count: 60
   class_count: 2
   class_labels: !!opencv-matrix
      rows: 1
      cols: 2
      dt: i
      data: [ 0, 1 ]
   sv_total: 1
   support_vectors:
      - [ -2.85641383e-003, 1.87981466e-003, -2.84316158e-003,
          -2.33192556e-003, 3.21028777e-003, -1.60096609e-003,
          4.68793232e-003, -1.21962931e-003, -1.59860891e-003,
          -4.63832548e-004, 1.82514486e-004, -4.91739903e-003,
          5.21060685e-003, -1.66001567e-003, -9.27728950e-004,
          -4.75836969e-005, 8.36063933e-004, 6.15850883e-003,
          -9.56941047e-004, 2.53142091e-004, 5.46762487e-004,
          5.66652569e-004, -4.76932073e-005, 1.71912485e-003,
          -2.50726403e-003, -3.65327323e-005, -1.28283154e-003,
          -1.21998985e-003, 2.19874782e-003, 1.50013540e-003,
          -5.41087938e-004, 1.74247741e-003, -4.65380086e-004,
          -5.55040664e-004, -7.17860530e-004, -2.89760320e-003,
          1.75915123e-003, 1.49792177e-003, -4.24248911e-003,
          2.22385308e-004, -4.67765797e-003, 5.61472634e-003,
          -3.07027600e-003, 4.59622330e-004, -6.62469829e-004,
          3.59574944e-004, 2.25093472e-003, 4.46126610e-003,
          -4.56061622e-004, 1.63122930e-003, -1.89522048e-003,
          -7.77798821e-004, 1.06382801e-003, -1.24273833e-003,
          -3.77947668e-004, -3.47714708e-003, 1.58072775e-003,
          1.99159165e-003, -2.53756298e-005, -8.97963240e-004 ]
   decision_functions:
      -
         sv_count: 1
         rho: -1.8982953358000715e-001
         alpha: [ 1. ]
         index: [ 0 ]
