%YAML:1.0
my_svm: !!opencv-ml-svm
   svm_type: C_SVC
   kernel: { type:LINEAR }
   C: 1.0000000000000001e-001
   term_criteria: { epsilon:2.2204460492503131e-016, iterations:100 }
   var_all: 60
   var_count: 60
   class_count: 2
   class_labels: !!opencv-matrix
      rows: 1
      cols: 2
      dt: i
      data: [ 0, 1 ]
   sv_total: 1
   support_vectors:
      - [ 3.55096604e-003, -7.17680552e-004, 1.70258060e-003,
          -2.69423123e-003, 5.82615554e-004, -5.02220646e-004,
          -1.93587306e-003, 2.00146879e-003, -1.89497811e-003,
          2.56011321e-004, 3.18247359e-003, 9.38612036e-004,
          -2.33112904e-003, -1.30192074e-003, 4.25340654e-003,
          -7.57505186e-004, 5.82653389e-004, 1.09434081e-003,
          4.86171251e-004, -2.83542019e-003, 2.30354071e-003,
          2.97012826e-004, 6.12310832e-004, 3.10694537e-004,
          2.41578277e-003, -2.21874774e-003, -1.85592996e-003,
          -8.82039953e-004, 2.42394060e-004, 2.00842088e-003,
          -6.97839947e-004, -8.11510370e-004, -3.00958025e-004,
          1.44869031e-003, -3.51131428e-004, 4.94161577e-005,
          1.36338663e-003, 2.13377713e-003, -3.87567724e-003,
          -1.89198984e-003, -1.37399556e-003, 9.96617717e-004,
          -1.07912545e-003, -7.13464338e-004, -2.40227394e-003,
          -4.48361551e-003, -5.16051659e-004, 3.30448733e-003,
          6.62043283e-004, 2.11954163e-003, 2.65296665e-003,
          2.37095592e-004, 5.95860067e-004, -9.76787065e-004,
          2.30643374e-004, 3.61051690e-003, -1.19902892e-004,
          -1.27163250e-003, 2.47722579e-004, -2.35331478e-003 ]
   decision_functions:
      -
         sv_count: 1
         rho: 9.7884681396853732e-002
         alpha: [ 1. ]
         index: [ 0 ]
