%YAML:1.0
my_svm: !!opencv-ml-svm
   svm_type: C_SVC
   kernel: { type:LINEAR }
   C: 1.
   term_criteria: { epsilon:2.2204460492503131e-016, iterations:100 }
   var_all: 128
   var_count: 128
   class_count: 2
   class_labels: !!opencv-matrix
      rows: 1
      cols: 2
      dt: i
      data: [ 0, 1 ]
   sv_total: 1
   support_vectors:
      - [ -2.10249610e-003, -5.22371661e-003, -7.89031200e-003,
          7.47650024e-003, -8.56756140e-003, -1.03600898e-004,
          -2.56142742e-003, 1.68004411e-003, 4.99735260e-003,
          1.41833676e-002, 1.99982035e-003, -1.23282732e-003,
          -1.24251395e-002, 5.62225794e-003, 4.17373190e-003,
          -7.39420939e-004, -1.61711627e-003, -3.16842459e-003,
          -6.54492178e-004, 9.11376625e-003, -1.01874685e-002,
          -1.98231777e-003, 5.89328958e-003, 4.03930806e-003,
          6.41103787e-003, 2.45964644e-003, -8.62662494e-003,
          -7.64619745e-003, -5.98946004e-004, -5.05948253e-003,
          -1.32372358e-003, -4.83297789e-003, 6.09648367e-003,
          1.54319068e-003, 7.76630128e-004, 9.83911660e-003,
          -6.66908629e-004, -6.46072300e-003, -4.60329931e-003,
          8.82702041e-003, -3.79025529e-004, -3.50152492e-003,
          -1.82940904e-003, 4.01892886e-003, 4.65614395e-003,
          -2.15034536e-003, -5.42400288e-004, 1.07911520e-003,
          2.30503152e-003, 1.50194273e-005, 2.49434495e-003,
          -8.58925283e-003, 7.54234206e-005, 5.04500698e-004,
          4.39252239e-004, 1.14776846e-003, -3.25301691e-004,
          -3.53273889e-003, 1.22903090e-003, 1.56362238e-003,
          7.95695640e-004, 2.61098961e-003, -1.62703404e-003,
          2.45554443e-003, 5.80309657e-004, -1.11776870e-003,
          -1.48002431e-003, -1.80953636e-003, 2.09985490e-004,
          -5.80678694e-003, -4.47200844e-003, -7.30163360e-004,
          -1.99601520e-003, 3.14038876e-003, -2.13291403e-003,
          1.41891569e-003, 8.20916030e-004, 7.85570941e-004,
          -5.21999435e-004, -1.86814158e-003, -1.79666822e-004,
          1.64478930e-004, -4.40031197e-003, -5.42835740e-004,
          -2.30802665e-003, 1.06343639e-003, 1.38119678e-003,
          1.00057339e-003, 7.89068348e-004, 3.46307014e-003,
          -3.78758693e-003, 5.47228707e-003, -2.32769453e-004,
          -8.10517755e-004, 9.19754966e-005, -1.93369365e-003,
          -1.97740179e-003, 5.08775760e-004, 1.57570536e-003,
          -6.70268200e-004, -2.93191662e-003, 3.06119357e-004,
          -3.88818677e-004, 7.55957444e-004, 2.35132966e-003,
          2.57270387e-003, 8.15580483e-004, -2.38988339e-003,
          -8.21708745e-005, 8.29887693e-004, 2.62703805e-004,
          -1.65152363e-003, -3.38609936e-003, -1.11815520e-003,
          6.71215181e-004, -7.10688240e-004, 7.35113790e-005,
          -1.11975730e-003, 2.33479426e-004, 6.24457607e-004,
          2.14915257e-004, -1.79129871e-004, 4.30249842e-004,
          -7.37946946e-004, 4.95343353e-004, 1.35778403e-003,
          4.31872759e-004, 7.31383392e-004 ]
   decision_functions:
      -
         sv_count: 1
         rho: -1.4666365951259368e+000
         alpha: [ 1. ]
         index: [ 0 ]
