%YAML:1.0
my_svm: !!opencv-ml-svm
   svm_type: C_SVC
   kernel: { type:LINEAR }
   C: 1.0000000000000001e-001
   term_criteria: { epsilon:2.2204460492503131e-016, iterations:100 }
   var_all: 128
   var_count: 128
   class_count: 2
   class_labels: !!opencv-matrix
      rows: 1
      cols: 2
      dt: i
      data: [ 0, 1 ]
   sv_total: 1
   support_vectors:
      - [ -3.45775415e-003, 2.62536574e-003, -1.03712687e-003,
          1.36372182e-004, -9.44691186e-004, 7.24618847e-004,
          -4.63427859e-004, -3.07803339e-006, 2.94399768e-004,
          -2.51133903e-003, 2.84191384e-003, 1.96405966e-003,
          -1.73916284e-004, -2.63436465e-003, -1.27532834e-003,
          -1.73320249e-003, -1.64931582e-003, 5.22428018e-004,
          2.51875562e-003, -6.84827450e-004, 2.49256991e-004,
          1.35140005e-003, -1.98091520e-003, 1.77724962e-003,
          -8.00716283e-004, -4.50149761e-004, -2.78744195e-003,
          -4.12724592e-004, -1.38322625e-003, -2.99292093e-004,
          -5.94616635e-004, 2.17277044e-003, -2.00610491e-003,
          1.82344182e-003, -1.78955146e-003, 1.75022695e-003,
          2.68894434e-003, 3.96967989e-005, -1.04450912e-003,
          -2.71282415e-003, 2.92963348e-004, -2.77929590e-004,
          -4.27483069e-003, -1.20306597e-003, 3.50829738e-004,
          -4.81976895e-003, 2.11342820e-003, 2.33747414e-003,
          -2.10947110e-004, 2.85484735e-003, 1.46811921e-003,
          2.68672896e-003, 2.53329123e-003, -4.79556853e-004,
          -4.44058678e-004, -4.64772835e-004, -2.16843374e-003,
          -4.84411401e-004, 1.53027766e-004, 6.72952097e-004,
          7.63949472e-004, 1.06161875e-004, 9.45773674e-004,
          -3.74571444e-003, 9.37456731e-004, 8.00683221e-004,
          2.04984259e-004, -1.48277835e-003, 8.76592880e-004,
          4.00328264e-003, 3.80726357e-004, -2.40469025e-003,
          -2.38092616e-003, 1.36942626e-003, 9.89174005e-004,
          -6.36186334e-004, -1.60345028e-003, -4.19760618e-004,
          -1.81435223e-003, 1.21463125e-003, -2.77693989e-003,
          -3.40541825e-004, 1.50251831e-003, 9.81929596e-004,
          -4.62993368e-004, -2.98182014e-003, -8.71155120e-004,
          -2.07117933e-004, 1.47896190e-003, -9.34260839e-004,
          -1.10911357e-003, -6.15367899e-004, 2.46996549e-003,
          1.49165955e-003, 1.29565445e-003, -3.59687163e-003,
          4.94888402e-004, 1.43401034e-003, 1.36528723e-003,
          3.08481883e-003, -2.21674622e-004, -5.14811603e-004,
          3.87599721e-004, -8.77989456e-004, -1.74237532e-003,
          3.30199218e-005, -1.55173661e-003, -5.97415608e-004,
          -1.89220955e-004, 7.85291486e-004, 6.73657050e-004,
          1.16114982e-003, 9.33953052e-005, -2.27938654e-005,
          -2.59109839e-007, -5.97949896e-004, -4.37220937e-004,
          1.60226203e-003, -8.14786763e-004, 2.34444698e-004,
          -5.66948904e-004, -5.35125844e-004, -6.10120595e-004,
          4.96646040e-004, -1.25758653e-003, -1.69651373e-003,
          -4.42556367e-004, -1.40577846e-004 ]
   decision_functions:
      -
         sv_count: 1
         rho: -2.6167458687986250e-001
         alpha: [ 1. ]
         index: [ 0 ]
