%YAML:1.0
my_svm: !!opencv-ml-svm
   svm_type: C_SVC
   kernel: { type:LINEAR }
   C: 1.0000000000000001e-001
   term_criteria: { epsilon:2.2204460492503131e-016, iterations:100 }
   var_all: 60
   var_count: 60
   class_count: 2
   class_labels: !!opencv-matrix
      rows: 1
      cols: 2
      dt: i
      data: [ 0, 1 ]
   sv_total: 1
   support_vectors:
      - [ -4.20372328e-003, 1.82097114e-003, -2.02983804e-003,
          1.42757234e-003, -2.60163355e-003, 2.27646931e-004,
          1.73912745e-003, -1.48272282e-003, 2.21617613e-003,
          1.38619379e-003, -3.50367022e-003, -3.23387852e-004,
          1.38028909e-003, -3.76905344e-004, -3.42603470e-003,
          2.10520957e-004, 1.75778667e-004, -2.71028955e-004,
          1.07658003e-003, 2.76259705e-003, 9.35597112e-004,
          -1.30897635e-004, -1.03604863e-003, -3.75593372e-004,
          -1.24840159e-003, 8.72854318e-004, 1.93280226e-003,
          2.14687712e-003, 4.21979530e-005, -7.95110245e-004,
          -6.77281758e-004, 1.78138143e-003, 5.21479349e-004,
          -2.14627548e-003, 1.86285493e-003, -5.41179266e-004,
          -5.86005772e-005, -1.44651253e-003, 3.48572456e-003,
          1.71887921e-003, -3.70788097e-004, -2.24953936e-003,
          1.72368239e-003, -2.68142059e-004, 1.57478650e-003,
          4.21462301e-003, 1.03682885e-003, -1.13423239e-003,
          -7.96078588e-004, -3.11371172e-003, -2.40003085e-003,
          -9.66625230e-004, -1.38819939e-003, 1.63674855e-003,
          5.45975236e-005, -3.75860487e-003, -6.45783497e-004,
          5.23652765e-004, 2.42902188e-005, 3.20162741e-003 ]
   decision_functions:
      -
         sv_count: 1
         rho: -1.1805497469123771e-001
         alpha: [ 1. ]
         index: [ 0 ]
