%YAML:1.0
my_svm: !!opencv-ml-svm
   svm_type: C_SVC
   kernel: { type:LINEAR }
   C: 1.
   term_criteria: { epsilon:2.2204460492503131e-016, iterations:100 }
   var_all: 128
   var_count: 128
   class_count: 2
   class_labels: !!opencv-matrix
      rows: 1
      cols: 2
      dt: i
      data: [ 0, 1 ]
   sv_total: 1
   support_vectors:
      - [ -1.75144570e-003, 3.29621602e-003, -9.78685450e-003,
          3.02031031e-003, 7.97498878e-003, 2.82156887e-003,
          5.53829456e-003, -2.38480163e-003, -1.56730879e-002,
          -3.07348021e-003, -4.30381065e-003, -2.49756430e-003,
          9.17752367e-003, -9.86128766e-003, 1.68710877e-003,
          -1.61617552e-003, 7.94230774e-003, 1.74965186e-004,
          4.35550837e-003, 5.24566974e-003, -5.79366088e-003,
          3.16983834e-003, -9.17293690e-003, 2.80375220e-003,
          1.00070541e-003, 5.81489084e-003, -1.70867506e-003,
          -1.04428856e-002, -4.04827669e-003, 1.63892482e-003,
          -5.60051529e-003, -2.38961587e-003, -6.88811392e-003,
          5.73016144e-003, -1.81668682e-003, 5.51965879e-003,
          1.98298390e-003, -1.65885186e-003, -2.09506485e-003,
          4.75255307e-004, -1.14066491e-003, -4.07833559e-003,
          -1.74442568e-004, 5.83516492e-004, 2.13894877e-003,
          -9.95041151e-003, 3.62017122e-003, 1.32229330e-003,
          1.72263291e-003, 1.93029887e-003, 6.34731434e-004,
          -2.41132057e-003, -3.00738635e-003, 1.36007206e-003,
          -3.34069016e-004, -1.47655036e-003, 1.46878336e-003,
          -8.27566313e-004, 7.76786823e-004, -3.39256320e-003,
          1.09050726e-003, 5.51610312e-004, -1.78536645e-003,
          -1.17520336e-003, -3.65749351e-003, 1.51799410e-003,
          -7.89088488e-004, 4.36671264e-003, 4.74815583e-003,
          -6.28312235e-004, -2.37905816e-003, 3.84482183e-003,
          1.29590218e-003, -3.23124230e-003, -3.73133551e-003,
          1.02836918e-003, -7.53832137e-005, -8.85255926e-004,
          1.48232968e-003, 3.69064888e-004, -5.82999783e-003,
          -1.77279522e-003, 9.69498709e-004, 3.10807652e-003,
          9.55986907e-004, -1.34038087e-003, 1.34287856e-003,
          1.63569208e-003, 4.95101151e-004, 1.50231738e-003,
          5.83816436e-004, 7.04035803e-004, -1.66473445e-003,
          3.81540915e-004, -1.59725561e-004, -5.66479575e-004,
          8.95061123e-004, -1.87626074e-003, 1.77672575e-003,
          -4.34807851e-004, -1.15156152e-004, 2.99540209e-003,
          1.04245299e-003, -6.77514239e-004, 1.58937823e-003,
          -9.00569197e-004, 6.75846997e-004, 1.18074485e-003,
          1.10111758e-003, 4.47997707e-004, -5.23803872e-004,
          5.07384597e-004, 9.48796223e-005, -2.44340161e-003,
          3.64053354e-004, -7.34947622e-004, 9.37131757e-004,
          -1.37331401e-004, -1.38786703e-003, 4.70796978e-004,
          1.13629969e-003, 4.11675021e-004, 4.82252835e-005,
          -1.56050117e-003, 1.12796486e-004, -4.13061614e-004,
          1.88752936e-004, 8.29678538e-005 ]
   decision_functions:
      -
         sv_count: 1
         rho: -1.3662778751231779e+000
         alpha: [ 1. ]
         index: [ 0 ]
