%YAML:1.0
my_svm: !!opencv-ml-svm
   svm_type: C_SVC
   kernel: { type:LINEAR }
   C: 1.0000000000000001e-01
   term_criteria: { epsilon:2.2204460492503131e-16, iterations:100 }
   var_all: 128
   var_count: 128
   class_count: 2
   class_labels: !!opencv-matrix
      rows: 1
      cols: 2
      dt: i
      data: [ 0, 1 ]
   sv_total: 1
   support_vectors:
      - [ -2.76876520e-03, 1.00857031e-03, 1.51509361e-03,
          -1.53810997e-03, -2.21571492e-04, 1.22616009e-03,
          1.14655544e-04, 3.22089072e-05, 7.52541935e-04, 1.91042211e-03,
          -3.70039791e-03, 5.20427711e-04, 5.64921880e-04,
          2.06540828e-03, -1.01833602e-05, -1.04435231e-03,
          -2.28067627e-03, 4.29791107e-05, 1.97401945e-03,
          1.14689721e-03, -2.74264417e-03, -6.14241173e-04,
          -4.57703019e-04, 1.71678796e-04, 3.47634428e-04,
          1.49060262e-03, 1.15452858e-03, -1.73009234e-03,
          -1.18721910e-04, -3.00595188e-03, -1.18928240e-03,
          -1.03348633e-03, -1.32822176e-03, 2.14646012e-03,
          4.00873512e-04, 1.15725514e-03, 1.45078622e-04,
          -4.79043345e-04, -4.16673400e-04, -8.81660962e-05,
          -2.96693086e-03, 2.88876868e-03, 1.00681151e-03,
          1.33942603e-03, 5.41891553e-04, -3.61997006e-03,
          -5.26125186e-05, 3.15129082e-03, -2.18875101e-03,
          4.40396427e-04, 1.80276937e-03, 1.23929256e-03,
          -1.11648187e-04, 2.59540533e-03, 2.08178652e-03,
          -1.38471043e-03, 1.80564786e-03, 1.34859176e-03,
          -7.50995096e-05, 7.98350025e-04, -2.34579406e-04,
          1.44068664e-03, -1.88389458e-04, 6.75609044e-04,
          1.39736617e-03, -4.18668409e-04, 5.49498189e-04,
          2.52422923e-03, -3.00852326e-03, -2.03729537e-03,
          3.15559143e-03, -7.73402979e-04, -1.43631623e-04,
          -5.34727238e-04, 1.01631653e-04, 1.08282093e-03,
          1.22692809e-03, -2.94380262e-03, -2.97873141e-03,
          -3.23222397e-04, 5.63353649e-04, 1.14151149e-03,
          -2.09724516e-04, 2.61811749e-03, -8.20828194e-04,
          2.90632574e-03, 8.19557754e-04, 2.27324286e-04, 1.68149918e-03,
          -9.49155132e-04, 1.36006856e-03, -6.97088079e-04,
          8.06966855e-04, -2.42280483e-04, 1.35942840e-03,
          -1.09691976e-03, 8.15497886e-04, -4.68956365e-04,
          -3.75568488e-04, -2.95498571e-03, 2.37485650e-03,
          -3.93523696e-05, -1.44500751e-03, 4.92439431e-04,
          4.77065827e-04, -1.30090618e-03, -1.20004290e-03,
          7.79172988e-04, -1.70754443e-04, 1.89120474e-04,
          6.28671609e-04, 3.48761037e-04, -5.96938131e-04,
          3.58451623e-04, -6.44481159e-04, 5.53815975e-04,
          -2.81248242e-04, 3.94240196e-04, 7.73202919e-04,
          -1.37181173e-03, -1.38650561e-04, 3.49322763e-05,
          -3.07589624e-04, 2.85734743e-04, -1.68295426e-03,
          -2.77755113e-04, -1.33950019e-03, -5.80940745e-04 ]
   decision_functions:
      -
         sv_count: 1
         rho: -2.6471465767773972e-01
         alpha: [ 1. ]
         index: [ 0 ]
