%YAML:1.0
my_svm: !!opencv-ml-svm
   svm_type: C_SVC
   kernel: { type:LINEAR }
   C: 1.
   term_criteria: { epsilon:2.2204460492503131e-016, iterations:100 }
   var_all: 128
   var_count: 128
   class_count: 2
   class_labels: !!opencv-matrix
      rows: 1
      cols: 2
      dt: i
      data: [ 0, 1 ]
   sv_total: 1
   support_vectors:
      - [ 1.62135204e-003, 3.04598158e-004, 1.27615884e-003,
          3.93135706e-004, -7.47496786e-004, 1.85202120e-003,
          1.07389793e-003, 4.32506378e-004, 8.42646114e-004,
          1.48145459e-003, -3.53773707e-003, -2.63226521e-003,
          5.83646121e-003, 7.52983033e-004, 8.59193271e-004,
          1.66958664e-003, 1.68060977e-003, 3.28220747e-004,
          4.79644630e-004, 9.80893383e-004, -7.49172003e-004,
          -3.21832631e-004, 9.15407843e-004, -6.67694723e-004,
          9.50563292e-004, -6.46855333e-004, 3.12511204e-003,
          -4.64581652e-004, -2.58679414e-004, 1.34815939e-003,
          -3.85355030e-004, -1.31162419e-003, 6.51759037e-004,
          -2.67735799e-003, 1.71745673e-003, -3.24711623e-003,
          -2.19398225e-003, 1.09431671e-003, 1.84379471e-003,
          1.00839650e-003, -1.71583961e-003, 1.60696649e-003,
          5.42830164e-003, -2.37893010e-003, -6.41189617e-005,
          2.86695338e-003, 7.88082834e-004, -1.61399331e-003,
          -2.58338463e-004, -3.02251242e-003, -1.07682345e-003,
          -8.01981310e-004, -6.17874495e-004, 4.84977587e-004,
          1.24391110e-003, 2.01151753e-003, 1.05324388e-003,
          -2.67325995e-005, -1.32303510e-003, -5.91328309e-004,
          -1.47765852e-004, -4.75682988e-004, -3.22695356e-003,
          4.67819022e-003, -4.90385224e-004, -3.13661993e-003,
          -1.55621747e-004, 2.50013778e-003, -3.81109676e-005,
          -2.43934826e-003, -4.38806484e-004, 1.60304643e-003,
          8.76426988e-004, -2.10538553e-003, 5.72280900e-004,
          1.53289491e-003, 1.23578974e-003, -2.19017951e-004,
          1.64007675e-003, -1.74886212e-004, 1.93453091e-003,
          -1.56640181e-005, -1.60823844e-003, -8.50336743e-004,
          -3.71603324e-004, 2.11488432e-003, 2.55767535e-003,
          9.43947292e-004, -2.24260031e-003, -1.23657531e-003,
          1.71224808e-003, -1.70088024e-003, -3.16876313e-003,
          -7.63196498e-004, -6.20307634e-004, 4.53186966e-003,
          3.25417612e-004, -1.59679644e-003, -1.29848963e-003,
          -3.08277411e-003, 9.15477693e-004, 1.49493688e-003,
          6.58413861e-004, 1.51402340e-003, 7.15532980e-004,
          2.73547357e-005, 1.96897867e-003, 1.35472999e-003,
          -1.48316845e-004, -9.23950109e-004, 2.03688629e-004,
          -1.25786033e-003, 7.74231798e-004, 8.73463941e-005,
          -7.71541731e-004, 3.10008152e-004, 9.17759826e-005,
          -1.60069333e-003, 7.24525598e-004, 5.15398046e-004,
          4.82869975e-004, -1.40736258e-004, 9.91964829e-004,
          4.49426298e-005, 1.22032256e-003, 1.25472038e-003,
          5.49807504e-004, -5.01566799e-004 ]
   decision_functions:
      -
         sv_count: 1
         rho: -4.2287612158576487e-002
         alpha: [ 1. ]
         index: [ 0 ]
