%YAML:1.0
my_svm: !!opencv-ml-svm
   svm_type: C_SVC
   kernel: { type:LINEAR }
   C: 1.0000000000000001e-001
   term_criteria: { epsilon:2.2204460492503131e-016, iterations:100 }
   var_all: 30
   var_count: 30
   class_count: 2
   class_labels: !!opencv-matrix
      rows: 1
      cols: 2
      dt: i
      data: [ 0, 1 ]
   sv_total: 1
   support_vectors:
      - [ -4.86682154e-007, -5.01909290e-006, -4.48581432e-006,
          -1.47060427e-006, 1.41417445e-006, -2.53002099e-006,
          -3.70129737e-006, -2.55186796e-006, -7.03475678e-008,
          1.00387206e-006, -1.47023957e-006, 5.81892721e-007,
          -1.02807871e-006, -2.92105074e-006, -1.17621948e-006,
          -1.50838119e-007, 1.65282563e-006, -1.38635994e-006,
          1.48897459e-006, 1.78174957e-007, -1.00438649e-006,
          -1.40246595e-006, -1.81232258e-006, -1.79474171e-007,
          8.00579130e-007, 4.60180854e-006, -3.52186021e-006,
          -1.51509369e-006, -1.11569568e-006, -7.82817267e-007 ]
   decision_functions:
      -
         sv_count: 1
         rho: -6.0356994421313170e-001
         alpha: [ 1. ]
         index: [ 0 ]
