%YAML:1.0
my_svm: !!opencv-ml-svm
   svm_type: C_SVC
   kernel: { type:LINEAR }
   C: 1.
   term_criteria: { epsilon:2.2204460492503131e-016, iterations:100 }
   var_all: 128
   var_count: 128
   class_count: 2
   class_labels: !!opencv-matrix
      rows: 1
      cols: 2
      dt: i
      data: [ 0, 1 ]
   sv_total: 1
   support_vectors:
      - [ 3.94240441e-003, 9.76944459e-004, 1.10356358e-003,
          -1.37267238e-003, 1.34629721e-003, 8.35944433e-004,
          -2.22170469e-003, 9.30149108e-004, -4.26977727e-004,
          -3.67374421e-004, -1.86394737e-003, -1.81763817e-003,
          3.70020280e-003, -8.12445651e-004, 1.44451903e-003,
          3.37769045e-003, -1.21209037e-003, -1.94468512e-003,
          -2.27802736e-003, -3.46355489e-004, -1.05248648e-003,
          -7.78043934e-004, 4.26947925e-004, -7.74670683e-004,
          -2.27361172e-003, 9.76337120e-004, -2.45814770e-003,
          -1.04903674e-003, -3.42353038e-003, 3.56523669e-004,
          8.59022024e-004, 1.69659965e-003, 4.65062389e-004,
          2.05787108e-003, -3.39876837e-003, 4.59442753e-003,
          5.91242395e-004, 2.92339758e-003, 4.21580829e-004,
          -1.67705084e-003, -3.26543138e-003, -4.80711460e-003,
          2.78832624e-003, -2.80558481e-004, -1.09299493e-003,
          -4.03491827e-003, -8.34048784e-004, -8.30280653e-004,
          -1.12292159e-003, -2.66859913e-003, -5.81108441e-004,
          2.71541509e-003, 8.74815683e-004, 1.47695455e-003,
          -1.18240027e-003, -1.54025550e-003, -9.19785409e-004,
          -1.05831178e-003, -5.69586467e-004, -8.37286934e-004,
          1.47558225e-004, -3.36595858e-003, -1.27391785e-003,
          -2.59237876e-003, 2.52093392e-004, 3.43343429e-003,
          9.56474571e-004, -2.71856366e-003, 6.42801635e-004,
          -8.69079260e-004, 1.52580603e-003, 1.25967676e-003,
          -8.70748539e-004, 1.61674339e-004, -7.66605779e-004,
          -9.22840904e-004, -9.13198397e-004, -2.27221506e-004,
          1.63642329e-003, 3.80571611e-004, -4.62015159e-004,
          2.55478197e-003, -2.36842246e-003, 2.59661884e-003,
          -1.11546519e-003, -2.65356095e-004, -1.16689352e-003,
          1.19809818e-003, 9.97272553e-004, 2.22132797e-003,
          -1.86791105e-004, 1.81303872e-003, 1.47260900e-003,
          -6.01062566e-005, -2.21787952e-003, -3.70989110e-005,
          6.36720215e-004, 5.81318862e-004, -2.04779371e-003,
          4.04055184e-003, -9.69606685e-004, 1.66542584e-003,
          -9.75082163e-004, 2.12892308e-003, 1.87856596e-004,
          8.88198381e-004, -1.94098672e-003, 4.99265967e-004,
          -1.62622181e-003, -2.02744827e-003, 6.31864881e-004,
          6.53434545e-004, 2.28314777e-003, -3.80094680e-005,
          -3.82290251e-004, 7.19373405e-004, 1.01838924e-003,
          3.35289864e-004, 2.53556005e-004, 7.52277498e-004,
          2.85289658e-004, -1.79355920e-005, -2.10734725e-004,
          4.39679832e-004, 1.65425288e-003, -1.15890207e-003,
          -1.73846303e-004, 1.07176753e-003 ]
   decision_functions:
      -
         sv_count: 1
         rho: -1.6010291675597005e-001
         alpha: [ 1. ]
         index: [ 0 ]
