%YAML:1.0
my_svm: !!opencv-ml-svm
   svm_type: C_SVC
   kernel: { type:LINEAR }
   C: 1.
   term_criteria: { epsilon:2.2204460492503131e-016, iterations:100 }
   var_all: 128
   var_count: 128
   class_count: 2
   class_labels: !!opencv-matrix
      rows: 1
      cols: 2
      dt: i
      data: [ 0, 1 ]
   sv_total: 1
   support_vectors:
      - [ -3.37020680e-003, 1.22039160e-003, 4.60378447e-004,
          -1.90847175e-004, 1.08158485e-004, -1.07159233e-003,
          -2.71719648e-003, 1.07951474e-003, -9.88801708e-004,
          1.46780943e-003, 6.80689875e-004, 1.67595991e-003,
          -7.80087942e-003, -2.09722877e-003, -2.07942561e-003,
          -1.00293721e-003, -2.99197575e-003, 2.07910105e-003,
          1.60849560e-003, -3.58734178e-005, -6.97205949e-004,
          1.40213605e-003, 1.16408616e-003, 2.23340336e-004,
          2.93644052e-003, 4.41094907e-003, 9.15912096e-004,
          5.38437767e-003, -1.02642900e-003, 1.72496436e-003,
          8.61530192e-004, -1.81754562e-003, 1.90148552e-004,
          -1.15929579e-003, -3.00159398e-003, -1.19262817e-003,
          3.76472739e-003, 3.96473333e-003, -3.31962784e-003,
          1.22946710e-003, -9.29707021e-005, 3.16877873e-003,
          -1.96782174e-003, -1.71667594e-003, -1.68828075e-004,
          9.94900707e-004, -1.88792928e-003, -3.58089805e-004,
          -3.32761300e-003, -1.19860400e-003, -1.90908695e-003,
          1.18826004e-003, 2.44308962e-003, -1.23154186e-003,
          1.86020811e-003, 2.79421383e-003, -6.50458620e-004,
          8.68606323e-004, -2.55954481e-004, -1.79632229e-003,
          -2.39399006e-003, -2.06291606e-003, 1.16595256e-004,
          2.15803483e-003, 1.41542521e-003, 2.39525310e-004,
          -2.31296173e-003, -2.06036703e-003, 7.18033698e-004,
          -1.26055861e-003, 4.20166831e-003, 1.78305281e-003,
          8.12059792e-004, 2.13091215e-003, 8.72419856e-004,
          -1.00617879e-003, -3.75625677e-003, 3.11215437e-004,
          1.10431982e-003, -1.61778717e-003, 2.56117620e-003,
          -2.48227175e-003, -7.30663422e-004, 1.91595580e-003,
          2.55868101e-004, -1.11296691e-003, 2.25082797e-004,
          3.24157532e-003, 1.15839497e-003, -1.15284557e-003,
          1.91306276e-003, -6.66933774e-004, -1.57978409e-003,
          3.37449531e-003, -2.21420615e-003, 9.71464207e-004,
          3.03116185e-003, -1.68501679e-003, 1.91426065e-004,
          3.16349277e-003, -1.62300386e-003, -2.10442246e-004,
          8.06809519e-004, -2.18675565e-003, 8.98859231e-004,
          -5.15308988e-004, 4.61721094e-004, -2.27583456e-004,
          -8.67187628e-004, 1.58488180e-003, -1.88616349e-003,
          5.48988828e-005, -1.83539151e-003, 7.16559240e-004,
          5.81572822e-004, -5.41342015e-004, 9.51898110e-004,
          7.47564773e-004, -9.52464819e-004, 1.89420127e-003,
          6.95566239e-004, -4.82622476e-004, -4.73267632e-004,
          6.52675226e-005, -1.94761742e-004, 3.80995392e-004,
          -4.25829290e-004, -3.40042694e-004 ]
   decision_functions:
      -
         sv_count: 1
         rho: 1.8471043021000139e-001
         alpha: [ 1. ]
         index: [ 0 ]
