%YAML:1.0
my_svm: !!opencv-ml-svm
   svm_type: C_SVC
   kernel: { type:LINEAR }
   C: 1.
   term_criteria: { epsilon:2.2204460492503131e-016, iterations:100 }
   var_all: 55
   var_count: 55
   class_count: 2
   class_labels: !!opencv-matrix
      rows: 1
      cols: 2
      dt: i
      data: [ 0, 1 ]
   sv_total: 1
   support_vectors:
      - [ 5.25245070e-003, 4.20945371e-003, 3.29996482e-003,
          4.40576900e-004, 5.92762791e-003, 1.88978370e-002,
          3.58681218e-003, -1.46695587e-003, 1.55988298e-002,
          8.22527986e-003, -8.25036131e-003, 1.51406117e-002,
          -8.07538908e-003, 7.65492907e-004, -2.46223109e-003,
          4.33045020e-003, -8.22057854e-003, 6.02706103e-003,
          6.26428635e-004, 7.06139626e-003, -3.55636165e-003,
          -1.43171242e-002, 9.56692640e-003, 5.27288485e-003,
          3.69847548e-004, -8.20198096e-003, 4.23307111e-003,
          -5.43973001e-004, 1.18532882e-003, -3.06221913e-003,
          -1.53685699e-003, 8.46593117e-004, 9.23751038e-004,
          1.35549146e-003, -1.62823242e-004, -3.45383328e-003,
          4.19217744e-004, 1.80940400e-003, -1.73861394e-004,
          6.93884213e-005, -6.07869122e-004, -1.46449660e-003,
          -1.21271156e-003, 9.35811477e-006, 2.69131240e-004,
          -6.91199326e-004, 2.44329451e-004, 4.14191745e-004,
          -9.17397338e-005, -1.04320177e-003, 3.92253191e-004,
          2.03097006e-004, 1.67416190e-004, 3.48544534e-004,
          2.22449005e-003 ]
   decision_functions:
      -
         sv_count: 1
         rho: -4.2066618871064210e-001
         alpha: [ 1. ]
         index: [ 0 ]
