%YAML:1.0
my_svm: !!opencv-ml-svm
   svm_type: C_SVC
   kernel: { type:LINEAR }
   C: 1.0000000000000001e-001
   term_criteria: { epsilon:2.2204460492503131e-016, iterations:100 }
   var_all: 30
   var_count: 30
   class_count: 2
   class_labels: !!opencv-matrix
      rows: 1
      cols: 2
      dt: i
      data: [ 0, 1 ]
   sv_total: 1
   support_vectors:
      - [ -8.55683595e-007, -1.20830452e-006, -1.72520174e-006,
          -3.84714497e-007, 7.22148798e-007, 1.57080058e-006,
          6.92682605e-008, 4.97235135e-007, 4.74708742e-007,
          1.97182339e-006, 1.96271230e-006, -8.29941555e-008,
          -6.17413491e-007, 2.53370160e-007, -2.57910585e-007,
          -9.11303459e-008, -7.29957492e-007, 2.46055890e-007,
          1.80295024e-006, -6.21380138e-007, -2.09197182e-007,
          1.44083720e-006, -5.35952950e-007, 9.33890249e-007,
          -6.01048498e-007, -2.23417896e-006, -1.42377621e-006,
          1.27755538e-006, 1.47472167e-006, 5.72383442e-007 ]
   decision_functions:
      -
         sv_count: 1
         rho: 1.5478619444579280e+000
         alpha: [ 1. ]
         index: [ 0 ]
