%YAML:1.0
my_svm: !!opencv-ml-svm
   svm_type: C_SVC
   kernel: { type:LINEAR }
   C: 1.0000000000000001e-01
   term_criteria: { epsilon:2.2204460492503131e-16, iterations:100 }
   var_all: 128
   var_count: 128
   class_count: 2
   class_labels: !!opencv-matrix
      rows: 1
      cols: 2
      dt: i
      data: [ 0, 1 ]
   sv_total: 1
   support_vectors:
      - [ 2.23795022e-03, -1.93820847e-03, -5.02200006e-03,
          5.39581338e-03, 5.53264981e-04, -2.46192049e-03,
          2.83668307e-03, -1.40622549e-03, -4.37163888e-03,
          -2.32299580e-03, 1.77599699e-03, -2.05902383e-03,
          -3.04096541e-03, -4.40079579e-03, -9.86329047e-04,
          1.66036538e-03, 1.48025027e-03, 1.79607858e-04, 2.17388221e-03,
          -3.21136159e-03, 1.54017634e-03, 4.37550480e-03,
          -2.80362461e-03, 3.21567385e-03, -2.57179374e-03,
          -1.81904796e-03, -1.31462433e-03, 1.50218653e-03,
          -8.24404196e-06, 2.97825621e-03, 3.21512390e-03,
          3.64065473e-03, -4.12808295e-04, -4.21139121e-04,
          -4.22383746e-04, -4.32421174e-03, -1.35991187e-03,
          6.38642174e-04, 2.89871730e-03, -3.03649530e-03,
          4.63295169e-03, 5.93525358e-04, 3.88873951e-03,
          -1.65778841e-03, 2.04978813e-03, -2.65129167e-03,
          -3.11022205e-03, -5.48043568e-03, 5.93347882e-04,
          -1.26721978e-04, -1.50451378e-03, -9.28531517e-04,
          -1.36511866e-03, 1.51725358e-03, -1.39201770e-03,
          2.73871422e-03, 1.25910668e-03, -4.02857969e-03,
          2.22062040e-03, -5.46276488e-06, 9.57113007e-05,
          -2.23624310e-03, -4.27485247e-05, -9.16574267e-04,
          1.75548732e-04, -1.90260995e-04, -2.18194886e-03,
          -1.91707921e-03, 3.89872293e-04, 2.58453470e-03,
          -5.49511460e-04, 7.82656367e-04, -3.38112121e-04,
          -2.49722390e-03, -1.68136472e-03, 2.41263886e-03,
          4.08435566e-03, 9.17783473e-04, -2.37934473e-05,
          3.31468810e-03, 7.95853557e-04, -3.20780557e-03,
          -1.18642056e-03, 2.09398240e-05, -1.35474105e-03,
          2.84882099e-03, 8.09951860e-04, 3.82916420e-03,
          -2.41345400e-03, 2.19055358e-03, 1.79079629e-03,
          9.27948160e-04, 1.10463263e-03, -5.91708987e-04,
          -5.23614755e-04, -2.78640742e-04, 3.46322381e-03,
          -2.34942627e-03, 8.16654414e-04, -1.78144674e-03,
          9.62945414e-05, -5.06922021e-04, 1.39735627e-03,
          -1.67226407e-03, 2.74922786e-04, 8.62970846e-05,
          2.74672429e-03, 2.55288696e-03, 6.65194297e-04,
          -2.50852178e-03, -9.73418704e-04, 8.31303361e-04,
          9.03311826e-04, 1.37639709e-03, -6.15548401e-04,
          -5.19341324e-04, 1.72420347e-03, -1.93481446e-05,
          -2.57077743e-03, 1.25423598e-03, 9.62951221e-04,
          1.10994081e-03, 1.34660688e-03, -2.33950815e-03,
          1.27351051e-03, 3.38156475e-04, 2.04487151e-04, 2.04486514e-05 ]
   decision_functions:
      -
         sv_count: 1
         rho: -1.5012529522872503e-01
         alpha: [ 1. ]
         index: [ 0 ]
