%YAML:1.0
my_svm: !!opencv-ml-svm
   svm_type: C_SVC
   kernel: { type:LINEAR }
   C: 1.
   term_criteria: { epsilon:2.2204460492503131e-016, iterations:100 }
   var_all: 128
   var_count: 128
   class_count: 2
   class_labels: !!opencv-matrix
      rows: 1
      cols: 2
      dt: i
      data: [ 0, 1 ]
   sv_total: 1
   support_vectors:
      - [ 2.58314004e-003, 2.50530837e-004, 9.06495959e-004,
          3.60578590e-004, 1.67516223e-003, 1.46771083e-003,
          -1.59555662e-003, -1.20072346e-003, 2.26715230e-004,
          2.35812296e-003, 2.91485293e-003, -2.98779225e-003,
          4.26434260e-003, -1.20593049e-003, 1.84477292e-004,
          -2.08632299e-003, 2.96101253e-003, 1.83065119e-003,
          1.46940336e-004, -6.09674782e-004, 3.68289766e-004,
          -9.34266602e-004, -1.66072010e-003, 4.00193006e-004,
          -1.71981903e-003, 3.10547010e-004, -2.02168082e-003,
          1.15480805e-004, -1.23676541e-003, -7.87965953e-004,
          2.15148507e-003, -9.46012267e-004, 8.71642376e-004,
          -2.90048448e-003, 1.59090327e-004, -5.23455068e-003,
          1.20520235e-004, 3.29489307e-003, 2.73711933e-003,
          -3.10587976e-003, -1.83786219e-003, -1.84666389e-003,
          -4.01843339e-003, 2.55510607e-003, -1.27175881e-003,
          -2.63448572e-003, -1.16860564e-003, -3.17844586e-003,
          1.17163709e-003, 1.27798540e-003, 1.04778694e-004,
          -5.36257576e-004, 1.62931130e-004, -1.06707856e-003,
          1.35474501e-003, 6.59643207e-004, -6.10313204e-004,
          -4.19811171e-004, 3.53421274e-005, 1.87587715e-003,
          -8.40814668e-004, -1.58179307e-003, 7.89512822e-004,
          -3.02005187e-003, -7.49695231e-004, -4.21665795e-003,
          4.94896922e-005, -1.23115338e-003, 8.31268379e-004,
          1.45107368e-003, 1.24228536e-003, -8.29618250e-004,
          1.37592535e-004, -9.86742321e-004, 2.71654991e-003,
          1.03051658e-003, 4.57306654e-004, -7.88693607e-004,
          4.56589460e-003, 7.12827081e-004, 3.14743328e-003,
          9.91542940e-004, -4.92242762e-005, 1.17231568e-003,
          1.21975166e-003, -2.15083989e-003, -3.50081385e-003,
          -6.51140639e-004, 2.06082128e-003, 1.67587132e-003,
          -1.59357209e-004, 2.21377704e-003, -1.96644012e-003,
          1.05679734e-003, 1.55442907e-003, -2.12766510e-003,
          -1.33668655e-003, -1.65175356e-003, 2.63017463e-003,
          1.30066113e-003, -2.06034933e-003, 1.06685073e-003,
          -3.10232717e-004, -1.73957320e-003, 4.41355165e-004,
          6.04348956e-004, -4.31557455e-005, -2.29776860e-003,
          -5.37910615e-004, 2.19459471e-005, -5.64274487e-005,
          -1.69908185e-003, 5.31248632e-004, 1.77993934e-004,
          -4.88362930e-005, -3.25292149e-006, 1.47392345e-003,
          1.32197596e-003, -2.84831185e-004, 9.68939043e-004,
          -1.05454552e-003, 1.71173131e-004, -7.19834527e-004,
          1.36291597e-003, 1.41747191e-003, -1.43345166e-003,
          -7.12949084e-004, 2.86118826e-004 ]
   decision_functions:
      -
         sv_count: 1
         rho: -1.2574575334398341e-001
         alpha: [ 1. ]
         index: [ 0 ]
