%YAML:1.0
my_svm: !!opencv-ml-svm
   svm_type: C_SVC
   kernel: { type:LINEAR }
   C: 5.0000000000000000e-001
   term_criteria: { epsilon:2.2204460492503131e-016, iterations:100 }
   var_all: 128
   var_count: 128
   class_count: 2
   class_labels: !!opencv-matrix
      rows: 1
      cols: 2
      dt: i
      data: [ 0, 1 ]
   sv_total: 1
   support_vectors:
      - [ -2.70969537e-003, 1.08386762e-003, 1.82427932e-003,
          -4.23012418e-004, -2.64854357e-003, 4.65529243e-004,
          1.49314140e-003, -2.01005419e-003, -1.01577165e-003,
          2.70406745e-004, -1.75541604e-003, -1.10288337e-003,
          4.13289433e-003, 1.09718111e-003, -1.19686697e-003,
          2.43381574e-003, 2.55630002e-003, 1.00107328e-003,
          -1.23491441e-003, 9.07138630e-004, 8.06985016e-004,
          3.55771481e-004, 1.74997188e-003, -1.03056792e-003,
          -3.98014614e-004, 6.24731329e-005, 3.76562052e-003,
          -7.64709621e-005, 1.46098377e-003, 9.03416250e-004,
          -7.25609076e-004, -3.06404987e-003, 9.69328277e-004,
          -8.03573348e-004, 1.08980178e-003, -2.27685226e-003,
          -1.41458574e-003, 1.25565473e-003, 9.86345811e-004,
          1.05402258e-003, -1.41145976e-003, 2.12018867e-003,
          5.02341473e-003, -1.37021032e-003, 1.58745068e-004,
          2.11184449e-003, -1.29655236e-003, -1.06290623e-003,
          1.06503000e-003, -2.14634556e-003, -8.55743419e-004,
          -5.40044042e-004, -1.13471306e-003, 1.40591676e-003,
          5.64276939e-004, -8.61213601e-004, 1.82813639e-003,
          -4.01754194e-004, 3.83595703e-004, -2.82149558e-004,
          -1.08392234e-003, 2.34914740e-004, -2.09438358e-003,
          3.26740881e-003, -1.90127164e-003, -2.11937749e-003,
          -1.33539864e-003, 2.28350144e-003, -3.18937964e-004,
          -2.42310157e-003, -1.25047402e-003, 1.27590937e-003,
          7.96649838e-004, -1.90650113e-003, 2.08178681e-004,
          1.09598227e-003, 4.44356032e-004, -3.82002581e-005,
          2.19888543e-003, -7.20826210e-004, 1.96631183e-003,
          6.68745197e-004, -1.38115801e-003, -1.07312005e-003,
          4.71316656e-004, 1.95400626e-003, 9.00189916e-004,
          -9.39591555e-005, -3.05717392e-003, 2.67729687e-004,
          1.87045289e-003, -1.45855895e-003, -3.02712433e-003,
          -2.00552819e-003, -4.04882390e-004, 3.59717919e-003,
          6.66203443e-004, -1.38613442e-003, -2.16320041e-003,
          -2.39706109e-003, 9.27253684e-004, 1.50272134e-003,
          -6.48722416e-005, 1.80832436e-003, -9.43927007e-005,
          -1.18581043e-003, 9.56702221e-004, 1.05060218e-003,
          -6.43789070e-004, -1.68132188e-003, -1.01963033e-005,
          -6.08595670e-004, 1.54673227e-003, 1.45906379e-004,
          -7.42253833e-005, 7.09077169e-004, 7.89325131e-005,
          -1.86064327e-003, 4.14789305e-004, 3.91417270e-004,
          8.56941158e-004, 6.10887597e-004, 9.83088627e-004,
          -1.35861919e-004, 1.20639137e-003, 1.43961376e-003,
          2.63689144e-004, -6.54623203e-004 ]
   decision_functions:
      -
         sv_count: 1
         rho: -5.2705395220469180e-002
         alpha: [ 1. ]
         index: [ 0 ]
