%YAML:1.0
my_svm: !!opencv-ml-svm
   svm_type: C_SVC
   kernel: { type:LINEAR }
   C: 1.0000000000000001e-001
   term_criteria: { epsilon:2.2204460492503131e-016, iterations:100 }
   var_all: 60
   var_count: 60
   class_count: 2
   class_labels: !!opencv-matrix
      rows: 1
      cols: 2
      dt: i
      data: [ 0, 1 ]
   sv_total: 1
   support_vectors:
      - [ -3.72606236e-003, -7.19888462e-003, -7.15611270e-003,
          -2.75623123e-003, 6.37784041e-003, 4.31977259e-003,
          -5.82246669e-003, -5.81785338e-003, 7.96406716e-003,
          -1.99625436e-002, 4.95686021e-004, -4.68432205e-003,
          -3.23330611e-003, 1.40012158e-002, 2.04087328e-003,
          -3.04081314e-003, -2.50380021e-003, -8.09122622e-003,
          -2.05893088e-002, 5.13138203e-003, -9.12339706e-003,
          8.77241045e-003, -2.19548331e-003, 3.42395576e-003,
          -1.36685325e-002, -2.64436100e-003, -4.37376229e-003,
          -7.40829902e-003, -4.94696805e-003, 6.05824962e-003,
          -1.20072803e-002, -1.35699322e-003, -3.91932856e-003,
          1.05590438e-002, -3.74838430e-003, -6.12349948e-003,
          -1.15277572e-003, -3.14761000e-003, 2.87848379e-004,
          -4.29812446e-003, -1.84200774e-003, -3.92514048e-003,
          -7.04678753e-003, -2.84374226e-003, -2.88972701e-003,
          -1.68496370e-003, -6.94076065e-003, -5.43441111e-003,
          -6.33494603e-003, -2.53292755e-003, 1.17085013e-003,
          -1.37679791e-003, 3.01616546e-003, -1.44552265e-003,
          3.21838073e-003, -3.40577238e-003, -4.03890572e-003,
          1.87501637e-003, 8.12885002e-004, -9.56805830e-004 ]
   decision_functions:
      -
         sv_count: 1
         rho: -1.1541248008394629e+000
         alpha: [ 1. ]
         index: [ 0 ]
