%YAML:1.0
my_svm: !!opencv-ml-svm
   svm_type: C_SVC
   kernel: { type:LINEAR }
   C: 1.
   term_criteria: { epsilon:2.2204460492503131e-016, iterations:100 }
   var_all: 128
   var_count: 128
   class_count: 2
   class_labels: !!opencv-matrix
      rows: 1
      cols: 2
      dt: i
      data: [ 0, 1 ]
   sv_total: 1
   support_vectors:
      - [ 1.98187074e-003, -6.75831502e-003, 9.57645010e-003,
          -4.40718140e-003, 5.36898384e-003, 7.02703604e-003,
          -7.42454315e-003, 1.50461076e-002, -1.97055819e-003,
          -1.60321612e-002, 8.74280464e-004, 3.01003852e-003,
          -5.43534523e-003, 4.54333704e-003, -6.72853319e-003,
          7.76120974e-003, -2.40248919e-004, 4.70818859e-003,
          1.23264529e-002, -2.61750538e-003, -1.16744789e-003,
          1.75371708e-003, 9.78608732e-004, -2.98126042e-003,
          -7.70004652e-003, 9.24039865e-004, 3.29046464e-003,
          -1.45195483e-003, 4.72976593e-003, 1.68481912e-003,
          5.65880630e-003, 4.60717781e-003, -1.17355958e-003,
          5.95795503e-003, 3.26277630e-004, -4.93134465e-003,
          1.38186861e-003, -1.21139834e-004, 4.57296101e-003,
          -2.75851740e-003, 9.73644946e-003, 7.72465253e-003,
          -2.09449252e-004, 2.10561464e-003, -5.39711770e-003,
          -3.35212029e-003, -4.01431345e-004, 1.43814890e-003,
          1.94300013e-003, -3.58984270e-003, 1.30571250e-003,
          -6.54863240e-003, 2.82608904e-003, -2.56331055e-003,
          2.98866630e-003, -2.41487497e-003, -1.56860275e-003,
          -6.69131521e-004, 1.75021379e-003, 3.88159649e-004,
          4.41147946e-003, -1.39706291e-003, 3.16822645e-003,
          -1.19133026e-003, 1.98239624e-003, -3.10327695e-003,
          -1.27312518e-003, 3.79200466e-003, -9.16671590e-004,
          9.42783547e-004, -1.28211672e-004, 1.83298299e-003,
          -2.99271895e-003, -3.26812267e-004, 1.76806073e-003,
          -2.99439789e-003, 1.76699413e-003, -7.59954855e-004,
          3.38262459e-003, 8.06309748e-004, 3.20354314e-003,
          -1.88443373e-004, 1.10497035e-003, 1.91218324e-003,
          2.34372899e-004, -3.13493004e-003, -2.72919238e-003,
          7.56529800e-004, -1.94914883e-003, -4.28897562e-004,
          -2.11366080e-003, -9.23955231e-005, -1.35556899e-003,
          -3.85520631e-004, 8.32630612e-005, 2.34319898e-003,
          -1.61488744e-004, -1.04748958e-003, 1.55535340e-003,
          7.87363853e-004, -1.40501547e-003, 1.48488703e-004,
          -2.47743446e-003, -1.28992007e-003, -2.23603725e-004,
          9.89850378e-004, 4.02932055e-004, 5.14847343e-005,
          6.09777162e-005, -2.47379448e-005, -3.78090830e-004,
          -3.37270380e-004, -7.14400085e-004, 4.11607092e-004,
          5.09703183e-004, 4.29761654e-004, -2.32726106e-005,
          8.08970071e-004, 1.06419041e-003, 2.93977093e-004,
          -1.45456463e-004, 6.47880370e-004, -6.98640768e-004,
          -2.63062509e-004, 7.88227830e-004, 9.53977054e-004,
          -4.43551517e-006, -1.07553671e-004 ]
   decision_functions:
      -
         sv_count: 1
         rho: -7.0588240970282901e-001
         alpha: [ 1. ]
         index: [ 0 ]
