%YAML:1.0
my_svm: !!opencv-ml-svm
   svm_type: C_SVC
   kernel: { type:LINEAR }
   C: 1.
   term_criteria: { epsilon:2.2204460492503131e-16, iterations:100 }
   var_all: 10
   var_count: 10
   class_count: 2
   class_labels: !!opencv-matrix
      rows: 1
      cols: 2
      dt: i
      data: [ 0, 1 ]
   sv_total: 1
   support_vectors:
      - [ -2.54223263e-03, 6.06968533e-03, -7.11211888e-03,
          3.56578943e-03, -1.01888375e-02, 8.52128025e-03,
          5.59939304e-03, 8.04694742e-03, -4.68126452e-03,
          5.84853208e-03 ]
   decision_functions:
      -
         sv_count: 1
         rho: -4.0615880310028041e-01
         alpha: [ 1. ]
         index: [ 0 ]
