%YAML:1.0
my_svm: !!opencv-ml-svm
   svm_type: C_SVC
   kernel: { type:LINEAR }
   C: 1.
   term_criteria: { epsilon:2.2204460492503131e-016, iterations:100 }
   var_all: 128
   var_count: 128
   class_count: 2
   class_labels: !!opencv-matrix
      rows: 1
      cols: 2
      dt: i
      data: [ 0, 1 ]
   sv_total: 1
   support_vectors:
      - [ -2.58629967e-004, -2.81855254e-003, 2.14570994e-003,
          -3.90374335e-003, 8.26717168e-003, -1.41470283e-002,
          1.13412105e-002, -1.27027230e-002, 4.67850035e-003,
          1.25829019e-002, -8.43439484e-004, -6.34891167e-003,
          4.31075273e-003, -8.43216013e-003, 9.25803033e-004,
          -8.19954730e-005, 2.51778704e-003, -1.01665063e-002,
          -5.52794384e-003, -4.80957591e-004, -7.39983702e-003,
          -1.62639550e-003, -3.30851227e-003, -3.27877060e-004,
          -2.10664794e-003, 7.65146862e-004, -4.55123140e-003,
          3.49937007e-004, -1.28892506e-003, 1.91113853e-003,
          -1.56315998e-003, 3.63198156e-003, 4.73702606e-003,
          -6.52927812e-003, 4.38569952e-003, 5.84614463e-005,
          -1.80373120e-003, 6.21105602e-004, -6.67819579e-004,
          1.83846708e-003, -9.82805807e-003, -5.57507994e-003,
          -2.48603919e-003, -3.95851023e-003, 3.54436575e-003,
          1.29571371e-003, -2.19578017e-003, -4.05689236e-003,
          -2.82336120e-003, 6.94604963e-003, -1.79927133e-003,
          3.43366177e-003, 3.30032577e-004, 4.31146985e-003,
          -5.94029995e-003, 6.31308212e-005, 4.73100739e-003,
          -7.65256918e-005, -7.53258541e-003, -1.44729958e-004,
          -3.00264335e-003, 2.14392366e-003, 7.28139185e-006,
          1.54069869e-003, -3.56740830e-003, 1.82758609e-003,
          2.96973414e-003, -2.54181796e-003, 2.04371288e-003,
          -2.20286404e-003, -5.93031757e-004, -1.30485906e-003,
          4.42669443e-005, -5.28596481e-003, -3.62636783e-004,
          5.25046233e-003, -3.82229476e-003, 2.30463408e-003,
          -3.08941188e-003, 6.14986056e-004, -6.52934134e-004,
          4.00573364e-004, -1.79406616e-003, -1.02057715e-003,
          -3.45000997e-004, 1.73125975e-003, 3.67449422e-004,
          1.41469156e-003, 7.64269789e-004, -2.15986249e-004,
          -2.52864062e-004, 1.72659126e-003, 1.52887462e-003,
          -4.35299036e-004, -1.03821221e-003, -1.16542331e-003,
          -1.10751425e-004, -5.00365684e-004, -6.13865850e-004,
          -3.28309310e-004, 1.69153872e-003, 5.42018621e-004,
          2.23042374e-003, 3.64292238e-004, -1.74387445e-004,
          -9.31083923e-004, 1.00746006e-003, -2.79299129e-004,
          -2.00311319e-004, -5.28438133e-004, 2.35342333e-004,
          -1.01950823e-003, 6.79983859e-005, -2.99196632e-004,
          -6.78515527e-004, -1.37741459e-004, 2.20250775e-004,
          -8.04522424e-004, -7.81388895e-004, 3.96343938e-004,
          7.99021451e-004, -1.98524518e-004, -7.92067294e-005,
          4.89216822e-004, -7.87190453e-004, -6.36952580e-004,
          -5.50730874e-005, 5.55071980e-004 ]
   decision_functions:
      -
         sv_count: 1
         rho: -4.2026027199279897e-001
         alpha: [ 1. ]
         index: [ 0 ]
