%YAML:1.0
my_svm: !!opencv-ml-svm
   svm_type: C_SVC
   kernel: { type:LINEAR }
   C: 1.
   term_criteria: { epsilon:2.2204460492503131e-016, iterations:100 }
   var_all: 30
   var_count: 30
   class_count: 2
   class_labels: !!opencv-matrix
      rows: 1
      cols: 2
      dt: i
      data: [ 0, 1 ]
   sv_total: 1
   support_vectors:
      - [ 4.24987637e-003, 9.47921444e-003, 2.69078440e-003,
          1.02824485e-002, -1.41255381e-002, -8.91150441e-004,
          -1.82039465e-003, -1.92862834e-004, -4.34898771e-003,
          3.49857379e-003, -1.92279997e-003, -1.12705794e-003,
          -1.52698442e-004, 7.16039154e-004, 5.57751453e-004,
          1.92366820e-003, -1.71769658e-004, 1.77917085e-004,
          3.27083719e-004, 1.00256514e-003, -1.40041811e-003,
          -4.12785244e-004, -5.37889835e-004, 7.46538804e-004,
          -1.09267399e-004, -1.58478855e-004, 4.14345035e-004,
          -2.15856635e-004, 2.89158634e-004, -8.83055560e-004 ]
   decision_functions:
      -
         sv_count: 1
         rho: -2.8290846933617120e-001
         alpha: [ 1. ]
         index: [ 0 ]
