%YAML:1.0
my_svm: !!opencv-ml-svm
   svm_type: C_SVC
   kernel: { type:LINEAR }
   C: 1.
   term_criteria: { epsilon:2.2204460492503131e-016, iterations:100 }
   var_all: 128
   var_count: 128
   class_count: 2
   class_labels: !!opencv-matrix
      rows: 1
      cols: 2
      dt: i
      data: [ 0, 1 ]
   sv_total: 1
   support_vectors:
      - [ -6.00486877e-004, 2.03723306e-004, 1.28615822e-004,
          -2.76151462e-004, -1.62585685e-003, -3.18252784e-003,
          2.63624103e-003, 4.90592036e-004, -5.45466610e-004,
          3.19450221e-004, 1.33289525e-003, 8.19667766e-004,
          -1.91187917e-003, -2.35289941e-003, 1.46791607e-003,
          -3.71944020e-003, -8.53848062e-004, -5.63330250e-004,
          -6.10277348e-004, 3.72070674e-004, 2.29825429e-003,
          -8.07475772e-006, 1.78621092e-003, -5.70425356e-004,
          -3.53394171e-005, -1.26203260e-004, -2.96217389e-004,
          -6.42215964e-005, 7.75425269e-006, 1.33787573e-004,
          -2.02769428e-004, -3.86953980e-005, 2.87132891e-004,
          -1.01660087e-003, 4.97525209e-004, 4.92190127e-004,
          -5.84966911e-004, -1.34705030e-003, -2.80530937e-003,
          -1.06934598e-003, 7.97357759e-004, 1.23317004e-003,
          -7.06201245e-004, -4.34761721e-004, 4.11216752e-004,
          -1.70126499e-003, -2.66687525e-003, -1.59818330e-003,
          -1.00465753e-004, 4.55180067e-004, 1.69240218e-003,
          -2.40437861e-004, 5.09335543e-004, -1.15079654e-003,
          7.68476690e-004, -8.52263911e-005, -7.31031410e-004,
          -2.21462644e-004, 3.09092080e-004, -3.66266577e-005,
          -1.60535693e-003, 2.43757007e-004, 9.87268286e-004,
          -6.81707403e-004, -2.56049039e-004, 7.27783307e-004,
          -1.62651599e-003, -1.26395712e-003, -1.59526966e-003,
          5.72208664e-004, -1.58055208e-003, 1.40848002e-004,
          -1.38813921e-003, 4.80803690e-004, -5.81113563e-004,
          -1.58807216e-003, 2.15481996e-004, -1.05014828e-004,
          2.66887655e-004, 2.39149947e-003, -6.62825914e-005,
          9.19161550e-007, 5.72356337e-004, 5.21137728e-004,
          5.03033982e-004, -3.97216703e-004, 6.80286670e-004,
          1.50507747e-003, -3.77143064e-004, 1.58328825e-004,
          1.09031110e-003, 8.45879957e-004, -9.68991371e-004,
          5.44276438e-004, 1.35024195e-003, 1.06304511e-003,
          -1.00705482e-003, -8.33889237e-004, -1.06928695e-003,
          -3.54939955e-003, -1.41269611e-005, 8.81525993e-005,
          -5.63362380e-004, -5.74296864e-005, 3.48878675e-004,
          -1.43157004e-003, 1.46139727e-003, -1.00872060e-003,
          -5.13584877e-004, -1.26782877e-004, 1.13445055e-003,
          1.00950012e-003, -1.16517465e-003, -7.27348670e-004,
          7.93987783e-005, -3.39708640e-004, 3.98476986e-004,
          -1.60824100e-004, -1.14357550e-004, -6.90093439e-005,
          -9.86841187e-005, 4.11436020e-004, 3.09881434e-004,
          1.87407844e-004, -1.10516783e-004, 3.67926841e-004,
          2.08880199e-004, 1.61162243e-004 ]
   decision_functions:
      -
         sv_count: 1
         rho: -8.6927027798006795e-001
         alpha: [ 1. ]
         index: [ 0 ]
