%YAML:1.0
my_svm: !!opencv-ml-svm
   svm_type: C_SVC
   kernel: { type:LINEAR }
   C: 1.
   term_criteria: { epsilon:2.2204460492503131e-16, iterations:100 }
   var_all: 10
   var_count: 10
   class_count: 2
   class_labels: !!opencv-matrix
      rows: 1
      cols: 2
      dt: i
      data: [ 0, 1 ]
   sv_total: 1
   support_vectors:
      - [ 5.28190797e-03, -3.37019353e-03, 4.32806276e-03,
          -1.90358819e-03, -2.85229506e-03, -1.86869490e-03,
          -2.66603838e-05, 9.30628181e-03, -6.83305087e-04,
          6.90758880e-03 ]
   decision_functions:
      -
         sv_count: 1
         rho: -6.2631918594546321e-01
         alpha: [ 1. ]
         index: [ 0 ]
