%YAML:1.0
my_svm: !!opencv-ml-svm
   svm_type: C_SVC
   kernel: { type:LINEAR }
   C: 1.
   term_criteria: { epsilon:2.2204460492503131e-016, iterations:100 }
   var_all: 128
   var_count: 128
   class_count: 2
   class_labels: !!opencv-matrix
      rows: 1
      cols: 2
      dt: i
      data: [ 0, 1 ]
   sv_total: 1
   support_vectors:
      - [ -5.50769130e-003, -5.57020819e-003, 5.94528439e-003,
          1.36085851e-002, -1.14279510e-002, -1.50373839e-002,
          4.81314398e-003, 2.21235724e-003, -4.16288991e-003,
          -1.10997902e-002, -6.49746694e-003, 1.12110050e-003,
          7.43100513e-003, -3.52532440e-003, 7.30765611e-003,
          6.49553584e-003, 3.37738171e-003, 4.00965987e-003,
          -1.84996205e-003, 6.33086357e-003, 7.20482878e-003,
          -3.14262044e-003, -4.23601735e-003, -2.98568304e-003,
          -5.64620772e-004, -1.93844811e-004, -1.40377739e-003,
          1.92164024e-003, 9.60470270e-003, -1.14554493e-003,
          1.64001505e-003, 2.93268426e-003, 9.30725597e-004,
          5.13717020e-003, 2.09204271e-003, -6.27040956e-003,
          -5.19299007e-004, -3.06046830e-004, -4.24544420e-003,
          2.63629481e-003, 2.66509876e-003, 8.62663519e-003,
          5.67148766e-003, -3.87525768e-003, -3.50822206e-003,
          -1.94232034e-005, 5.70465764e-003, 1.25592272e-003,
          -8.47288058e-004, 1.17591466e-003, 2.85267760e-003,
          -1.91565242e-003, 1.05341751e-004, -3.54756787e-003,
          9.27672954e-004, -2.03288952e-003, 4.08737484e-004,
          -1.52104523e-003, 5.91634365e-004, 8.24093935e-004,
          6.05293724e-004, -3.87048465e-003, -1.25927199e-003,
          3.44051950e-004, -1.18414337e-005, 6.38401689e-005,
          -4.64233657e-004, 2.88653257e-003, 2.77228421e-004,
          2.27303780e-003, 2.17405660e-003, -5.31122845e-004,
          8.28691991e-004, 1.96911092e-003, -2.96595460e-003,
          -1.45903160e-003, 8.86140682e-004, -1.64027893e-004,
          1.89600105e-003, -3.10323725e-004, 3.07267439e-003,
          1.00461021e-003, 1.54345063e-003, 2.73124361e-003,
          -3.57990968e-004, 7.42751756e-004, -1.37799757e-003,
          1.96950219e-004, -7.98709516e-004, -1.25313189e-003,
          -2.14093961e-004, 2.00152188e-003, -2.25135358e-004,
          -8.00730952e-004, -1.39733194e-003, 3.67988920e-004,
          -1.16478733e-003, -8.58121552e-004, 4.63070552e-004,
          9.81246936e-004, -1.66893704e-003, 3.94323666e-004,
          -5.07507590e-004, 9.76268726e-004, -6.58750185e-004,
          -3.42666084e-004, 5.24428266e-004, -1.40504009e-004,
          -2.12594328e-004, -5.50493132e-004, -6.17724610e-004,
          3.31147603e-004, -2.76451086e-004, -9.33171323e-005,
          3.79759804e-005, -6.86552376e-005, -9.39109304e-005,
          -5.33961400e-004, 3.27974645e-004, 5.04627067e-004,
          8.37312400e-005, -3.23684741e-004, -3.99509474e-004,
          -5.72712452e-004, -6.41687191e-004, 3.69496818e-004,
          3.84941872e-004, 4.53929315e-005 ]
   decision_functions:
      -
         sv_count: 1
         rho: -4.4783804630909080e-001
         alpha: [ 1. ]
         index: [ 0 ]
