%YAML:1.0
my_svm: !!opencv-ml-svm
   svm_type: C_SVC
   kernel: { type:LINEAR }
   C: 1.
   term_criteria: { epsilon:2.2204460492503131e-016, iterations:100 }
   var_all: 128
   var_count: 128
   class_count: 2
   class_labels: !!opencv-matrix
      rows: 1
      cols: 2
      dt: i
      data: [ 0, 1 ]
   sv_total: 1
   support_vectors:
      - [ 1.63168748e-004, -1.66512979e-003, -3.30402399e-003,
          2.17242492e-003, -1.56115545e-002, -2.36203987e-002,
          -6.57967757e-004, 7.46241771e-003, 1.69872539e-003,
          1.06081693e-002, -3.23444977e-003, 3.44670261e-003,
          -7.78182235e-004, -7.48928916e-003, -1.58667658e-003,
          1.00093009e-003, -4.69373725e-003, -1.80530455e-003,
          1.47956645e-003, -7.50425737e-003, -1.85094704e-003,
          -3.57369287e-003, -1.20826322e-003, -1.83822238e-004,
          7.42907682e-003, 1.21343823e-003, 3.98522522e-003,
          -3.42235062e-003, -3.98471300e-003, -2.19572475e-003,
          4.00169566e-003, 8.03496572e-004, -3.76650295e-003,
          6.03186572e-003, -3.83063545e-003, -1.74627261e-004,
          3.11144441e-003, 1.54484739e-003, -1.20232825e-003,
          -1.06484611e-002, 3.45545961e-003, -4.58380533e-003,
          7.64680607e-003, 8.68744031e-003, -3.45062325e-003,
          2.92337907e-004, -3.26310960e-003, -1.57489255e-003,
          2.89136567e-003, 1.13410817e-003, -3.03373882e-003,
          3.62777500e-005, -1.04550633e-003, 6.26749592e-004,
          -9.86263389e-004, 1.98952924e-003, -1.05502747e-003,
          1.41763873e-003, 5.56098716e-003, -1.23088027e-003,
          -7.36104266e-004, 1.50574138e-003, 6.86370477e-004,
          7.34959729e-004, 2.29674246e-004, -1.81639194e-003,
          1.47009897e-003, -1.72311557e-004, -3.19581479e-003,
          -4.63977864e-004, 5.88479510e-004, -2.88057839e-003,
          -1.07998960e-003, -1.96537771e-003, 6.01189677e-004,
          9.48171073e-004, -1.72922126e-004, -5.88087598e-004,
          1.17983914e-003, 4.66083147e-004, 1.98189449e-003,
          -5.72124671e-004, -1.04817434e-003, 3.41983337e-004,
          -7.26416882e-004, 5.16889675e-004, 3.14319215e-004,
          8.65723006e-004, 2.31509912e-004, -4.61724849e-005,
          3.25965084e-004, 1.28597056e-003, -8.35724699e-004,
          4.61866497e-004, 1.31453341e-003, 5.74847043e-004,
          -4.69346160e-005, 6.37277495e-004, 7.00578617e-004,
          2.18197718e-004, 3.47247347e-004, 5.56377927e-004,
          5.25513569e-005, 7.59548493e-005, -3.69576301e-004,
          -2.34475170e-004, -4.43924546e-005, -3.37988924e-004,
          -1.19816628e-004, -6.68159410e-005, -4.88684978e-004,
          -3.83604929e-004, 1.08505155e-004, 4.87912097e-004,
          -7.34178175e-005, -8.82215754e-005, 4.22031735e-004,
          5.83226967e-004, -7.82244533e-005, 1.23748294e-004,
          2.88424519e-004, 2.74981168e-004, 4.23177873e-004,
          3.59450903e-004, -2.35989337e-005, 4.15367540e-004,
          -1.10254710e-004, -2.16144748e-004 ]
   decision_functions:
      -
         sv_count: 1
         rho: 5.7247210633511606e-003
         alpha: [ 1. ]
         index: [ 0 ]
