%YAML:1.0
my_svm: !!opencv-ml-svm
   svm_type: C_SVC
   kernel: { type:LINEAR }
   C: 1.
   term_criteria: { epsilon:2.2204460492503131e-016, iterations:100 }
   var_all: 60
   var_count: 60
   class_count: 2
   class_labels: !!opencv-matrix
      rows: 1
      cols: 2
      dt: i
      data: [ 0, 1 ]
   sv_total: 1
   support_vectors:
      - [ 5.26187615e-003, -1.07353633e-004, 8.32525955e-004,
          1.71352964e-004, -1.07689318e-003, -5.03265182e-004,
          1.86283747e-003, -3.54999327e-003, -2.01277575e-003,
          -2.90646985e-005, 1.42269488e-003, 2.56346096e-003,
          2.60283984e-003, -6.31067494e-004, -1.96985551e-003,
          1.40462595e-003, -1.67045335e-004, 2.45500531e-004,
          2.27654818e-003, 7.20026321e-004, 1.64631638e-003,
          -1.82342203e-003, -2.98956758e-003, -5.67638373e-004,
          -9.73800838e-004, 2.57466407e-003, 1.14302116e-003,
          2.27759476e-003, -3.88021799e-005, -4.21065511e-003,
          -9.06815985e-005, -4.65532539e-005, -4.51380416e-004,
          4.61126631e-003, 8.24672694e-004, 8.25694238e-004,
          -2.86383065e-003, -1.44025646e-004, -2.53007258e-003,
          3.12032388e-003, 7.13408634e-004, -3.33723449e-003,
          -1.28888979e-003, -3.93358205e-004, -3.93146230e-003,
          -1.64913258e-003, 3.29792826e-003, -2.59292749e-004,
          2.62635620e-003, 9.61206388e-004, -3.80962668e-003,
          -1.48543355e-003, 2.02691299e-003, -1.65200070e-003,
          -1.81599217e-003, 9.01205989e-004, 1.09548995e-003,
          -4.68938553e-004, -1.71023665e-003, 4.32508765e-003 ]
   decision_functions:
      -
         sv_count: 1
         rho: -4.4056473331137891e-001
         alpha: [ 1. ]
         index: [ 0 ]
