%YAML:1.0
my_svm: !!opencv-ml-svm
   svm_type: C_SVC
   kernel: { type:LINEAR }
   C: 1.
   term_criteria: { epsilon:2.2204460492503131e-016, iterations:100 }
   var_all: 60
   var_count: 60
   class_count: 2
   class_labels: !!opencv-matrix
      rows: 1
      cols: 2
      dt: i
      data: [ 0, 1 ]
   sv_total: 1
   support_vectors:
      - [ 3.01109208e-003, -2.24608532e-003, -2.77388771e-003,
          5.94949699e-004, 4.88534395e-004, -3.57850199e-003,
          2.62204977e-003, 7.83299794e-004, -2.77688284e-003,
          1.02651997e-004, -1.48463645e-003, -2.52836035e-003,
          -7.35964859e-004, 8.51269288e-004, 2.51522451e-003,
          -1.35346514e-003, 3.15308105e-003, 2.64112162e-003,
          -5.19630499e-004, 1.61477365e-003, 1.50431239e-004,
          -1.71937025e-003, 3.86586320e-003, 1.11504065e-004,
          -1.94873102e-003, -2.11651810e-003, 7.98102992e-005,
          -1.14236807e-003, 6.51230162e-004, 3.72209563e-003,
          -3.88611050e-004, 8.06571217e-004, -1.09198818e-003,
          -1.09745236e-003, -1.68572599e-003, -1.06096687e-003,
          1.39450736e-003, 4.44272300e-003, 2.19924375e-003,
          -6.91607071e-004, 1.20041438e-003, 4.81332419e-003,
          -1.08187684e-004, -4.79745027e-003, 2.91874749e-003,
          -1.35753048e-003, -8.49963166e-004, -3.28202453e-003,
          -4.86527523e-003, -1.71602145e-003, -1.38218992e-003,
          1.69877661e-003, -1.63953111e-003, 4.93087852e-003,
          4.05532162e-004, 2.11968014e-004, 1.11298624e-003,
          -1.15991873e-003, -1.95154420e-003, 1.17886334e-003 ]
   decision_functions:
      -
         sv_count: 1
         rho: -1.2659852206547914e-001
         alpha: [ 1. ]
         index: [ 0 ]
