%YAML:1.0
my_svm: !!opencv-ml-svm
   svm_type: C_SVC
   kernel: { type:LINEAR }
   C: 1.0000000000000001e-001
   term_criteria: { epsilon:2.2204460492503131e-016, iterations:100 }
   var_all: 60
   var_count: 60
   class_count: 2
   class_labels: !!opencv-matrix
      rows: 1
      cols: 2
      dt: i
      data: [ 0, 1 ]
   sv_total: 1
   support_vectors:
      - [ 3.18944012e-003, -1.04414525e-004, -8.15422507e-004,
          1.06249738e-003, -4.33438021e-004, 9.33260657e-004,
          -4.33532707e-003, -1.84674421e-003, 4.87386569e-004,
          -2.96936138e-004, 2.11715559e-003, -1.62141235e-003,
          1.05454260e-003, -9.34252603e-005, -9.72641283e-004,
          3.33423237e-003, -2.92219222e-003, 8.52705503e-004,
          2.89299036e-003, -5.11987600e-004, 2.60586245e-003,
          -9.27674875e-004, -9.03454027e-004, -7.36287655e-003,
          1.04544999e-003, 2.57227803e-003, -5.78412088e-003,
          2.71043135e-003, -5.17222215e-004, -3.16855777e-003,
          2.17090803e-003, -5.55486244e-004, -2.04859814e-003,
          -3.84708657e-003, 3.10264830e-003, 6.31618313e-004,
          -3.31257237e-003, 4.44364036e-003, -4.38170246e-004,
          -2.34928608e-004, -2.12480663e-003, -1.74789666e-003,
          8.14259751e-004, 2.11530016e-003, 8.34950886e-004,
          -4.92247194e-003, -1.17319776e-003, 1.82444428e-003,
          -2.86710169e-003, 1.49927940e-003, -6.30174065e-004,
          -2.46751774e-003, -2.51522986e-003, 4.63330746e-003,
          -3.49050883e-004, 2.61480547e-003, 1.53882102e-005,
          -2.08878238e-003, 8.02390219e-004, -5.63498412e-004 ]
   decision_functions:
      -
         sv_count: 1
         rho: -3.9070492618652655e-002
         alpha: [ 1. ]
         index: [ 0 ]
