%YAML:1.0
my_svm: !!opencv-ml-svm
   svm_type: C_SVC
   kernel: { type:LINEAR }
   C: 1.
   term_criteria: { epsilon:2.2204460492503131e-016, iterations:100 }
   var_all: 128
   var_count: 128
   class_count: 2
   class_labels: !!opencv-matrix
      rows: 1
      cols: 2
      dt: i
      data: [ 0, 1 ]
   sv_total: 1
   support_vectors:
      - [ 2.25081528e-003, 4.47392650e-003, -4.16161586e-003,
          -1.34135233e-002, 4.77468735e-003, 9.74664092e-003,
          -4.57705813e-004, -7.35418731e-003, 3.17990733e-003,
          -9.49862064e-004, 7.06983847e-005, -3.22595402e-003,
          -4.62547503e-003, 1.90261845e-003, -4.61373664e-003,
          2.84821936e-003, 1.10361911e-003, 7.13316118e-003,
          3.11488658e-003, 2.73408974e-003, -2.08444055e-003,
          1.55686040e-003, 7.39790557e-004, 4.07906855e-003,
          -6.92926906e-003, 7.80002956e-005, -2.45429343e-003,
          2.79841619e-003, -1.75131485e-003, -5.72543249e-005,
          -3.57999990e-004, 1.64311391e-003, 7.38554692e-004,
          -2.79426196e-004, 2.75073433e-003, -5.35016274e-003,
          -1.22137379e-003, -1.35321438e-003, 5.90800264e-005,
          1.12276575e-004, -2.96740420e-003, -1.47937110e-003,
          -1.62083481e-003, -2.94844690e-003, -4.13653761e-004,
          -2.25741911e-004, -1.99339958e-003, -2.73005711e-003,
          -2.50384305e-003, -4.51059255e-004, 1.37907802e-003,
          -2.02005074e-004, 5.40233683e-004, -2.69391690e-004,
          -3.51345079e-004, 3.47620604e-004, 1.17020914e-003,
          -4.63708187e-004, -1.02025550e-003, 1.98400486e-003,
          2.35214349e-004, 7.87925441e-004, 1.24776945e-003,
          -4.07912768e-004, -1.15053519e-003, 5.90951939e-004,
          -1.37475785e-003, 4.69595194e-004, 1.78372336e-003,
          -1.90051833e-005, -6.73555129e-004, 2.07817671e-003,
          -8.70675896e-004, 1.50825697e-004, 7.12132431e-004,
          -1.03108294e-003, 9.08870308e-004, 3.00424581e-004,
          -7.90971913e-004, 4.31567547e-004, -1.78807284e-004,
          2.74977356e-005, -6.64211926e-004, -8.44767856e-005,
          7.09254164e-005, 2.53812992e-004, 9.94250295e-004,
          -6.07953290e-004, -3.75545467e-004, 2.38355511e-004,
          -3.15608515e-004, -6.44556538e-004, 4.92944906e-004,
          3.47786081e-005, 2.36319494e-004, -3.77977442e-004,
          -1.27269377e-004, -1.50649023e-004, -8.21286631e-006,
          2.84407055e-004, -7.53082102e-004, -8.36812906e-005,
          -1.35216760e-004, -1.53586181e-004, -6.73871473e-005,
          -1.29641034e-004, 4.36808012e-004, -1.26856452e-004,
          4.64567274e-005, -1.88574544e-004, 6.57192140e-005,
          2.97097518e-004, -2.80499662e-004, -3.23881482e-004,
          -3.48218309e-004, 2.65014041e-005, -4.98734880e-005,
          -1.03578917e-004, 9.38367666e-005, -1.00183483e-004,
          -1.00568257e-004, 8.33140148e-005, 1.13365604e-004,
          8.55158578e-005, 3.70268826e-004, -1.56686765e-005,
          2.93724315e-005, 8.18193657e-005 ]
   decision_functions:
      -
         sv_count: 1
         rho: -1.0011051975535301e+000
         alpha: [ 1. ]
         index: [ 0 ]
