%YAML:1.0
my_svm: !!opencv-ml-svm
   svm_type: C_SVC
   kernel: { type:LINEAR }
   C: 1.0000000000000001e-001
   term_criteria: { epsilon:2.2204460492503131e-016, iterations:100 }
   var_all: 30
   var_count: 30
   class_count: 2
   class_labels: !!opencv-matrix
      rows: 1
      cols: 2
      dt: i
      data: [ 0, 1 ]
   sv_total: 1
   support_vectors:
      - [ 8.73582717e-003, -1.34508442e-002, -1.57856513e-002,
          1.07529908e-002, 8.47752579e-003, -1.56412589e-005,
          6.29182765e-003, 1.18979095e-002, -4.10135090e-003,
          3.22959796e-002, -1.35409981e-002, -1.21162161e-002,
          2.25709360e-002, 2.13929452e-002, 1.61175430e-002,
          -3.47444625e-003, 1.98180955e-002, 1.82813182e-002,
          4.11886163e-003, -8.24274216e-003, -2.15238339e-004,
          3.31032760e-002, -8.74412898e-003, -2.15326808e-003,
          1.35070446e-003, 2.39864197e-002, -2.57354812e-003,
          1.41274941e-003, 2.24732496e-002, 6.98532583e-003 ]
   decision_functions:
      -
         sv_count: 1
         rho: 2.7046923890021262e+000
         alpha: [ 1. ]
         index: [ 0 ]
