%YAML:1.0
my_svm: !!opencv-ml-svm
   svm_type: C_SVC
   kernel: { type:LINEAR }
   C: 1.
   term_criteria: { epsilon:2.2204460492503131e-016, iterations:100 }
   var_all: 128
   var_count: 128
   class_count: 2
   class_labels: !!opencv-matrix
      rows: 1
      cols: 2
      dt: i
      data: [ 0, 1 ]
   sv_total: 1
   support_vectors:
      - [ -5.52740926e-003, -5.80101321e-003, 6.08645100e-003,
          1.33072808e-002, 1.04289521e-002, 1.58663578e-002,
          -4.24174871e-003, -2.39675096e-003, 4.08326136e-003,
          -1.20348288e-002, -4.12036339e-003, 4.95760178e-004,
          5.96565474e-003, -8.25493410e-003, 3.57141625e-003,
          5.89721417e-003, 6.57528825e-003, 2.45451601e-003,
          -2.14647362e-003, -5.88273257e-003, -6.40554167e-003,
          6.20396854e-003, -3.00279213e-003, -3.11437622e-003,
          -1.91613304e-004, -7.10185326e-004, 4.93496098e-003,
          -6.73075393e-003, 5.34898788e-003, 2.02411832e-003,
          -4.88232967e-004, 1.27984339e-003, 1.55268994e-003,
          -5.25086559e-003, -1.94813788e-003, -3.64699378e-003,
          6.12050528e-004, -3.48772504e-003, 1.88932137e-003,
          2.80450424e-003, 6.76287664e-003, 7.88103696e-003,
          -5.00299642e-003, 5.34579996e-003, -2.85657006e-003,
          1.39366474e-003, -5.36197098e-003, -1.03151993e-004,
          -1.79615361e-003, -1.18369830e-003, -2.68429285e-003,
          -1.68589375e-003, 3.11938697e-003, -1.52159744e-004,
          1.24396675e-003, -2.01783289e-004, -2.17014924e-003,
          7.91496073e-004, -7.51111482e-004, -2.23268231e-004,
          -6.91365800e-004, 4.29594936e-003, -1.69331278e-003,
          1.66424992e-003, -2.72582227e-004, -4.32977482e-004,
          2.01188447e-003, 1.06595748e-003, 1.16655871e-003,
          8.71537952e-004, -1.76037825e-003, 1.63721759e-003,
          -4.32114000e-004, -4.28134575e-004, 1.15377060e-003,
          -3.23305745e-003, 1.16336241e-003, -7.45213707e-004,
          1.05702679e-003, -1.60696753e-003, 3.03825783e-003,
          -1.66987229e-004, 1.28169172e-003, -2.34725070e-003,
          -4.83947166e-004, 1.10596616e-003, -2.35931389e-003,
          5.46689553e-004, 1.00405741e-004, -2.14669434e-003,
          -7.25590566e-004, 1.86530303e-003, -7.85785436e-004,
          -1.19435150e-004, -1.56095927e-003, 1.16976153e-003,
          -1.55484444e-003, 2.95417325e-004, 8.34998558e-004,
          -2.77665240e-004, -1.22211047e-003, -5.77318016e-004,
          -5.76252234e-004, 1.38884920e-004, -6.66047505e-004,
          7.69168313e-004, 6.19943778e-004, -4.65175457e-004,
          9.79817123e-005, 5.38177381e-004, -4.20739059e-004,
          4.00893739e-004, 2.39089830e-004, 1.82812291e-004,
          2.75074417e-004, 2.46297554e-006, -5.26740905e-006,
          4.24592610e-004, -4.01051890e-004, -3.51728755e-004,
          5.84212612e-005, 7.08448701e-004, 4.54138266e-004,
          4.42012795e-004, -1.50158143e-004, 7.69690261e-004,
          2.44232273e-004, 3.51750132e-005 ]
   decision_functions:
      -
         sv_count: 1
         rho: -4.4868734646553454e-001
         alpha: [ 1. ]
         index: [ 0 ]
