%YAML:1.0
my_svm: !!opencv-ml-svm
   svm_type: C_SVC
   kernel: { type:LINEAR }
   C: 1.0000000000000001e-001
   term_criteria: { epsilon:2.2204460492503131e-016, iterations:100 }
   var_all: 30
   var_count: 30
   class_count: 2
   class_labels: !!opencv-matrix
      rows: 1
      cols: 2
      dt: i
      data: [ 0, 1 ]
   sv_total: 1
   support_vectors:
      - [ 2.14237743e-003, 5.89938508e-003, -3.81673058e-003,
          -5.49041433e-003, 2.22608633e-002, 2.18668040e-002,
          -2.70242784e-002, -1.50738880e-002, -8.73735826e-003,
          -6.93739625e-003, -1.13374135e-002, 8.64583068e-003,
          1.19961202e-002, -2.12535425e-003, 1.09425816e-003,
          -1.35670770e-002, -1.33271692e-002, -6.66898210e-003,
          -1.48861147e-002, 1.55831203e-002, 1.07476749e-002,
          2.25171330e-003, 4.21252521e-003, 9.66738258e-003,
          -3.33803915e-003, -6.30487548e-003, 4.66809049e-003,
          1.09996516e-002, -5.10446541e-003, -1.24534164e-002 ]
   decision_functions:
      -
         sv_count: 1
         rho: -6.9532342014947206e+000
         alpha: [ 1. ]
         index: [ 0 ]
