%YAML:1.0
my_svm: !!opencv-ml-svm
   svm_type: C_SVC
   kernel: { type:LINEAR }
   C: 1.
   term_criteria: { epsilon:2.2204460492503131e-016, iterations:100 }
   var_all: 128
   var_count: 128
   class_count: 2
   class_labels: !!opencv-matrix
      rows: 1
      cols: 2
      dt: i
      data: [ 0, 1 ]
   sv_total: 1
   support_vectors:
      - [ 2.01940638e-004, 3.72836279e-004, 1.05081439e-004,
          -1.79575029e-004, -1.29747888e-004, 1.39639946e-004,
          2.53692456e-003, 3.33419710e-004, -8.30362114e-005,
          4.22047335e-004, 6.45863765e-004, 6.76378782e-004,
          7.18865049e-005, -3.38434125e-004, 1.14321604e-003,
          -6.02473097e-004, 7.44695353e-005, 2.29010257e-004,
          -2.03693253e-005, 4.87018900e-004, 1.21640344e-003,
          2.93252582e-004, 1.24141003e-003, 1.08555760e-004,
          -9.48109937e-006, 1.10819507e-004, -3.50778166e-004,
          8.11321206e-006, 1.06366111e-004, 1.40766744e-004,
          -3.19627958e-004, -1.27644889e-004, -1.09641041e-005,
          -6.43636740e-004, 1.70924421e-003, 1.54726149e-004,
          -1.11938876e-004, 1.40315635e-004, -1.05832820e-004,
          -1.57655054e-003, -4.14015318e-004, -8.44472263e-004,
          6.14622841e-005, -9.03926149e-004, 7.30770407e-004,
          -5.66874689e-004, -2.47928966e-003, -2.72107334e-003,
          -2.50465814e-006, -1.20364646e-004, 1.58806753e-004,
          -1.55804562e-004, -4.85344557e-004, -1.96997612e-003,
          -1.38714080e-004, -9.70786030e-004, -2.06504948e-004,
          -7.31297259e-005, 1.40836972e-004, 1.29946013e-004,
          1.84116027e-004, -1.95733781e-004, 2.23788462e-004,
          -4.08048618e-006, 7.29034728e-005, 9.81440608e-005,
          8.97942300e-005, -4.64678684e-004, 6.31878502e-004,
          1.47655257e-003, 1.04577467e-003, -3.21061903e-004,
          -5.57590392e-004, -1.49071042e-003, 1.13209007e-005,
          -1.17979723e-003, 1.47741416e-003, 3.92031041e-004,
          3.82380473e-004, -3.32957774e-004, -7.65264849e-004,
          -8.63138121e-004, 4.51849570e-004, -3.44457658e-004,
          -7.10245047e-004, -1.38512382e-003, 8.88536044e-004,
          -2.27149329e-004, 1.80906296e-004, -1.07028818e-005,
          1.16070558e-004, 5.34119841e-004, 5.03419607e-004,
          -5.41414367e-004, -1.53260553e-004, 5.20567010e-005,
          1.86901743e-004, 2.13019259e-004, 1.15029945e-003,
          3.13814991e-004, 9.21679428e-004, 1.57629978e-003,
          1.35568576e-003, 9.90387125e-005, -4.08637454e-004,
          -9.86231025e-004, -5.27830445e-004, -3.39240389e-004,
          4.13770555e-004, 8.45627510e-004, -1.27543171e-003,
          -1.10926758e-003, -9.20388848e-004, -9.55472235e-004,
          -1.07107870e-003, -7.42744305e-004, -3.26561235e-006,
          -8.98707949e-004, -9.36116499e-004, -8.68074130e-004,
          -2.55052320e-004, -1.98404887e-004, -6.52141403e-004,
          -2.62607529e-004, -5.67719748e-004, -5.28569042e-004,
          -1.99625487e-004, -1.89549261e-004 ]
   decision_functions:
      -
         sv_count: 1
         rho: -7.3595995954037208e-001
         alpha: [ 1. ]
         index: [ 0 ]
