%YAML:1.0
my_svm: !!opencv-ml-svm
   svm_type: C_SVC
   kernel: { type:LINEAR }
   C: 5.0000000000000000e-001
   term_criteria: { epsilon:2.2204460492503131e-016, iterations:100 }
   var_all: 128
   var_count: 128
   class_count: 2
   class_labels: !!opencv-matrix
      rows: 1
      cols: 2
      dt: i
      data: [ 0, 1 ]
   sv_total: 1
   support_vectors:
      - [ 1.87845342e-003, 9.23762214e-004, 4.17049043e-003,
          -5.14437829e-007, 1.60901004e-003, -4.51256568e-003,
          -3.40457191e-004, -6.50902977e-004, 7.27600558e-003,
          -2.04625609e-003, -4.40742448e-003, 3.10379267e-003,
          -9.95099312e-004, 8.38027772e-005, -2.06063778e-004,
          2.88042962e-003, -3.68435611e-003, 3.08777881e-003,
          -4.71492356e-004, 1.70397677e-003, -2.34332541e-003,
          2.64607766e-003, -7.71044753e-003, -2.50888127e-003,
          -5.76671213e-004, -1.19372259e-003, 1.39585952e-003,
          -5.80782478e-004, -2.32553203e-003, -1.05890050e-003,
          2.90808012e-003, -7.61980563e-003, -1.20610488e-003,
          -1.46058993e-003, -1.16731552e-003, 1.13592099e-003,
          -6.16547244e-004, 4.40549833e-004, 2.37727095e-003,
          2.12910259e-003, -2.61461828e-003, 2.09836243e-003,
          -6.14973425e-004, -1.81563292e-003, 1.84665679e-003,
          -4.23287274e-004, -1.81963411e-003, 3.35826678e-003,
          -3.38224042e-003, 3.80882085e-003, -1.48422073e-003,
          -2.16132239e-003, -1.75632595e-003, -1.77568302e-003,
          -1.98456738e-003, -6.11313619e-004, -3.65344039e-003,
          4.05798294e-003, 1.24219898e-003, -1.59693055e-003,
          2.91587645e-003, -3.60578718e-003, 3.72682838e-003,
          -2.46900530e-003, 2.39155488e-004, 4.99792164e-004,
          8.68145362e-005, -1.37066050e-003, 4.74359933e-003,
          1.72255293e-003, 4.73496853e-004, 9.22627456e-004,
          -1.35210832e-003, 5.88871131e-004, 3.34589276e-003,
          -8.83561443e-004, -1.05313933e-003, -3.38586117e-003,
          -2.46118335e-003, -3.25548858e-003, 1.13261558e-004,
          -1.80845382e-003, 6.15653349e-004, -8.37752246e-004,
          -2.94117187e-003, 2.30567320e-003, 1.27323600e-003,
          2.19103904e-003, 2.80359876e-004, 3.08176060e-003,
          -1.69028982e-003, 7.75163935e-004, -7.61371863e-004,
          -3.92604328e-004, 1.38432501e-004, 4.14790062e-004,
          -1.62292412e-003, 9.20965453e-004, -1.47122063e-003,
          -2.31759350e-005, -6.93934853e-004, -1.30226009e-003,
          1.07968086e-003, 5.47859119e-004, 1.89506251e-003,
          1.12714421e-003, 8.30687466e-004, 1.65794831e-004,
          -3.41360894e-004, 1.47932529e-004, -2.75491620e-004,
          -6.00408239e-004, -4.86337405e-004, -1.19747338e-003,
          1.03333336e-003, 6.65867876e-004, -1.35499472e-003,
          1.50008500e-003, 7.48947146e-004, 4.76810936e-004,
          -1.14247750e-003, -9.01272360e-005, 2.71795143e-004,
          1.13938322e-005, -9.88630418e-005, -1.11116574e-003,
          3.26933688e-004, 2.08635083e-005 ]
   decision_functions:
      -
         sv_count: 1
         rho: -3.3918702703833509e-001
         alpha: [ 1. ]
         index: [ 0 ]
