%YAML:1.0
my_svm: !!opencv-ml-svm
   svm_type: C_SVC
   kernel: { type:LINEAR }
   C: 1.0000000000000001e-001
   term_criteria: { epsilon:2.2204460492503131e-016, iterations:100 }
   var_all: 30
   var_count: 30
   class_count: 2
   class_labels: !!opencv-matrix
      rows: 1
      cols: 2
      dt: i
      data: [ 0, 1 ]
   sv_total: 1
   support_vectors:
      - [ -2.94997194e-003, 2.33190018e-003, -1.68588106e-002,
          2.64579430e-002, 2.34823283e-002, -2.20314004e-002,
          -5.25347376e-003, -2.12944485e-002, -8.92739929e-003,
          -1.18385749e-002, -1.17240436e-002, -2.03326643e-002,
          2.95452923e-002, 8.31822120e-003, -1.59022957e-002,
          1.30829839e-002, -8.01234785e-003, 1.11879641e-002,
          -1.14101684e-002, -7.90139940e-003, 1.19917542e-002,
          1.90210703e-003, -1.49793504e-002, -8.72588903e-003,
          -8.79791193e-003, 5.49138803e-003, -9.88187827e-003,
          -7.98427779e-003, -1.34726008e-003, 2.23756265e-002 ]
   decision_functions:
      -
         sv_count: 1
         rho: -4.0703823306136027e+000
         alpha: [ 1. ]
         index: [ 0 ]
