%YAML:1.0
my_svm: !!opencv-ml-svm
   svm_type: C_SVC
   kernel: { type:LINEAR }
   C: 1.
   term_criteria: { epsilon:2.2204460492503131e-016, iterations:100 }
   var_all: 128
   var_count: 128
   class_count: 2
   class_labels: !!opencv-matrix
      rows: 1
      cols: 2
      dt: i
      data: [ 0, 1 ]
   sv_total: 1
   support_vectors:
      - [ 2.59498949e-003, 3.43651278e-004, -1.06475421e-003,
          2.21314165e-003, -9.10889532e-004, -8.62827175e-004,
          1.38596201e-003, 3.04621390e-005, 9.48808214e-004,
          4.33657551e-003, -3.91406968e-004, 2.31981464e-003,
          1.02728314e-003, -9.75220246e-005, -3.94842308e-003,
          5.01871342e-004, -4.96729743e-004, 3.38190165e-003,
          -1.01485744e-003, -1.60895428e-003, 7.85611686e-004,
          -2.83281505e-003, -2.30684364e-003, -1.30690599e-003,
          2.10159947e-003, 1.54937163e-003, -9.55776602e-004,
          3.98162426e-003, -1.24811509e-003, -3.55552300e-004,
          2.13687599e-004, -1.29690126e-003, -2.38218997e-003,
          1.04737445e-003, 1.39208278e-003, 1.45405985e-003,
          3.16548254e-003, 4.27049439e-004, 2.50410126e-003,
          -1.85846386e-003, 1.62213808e-003, -3.07637942e-003,
          1.50073180e-003, 7.67020159e-004, -1.19140721e-003,
          -2.48954236e-003, 2.55884463e-003, -6.19396451e-004,
          6.55534153e-004, -7.82086048e-004, 1.07657141e-003,
          1.34593155e-003, -5.04391780e-003, -3.59558268e-003,
          -2.65802676e-003, -2.73821293e-003, 1.30493450e-003,
          -2.42249109e-003, 1.79778633e-003, -1.48263687e-004,
          -2.45016487e-003, 2.59220181e-003, -1.21532835e-003,
          -1.14395225e-003, 2.23535858e-003, 1.11118623e-003,
          -3.49667179e-003, 3.10184783e-003, 5.19943540e-004,
          4.14263777e-004, 9.14229371e-004, 1.86901834e-005,
          9.66942986e-004, 6.46613364e-004, -2.59318296e-003,
          9.04356653e-004, -5.35260129e-004, -3.89359798e-003,
          2.44857999e-003, -1.01936935e-003, 1.42589281e-003,
          -8.25438983e-005, -2.49296986e-003, 1.39856525e-003,
          2.39947415e-003, 4.73011431e-004, 2.12799525e-003,
          8.89541756e-004, -1.01559341e-003, 6.26337889e-004,
          2.56448402e-003, -1.05267965e-004, -1.20530801e-003,
          -2.04910827e-003, -2.37170095e-003, -1.63957896e-003,
          -7.36491871e-004, -9.87932071e-005, -2.35356484e-003,
          -1.68464356e-003, -1.22004480e-003, -1.93305640e-003,
          2.27095280e-003, -1.00497645e-003, 4.75812340e-005,
          -6.11337309e-004, 1.90684863e-004, 4.03457438e-004,
          1.12755317e-003, 3.25071596e-004, -8.08205223e-004,
          7.60268245e-004, 6.33967284e-004, -8.33721948e-004,
          1.09508319e-003, -2.16001645e-003, 1.83406612e-003,
          -7.80750765e-004, 1.21260695e-004, -1.15817085e-004,
          1.16997119e-003, 4.05739374e-005, -6.66202279e-004,
          7.96691107e-004, 4.55877380e-005, -1.52508472e-003,
          -1.21088082e-003, 8.59590131e-004 ]
   decision_functions:
      -
         sv_count: 1
         rho: -2.6167427778161773e-001
         alpha: [ 1. ]
         index: [ 0 ]
