%YAML:1.0
my_svm: !!opencv-ml-svm
   svm_type: C_SVC
   kernel: { type:LINEAR }
   C: 1.
   term_criteria: { epsilon:2.2204460492503131e-016, iterations:100 }
   var_all: 128
   var_count: 128
   class_count: 2
   class_labels: !!opencv-matrix
      rows: 1
      cols: 2
      dt: i
      data: [ 0, 1 ]
   sv_total: 1
   support_vectors:
      - [ -1.04376965e-003, 9.56606294e-004, 1.52818474e-003,
          -4.39407909e-003, 3.17535899e-003, 3.45940934e-003,
          -7.06284354e-003, 5.71449520e-003, -6.41628029e-003,
          -5.23115555e-003, 2.22206046e-003, -5.01864823e-003,
          1.69853505e-003, -1.56423484e-003, -2.29696627e-003,
          2.20746733e-003, -2.13965238e-003, -4.64804610e-003,
          -1.22020463e-003, -3.41224833e-004, -2.47937301e-003,
          -4.70021274e-003, -2.33812537e-003, 5.84929716e-004,
          6.08245144e-004, 7.61369709e-004, 7.75570050e-004,
          -2.59599113e-003, 3.63334478e-003, 9.39993246e-004,
          2.05010059e-003, -9.77284042e-004, -7.56963564e-004,
          1.53070351e-003, -4.46174201e-003, -4.86849720e-004,
          1.37496716e-003, -1.91490538e-003, -1.28472480e-003,
          2.49183760e-003, -8.52279074e-004, 4.91048722e-003,
          -2.28858856e-003, 1.40474323e-004, -6.64862059e-003,
          2.38395599e-003, -1.64185534e-003, -2.25375732e-003,
          -8.76366044e-004, 3.71684320e-004, 8.94052864e-005,
          -1.73630647e-003, 1.62205356e-003, -1.76465488e-004,
          1.94999261e-003, 2.53493403e-004, -1.18468961e-004,
          -3.59771890e-003, -2.32667560e-004, 3.59493168e-003,
          1.98304464e-004, 4.35366004e-004, -3.44184251e-003,
          1.91699655e-003, -4.56902990e-003, -2.14038184e-003,
          2.18214729e-004, -4.37355926e-003, 4.06444166e-003,
          -2.34309211e-003, 1.19193760e-003, 2.15222407e-003,
          -3.98908043e-004, 4.54947818e-003, 3.18903127e-003,
          2.96991924e-003, 1.83565440e-004, 4.69660899e-003,
          -2.47158739e-003, 3.16884043e-003, -2.77525210e-003,
          -3.31928517e-004, 1.35618972e-003, 1.28740445e-003,
          4.79203154e-004, 5.50206787e-005, -1.24610844e-003,
          1.07596780e-003, 2.13709543e-003, 4.47904713e-005,
          -1.05944311e-003, -1.83862820e-003, 2.01627379e-003,
          -5.55660285e-004, -2.16313452e-003, 2.17682589e-003,
          -1.17236259e-003, -1.78291360e-004, -3.19945393e-003,
          8.08075187e-004, 6.18925027e-004, -7.67183315e-004,
          -1.25873403e-003, 2.97126058e-003, -9.08166228e-004,
          -5.11269260e-004, 2.05738732e-004, 2.19507143e-003,
          3.58413579e-003, -1.26338346e-004, 1.72789197e-003,
          4.49039071e-004, 6.38686761e-004, 2.01048818e-003,
          -1.77892012e-004, 1.89736590e-003, -3.82699654e-004,
          -5.16624714e-004, 1.31566869e-003, -1.11166162e-004,
          -1.58670044e-003, 3.19209794e-004, 4.36905771e-004,
          5.38617140e-004, 9.05903289e-004, -2.53175444e-004,
          3.82865459e-004, -4.59752395e-004 ]
   decision_functions:
      -
         sv_count: 1
         rho: -3.0999587045381027e-001
         alpha: [ 1. ]
         index: [ 0 ]
