%YAML:1.0
my_svm: !!opencv-ml-svm
   svm_type: C_SVC
   kernel: { type:LINEAR }
   C: 1.0000000000000001e-001
   term_criteria: { epsilon:2.2204460492503131e-016, iterations:100 }
   var_all: 60
   var_count: 60
   class_count: 2
   class_labels: !!opencv-matrix
      rows: 1
      cols: 2
      dt: i
      data: [ 0, 1 ]
   sv_total: 1
   support_vectors:
      - [ 3.75218899e-003, 1.34554657e-003, -7.74510065e-003,
          1.15035335e-002, -8.51176120e-003, -1.76617391e-002,
          8.89751781e-003, -1.04544079e-003, -3.96887911e-003,
          -5.79089532e-003, 1.96061423e-003, -7.21073570e-003,
          2.22286256e-003, 4.90765320e-003, 7.39767635e-003,
          -1.56367142e-002, 1.21551764e-003, -5.73569257e-003,
          1.73472019e-003, 8.98590591e-003, -1.10224085e-002,
          -6.18456490e-003, -6.22357649e-004, 9.22293868e-003,
          2.88967113e-003, -2.86147650e-003, 1.38498005e-002,
          -9.75457486e-003, 2.06051674e-003, 1.00499345e-002,
          -3.81995924e-003, -5.01352875e-003, 1.91162794e-003,
          5.19990688e-003, 6.91903662e-003, -1.08163431e-003,
          8.35581589e-003, -6.99374359e-003, -3.87336244e-003,
          -2.71522510e-003, 3.55727226e-003, -1.19060406e-003,
          -3.05431476e-003, -4.84886253e-003, -8.49589589e-004,
          -1.60670409e-003, -8.00842419e-004, -3.19377542e-003,
          -4.18130727e-003, 1.60022778e-003, 2.00728187e-003,
          3.44089046e-003, 2.58331234e-003, 9.98274423e-004,
          -2.30531418e-003, 2.58213328e-003, 5.94754994e-004,
          -7.94181426e-004, -6.24455934e-005, 1.23333000e-003 ]
   decision_functions:
      -
         sv_count: 1
         rho: -1.1799666784978073e+000
         alpha: [ 1. ]
         index: [ 0 ]
