%YAML:1.0
my_svm: !!opencv-ml-svm
   svm_type: C_SVC
   kernel: { type:LINEAR }
   C: 1.
   term_criteria: { epsilon:2.2204460492503131e-016, iterations:100 }
   var_all: 128
   var_count: 128
   class_count: 2
   class_labels: !!opencv-matrix
      rows: 1
      cols: 2
      dt: i
      data: [ 0, 1 ]
   sv_total: 1
   support_vectors:
      - [ 2.21691863e-003, 4.37073736e-003, -4.44246316e-003,
          -1.28552187e-002, -5.42122452e-003, -1.01466049e-002,
          -6.56723278e-004, 7.39914132e-003, 3.13135120e-003,
          -1.02125620e-003, -2.09206773e-004, -2.83040991e-003,
          -3.24363960e-003, -2.90961144e-003, -4.74571157e-003,
          -6.38620462e-004, -5.75155439e-003, 4.93024569e-003,
          4.13097162e-003, 2.22932664e-003, -1.16677536e-003,
          -3.20693012e-003, 2.53359671e-004, 3.37985414e-003,
          6.53088698e-003, -5.11946389e-004, -3.12321121e-003,
          -3.45832924e-003, 1.50798587e-003, -7.85960874e-004,
          3.27505055e-004, 2.26726546e-003, -7.37142458e-004,
          1.14049076e-003, 5.02416724e-003, 3.12197185e-003,
          -1.60020741e-003, -5.42765600e-004, -4.98144189e-004,
          -2.70037889e-003, -1.74968736e-003, -1.00110599e-003,
          2.41282256e-003, -1.01159257e-003, 1.10088079e-003,
          8.87672286e-005, -1.96715351e-003, -8.04427487e-004,
          3.87130352e-003, 3.60933627e-004, 1.20967696e-003,
          -2.39011555e-004, -9.06212779e-004, -9.35392629e-004,
          -8.23165319e-005, -6.73824106e-004, 1.20449590e-003,
          -1.13084598e-003, 5.17391192e-004, -2.05952465e-003,
          4.74483939e-004, 3.55706667e-004, 9.74889786e-004,
          1.32375432e-003, -5.38261491e-004, 2.58145505e-004,
          -1.12392008e-003, -1.34408742e-003, 8.18696222e-004,
          1.25023059e-003, 1.48642238e-003, 1.61367015e-003,
          -7.43560144e-004, -2.88737156e-005, -6.81064092e-004,
          5.71315992e-004, -7.54932524e-004, 4.57716000e-004,
          4.34314308e-004, -1.18547271e-003, 3.18742474e-004,
          -3.58164049e-004, -5.50855882e-004, 1.18075448e-004,
          -3.19600571e-004, -4.05871921e-004, 6.88007392e-004,
          -1.17873671e-004, 6.77562435e-004, -2.71902216e-004,
          -4.37343493e-004, 4.25199571e-004, -7.23778357e-005,
          -3.48318747e-004, -2.46268086e-004, -2.43719347e-004,
          1.78018046e-004, 3.05789639e-004, 1.23514386e-004,
          -1.30522880e-004, -5.33403409e-006, -5.67370153e-004,
          2.87091651e-004, -1.47911356e-004, -2.37489192e-004,
          4.39104013e-004, -1.96593755e-004, 1.80605770e-004,
          1.44181313e-005, 1.53537476e-004, 1.10901565e-004,
          -3.21784115e-004, 4.23500198e-004, 1.60884840e-004,
          -2.94549420e-004, 8.97293212e-005, -1.25273902e-004,
          -4.48368955e-005, 9.77937671e-005, 2.57105221e-005,
          1.43733923e-005, 2.10143204e-004, 6.74728144e-005,
          3.03284323e-004, -2.13410545e-004, 7.46212681e-005,
          7.90472041e-005, 6.48578207e-005 ]
   decision_functions:
      -
         sv_count: 1
         rho: -1.0006941864073591e+000
         alpha: [ 1. ]
         index: [ 0 ]
