%YAML:1.0
my_svm: !!opencv-ml-svm
   svm_type: C_SVC
   kernel: { type:LINEAR }
   C: 1.
   term_criteria: { epsilon:2.2204460492503131e-016, iterations:100 }
   var_all: 30
   var_count: 30
   class_count: 2
   class_labels: !!opencv-matrix
      rows: 1
      cols: 2
      dt: i
      data: [ 0, 1 ]
   sv_total: 1
   support_vectors:
      - [ -1.73330388e-003, -5.15049396e-005, 1.23387366e-003,
          -2.12877635e-002, 1.32974721e-002, -2.62490415e-004,
          2.05644593e-003, -8.95645935e-004, -8.06490600e-004,
          -2.42155092e-003, 2.20646942e-003, 2.23065866e-003,
          -8.03987263e-004, 1.14764925e-003, -1.24759204e-003,
          -3.02029424e-003, -1.06771768e-003, -2.73945020e-003,
          -5.80934633e-004, 6.81539066e-004, 1.24174764e-003,
          4.35140333e-004, 8.38788517e-004, -9.74377035e-004,
          2.25867640e-004, -4.91571904e-004, -3.46417073e-004,
          3.61841347e-004, -2.97752558e-004, -2.75089988e-004 ]
   decision_functions:
      -
         sv_count: 1
         rho: -1.3848909774007934e-001
         alpha: [ 1. ]
         index: [ 0 ]
