%YAML:1.0
my_svm: !!opencv-ml-svm
   svm_type: C_SVC
   kernel: { type:LINEAR }
   C: 1.
   term_criteria: { epsilon:2.2204460492503131e-016, iterations:100 }
   var_all: 128
   var_count: 128
   class_count: 2
   class_labels: !!opencv-matrix
      rows: 1
      cols: 2
      dt: i
      data: [ 0, 1 ]
   sv_total: 1
   support_vectors:
      - [ 2.39697838e-004, 4.75495879e-004, 2.92414683e-004,
          -4.91574348e-004, -6.35584584e-004, 2.49201898e-004,
          3.76833603e-003, -1.16189694e-004, -1.29766192e-003,
          -1.07752319e-004, 4.51108703e-004, 2.69477197e-004,
          -1.87590631e-004, 4.87649435e-004, 4.76671383e-003,
          -1.56241166e-003, -1.07058021e-003, -7.23417732e-004,
          -6.72301801e-004, -1.08826453e-005, 4.24756203e-004,
          2.79941632e-005, 2.05327361e-003, -1.14660955e-003,
          -9.39805235e-004, -2.92166020e-004, -2.76191131e-004,
          -1.00448320e-004, -6.53408060e-004, -4.20732249e-004,
          1.45915983e-004, -5.13289524e-005, -1.18611053e-004,
          -1.94732798e-004, 1.84925017e-003, -1.68420572e-003,
          -3.38500179e-003, -1.95585121e-003, -8.72101635e-004,
          -2.38855695e-003, -4.64739918e-004, -1.61468389e-003,
          1.01735804e-003, 2.61425646e-003, -8.71431141e-004,
          -2.66173761e-003, 5.65736787e-004, -2.13241717e-003,
          -4.40928910e-004, 9.08110087e-005, 1.31482154e-003,
          8.45978211e-004, 9.06835834e-004, 2.46123614e-004,
          3.66761209e-003, 1.42236750e-004, -1.09784596e-003,
          -3.19270242e-004, -3.19701532e-004, 3.53412004e-004,
          1.03427703e-003, 1.15808565e-003, 1.34354993e-003,
          -3.17612692e-004, 2.92395998e-004, -7.01103010e-004,
          -8.72837147e-004, -1.40777172e-003, -1.21741707e-003,
          -5.56511746e-004, -6.05725392e-004, -6.92189496e-004,
          1.42763613e-003, -2.23155390e-003, -1.08036201e-003,
          -8.92919197e-005, 1.58242800e-003, -1.14507088e-003,
          -2.12201965e-003, -3.51418741e-004, -1.09487446e-003,
          6.49848080e-004, 2.15275941e-004, 9.10008792e-004,
          7.07800034e-004, -1.39825337e-003, 7.08723033e-004,
          9.27239089e-005, 1.47623266e-003, 8.94856290e-004,
          -7.77644513e-004, 1.44170038e-003, 2.83119665e-003,
          -5.80507985e-005, -1.05527509e-003, 1.84997873e-004,
          1.29863765e-004, -5.64016991e-005, 2.97142305e-005,
          -3.64650710e-004, 4.54601541e-005, -1.00026536e-003,
          -7.96580163e-004, -7.39323907e-004, 2.25063413e-003,
          -1.79593440e-003, -1.73453742e-003, -7.83999625e-004,
          9.61936836e-004, -1.89116516e-003, -2.26913532e-003,
          3.42331623e-004, -7.89720740e-004, -9.85020190e-004,
          -3.90071375e-003, 3.24522785e-004, 2.06918502e-003,
          -1.45481469e-003, -2.71771732e-003, -1.78116723e-004,
          -2.72081583e-004, 7.12740235e-004, -1.00283930e-003,
          4.63555734e-005, 1.25073339e-003, 3.31385614e-004,
          -7.53817672e-004, -2.29857105e-004 ]
   decision_functions:
      -
         sv_count: 1
         rho: -8.3045924579495201e-001
         alpha: [ 1. ]
         index: [ 0 ]
