%YAML:1.0
my_svm: !!opencv-ml-svm
   svm_type: C_SVC
   kernel: { type:LINEAR }
   C: 1.
   term_criteria: { epsilon:2.2204460492503131e-16, iterations:100 }
   var_all: 10
   var_count: 10
   class_count: 2
   class_labels: !!opencv-matrix
      rows: 1
      cols: 2
      dt: i
      data: [ 0, 1 ]
   sv_total: 1
   support_vectors:
      - [ -2.58507603e-03, -1.08755683e-03, 2.43681809e-03,
          -3.04439757e-03, 7.29192933e-03, -4.89360187e-03,
          -7.24524446e-03, -1.21567743e-02, 3.89171299e-03,
          -9.71669331e-03 ]
   decision_functions:
      -
         sv_count: 1
         rho: -1.7666871703201104e-01
         alpha: [ 1. ]
         index: [ 0 ]
