%YAML:1.0
my_svm: !!opencv-ml-svm
   svm_type: C_SVC
   kernel: { type:LINEAR }
   C: 5.0000000000000000e-001
   term_criteria: { epsilon:2.2204460492503131e-016, iterations:100 }
   var_all: 30
   var_count: 30
   class_count: 2
   class_labels: !!opencv-matrix
      rows: 1
      cols: 2
      dt: i
      data: [ 0, 1 ]
   sv_total: 1
   support_vectors:
      - [ -3.30531131e-003, -1.76146738e-002, -1.12583889e-002,
          1.45727610e-002, 7.95263052e-003, -4.80007427e-003,
          1.37945293e-002, -1.14142885e-002, 6.96999254e-003,
          -7.65880977e-004, 9.02687386e-003, -9.34966281e-003,
          -8.45174864e-003, -1.27375890e-002, -5.54103823e-003,
          -5.83689567e-003, 2.96002370e-003, 1.60095887e-003,
          -1.97776011e-003, -2.55127042e-003, 5.82728488e-003,
          2.32175291e-002, 1.91552250e-003, 7.10592233e-003,
          6.49929000e-003, -1.28274737e-002, 1.40778879e-002,
          1.59946177e-002, 5.37491310e-003, 8.37790256e-004 ]
   decision_functions:
      -
         sv_count: 1
         rho: -3.1824072279235138e+000
         alpha: [ 1. ]
         index: [ 0 ]
