%YAML:1.0
my_svm: !!opencv-ml-svm
   svm_type: C_SVC
   kernel: { type:LINEAR }
   C: 1.0000000000000001e-001
   term_criteria: { epsilon:2.2204460492503131e-016, iterations:100 }
   var_all: 128
   var_count: 128
   class_count: 2
   class_labels: !!opencv-matrix
      rows: 1
      cols: 2
      dt: i
      data: [ 0, 1 ]
   sv_total: 1
   support_vectors:
      - [ 1.10733043e-003, 1.19242992e-004, -5.70456823e-003,
          -2.88392464e-003, -9.10670962e-003, 1.30894147e-002,
          -5.34911687e-003, -4.19976143e-003, -3.17355007e-004,
          -3.90278525e-003, 9.16798599e-003, -1.72782363e-003,
          8.56663100e-003, -8.65861308e-004, -6.82109781e-003,
          3.44131578e-004, -4.55278857e-003, 2.16321391e-003,
          -6.24150690e-003, -6.66338205e-003, 3.25446739e-003,
          4.25481703e-003, 5.68093313e-003, -6.70790323e-004,
          3.45309358e-003, 2.46106181e-003, -9.64263570e-004,
          -9.41348076e-003, -9.53275338e-003, 6.87927147e-003,
          -3.99002945e-003, -7.02898577e-003, -1.17316411e-003,
          -6.24102354e-003, -5.67921845e-004, 6.28115784e-004,
          -1.78401836e-003, 6.09155837e-003, -3.87276616e-003,
          -9.77368676e-004, 1.21717562e-003, -4.16461006e-003,
          1.67642382e-003, 2.76518986e-003, 2.05844198e-003,
          1.09160901e-003, 5.22001740e-003, 3.01872101e-003,
          1.58436690e-003, 1.51819561e-003, -1.75717601e-003,
          1.02501840e-003, -3.32005695e-003, 5.90352435e-003,
          -6.86100218e-003, 2.28999695e-003, -2.56502768e-003,
          -2.09234771e-003, -1.60711957e-003, -1.79709191e-003,
          -1.23436190e-003, 1.84297224e-003, -8.99734732e-004,
          -2.34569982e-003, -1.35337899e-003, -2.21075304e-003,
          1.42058881e-003, -7.41258729e-004, -3.20266886e-003,
          8.74992184e-005, 4.65044891e-003, -3.94264515e-003,
          -1.82238594e-003, 1.05421164e-003, -2.45965202e-003,
          -2.14098138e-003, 1.60244142e-003, -3.22275911e-004,
          -2.86607741e-004, 2.35733693e-003, 2.09760372e-004,
          2.76165782e-004, 1.00434327e-003, 1.25027739e-003,
          -2.12854269e-004, 1.34010450e-003, 9.98793519e-004,
          -9.26987093e-004, 2.17140163e-003, -4.64389939e-003,
          1.33202132e-003, -1.67349237e-004, -7.00065633e-004,
          6.46690663e-004, 3.22770560e-003, 1.02283224e-003,
          1.02389872e-003, -7.17230665e-004, -5.21989772e-004,
          -2.83653389e-005, 8.63692458e-006, 5.13974228e-004,
          3.31727497e-004, -2.41493923e-004, 1.31837864e-004,
          4.90331258e-005, 9.89983746e-005, 5.82105131e-004,
          -1.17739360e-003, -1.11441745e-003, -5.82641405e-005,
          -1.83628348e-003, 3.48238798e-004, 1.75826100e-003,
          -1.24897878e-003, -8.95527191e-005, 3.93719209e-004,
          -3.63506580e-004, -1.52826193e-004, -9.39516467e-004,
          -3.08820338e-004, 5.69444732e-004, 7.43532612e-004,
          6.43054140e-004, 1.82907737e-004, 4.85256460e-004,
          3.36075755e-004, 5.02500625e-004 ]
   decision_functions:
      -
         sv_count: 1
         rho: -9.3330772107522852e-001
         alpha: [ 1. ]
         index: [ 0 ]
