%YAML:1.0
my_svm: !!opencv-ml-svm
   svm_type: C_SVC
   kernel: { type:LINEAR }
   C: 1.0000000000000001e-01
   term_criteria: { epsilon:2.2204460492503131e-16, iterations:100 }
   var_all: 128
   var_count: 128
   class_count: 2
   class_labels: !!opencv-matrix
      rows: 1
      cols: 2
      dt: i
      data: [ 0, 1 ]
   sv_total: 1
   support_vectors:
      - [ -9.33553383e-04, 7.98079278e-03, -1.21404044e-02,
          3.70210921e-03, -1.45076821e-02, 5.94866695e-03,
          -4.34659515e-03, 2.18031579e-03, -2.64289067e-03,
          -3.34022427e-03, 3.47758690e-03, 1.60344329e-03,
          7.67815509e-04, 7.29472470e-03, 3.43330344e-03,
          -9.49126389e-03, 1.07552868e-03, 6.85243541e-03,
          -1.49799441e-03, 2.06997246e-03, 8.00544117e-03,
          3.69822304e-03, 3.39147146e-03, 1.63891469e-03, 7.22911814e-03,
          -5.02518471e-03, -7.30120984e-04, 1.10524124e-03,
          -4.07095347e-03, -4.87628300e-03, -2.91602290e-03,
          -3.80388182e-03, -5.74151007e-03, 3.72534338e-03,
          -3.23961629e-03, 2.17318232e-03, 4.89002699e-03,
          -3.75807227e-04, -1.62301236e-03, -9.25609143e-04,
          9.85967577e-04, 1.28525659e-03, -1.22913008e-03,
          -1.33999810e-03, 3.26209283e-03, 1.41146604e-03,
          6.88138127e-04, 1.38016755e-03, -1.59621544e-04,
          -2.19951058e-03, -1.10320072e-03, -3.72033828e-04,
          -2.16935948e-03, 2.50092853e-04, 2.31817598e-03,
          5.39092056e-04, -8.44917900e-04, 1.01131664e-04,
          3.01664253e-03, -6.80083525e-04, -3.01217404e-03,
          5.68212592e-04, -3.05761024e-03, -3.08283343e-04,
          1.01018650e-03, 1.12452009e-03, 7.08080479e-04,
          -6.44901418e-04, 3.74300202e-04, 9.48738831e-04,
          -8.97023710e-04, -1.71677850e-03, 1.50457595e-03,
          3.36980633e-03, -3.35850031e-03, 5.01082628e-04,
          6.45277381e-04, -6.36188197e-04, 8.60385830e-04,
          6.50623522e-04, 1.76102520e-04, 3.26996145e-04,
          -1.11427798e-04, -1.77930517e-03, -6.31680959e-05,
          4.04981547e-04, 6.16957841e-04, 1.09593180e-04, 1.26735820e-03,
          3.50627350e-04, 1.57300872e-03, -2.56645493e-04,
          3.12015851e-04, 5.11166290e-04, 3.36606172e-05,
          -2.34940802e-04, 4.17737290e-04, 1.13137020e-03,
          -3.78230849e-04, 3.24486959e-04, 1.85584257e-04,
          -3.34008619e-05, 3.58356629e-04, 7.32706278e-04,
          -4.57170499e-05, -1.36152585e-03, -6.30718248e-04,
          -2.73424375e-04, 6.40945393e-04, 3.10692587e-04,
          4.62414173e-04, -9.02314132e-05, 2.93842808e-04,
          -1.15463146e-04, -3.71289934e-05, -8.44555732e-04,
          2.33025174e-04, 4.28485364e-04, 2.24869087e-04,
          -4.94400265e-05, -3.86818328e-06, 7.91927450e-05,
          7.56478476e-05, -3.56783363e-04, -2.47204560e-04,
          1.15208531e-04, -1.90349907e-04, -1.69731458e-04 ]
   decision_functions:
      -
         sv_count: 1
         rho: -4.8834808028317317e-01
         alpha: [ 1. ]
         index: [ 0 ]
