%YAML:1.0
my_svm: !!opencv-ml-svm
   svm_type: C_SVC
   kernel: { type:LINEAR }
   C: 1.0000000000000001e-001
   term_criteria: { epsilon:2.2204460492503131e-016, iterations:100 }
   var_all: 30
   var_count: 30
   class_count: 2
   class_labels: !!opencv-matrix
      rows: 1
      cols: 2
      dt: i
      data: [ 0, 1 ]
   sv_total: 1
   support_vectors:
      - [ -2.01140903e-003, 7.20983604e-003, 1.70667525e-002,
          -1.97509713e-002, -6.61571417e-003, 5.66859124e-003,
          -7.74754444e-003, 1.51926950e-002, -3.78697366e-003,
          1.61682488e-003, 9.33745760e-004, -9.17229278e-004,
          -1.22726406e-003, 3.69279366e-003, 1.08890524e-002,
          -4.86041140e-003, 1.31048821e-003, 1.08851981e-003,
          -4.85736819e-004, 4.95837722e-003, -8.33054446e-003,
          -1.21487277e-002, -7.02934992e-003, 3.15612904e-003,
          8.44480842e-003, 4.63384204e-003, -6.45253155e-003,
          -6.77112024e-003, 2.50532781e-003, -6.30386965e-003 ]
   decision_functions:
      -
         sv_count: 1
         rho: 3.9197790401578865e+000
         alpha: [ 1. ]
         index: [ 0 ]
