%YAML:1.0
my_svm: !!opencv-ml-svm
   svm_type: C_SVC
   kernel: { type:LINEAR }
   C: 1.0000000000000001e-001
   term_criteria: { epsilon:2.2204460492503131e-016, iterations:100 }
   var_all: 30
   var_count: 30
   class_count: 2
   class_labels: !!opencv-matrix
      rows: 1
      cols: 2
      dt: i
      data: [ 0, 1 ]
   sv_total: 1
   support_vectors:
      - [ 9.66098811e-003, 1.20535111e-002, 6.94302842e-003,
          6.62555918e-003, -9.66130849e-003, -1.72643159e-002,
          2.38034874e-002, 5.15494356e-003, 5.76272001e-003,
          -1.82930194e-002, 7.25799892e-003, -1.90102088e-003,
          -1.81707498e-002, -8.73851962e-003, -6.81145024e-003,
          2.29505748e-002, 7.81275332e-003, -1.65872686e-002,
          6.79213274e-003, 9.82218795e-003, -4.30845516e-003,
          -2.81768851e-002, 1.24521251e-003, -6.86708093e-003,
          6.29891641e-003, -1.32874427e-002, 3.62851797e-003,
          -2.42697876e-002, -8.88566207e-003, -7.73898000e-003 ]
   decision_functions:
      -
         sv_count: 1
         rho: 2.0076279071550966e+000
         alpha: [ 1. ]
         index: [ 0 ]
