%YAML:1.0
my_svm: !!opencv-ml-svm
   svm_type: C_SVC
   kernel: { type:LINEAR }
   C: 1.
   term_criteria: { epsilon:2.2204460492503131e-016, iterations:100 }
   var_all: 128
   var_count: 128
   class_count: 2
   class_labels: !!opencv-matrix
      rows: 1
      cols: 2
      dt: i
      data: [ 0, 1 ]
   sv_total: 1
   support_vectors:
      - [ -2.91702547e-003, -9.59155499e-004, 5.57011319e-003,
          -1.72053798e-004, 4.73507942e-004, -6.15878543e-003,
          -6.55399519e-004, -7.14592752e-004, 8.57769046e-003,
          -4.08551050e-003, -4.09856392e-003, 3.72157083e-003,
          -3.18422419e-004, -4.74810135e-004, -5.33234037e-004,
          5.04604355e-003, -3.42877675e-003, 4.06871317e-003,
          1.08778637e-004, 1.63170905e-003, -2.46827048e-003,
          2.04564631e-003, -1.01254024e-002, -2.08061235e-003,
          -6.33285148e-004, -1.37556018e-003, 4.07847750e-004,
          -9.29737580e-004, -1.67877413e-003, -1.35263929e-003,
          3.27052874e-003, -8.33402388e-003, -1.78112430e-004,
          -5.94762445e-004, -1.53775059e-003, 1.05547893e-003,
          -1.32071844e-003, 7.66714220e-004, 8.26510775e-004,
          1.49584317e-003, -2.13394780e-003, 1.59619562e-003,
          6.42126019e-004, -3.81766725e-003, 2.18147552e-003,
          2.04337601e-004, -2.26632855e-003, 3.82637605e-003,
          -3.92441032e-003, 3.57943890e-003, -2.78318836e-003,
          -1.54796964e-003, -1.02186808e-003, -2.27328949e-003,
          -1.91507151e-003, -2.42651455e-004, -3.25978873e-003,
          4.47310228e-003, 1.56944292e-003, -9.94778005e-004,
          2.63763103e-003, -4.41168435e-003, 3.34063638e-003,
          -3.32968473e-003, 5.83402172e-004, 1.79569260e-003,
          4.08205378e-004, 1.37980038e-004, 4.77555534e-003,
          2.24984996e-003, 4.29908483e-004, 7.67839898e-004,
          -2.88448855e-003, 2.02266988e-003, 3.78025067e-003,
          -8.47742311e-004, -5.17984561e-004, -3.90043715e-003,
          -1.65908691e-003, -3.88254924e-003, 1.17441383e-003,
          -1.08630944e-003, 5.78787527e-004, -9.72879876e-004,
          -3.36950063e-003, 1.89092977e-003, 3.08642484e-004,
          2.79067666e-003, 7.40220188e-004, 3.13935778e-003,
          -1.52333349e-003, 2.54405197e-004, -1.59002293e-003,
          -1.44168458e-004, -6.30391238e-004, 7.91719707e-004,
          -1.85909227e-003, 8.91797885e-004, -1.24864082e-003,
          3.73722985e-004, -1.38222706e-003, -1.06672116e-003,
          1.16592762e-003, 1.21762836e-003, 1.97124714e-003,
          5.49104996e-004, 3.61363927e-004, 5.04355237e-004,
          -9.27344023e-004, 9.52940263e-006, 4.19585936e-004,
          -6.26835972e-004, -9.21931409e-004, -1.12308562e-003,
          1.53035135e-003, 1.85831348e-004, -1.61807041e-003,
          1.26803142e-003, 9.87695646e-004, 2.71211553e-004,
          -6.89677196e-004, -3.34641663e-004, 2.23544383e-004,
          -1.12780224e-004, 6.04264314e-005, -1.32987299e-003,
          3.54226533e-004, 1.37131588e-004 ]
   decision_functions:
      -
         sv_count: 1
         rho: -1.3305724856208290e-001
         alpha: [ 1. ]
         index: [ 0 ]
