%YAML:1.0
my_svm: !!opencv-ml-svm
   svm_type: C_SVC
   kernel: { type:LINEAR }
   C: 1.
   term_criteria: { epsilon:2.2204460492503131e-016, iterations:100 }
   var_all: 128
   var_count: 128
   class_count: 2
   class_labels: !!opencv-matrix
      rows: 1
      cols: 2
      dt: i
      data: [ 0, 1 ]
   sv_total: 1
   support_vectors:
      - [ 1.61921198e-003, -1.46070041e-003, -3.54776834e-003,
          1.31975592e-003, -1.62083413e-002, -2.05534771e-002,
          1.36614195e-004, 7.67539954e-003, -1.17947091e-003,
          9.65214707e-003, 1.39542448e-003, 3.56160244e-003,
          -1.92223489e-003, 7.61622330e-003, -8.10227866e-005,
          -2.29850318e-003, -4.31405427e-003, 1.40181417e-003,
          3.47547757e-004, 6.74322899e-003, 2.08526896e-003,
          -4.57656849e-003, -2.29355879e-003, 1.63689314e-003,
          7.67896790e-003, -8.59061722e-004, -3.78105929e-003,
          6.05295924e-003, -6.56227523e-004, -4.07564733e-003,
          4.29325271e-003, 4.84384131e-004, 1.67965097e-003,
          6.69497484e-003, 3.08804773e-003, -2.49998353e-004,
          2.72423751e-003, 2.55334843e-003, -5.13524190e-003,
          -7.09544960e-003, -8.29740311e-004, -9.01470054e-003,
          8.76497384e-003, -7.57790823e-003, -3.94871429e-004,
          -3.50344647e-003, 3.32305348e-003, -3.74321011e-003,
          2.60831730e-005, 1.56574254e-003, 1.42525521e-003,
          2.53565051e-003, -3.63312021e-004, -3.05131864e-004,
          -1.44573802e-003, -2.46858271e-003, 1.51562842e-003,
          2.44043465e-003, 2.35148962e-003, -2.69765290e-003,
          7.77340101e-005, -3.28012812e-003, 3.08306830e-004,
          9.39854188e-004, -6.27140340e-004, -4.83519427e-004,
          1.14785891e-003, -4.21708915e-004, -1.88010954e-003,
          -1.87399366e-003, 1.79190782e-003, -3.38408770e-003,
          -1.62198121e-004, 1.23145164e-003, -6.59501704e-004,
          8.79931089e-004, -3.52618255e-004, 2.87530303e-004,
          -8.82422260e-004, 1.32658100e-003, -1.19087810e-003,
          -1.01457920e-003, -8.32936843e-004, 1.62350014e-004,
          9.31159244e-004, -4.68050828e-004, 1.59359095e-003,
          7.31308537e-004, 7.89823360e-004, 9.85847088e-004,
          6.08880655e-004, -8.80173640e-004, 6.52202114e-004,
          4.43224766e-004, 8.83501547e-004, 2.84282432e-004,
          -4.01247380e-004, -2.36679087e-004, -1.00393326e-003,
          -4.36587841e-004, 5.67467592e-004, 4.70747065e-004,
          -1.72187909e-004, 1.98414891e-005, 4.59754607e-004,
          -6.54377436e-005, -4.22561367e-004, -5.15209395e-005,
          5.87004797e-005, 4.37507464e-004, 7.36485106e-007,
          1.40056145e-004, -1.33416062e-004, 1.79210532e-004,
          -2.35668558e-004, 7.91579168e-006, -3.39680613e-004,
          -5.20754082e-004, 2.10805927e-004, 4.13417030e-004,
          4.43907311e-006, -5.19033696e-004, -2.10649741e-004,
          -2.36821565e-004, -3.67107241e-005, -4.82879550e-004,
          -2.05474877e-004, -1.39182623e-004 ]
   decision_functions:
      -
         sv_count: 1
         rho: 4.0897869699790527e-002
         alpha: [ 1. ]
         index: [ 0 ]
