%YAML:1.0
my_svm: !!opencv-ml-svm
   svm_type: C_SVC
   kernel: { type:LINEAR }
   C: 1.0000000000000001e-001
   term_criteria: { epsilon:2.2204460492503131e-016, iterations:100 }
   var_all: 128
   var_count: 128
   class_count: 2
   class_labels: !!opencv-matrix
      rows: 1
      cols: 2
      dt: i
      data: [ 0, 1 ]
   sv_total: 1
   support_vectors:
      - [ -3.01513309e-003, 5.10976883e-004, -2.43004574e-003,
          1.92083814e-003, 1.60069542e-003, -8.66002345e-004,
          2.25388980e-003, 3.09574325e-003, -7.87955336e-003,
          4.20456287e-003, -2.54290295e-004, -1.52827054e-003,
          -4.87359590e-004, -6.51064503e-004, 1.91655720e-003,
          -2.32306612e-003, 3.81353754e-003, -3.16269277e-003,
          2.35161535e-003, 1.21480704e-003, 3.03423876e-004,
          -4.49160859e-003, 4.68980381e-003, 4.21164976e-003,
          3.00245098e-004, -1.40206504e-003, 1.81147398e-003,
          3.01279337e-003, 4.02926141e-003, -1.46828219e-003,
          -5.38466789e-004, 1.13598220e-002, 5.81220484e-005,
          2.92971870e-003, 4.50266572e-003, -1.38347060e-003,
          1.20213430e-003, -7.11057510e-004, 1.33541157e-003,
          -2.24017235e-003, 2.19612499e-003, 1.15001050e-003,
          8.98488739e-004, 8.15268024e-004, -1.31593028e-004,
          1.51463237e-003, -2.84483819e-003, -2.41070986e-003,
          3.07729351e-003, -3.46514094e-003, 1.73086999e-003,
          1.69914030e-003, 3.35802929e-003, -4.56683774e-004,
          4.42767143e-003, 9.09585855e-004, 5.07012708e-003,
          -2.66732788e-003, -1.17130543e-003, 4.79636248e-003,
          -1.68659585e-003, 1.33526186e-003, -4.72648861e-003,
          3.00559285e-003, 1.01242959e-003, -4.33632413e-005,
          1.48856943e-003, 2.45622359e-003, -3.50957108e-003,
          -3.03753885e-003, -2.68749380e-003, -1.28735288e-003,
          1.18216895e-003, -2.33522500e-003, -2.89719808e-003,
          5.87559945e-004, 1.86583551e-003, 2.32867175e-003,
          3.02950107e-003, 1.07875408e-003, -8.31934740e-004,
          2.02102563e-003, -1.95247366e-003, -6.56535616e-004,
          1.78099843e-003, -3.13715544e-003, -6.64566935e-004,
          -2.18278100e-003, -5.17551554e-004, -9.15373326e-004,
          8.88155890e-004, 8.76683800e-004, 1.23994297e-003,
          -7.41705589e-005, -5.41143876e-004, -8.27670330e-004,
          1.06835051e-003, 4.39333002e-004, 1.66500139e-003,
          -6.49323862e-004, 1.20334572e-003, 1.62580318e-003,
          -1.39562914e-003, -9.01310414e-004, -1.52304838e-003,
          -3.62013438e-004, -9.11102863e-004, -1.13014528e-003,
          8.72178760e-004, 2.17571011e-004, 8.71926022e-004,
          1.43595878e-003, 2.55673280e-004, 9.96716670e-004,
          3.84068961e-004, -4.37554670e-004, 1.26788137e-003,
          2.52272112e-005, -7.15006026e-004, 1.66921291e-005,
          6.41447434e-004, -3.98557168e-004, -2.12000828e-004,
          1.20271077e-004, -3.10098258e-005, 6.13038137e-004,
          -2.73813814e-004, 6.75316769e-005 ]
   decision_functions:
      -
         sv_count: 1
         rho: -1.7184358716184214e-001
         alpha: [ 1. ]
         index: [ 0 ]
