%YAML:1.0
my_svm: !!opencv-ml-svm
   svm_type: C_SVC
   kernel: { type:LINEAR }
   C: 1.0000000000000001e-001
   term_criteria: { epsilon:2.2204460492503131e-016, iterations:100 }
   var_all: 60
   var_count: 60
   class_count: 2
   class_labels: !!opencv-matrix
      rows: 1
      cols: 2
      dt: i
      data: [ 0, 1 ]
   sv_total: 1
   support_vectors:
      - [ 2.99749034e-003, -1.60162081e-003, 2.85425456e-003,
          -3.58081859e-004, 1.51941925e-003, 4.78332117e-003,
          1.11800816e-003, -5.27175725e-004, 8.21599329e-004,
          1.32710184e-003, -2.50479905e-003, 6.49327121e-004,
          -1.60075759e-003, 6.18850245e-005, -2.46974733e-003,
          -1.84688240e-003, 3.44085041e-003, -1.11039018e-003,
          -3.51733807e-003, -6.09145593e-003, -3.25006142e-004,
          4.18549730e-003, -2.07578516e-004, 5.05542336e-003,
          -1.58663164e-003, -8.57784937e-004, 4.37976234e-003,
          -3.06991185e-003, -2.51249317e-003, 8.32487858e-005,
          1.49314222e-003, 3.36225121e-003, 4.28112084e-003,
          4.83956886e-003, -1.97054166e-003, 3.63216910e-004,
          1.27416151e-003, -2.56729405e-003, -1.01976085e-003,
          -1.30727736e-003, 2.05354439e-003, 2.27413676e-003,
          4.04321356e-003, -1.13987108e-003, -6.47588109e-004,
          5.96000673e-003, 2.32811878e-003, 1.11752667e-003,
          8.41693327e-005, 2.19835594e-004, -8.72593140e-004,
          1.75540720e-003, 7.52761145e-004, -6.98107947e-003,
          1.04329095e-003, -1.52735575e-003, 2.71929940e-003,
          5.33658662e-004, 4.86149045e-004, -8.39522036e-005 ]
   decision_functions:
      -
         sv_count: 1
         rho: -1.1636738520272844e-001
         alpha: [ 1. ]
         index: [ 0 ]
