%YAML:1.0
my_svm: !!opencv-ml-svm
   svm_type: C_SVC
   kernel: { type:LINEAR }
   C: 1.
   term_criteria: { epsilon:2.2204460492503131e-016, iterations:100 }
   var_all: 128
   var_count: 128
   class_count: 2
   class_labels: !!opencv-matrix
      rows: 1
      cols: 2
      dt: i
      data: [ 0, 1 ]
   sv_total: 1
   support_vectors:
      - [ -7.80866467e-005, 3.37500969e-004, 1.08451489e-003,
          6.75880001e-005, -1.12530717e-003, -2.95790494e-003,
          4.50696703e-003, 1.26018247e-003, -1.11026084e-003,
          -1.41968761e-004, 1.64617866e-003, 1.44903082e-003,
          -9.33135336e-004, -1.98413548e-003, 2.98857922e-003,
          -3.68950120e-003, -4.73761611e-004, -6.36047975e-004,
          -5.66470262e-004, -5.79941770e-005, 3.29920813e-003,
          1.00469810e-003, 6.36721554e-004, -8.23007198e-004,
          -1.79481969e-004, -5.08496072e-004, -4.94706852e-004,
          -9.42567931e-005, 3.64142034e-004, -3.83552804e-004,
          -8.52336991e-004, -3.77984717e-004, 3.03396577e-004,
          2.80922075e-004, 1.09438330e-003, 2.58046843e-004,
          2.03262927e-004, -1.38469017e-003, -1.79054937e-003,
          -2.06256998e-004, 4.74236149e-004, 4.46366030e-004,
          6.20252569e-004, 2.28772592e-003, 1.25851994e-003,
          -1.84619473e-003, -2.09814846e-003, -7.39836949e-004,
          1.92072446e-004, 2.25982571e-004, 1.93859031e-003,
          4.80872084e-004, 9.80891637e-004, -1.49699987e-003,
          9.17826779e-004, -2.71679019e-004, -2.15993550e-005,
          -2.35200117e-004, -4.29958833e-004, 8.42408408e-005,
          -3.52067203e-004, 5.86656563e-004, 9.75836592e-004,
          -2.35759086e-004, -7.11683300e-004, 2.21635230e-004,
          -1.21885701e-003, -7.06482271e-004, -5.46757190e-004,
          -3.13377386e-004, -2.47326726e-003, -9.39257327e-004,
          -4.51932021e-004, 1.59118907e-004, -4.40082571e-004,
          -8.56849831e-004, -2.66335082e-005, -7.99182162e-004,
          1.71391548e-005, -3.26959387e-004, 6.96050760e-004,
          1.01380085e-003, 2.03192024e-003, 1.95363350e-003,
          1.15108886e-003, -1.13310284e-006, 4.37621056e-004,
          6.40584098e-004, 3.23849323e-004, 9.97995143e-004,
          1.96039723e-003, 9.45178850e-004, -7.48663093e-004,
          3.13605589e-004, 6.87999476e-004, 4.72780172e-004,
          -1.48987386e-003, -8.13423481e-004, -5.96281083e-004,
          -4.68547083e-003, -1.51271233e-003, 1.74779037e-004,
          -1.15037721e-003, -1.92778406e-003, 8.12399958e-005,
          -2.37914058e-003, 2.67364288e-004, -2.30929093e-003,
          -2.55309395e-004, -5.20107220e-004, -1.25973928e-003,
          -9.08793183e-004, -8.71240685e-004, -1.37342094e-003,
          2.29870158e-004, -3.05195281e-004, 1.31195015e-003,
          2.50170579e-005, 3.30263574e-005, -1.35273047e-004,
          -8.58914791e-005, 6.38496131e-004, 4.69549705e-005,
          -2.51324062e-004, -3.75886244e-004, -1.02465965e-004,
          -4.38258518e-004, -3.62160790e-004 ]
   decision_functions:
      -
         sv_count: 1
         rho: -7.6031144890892144e-001
         alpha: [ 1. ]
         index: [ 0 ]
