%YAML:1.0
my_svm: !!opencv-ml-svm
   svm_type: C_SVC
   kernel: { type:LINEAR }
   C: 1.0000000000000001e-01
   term_criteria: { epsilon:2.2204460492503131e-16, iterations:100 }
   var_all: 128
   var_count: 128
   class_count: 2
   class_labels: !!opencv-matrix
      rows: 1
      cols: 2
      dt: i
      data: [ 0, 1 ]
   sv_total: 1
   support_vectors:
      - [ -5.45184157e-05, -2.54380843e-03, 1.17772340e-03,
          -3.40937753e-03, 9.47302859e-03, -1.48551082e-02,
          1.10681960e-02, -1.44723887e-02, 4.24327701e-03,
          1.32961264e-02, -1.68916781e-03, -6.07224740e-03,
          3.57681047e-03, -8.06570519e-03, 3.64839361e-04,
          1.60245423e-03, 1.65936863e-03, -9.95822251e-03,
          -4.80589084e-03, -1.93611355e-04, -6.30420493e-03,
          -2.25475524e-03, -2.89449119e-03, -1.46853228e-04,
          -1.77178462e-03, 8.43590475e-04, -3.18284426e-03,
          5.23325929e-04, -1.62256206e-03, 9.54778399e-04,
          -2.81624822e-03, 2.14413716e-03, 5.17755980e-03,
          -5.65816648e-03, 3.01868375e-03, 8.39475659e-04,
          -1.50972942e-03, 9.30359121e-04, -4.78469738e-04,
          -1.49104133e-04, -9.52608883e-03, -5.87665010e-03,
          -7.64586090e-04, -2.13071611e-03, 2.51634861e-03,
          6.44887215e-04, -2.66435673e-03, -3.57097131e-03,
          -3.45869828e-03, 6.64131623e-03, -9.61232581e-04,
          3.60262487e-03, 1.09302544e-03, 3.54406191e-03,
          -4.84399917e-03, -4.29495209e-04, 4.50022006e-03,
          -2.99809937e-04, -7.80743454e-03, -9.48901696e-04,
          -3.45155830e-03, 2.34519877e-03, -2.60710105e-04,
          6.61954749e-04, -3.08009796e-03, 1.21971429e-03,
          2.90522445e-03, -2.77489121e-03, 1.39526615e-03,
          -2.00867839e-03, 3.28795795e-06, -5.75957587e-04,
          -6.53931114e-04, -5.38686989e-03, -1.00779789e-03,
          4.94670635e-03, -3.74551699e-03, 1.42002769e-03,
          -3.20408633e-03, 4.42025601e-04, -1.41662173e-03,
          1.86495206e-04, -1.41201529e-03, -1.53479644e-03,
          -4.95322747e-04, 9.01047140e-04, 1.85013065e-04,
          6.58278877e-04, 1.30023400e-04, -5.85438902e-05,
          1.78152433e-04, 9.95532260e-04, 2.01202580e-03, 1.99999922e-04,
          -9.06135712e-04, -1.26212579e-03, -1.98118752e-04,
          -1.01770903e-03, -5.92100259e-04, -3.36623605e-04,
          1.63565215e-03, 4.38116986e-04, 1.95412757e-03, 3.95248499e-04,
          -9.34611526e-05, -1.02872739e-03, 8.87727540e-04,
          9.94794482e-06, -2.69113894e-04, -2.29845726e-04,
          3.50680493e-04, -5.57656283e-04, -2.26285367e-04,
          3.48309899e-04, -5.79136948e-04, -3.16694204e-04,
          -1.35029884e-04, -8.31616111e-04, -6.53719413e-04,
          3.33211414e-04, 8.22193397e-04, -1.08880231e-04,
          3.64908847e-05, 4.74505505e-04, -6.79910358e-04,
          -7.39509705e-04, -5.98402876e-05, 6.68563414e-04 ]
   decision_functions:
      -
         sv_count: 1
         rho: -4.6339341636334758e-01
         alpha: [ 1. ]
         index: [ 0 ]
