%YAML:1.0
my_svm: !!opencv-ml-svm
   svm_type: C_SVC
   kernel: { type:LINEAR }
   C: 1.
   term_criteria: { epsilon:2.2204460492503131e-016, iterations:100 }
   var_all: 128
   var_count: 128
   class_count: 2
   class_labels: !!opencv-matrix
      rows: 1
      cols: 2
      dt: i
      data: [ 0, 1 ]
   sv_total: 1
   support_vectors:
      - [ -4.98823915e-003, -5.81517955e-003, 5.85165899e-003,
          1.16404938e-002, 1.06342705e-002, 1.58651061e-002,
          4.37846594e-003, -2.08492205e-003, -3.56227765e-003,
          -1.12650301e-002, 5.77235501e-003, 1.08797009e-004,
          7.28212716e-003, 7.69537874e-003, 5.11756167e-003,
          -3.49549169e-004, 7.60186836e-003, -2.14996678e-003,
          -2.99477857e-003, 6.61098072e-003, 4.93006175e-003,
          3.44579504e-003, 4.69100336e-003, -3.77256493e-003,
          4.08467677e-005, 6.68391353e-004, -6.76246826e-003,
          1.04020932e-003, 7.39459647e-003, 1.64966355e-003,
          -9.46159824e-004, 5.36458800e-004, -3.84297600e-004,
          -5.09402482e-003, 4.35873121e-003, 3.99407139e-003,
          -8.04083247e-004, -3.49603849e-003, 7.86272576e-004,
          6.77030440e-003, 3.12256464e-003, 7.75179965e-003,
          -4.17351024e-003, -5.49838040e-003, 3.28235980e-003,
          -1.23306143e-003, 6.63469452e-003, 1.90918776e-003,
          2.65259936e-004, -1.66026724e-003, 3.00601963e-003,
          1.67738076e-003, 8.27523472e-004, -2.97785667e-003,
          -1.26050715e-003, -4.53813955e-005, 2.87405215e-003,
          3.66235356e-004, -2.22734059e-003, -3.82738188e-004,
          -1.11443701e-003, -3.09635559e-003, -2.37384019e-003,
          -2.86116003e-004, -1.15408540e-004, 8.89416333e-006,
          1.51783274e-003, -1.93382101e-003, 1.18118140e-003,
          -1.24957922e-004, -2.65263079e-004, 2.49389652e-003,
          6.23582862e-004, 2.28391960e-003, -1.35634502e-003,
          -2.04679416e-003, -1.89685938e-003, 1.76618429e-004,
          -6.87122927e-004, -1.89231778e-003, -2.92407651e-003,
          -8.38328153e-004, 5.95611018e-005, -2.40091141e-003,
          1.06515700e-003, -2.03337730e-003, -1.14561280e-003,
          -1.93098691e-004, 1.14288228e-003, -1.71871972e-003,
          1.67183942e-004, -2.39084824e-003, 1.55732268e-003,
          -1.14740469e-004, -4.77735215e-004, -5.37668646e-004,
          2.75508122e-004, 6.01537584e-004, -6.36488956e-004,
          -1.70268421e-003, 4.19110031e-004, -1.47265475e-003,
          5.30825288e-004, -1.73350956e-004, 6.80450175e-004,
          8.64422007e-004, -3.76557291e-004, 6.85952618e-005,
          -8.57067425e-005, -1.43052399e-004, -3.93947965e-004,
          -1.07563741e-003, 1.92482781e-004, -7.69127801e-005,
          -4.46874947e-005, 3.26473149e-004, 4.83944459e-005,
          -5.65324503e-004, -7.32373956e-005, 5.81142340e-005,
          -3.20625928e-004, -6.11681462e-005, -4.53383080e-004,
          -7.72964791e-004, 8.33004597e-005, -7.87429919e-004,
          4.10842826e-004, -1.14602944e-005 ]
   decision_functions:
      -
         sv_count: 1
         rho: -4.3232636508809319e-001
         alpha: [ 1. ]
         index: [ 0 ]
