%YAML:1.0
my_svm: !!opencv-ml-svm
   svm_type: C_SVC
   kernel: { type:LINEAR }
   C: 1.
   term_criteria: { epsilon:2.2204460492503131e-016, iterations:100 }
   var_all: 128
   var_count: 128
   class_count: 2
   class_labels: !!opencv-matrix
      rows: 1
      cols: 2
      dt: i
      data: [ 0, 1 ]
   sv_total: 1
   support_vectors:
      - [ 3.50497809e-004, -2.05220142e-003, -2.82734795e-003,
          8.23403185e-004, 1.69676617e-002, 2.27772389e-002,
          -1.03848684e-003, -7.39741232e-003, 1.91880215e-003,
          1.04851192e-002, 4.02412470e-003, 3.03199934e-003,
          -2.28785514e-003, 6.02411432e-003, -3.29002249e-003,
          -4.25080303e-003, -3.30360854e-005, -3.77295539e-003,
          3.37588659e-004, -6.51420932e-003, -2.70036701e-003,
          4.02089581e-003, 2.78170846e-005, 3.91818874e-004,
          -6.94881752e-003, -8.84818553e-004, 1.79569668e-003,
          1.38613791e-003, -6.98099984e-003, -9.37427743e-004,
          -4.55226237e-003, -1.47018081e-003, 3.30930948e-003,
          -7.26485299e-003, -4.39189468e-003, 3.88163561e-003,
          2.88731465e-003, -2.92170607e-003, 8.12416244e-003,
          3.54954950e-003, 3.18084320e-004, -8.15016683e-003,
          -8.68225191e-003, 5.06182062e-003, 7.20950775e-004,
          1.28562050e-003, -2.80503137e-003, -3.94116202e-003,
          -2.76928535e-003, -1.36534648e-003, -2.93829339e-003,
          3.38214246e-004, 1.28297694e-003, 1.20621431e-003,
          -2.18419614e-003, -1.08203432e-003, -1.86082709e-003,
          5.36266435e-003, -2.06669187e-003, 5.93627337e-004,
          1.75181340e-004, 2.45991605e-003, -9.13120282e-004,
          -7.92243169e-004, -9.44991887e-004, 9.90085246e-005,
          2.05501658e-003, 1.29853492e-003, -1.81582582e-003,
          -1.87288027e-003, -2.41402956e-003, -9.98980831e-004,
          -1.27506058e-003, -2.02541007e-003, 9.17544181e-004,
          -5.23080933e-004, 1.44036167e-004, -7.33144174e-004,
          -7.16767740e-004, -2.34874635e-004, -1.73236453e-003,
          4.96553475e-005, -8.68501200e-004, -1.49679824e-003,
          -1.94990193e-004, 4.82472620e-004, 4.98304784e-004,
          3.39057733e-004, -8.47064366e-004, 9.87851527e-004,
          6.31110510e-004, -1.22649455e-003, -3.65703636e-005,
          -8.44585884e-004, 1.03796308e-003, -1.12087502e-004,
          1.93421569e-004, -5.82113280e-004, -8.23478040e-004,
          -3.88799963e-004, 3.78595461e-004, -5.24737552e-005,
          -2.04101001e-004, -3.47863795e-004, 1.16967210e-004,
          -2.27084951e-004, -1.73537017e-004, 3.39155667e-004,
          2.29613142e-005, -6.65034866e-004, -1.37571609e-004,
          -1.02614076e-005, -2.66682211e-004, -3.50941642e-004,
          -1.32714224e-004, 1.13386413e-004, 4.08145454e-004,
          5.01092232e-004, -3.71354225e-004, -4.10579320e-004,
          -3.07391529e-005, 3.61587270e-004, 2.87470786e-004,
          2.08463069e-004, 2.04068172e-004, -3.57168348e-004,
          -2.26919801e-004, -1.69764273e-004 ]
   decision_functions:
      -
         sv_count: 1
         rho: 7.2473781241353249e-003
         alpha: [ 1. ]
         index: [ 0 ]
