%YAML:1.0
my_svm: !!opencv-ml-svm
   svm_type: C_SVC
   kernel: { type:LINEAR }
   C: 1.0000000000000001e-01
   term_criteria: { epsilon:2.2204460492503131e-16, iterations:100 }
   var_all: 128
   var_count: 128
   class_count: 2
   class_labels: !!opencv-matrix
      rows: 1
      cols: 2
      dt: i
      data: [ 0, 1 ]
   sv_total: 1
   support_vectors:
      - [ 2.59455107e-03, -7.11419107e-03, 9.91838705e-03,
          -3.62499501e-03, 4.23502503e-03, 7.40798842e-03,
          -7.07231183e-03, 1.47152338e-02, -2.74997740e-03,
          -1.62839629e-02, 1.72496191e-03, 1.78337854e-03,
          -5.21299336e-03, 4.65548830e-03, -6.68092119e-03,
          6.79174624e-03, -4.74553264e-04, 3.85100674e-03,
          1.18027357e-02, -3.93749820e-03, -1.39002188e-03,
          1.26867916e-03, 1.04872091e-03, -2.57285195e-03,
          -8.21767002e-03, 1.24537339e-03, 3.21100955e-03,
          -1.95453037e-03, 4.80845245e-03, 1.06926984e-03,
          5.60480123e-03, 4.51332889e-03, -2.32733390e-03,
          5.78285148e-03, -6.99510856e-04, -4.78276564e-03,
          1.27998902e-03, -8.59056308e-05, 5.35142329e-03,
          -2.06639059e-03, 8.02658219e-03, 8.43287911e-03,
          1.35359733e-04, 1.21092482e-03, -5.27102686e-03,
          -2.96025281e-03, 6.66858512e-04, 9.51432739e-04,
          2.18917266e-03, -3.75209842e-03, 2.16858811e-03,
          -5.70300594e-03, 2.67986907e-03, -2.96758791e-03,
          2.20129336e-03, -1.94328034e-03, -1.73442729e-03,
          -7.45088793e-04, 1.84866996e-03, 1.26562640e-03,
          4.10939706e-03, -1.62921299e-03, 3.19436821e-03,
          -1.06169377e-03, 2.15691817e-03, -3.18585755e-03,
          -1.07541715e-03, 3.70182726e-03, -1.08377577e-03,
          7.35080393e-04, -1.96634093e-04, 1.99887389e-03,
          -3.40059469e-03, -3.61210550e-04, 2.59738485e-03,
          -2.87606008e-03, 1.75884401e-03, -5.79786021e-04,
          3.60263162e-03, 6.00439496e-04, 2.75302655e-03,
          -4.45930724e-04, 1.14187051e-03, 2.30359705e-03,
          -1.00535828e-04, -3.44464369e-03, -2.33577774e-03,
          1.08394492e-03, -1.83393620e-03, -9.75211500e-04,
          -2.65078945e-03, -3.11386888e-04, -1.65660842e-03,
          1.56648719e-04, 4.12951398e-04, 1.81552663e-03,
          -2.81613553e-04, -1.28036994e-03, 1.78824330e-03,
          5.76325634e-04, -1.40277389e-03, 1.51253014e-04,
          -2.54770438e-03, -1.08068297e-03, -2.20587448e-04,
          7.40534975e-04, 6.62953535e-04, 8.81624655e-05, 1.40350103e-05,
          3.33293542e-06, -2.37853426e-04, -2.20752016e-04,
          -7.40491203e-04, 4.80125862e-04, 5.30067133e-04,
          5.03561925e-04, 3.57950834e-04, 6.73775969e-04, 7.79305468e-04,
          2.92185723e-04, -2.69910990e-04, 6.71662565e-04,
          -7.45612313e-04, -2.84875598e-04, 7.04863283e-04,
          8.04074458e-04, -1.05292100e-04, -1.34452654e-04 ]
   decision_functions:
      -
         sv_count: 1
         rho: -6.9007085986234018e-01
         alpha: [ 1. ]
         index: [ 0 ]
