%YAML:1.0
my_svm: !!opencv-ml-svm
   svm_type: C_SVC
   kernel: { type:LINEAR }
   C: 1.
   term_criteria: { epsilon:2.2204460492503131e-016, iterations:100 }
   var_all: 128
   var_count: 128
   class_count: 2
   class_labels: !!opencv-matrix
      rows: 1
      cols: 2
      dt: i
      data: [ 0, 1 ]
   sv_total: 1
   support_vectors:
      - [ 2.15504132e-003, -4.29320411e-004, 7.74589425e-004,
          -9.94039117e-004, -1.74936577e-004, -4.31931490e-004,
          2.41859676e-003, -2.97548599e-003, 2.19312403e-003,
          -1.16632343e-003, -2.32842565e-003, 8.02016410e-004,
          -5.33608487e-003, 5.70234261e-005, 3.45420581e-003,
          -4.11897578e-004, 2.93054647e-004, -2.51168585e-005,
          2.46319873e-003, 8.40421766e-004, 8.30774370e-004,
          4.67216875e-003, 2.84306845e-003, -1.08306907e-004,
          -3.52518680e-003, -1.42511760e-003, 1.63301639e-003,
          -3.13267042e-003, -1.74748572e-003, -2.95657688e-003,
          -1.94351887e-003, 3.36965080e-004, 2.46272190e-003,
          -1.82035763e-003, 2.07908102e-003, -1.02189987e-003,
          -1.59241178e-003, -1.37145177e-003, -2.65434571e-003,
          3.64548148e-004, -3.45076458e-003, 6.13511074e-004,
          -3.78906727e-004, -1.18287443e-003, 3.01194028e-003,
          1.75053091e-003, -1.29538006e-003, 4.26563376e-004,
          3.50330002e-003, -1.35130296e-003, 5.03996445e-004,
          -3.58537858e-004, 1.55858439e-003, 1.47637480e-003,
          -1.88523220e-004, 3.57249286e-003, 5.29499899e-004,
          3.29796434e-003, -9.52135539e-004, -1.21031655e-003,
          2.34883372e-003, 5.20448084e-004, 1.19126088e-003,
          7.32929737e-004, -2.83295405e-003, 8.01858725e-004,
          1.90901710e-003, -1.49724330e-003, -3.90754454e-003,
          -6.36115961e-004, -2.16007512e-003, -9.94065544e-004,
          1.67355349e-003, -1.72283314e-003, 7.19020667e-004,
          -1.80332561e-003, 1.10606314e-003, -1.81977477e-004,
          8.15342937e-004, 6.33160817e-004, 8.81135871e-004,
          -7.23122575e-005, 2.92786513e-003, -1.42369431e-003,
          -3.78206046e-003, 3.84654937e-004, -1.09323744e-004,
          -2.26206006e-003, 9.57381038e-004, -2.22388911e-003,
          -8.72057535e-006, 1.61325815e-003, -2.00819666e-003,
          2.25816364e-003, 3.54351359e-003, -2.89198477e-004,
          1.87804166e-003, -1.38562755e-003, 3.09971743e-003,
          5.76422666e-004, -4.06353269e-004, 2.43271329e-003,
          -2.08843546e-003, 1.12137859e-004, -5.50352794e-004,
          1.30914710e-003, 2.81914632e-004, -1.91254762e-003,
          -3.40055255e-003, 5.06892393e-004, 2.78764870e-004,
          -5.84323308e-004, -2.46385869e-004, -3.67423607e-004,
          -1.84525343e-004, 1.56992348e-004, -1.55742466e-003,
          1.51159795e-004, -9.68461798e-004, -1.03721395e-004,
          -1.46214303e-003, -6.08046066e-005, 4.70995757e-004,
          -3.21251973e-005, -1.79022099e-004, 9.12790420e-004,
          5.98400831e-004, -4.38629650e-004 ]
   decision_functions:
      -
         sv_count: 1
         rho: -2.9550055721757240e-001
         alpha: [ 1. ]
         index: [ 0 ]
