%YAML:1.0
my_svm: !!opencv-ml-svm
   svm_type: C_SVC
   kernel: { type:LINEAR }
   C: 1.
   term_criteria: { epsilon:2.2204460492503131e-016, iterations:100 }
   var_all: 128
   var_count: 128
   class_count: 2
   class_labels: !!opencv-matrix
      rows: 1
      cols: 2
      dt: i
      data: [ 0, 1 ]
   sv_total: 1
   support_vectors:
      - [ -4.39294934e-004, 7.29287975e-003, -1.27686271e-002,
          3.91278742e-003, -1.40559431e-002, 5.76152094e-003,
          -4.20874916e-003, 2.09176796e-003, -2.80197174e-003,
          -2.67061102e-003, 3.55114345e-003, 1.21599063e-003,
          5.46541123e-004, 7.43795931e-003, 3.11235804e-003,
          -9.77902766e-003, 1.57117867e-003, 6.39253389e-003,
          -1.25418557e-003, 2.17422028e-003, 8.23283382e-003,
          3.58721451e-003, 2.77577597e-003, 1.83512876e-003,
          6.44142041e-003, -5.04684914e-003, -1.42629142e-004,
          1.17493502e-003, -4.64665750e-003, -4.62008221e-003,
          -3.01627326e-003, -3.81012470e-003, -6.22547045e-003,
          3.86020867e-003, -3.02864076e-003, 3.13229184e-003,
          4.83140256e-003, -9.18451929e-004, -1.28304388e-003,
          -1.21003645e-003, 1.03760627e-003, 1.80080661e-003,
          -1.05424027e-003, -1.45367254e-003, 3.31329019e-003,
          1.60239486e-003, 7.78800168e-004, 1.49823201e-003,
          3.87551809e-005, -2.75229500e-003, -1.33392250e-003,
          -6.40643819e-004, -2.10970780e-003, 1.31498219e-003,
          2.54573510e-003, 1.17392061e-004, -9.56653676e-004,
          3.10669275e-004, 2.31557013e-003, -1.10957574e-003,
          -3.17132403e-003, 8.96889484e-004, -3.32248188e-003,
          -2.64944247e-004, 1.35739893e-003, 1.20289961e-003,
          4.53523826e-004, -2.03312593e-004, 5.56151150e-004,
          9.47934983e-004, -1.09467364e-003, -1.48151885e-003,
          1.84436026e-003, 3.95592162e-003, -3.03019420e-003,
          9.30100650e-005, 1.13374693e-003, -6.07522437e-004,
          6.32426410e-004, 6.76370400e-004, 3.01251217e-004,
          4.21365607e-004, -2.08956189e-004, -2.04074546e-003,
          4.14539361e-004, 3.73980409e-004, 5.76535182e-004,
          1.76993723e-004, 1.39151467e-003, 2.69108523e-006,
          1.78238796e-003, -4.77878406e-004, 4.70427272e-004,
          5.05285047e-004, -2.17798981e-004, -2.57412699e-004,
          1.28701751e-004, 1.61881966e-003, -2.08620753e-004,
          9.72343187e-005, 2.05149132e-004, 9.84685321e-005,
          4.32602741e-004, 5.84136636e-004, 1.21479476e-004,
          -1.15272950e-003, -3.14645178e-004, -1.38129297e-004,
          4.19303280e-004, 3.40599472e-005, 7.91574188e-004,
          -4.04714119e-005, 1.49534855e-004, -7.71439736e-005,
          2.38814791e-005, -8.44149210e-004, 2.24287418e-004,
          4.52689099e-004, 1.22891957e-004, 3.93119881e-005,
          -2.09736303e-004, 1.19431410e-004, 1.79002018e-004,
          -3.24702181e-004, -1.68658298e-004, 5.40309229e-005,
          -1.03012258e-004, -1.57516130e-004 ]
   decision_functions:
      -
         sv_count: 1
         rho: -4.5050377618581494e-001
         alpha: [ 1. ]
         index: [ 0 ]
