%YAML:1.0
my_svm: !!opencv-ml-svm
   svm_type: C_SVC
   kernel: { type:LINEAR }
   C: 1.
   term_criteria: { epsilon:2.2204460492503131e-016, iterations:100 }
   var_all: 128
   var_count: 128
   class_count: 2
   class_labels: !!opencv-matrix
      rows: 1
      cols: 2
      dt: i
      data: [ 0, 1 ]
   sv_total: 1
   support_vectors:
      - [ 1.61518750e-003, -1.26224302e-004, -5.45444619e-003,
          -2.54289340e-003, -9.11027659e-003, 1.35817807e-002,
          -4.28095320e-003, -4.33968892e-003, -9.46879096e-004,
          -4.26952587e-003, 9.40087158e-003, -1.74169312e-003,
          9.27579403e-003, -1.07942394e-003, -6.24838192e-003,
          -3.58890902e-005, -4.61886916e-003, 1.85623125e-003,
          -6.33385591e-003, -7.74743129e-003, 3.23390844e-003,
          3.22275423e-003, 6.53785560e-003, 1.93906148e-004,
          3.51132988e-003, 9.69737710e-004, -8.77102022e-004,
          -9.64553561e-003, -9.69876908e-003, 6.50188373e-003,
          -3.54152545e-003, -7.40111480e-003, -2.06059543e-003,
          -6.23721257e-003, -7.66573998e-004, -9.56746371e-005,
          -2.06893310e-003, 6.59523392e-003, -3.75338364e-003,
          -5.16532571e-004, 1.31449848e-003, -4.08710632e-003,
          1.82129571e-003, 2.31537316e-003, 1.74468022e-003,
          1.43389287e-003, 5.62484376e-003, 3.39164445e-003,
          2.50966963e-003, 1.04205869e-003, -2.04953691e-003,
          7.90750142e-004, -2.72633252e-003, 6.16280083e-003,
          -5.77306049e-003, 2.62641278e-003, -2.54295976e-003,
          -2.36245315e-003, -2.05489993e-003, -1.90423161e-003,
          -1.20579533e-003, 2.50894483e-003, -1.25945581e-003,
          -1.66917488e-003, -5.51905076e-004, -2.56539090e-003,
          1.91007042e-003, -2.42614551e-004, -3.54501046e-003,
          1.35017195e-004, 4.92999749e-003, -3.15486640e-003,
          -1.69011718e-003, 1.19685882e-003, -1.92387425e-003,
          -2.30399496e-003, 9.46239277e-004, -9.26767359e-004,
          -1.93358923e-004, 2.82415515e-003, -1.61280783e-004,
          2.64691684e-004, 6.46915869e-004, 6.67462067e-004,
          -1.38312549e-004, 1.33603252e-003, 1.37335027e-003,
          -7.40759366e-004, 2.22580694e-003, -4.12415806e-003,
          1.56592228e-003, 2.54254934e-004, -3.44330969e-004,
          5.59580978e-004, 2.86912266e-003, 8.51299730e-004,
          9.94403497e-004, -8.17422930e-004, -2.97063001e-004,
          -4.30596701e-004, 6.63184837e-005, 4.34568792e-004,
          7.58018286e-004, -2.65298324e-004, 1.54494119e-004,
          1.88693739e-004, -4.24038808e-005, 3.11764015e-004,
          -1.02908851e-003, -9.76177631e-004, 2.84190464e-004,
          -1.62712205e-003, 8.01186950e-004, 1.77559536e-003,
          -1.26978580e-003, -2.18858579e-004, 5.19738649e-004,
          -4.83835582e-004, -1.03411243e-004, -8.51217133e-004,
          -4.32541274e-004, 6.69344328e-004, 4.22246754e-004,
          6.70884037e-004, 1.48319610e-004, 2.87766074e-004,
          3.20995518e-004, 6.88556232e-004 ]
   decision_functions:
      -
         sv_count: 1
         rho: -9.9516233345107374e-001
         alpha: [ 1. ]
         index: [ 0 ]
