%YAML:1.0
my_svm: !!opencv-ml-svm
   svm_type: C_SVC
   kernel: { type:LINEAR }
   C: 1.
   term_criteria: { epsilon:2.2204460492503131e-016, iterations:100 }
   var_all: 128
   var_count: 128
   class_count: 2
   class_labels: !!opencv-matrix
      rows: 1
      cols: 2
      dt: i
      data: [ 0, 1 ]
   sv_total: 1
   support_vectors:
      - [ 2.22671614e-003, 4.41665947e-003, -4.26494330e-003,
          -1.29818162e-002, 5.67640085e-003, 9.76388995e-003,
          7.86518096e-004, -7.02538062e-003, -4.00416553e-003,
          -1.01486011e-003, 8.30941863e-005, -3.51311127e-003,
          -4.32980107e-003, -1.50237733e-003, -5.04627032e-003,
          -1.83886953e-003, 2.89384532e-003, -6.71676267e-003,
          3.47360503e-003, -2.49379943e-003, 2.14513065e-003,
          2.07930896e-003, 7.59968476e-004, 3.20609496e-003,
          -7.04030367e-003, -5.13925450e-004, 2.65295408e-003,
          -1.07937178e-003, -3.18605476e-003, -5.22956070e-005,
          -8.71103257e-004, 1.65170920e-003, 3.94916948e-004,
          -1.11140264e-003, -2.21936754e-003, 5.48871467e-003,
          -1.15941116e-003, -1.52531301e-003, 8.90042167e-004,
          9.49704554e-004, -2.92349281e-003, 1.36048038e-004,
          -2.97020609e-003, 4.54548455e-004, 1.52225955e-003,
          4.23744641e-004, 1.61421380e-003, 6.12580916e-004,
          3.74164549e-003, -3.12621705e-004, -6.28485810e-004,
          -1.72374444e-003, 8.49644945e-004, -7.16141833e-004,
          2.94883503e-004, 4.67182050e-004, -1.53630727e-003,
          -6.32296724e-004, 4.67788224e-004, 2.09770096e-003,
          4.39238705e-004, 1.25440594e-004, 1.23927859e-003,
          -9.36541939e-004, -5.60358458e-004, 5.80145861e-004,
          -1.42659806e-003, 5.89864620e-004, 1.25302828e-003,
          8.43981223e-004, -1.96169480e-003, 6.03212393e-004,
          1.08264596e-003, -7.36163463e-004, 1.05164084e-003,
          6.87286258e-004, -6.54839387e-004, 4.21497607e-005,
          6.28442096e-004, 5.15162072e-004, 5.89997180e-005,
          1.34525268e-004, -5.60952525e-004, -1.67860140e-004,
          5.77460974e-004, -7.01887300e-004, -1.35849419e-004,
          -4.33367735e-004, -9.48316127e-004, -6.68782566e-004,
          -4.92512248e-004, 1.99145303e-004, 7.26445360e-005,
          1.58218842e-004, -1.64748053e-004, -3.49265465e-004,
          2.11113322e-004, 1.02781953e-004, -1.27131221e-004,
          5.20576956e-004, -2.79208587e-004, 2.95049394e-004,
          2.68422446e-004, 2.17859779e-004, -1.45174708e-004,
          -4.00123652e-004, 1.00946985e-004, -1.03344617e-004,
          -1.70162544e-004, -2.61810492e-005, 1.09041706e-004,
          -3.97457072e-004, 6.09567323e-005, -5.35488653e-005,
          -4.67257894e-004, -1.75829075e-004, 2.92353536e-004,
          1.67483347e-004, -6.49827562e-005, -3.87742402e-005,
          -1.75617897e-004, -2.52336584e-004, -9.94985385e-005,
          6.46048138e-005, -3.41278967e-004, 1.42836478e-004,
          7.19165337e-006, 3.99386554e-005 ]
   decision_functions:
      -
         sv_count: 1
         rho: -9.9895184239780399e-001
         alpha: [ 1. ]
         index: [ 0 ]
