%YAML:1.0
my_svm: !!opencv-ml-svm
   svm_type: C_SVC
   kernel: { type:LINEAR }
   C: 1.
   term_criteria: { epsilon:2.2204460492503131e-016, iterations:100 }
   var_all: 128
   var_count: 128
   class_count: 2
   class_labels: !!opencv-matrix
      rows: 1
      cols: 2
      dt: i
      data: [ 0, 1 ]
   sv_total: 1
   support_vectors:
      - [ 1.62626151e-004, -1.02252976e-004, -9.00037005e-004,
          1.42673365e-004, 1.91654684e-003, 3.76375089e-003,
          -5.17099630e-003, -1.26927637e-003, 1.93222368e-003,
          7.39632873e-004, -1.60621863e-003, -1.22362212e-003,
          2.04449426e-003, 2.55342503e-003, -7.14810519e-003,
          3.81429307e-003, 6.72118505e-004, 9.84364538e-004,
          8.26477946e-004, 9.84653016e-005, -2.12800456e-003,
          1.17911601e-004, -3.74264596e-003, 8.73723067e-004,
          7.44095232e-005, 4.54817637e-004, 7.99085421e-004,
          -4.71506559e-004, -2.17710831e-003, -1.21612963e-003,
          -1.43010297e-003, 2.41961301e-004, -1.17307540e-003,
          1.17763004e-003, -4.26934101e-004, -6.17600803e-004,
          3.57165962e-004, 1.67887122e-003, 1.90001854e-003,
          -2.76084174e-004, 1.08102907e-003, -1.08948792e-003,
          -2.60822335e-003, -1.36401330e-003, 7.68866099e-004,
          2.88624968e-003, 6.15366211e-004, 3.07308394e-003,
          5.30791178e-004, -2.22558598e-003, -2.34025973e-003,
          -9.99096199e-004, 2.10677754e-004, 2.43197870e-003,
          -1.31159474e-003, 1.50639738e-003, 2.09350418e-003,
          8.33385857e-004, -1.15844153e-003, -3.25326785e-003,
          4.17705916e-004, 1.63318007e-004, -1.64250261e-003,
          1.74870749e-003, -2.26250500e-003, -1.55973947e-003,
          9.97505733e-004, -2.26306496e-004, -2.06591235e-003,
          -1.08005863e-003, 2.66688922e-003, -9.90191707e-004,
          2.94419401e-003, 2.36430392e-003, 2.12105387e-003,
          2.17838283e-003, 1.85679074e-003, 2.11902685e-003,
          -3.45810695e-004, 7.97070621e-004, 8.03568400e-004,
          -1.79821264e-003, -1.89168123e-003, -3.32878996e-003,
          -1.81129633e-003, -1.58546085e-003, -4.11386573e-004,
          8.84811627e-004, 1.21097430e-003, -1.07955060e-003,
          -3.01884348e-003, -1.06656412e-003, 1.25028240e-003,
          -7.70206214e-004, -2.01390521e-003, 2.89156480e-004,
          -2.20997911e-003, -2.06556200e-004, 7.85429322e-004,
          4.77691041e-003, -7.47265178e-004, -9.75705800e-004,
          1.14856055e-003, 1.03718729e-003, 2.04783806e-004,
          4.65056999e-003, 1.69080880e-003, 1.88317453e-003,
          4.08778084e-004, 1.36300479e-003, 2.46043620e-003,
          2.61518010e-003, 2.34571984e-003, 2.52934103e-003,
          -4.22489829e-004, 1.38664863e-003, 1.89906656e-004,
          -1.55459484e-003, 1.66281956e-004, 2.29236856e-003,
          -7.34728819e-005, -6.37440709e-004, 3.18542792e-004,
          8.42353256e-005, 1.05922270e-004, 6.48731075e-004,
          7.60462019e-004, 5.56024257e-004 ]
   decision_functions:
      -
         sv_count: 1
         rho: 6.3473494539590847e-001
         alpha: [ 1. ]
         index: [ 0 ]
