%YAML:1.0
my_svm: !!opencv-ml-svm
   svm_type: C_SVC
   kernel: { type:LINEAR }
   C: 1.
   term_criteria: { epsilon:2.2204460492503131e-016, iterations:100 }
   var_all: 60
   var_count: 60
   class_count: 2
   class_labels: !!opencv-matrix
      rows: 1
      cols: 2
      dt: i
      data: [ 0, 1 ]
   sv_total: 1
   support_vectors:
      - [ 1.38616143e-003, -2.60223146e-003, 2.63826060e-003,
          -3.78912827e-003, -3.06404429e-003, 3.25330300e-003,
          -1.08282594e-002, 9.00034979e-003, 3.01561248e-003,
          1.00721885e-003, -7.12724635e-003, -1.31807057e-003,
          -9.07389156e-004, 1.09931477e-003, -3.28606088e-003,
          -6.05917710e-004, 1.74484623e-004, -2.77922442e-003,
          5.23125578e-004, -5.26236836e-003, -1.16412400e-003,
          4.19711368e-003, -1.77729456e-003, 2.75522750e-003,
          -8.70077696e-004, 8.07487871e-004, -2.22866796e-003,
          -4.04035207e-003, 2.17403038e-004, -8.22465343e-004,
          -2.58576008e-004, -1.80242711e-003, 6.35735039e-003,
          5.08049969e-004, 1.25670247e-003, 1.08646590e-003,
          -3.27131245e-003, 2.91490345e-003, 2.35978840e-003,
          -3.22932447e-003, 1.35730879e-004, 1.68159558e-003,
          1.89635006e-003, 5.31433197e-003, 1.06294150e-003,
          1.12965447e-003, -5.43514616e-005, 2.77274521e-003,
          3.75203439e-004, -4.41227388e-003, 4.53860825e-003,
          9.20237566e-004, 1.91417208e-003, -3.58060142e-003,
          2.46334891e-003, -5.79703017e-004, -5.62897930e-003,
          2.41804752e-003, 3.55110969e-003, -1.23391557e-003 ]
   decision_functions:
      -
         sv_count: 1
         rho: -3.2313416531712803e-002
         alpha: [ 1. ]
         index: [ 0 ]
