%YAML:1.0
my_svm: !!opencv-ml-svm
   svm_type: C_SVC
   kernel: { type:LINEAR }
   C: 1.
   term_criteria: { epsilon:2.2204460492503131e-016, iterations:100 }
   var_all: 128
   var_count: 128
   class_count: 2
   class_labels: !!opencv-matrix
      rows: 1
      cols: 2
      dt: i
      data: [ 0, 1 ]
   sv_total: 1
   support_vectors:
      - [ 3.83856427e-003, 4.89854254e-004, -1.92970806e-003,
          1.83755450e-003, -1.42887142e-003, -5.54542989e-004,
          4.10544127e-003, 2.41155503e-003, -1.05690518e-002,
          5.01403352e-003, -4.45378646e-005, -2.81787175e-003,
          -1.77313318e-003, -1.53664383e-003, 2.05949531e-003,
          -2.42271391e-003, 3.31424898e-003, -1.34506135e-003,
          4.83104232e-004, 2.44683027e-003, 5.30060090e-004,
          -4.72925836e-003, 5.01981750e-003, 3.34530347e-003,
          4.73481196e-004, 3.04056099e-004, 4.52515611e-004,
          3.79992742e-003, 4.98474063e-003, -1.89673144e-003,
          -7.63682881e-004, 1.16367498e-002, 5.60096174e-004,
          3.42429080e-003, 4.32340149e-003, 5.04907919e-004,
          2.49255449e-003, -6.57667406e-004, 1.90649088e-003,
          -2.95102887e-004, 1.77688827e-003, -1.51907543e-005,
          6.16822625e-004, 2.14695791e-003, -2.86284194e-004,
          1.30679645e-003, -1.44787389e-003, -3.75595526e-003,
          1.89215282e-003, -4.41658031e-003, 2.53061298e-003,
          1.38932967e-003, 3.23708705e-003, -8.48538883e-004,
          6.06680289e-003, 6.29323535e-004, 5.23443706e-003,
          -2.31706002e-003, -1.55681872e-003, 4.66755265e-003,
          -2.09244643e-003, 2.94144242e-003, -5.92280133e-003,
          3.83986742e-003, 2.70671444e-004, -6.03330496e-004,
          -2.72252975e-004, 6.43875101e-004, -3.90026602e-003,
          -3.67202330e-003, -1.40114292e-003, -1.46846694e-004,
          6.53411611e-004, -2.16556410e-003, -3.31669138e-003,
          1.11101125e-003, 1.66201394e-003, 1.41199841e-003,
          3.85143911e-003, 1.51811773e-003, -1.18841114e-003,
          -8.47882417e-004, -8.75721453e-004, -1.30923616e-003,
          8.84656445e-004, -2.73573585e-003, 6.15068653e-004,
          -2.39911745e-003, -1.39336009e-003, -3.41408362e-004,
          3.99011100e-004, 1.13358023e-003, 2.05035647e-003,
          7.94531952e-004, 8.77486775e-004, -7.96468172e-004,
          1.55933981e-003, 4.94620297e-004, 2.33567855e-003,
          -7.53979024e-004, 1.48270221e-003, 4.10886918e-004,
          -2.27293768e-003, -1.59502565e-003, -1.30955596e-003,
          -7.25879043e-004, -2.56652042e-004, -8.47674499e-004,
          8.68796895e-004, -3.02057335e-004, 4.11189423e-004,
          1.85473729e-003, 3.53823911e-004, 1.20432035e-003,
          6.81744059e-005, -3.17158090e-004, 1.56280794e-003,
          -4.47845196e-005, -1.14214385e-003, 3.39074963e-004,
          3.54094373e-004, -9.96911403e-005, -3.16929945e-004,
          -1.36338203e-004, -2.12816754e-004, 7.67520454e-004,
          -1.90832274e-004, 2.81120825e-004 ]
   decision_functions:
      -
         sv_count: 1
         rho: -1.8763497067054494e-001
         alpha: [ 1. ]
         index: [ 0 ]
