%YAML:1.0
my_svm: !!opencv-ml-svm
   svm_type: C_SVC
   kernel: { type:LINEAR }
   C: 1.
   term_criteria: { epsilon:2.2204460492503131e-016, iterations:100 }
   var_all: 30
   var_count: 30
   class_count: 2
   class_labels: !!opencv-matrix
      rows: 1
      cols: 2
      dt: i
      data: [ 0, 1 ]
   sv_total: 1
   support_vectors:
      - [ -2.75654625e-003, -1.01733431e-002, -3.47715174e-003,
          1.10875182e-002, 6.57683762e-004, 3.14770296e-004,
          -1.37307204e-003, 3.27143027e-003, 3.22384783e-003,
          9.90290719e-005, -7.57901464e-004, -6.69135596e-004,
          2.63139722e-004, -3.33588570e-004, -3.84653889e-004,
          2.63913185e-004, 1.58393127e-003, 1.39753323e-003,
          9.96155315e-004, -9.76884505e-004, -8.81543674e-005,
          2.19036578e-004, -4.31434455e-004, 2.14010084e-004,
          -3.05929832e-004, 5.71535027e-004, -1.78121598e-004,
          -2.57189706e-004, -1.25678373e-004, 9.08607617e-004 ]
   decision_functions:
      -
         sv_count: 1
         rho: -7.0038725671630375e-001
         alpha: [ 1. ]
         index: [ 0 ]
