%YAML:1.0
my_svm: !!opencv-ml-svm
   svm_type: C_SVC
   kernel: { type:LINEAR }
   C: 1.
   term_criteria: { epsilon:2.2204460492503131e-016, iterations:100 }
   var_all: 50
   var_count: 50
   class_count: 2
   class_labels: !!opencv-matrix
      rows: 1
      cols: 2
      dt: i
      data: [ 0, 1 ]
   sv_total: 1
   support_vectors:
      - [ 5.16388603e-002, 1.15778204e-002, 2.58475412e-002,
          1.65639929e-002, -4.59764376e-002, -2.76902448e-002,
          7.61495382e-002, 3.01906690e-002, 6.91482350e-002,
          2.95170732e-002, -2.86228359e-002, -5.00350725e-004,
          1.14090638e-002, -1.29458793e-002, 6.61682263e-002,
          6.03441000e-002, -6.78309277e-002, 4.86445799e-002,
          5.48001565e-003, -9.89443809e-003, -5.26411459e-002,
          -3.87731120e-002, -9.30755027e-003, -6.87058736e-003,
          1.06332190e-001, 2.32562684e-002, -3.03278919e-002,
          -3.03267688e-003, -6.73817992e-002, -1.15278982e-001,
          -2.81215087e-003, 5.51656894e-002, 1.80822350e-002,
          7.52386823e-003, -3.33296359e-002, 3.47768590e-002,
          -3.20432000e-002, 8.10264871e-002, -2.02919003e-002,
          -9.71014947e-002, -3.80136110e-002, -2.56219894e-001,
          7.61810616e-002, -1.05921417e-001, 5.37470728e-002,
          5.11277802e-002, 7.78200924e-002, -6.17812648e-002,
          1.05487719e-001, -2.86174882e-002 ]
   decision_functions:
      -
         sv_count: 1
         rho: -3.2965042628347874e-003
         alpha: [ 1. ]
         index: [ 0 ]
