%YAML:1.0
my_svm: !!opencv-ml-svm
   svm_type: C_SVC
   kernel: { type:LINEAR }
   C: 1.
   term_criteria: { epsilon:2.2204460492503131e-16, iterations:100 }
   var_all: 50
   var_count: 50
   class_count: 2
   class_labels: !!opencv-matrix
      rows: 1
      cols: 2
      dt: i
      data: [ 0, 1 ]
   sv_total: 1
   support_vectors:
      - [ -1.12485848e-02, 1.48551434e-01, 7.48694688e-02,
          1.00597329e-02, -1.23079978e-01, 2.98260488e-02,
          8.46787840e-02, -1.85855180e-02, 6.68008476e-02,
          4.17373441e-02, 8.81962478e-04, -5.01541514e-03,
          -1.49476528e-02, -5.22608347e-02, -3.60534117e-02,
          -2.55603641e-02, -2.26545464e-02, 4.97323535e-02,
          -3.23547684e-02, 1.89073812e-02, -6.90757036e-02,
          -1.75170824e-02, -4.83066291e-02, 9.62630659e-02,
          7.45227039e-02, -3.71141806e-02, -3.83619927e-02,
          -1.97245739e-02, 3.40394489e-02, 1.82295181e-02,
          -1.36922281e-02, -1.61391795e-02, -1.64703056e-02,
          6.08679578e-02, -6.93088919e-02, 1.13461139e-02,
          -2.07289234e-02, 4.66453247e-02, -6.81297109e-02,
          -8.02986547e-02, 3.61136310e-02, -1.28269985e-01,
          3.61911990e-02, -2.56635733e-02, 1.25978529e-01,
          -8.15249979e-03, 6.33444488e-02, -1.44009009e-01,
          3.89411859e-02, -5.80427097e-03 ]
   decision_functions:
      -
         sv_count: 1
         rho: -5.6536422926001251e-03
         alpha: [ 1. ]
         index: [ 0 ]
