%YAML:1.0
my_svm: !!opencv-ml-svm
   svm_type: C_SVC
   kernel: { type:LINEAR }
   C: 1.
   term_criteria: { epsilon:2.2204460492503131e-16, iterations:100 }
   var_all: 50
   var_count: 50
   class_count: 2
   class_labels: !!opencv-matrix
      rows: 1
      cols: 2
      dt: i
      data: [ 0, 1 ]
   sv_total: 1
   support_vectors:
      - [ -5.82576022e-02, -5.37710823e-02, -4.13831472e-02,
          -2.25283299e-02, -5.96250501e-03, 4.36697118e-02,
          -8.00511912e-02, -1.40234843e-01, -9.71367732e-02,
          -4.91295531e-02, -1.48556046e-02, 3.79106589e-03,
          -9.38197412e-03, 2.60178536e-01, 1.00562703e-02,
          1.23291491e-02, 5.74952289e-02, 1.00916419e-02, 1.13974949e-02,
          2.21449463e-03, 6.38418049e-02, -2.78704911e-02,
          -4.76618251e-03, -3.41861062e-02, -6.13392964e-02,
          3.74051519e-02, -5.54365218e-02, 8.68450403e-02,
          -5.35515510e-02, 1.46726435e-02, 9.62009951e-02,
          1.32958032e-02, 2.22011004e-02, -6.67849630e-02,
          7.91452229e-02, -3.02896975e-03, 1.76498257e-02,
          -1.07804224e-01, -3.82985398e-02, 1.75963119e-02,
          -7.70186409e-02, 1.78053845e-02, -2.28210129e-02,
          2.23624632e-02, -3.35623370e-03, -6.78983005e-03,
          -2.71855090e-02, 1.81170404e-01, 2.10139919e-02,
          6.05015792e-02 ]
   decision_functions:
      -
         sv_count: 1
         rho: 4.1026439284905791e-03
         alpha: [ 1. ]
         index: [ 0 ]
