%YAML:1.0
my_svm: !!opencv-ml-svm
   svm_type: C_SVC
   kernel: { type:LINEAR }
   C: 1.
   term_criteria: { epsilon:2.2204460492503131e-016, iterations:100 }
   var_all: 50
   var_count: 50
   class_count: 2
   class_labels: !!opencv-matrix
      rows: 1
      cols: 2
      dt: i
      data: [ 0, 1 ]
   sv_total: 1
   support_vectors:
      - [ -5.13022020e-002, -1.52832549e-002, -6.59296056e-003,
          -5.80745041e-002, -2.24688109e-002, -2.43225880e-003,
          -2.29419488e-002, -6.35239184e-002, -1.44691616e-001,
          1.71318464e-002, -3.49760801e-003, -1.32402871e-004,
          -2.46730484e-002, -2.94098929e-002, 3.71473171e-002,
          7.06096962e-002, 3.63774374e-002, -1.41464509e-002,
          2.51742192e-002, -8.15031305e-003, 3.21112061e-003,
          4.46768291e-002, -7.23821297e-002, 6.32547662e-002,
          -1.14310980e-001, 6.03736304e-002, -5.03566898e-002,
          3.63873877e-002, 3.05096824e-002, 7.32024610e-002,
          6.98410645e-002, 3.21705360e-004, -6.93259854e-003,
          -5.23413569e-002, 4.94253822e-002, -4.89318669e-002,
          1.02656662e-001, -3.56709920e-002, 4.28318679e-002,
          1.53308902e-002, -3.17312256e-002, 2.87329815e-002,
          -3.15967239e-002, 6.72204643e-002, -2.69017331e-002,
          7.72205647e-003, -7.91459009e-002, 1.07605949e-001,
          -6.51610866e-002, 9.30394307e-002 ]
   decision_functions:
      -
         sv_count: 1
         rho: -9.5313470810651779e-003
         alpha: [ 1. ]
         index: [ 0 ]
