%YAML:1.0
my_svm: !!opencv-ml-svm
   svm_type: C_SVC
   kernel: { type:LINEAR }
   C: 1.
   term_criteria: { epsilon:2.2204460492503131e-016, iterations:100 }
   var_all: 50
   var_count: 50
   class_count: 2
   class_labels: !!opencv-matrix
      rows: 1
      cols: 2
      dt: i
      data: [ 0, 1 ]
   sv_total: 1
   support_vectors:
      - [ -1.16034932e-002, 4.55965810e-002, -5.85538661e-003,
          -7.62850270e-002, 9.08664763e-002, -2.71358080e-002,
          7.10340589e-002, 4.31149267e-003, -1.62522309e-004,
          -4.77912501e-002, -4.66542132e-002, -6.26057386e-002,
          5.65772783e-003, -1.02525078e-001, 2.15502866e-002,
          -1.49175636e-002, -2.11174274e-003, 1.92571748e-002,
          -5.22130355e-003, -3.26164216e-002, 6.59138709e-002,
          5.58161400e-002, 3.58064696e-002, -4.44473624e-002,
          -7.86027983e-002, -6.95682969e-003, -7.14818537e-002,
          4.20372449e-002, -2.26520579e-002, 4.50815633e-003,
          -1.81617290e-002, 8.69069248e-002, 4.46729660e-002,
          3.03188395e-002, 9.72292759e-003, 7.60018751e-002,
          3.68169099e-002, 1.78311765e-002, 4.69591981e-003,
          1.53817665e-002, -7.71295559e-003, 1.02561563e-001,
          -8.91804695e-002, -9.44517106e-002, -5.58316708e-002,
          -4.38618287e-002, 3.13158780e-002, 3.06287333e-002,
          2.54613813e-002, -5.84614510e-003 ]
   decision_functions:
      -
         sv_count: 1
         rho: -1.0533026419579983e-002
         alpha: [ 1. ]
         index: [ 0 ]
