%YAML:1.0
my_svm: !!opencv-ml-svm
   svm_type: C_SVC
   kernel: { type:LINEAR }
   C: 1.
   term_criteria: { epsilon:2.2204460492503131e-16, iterations:100 }
   var_all: 50
   var_count: 50
   class_count: 2
   class_labels: !!opencv-matrix
      rows: 1
      cols: 2
      dt: i
      data: [ 0, 1 ]
   sv_total: 1
   support_vectors:
      - [ 8.16537812e-03, 1.99140742e-01, 3.56677081e-03,
          -3.78372930e-02, 5.96601330e-02, -5.70236966e-02,
          -4.80069444e-02, 5.70866652e-03, 6.54729232e-02,
          -4.42323871e-02, 1.93386246e-03, -7.56237702e-03,
          3.06067541e-02, -1.36590730e-02, -3.89833599e-02,
          -1.17562898e-03, 1.67926643e-02, -3.08861900e-02,
          7.48217432e-03, 5.19759431e-02, 7.90825188e-02,
          -5.31307161e-02, 2.97336839e-02, -7.65901431e-02,
          -3.09432801e-02, 4.56486922e-03, -2.45399103e-02,
          -2.07881723e-02, -5.36418371e-02, -2.02082619e-02,
          -3.66438255e-02, -4.45994288e-02, -6.33176342e-02,
          5.16873673e-02, -4.16473523e-02, 3.31414118e-02,
          -3.00614927e-02, 6.29629046e-02, 3.02371383e-02,
          -1.84473302e-03, 2.07470711e-02, 9.08458382e-02,
          -5.16604595e-02, -5.41920401e-02, -1.03849128e-01,
          -3.83742191e-02, 3.75182889e-02, 7.83939064e-02,
          7.55410045e-02, -1.95617508e-02 ]
   decision_functions:
      -
         sv_count: 1
         rho: -3.4497728338465095e-03
         alpha: [ 1. ]
         index: [ 0 ]
