%YAML:1.0
my_svm: !!opencv-ml-svm
   svm_type: C_SVC
   kernel: { type:LINEAR }
   C: 1.0000000000000001e-001
   term_criteria: { epsilon:2.2204460492503131e-016, iterations:100 }
   var_all: 120
   var_count: 120
   class_count: 2
   class_labels: !!opencv-matrix
      rows: 1
      cols: 2
      dt: i
      data: [ 0, 1 ]
   sv_total: 1
   support_vectors:
      - [ 2.44304483e-005, 2.52233724e-044, 7.14662217e-044,
          2.14398665e-043, 4.41409016e-043, 9.37468673e-043,
          1.40129846e-042, 6.58610278e-044, 0., 0., 0., 0., 0., 0., 0.,
          0., 0., 0., 0., 0., 0., 0., 0., 0., 0., 0., 0., 0., 0., 0.,
          -1.35032351e-005, 9.52882956e-044, 2.57838917e-043,
          3.32107736e-043, 5.19881730e-043, 8.42180377e-043,
          1.26537251e-042, 1.19110369e-043, 0., 0., 0., 0., 0., 0., 0.,
          0., 0., 0., 0., 0., 0., 0., 0., 0., 0., 0., 0., 0., 0., 0.,
          -9.14545904e-004, 1.66754517e-043, 4.55422001e-043,
          8.78614137e-043, 1.05517774e-042, 1.18409720e-042,
          1.26116862e-042, -3.88159675e-043, 0., 0., 0., 0., 0., 0., 0.,
          0., 0., 0., 0., 0., 0., 0., 0., 0., 0., 0., 0., 0., 0., 0.,
          -3.35508550e-004, -2.94641970e-004, 5.13171617e-005,
          -2.18894165e-005, 0., 0., 0., 0., 0., 0., 0., 0., 0., 0., 0.,
          0., 0., 0., 0., 0., 0., 0., 0., 0., 0., 0., 0., 0., 0., 0. ]
   decision_functions:
      -
         sv_count: 1
         rho: -3.3012297769764354e-001
         alpha: [ 1. ]
         index: [ 0 ]
