%YAML:1.0
my_svm: !!opencv-ml-svm
   svm_type: C_SVC
   kernel: { type:LINEAR }
   C: 1.0000000000000001e-001
   term_criteria: { epsilon:2.2204460492503131e-016, iterations:100 }
   var_all: 120
   var_count: 120
   class_count: 2
   class_labels: !!opencv-matrix
      rows: 1
      cols: 2
      dt: i
      data: [ 0, 1 ]
   sv_total: 1
   support_vectors:
      - [ -1.31336799e-008, -4.51218563e-010, 2.87946711e-009,
          4.51035609e-009, -8.42940029e-009, 4.15399770e-010,
          -1.41468959e-009, 3.80457976e-008, -3.42489104e-009,
          -1.61432521e-008, 1.34536551e-008, 3.54395113e-009,
          1.15764855e-008, -3.05743626e-008, -4.08228429e-009,
          8.85013485e-009, -1.88182048e-009, -9.03842834e-010,
          8.13718071e-009, -4.08400452e-010, 1.74735526e-009,
          1.45199630e-008, 1.90050464e-008, -6.83412971e-009,
          2.41275422e-009, -5.53710633e-009, 3.54759564e-008,
          6.86465551e-009, -1.20001911e-008, 2.54596760e-010,
          2.97436280e-008, 3.07355990e-008, 3.54678278e-008,
          -9.37750944e-009, -2.00593320e-008, 3.03387750e-008,
          -1.04434328e-008, -8.85811813e-010, -4.70993733e-009,
          -1.65936243e-008, -1.26751383e-008, 6.27419405e-009,
          -4.17834762e-008, 2.05660533e-009, 4.54774884e-008,
          5.80598076e-008, -8.22082136e-009, -7.05749104e-009,
          5.96055756e-008, 1.64742744e-008, -2.17477814e-009,
          1.57599400e-009, -9.04520991e-009, 1.44402612e-009,
          1.88231049e-008, 4.91777534e-008, -4.23014823e-009,
          5.01440027e-008, -6.35951602e-009, 4.66860612e-008,
          -1.82295253e-007, -7.40326556e-008, -3.06010173e-009,
          -1.74868134e-007, -4.35427729e-008, 2.10195623e-007,
          1.99094245e-007, 2.64236746e-007, -6.25315764e-008,
          -2.00408763e-007, -3.93032202e-008, -1.08376447e-007,
          1.37406289e-007, 9.78592496e-009, 3.65820840e-009,
          1.49426725e-007, -1.38071357e-007, 4.87635930e-007,
          3.42733216e-007, 1.58699550e-007, 7.72000917e-008,
          -3.32247026e-007, -2.46556965e-007, 1.19601708e-007,
          1.96704747e-007, 7.41904955e-008, 1.73428596e-008,
          2.39350214e-007, 1.31669424e-007, 1.16917896e-007,
          -3.79254583e-009, 3.17290039e-009, -8.28452473e-010,
          -1.91746174e-009, -7.63514751e-010, 1.47983098e-010,
          -2.36604114e-009, 5.04893306e-012, -6.70292766e-010,
          -5.16115518e-011, -8.41412981e-011, -9.08314923e-010,
          -4.29807789e-009, -9.82963377e-010, 5.95609395e-010,
          2.16019802e-009, -1.46689605e-010, -1.59840186e-009,
          -1.95975947e-009, 7.21465387e-010, 1.29049504e-009,
          2.52285887e-010, -1.46565052e-010, 9.86704052e-010,
          1.11376397e-009, -1.13392309e-010, -7.50588647e-010,
          -7.46620044e-010, 1.58914507e-010, -3.67616840e-011 ]
   decision_functions:
      -
         sv_count: 1
         rho: 1.9866136709671939e-001
         alpha: [ 1. ]
         index: [ 0 ]
