%YAML:1.0
my_svm: !!opencv-ml-svm
   svm_type: C_SVC
   kernel: { type:LINEAR }
   C: 1.0000000000000001e-001
   term_criteria: { epsilon:2.2204460492503131e-016, iterations:100 }
   var_all: 120
   var_count: 120
   class_count: 2
   class_labels: !!opencv-matrix
      rows: 1
      cols: 2
      dt: i
      data: [ 0, 1 ]
   sv_total: 1
   support_vectors:
      - [ 1.97132463e+006, -1.58485719e+005, -7.77961484e+004, 1975722.,
          -4.25129469e+005, -2.56815859e+005, 2.10832469e+005,
          -1.09319148e+005, -1.71035906e+005, 4.85497375e+005,
          -2.04506734e+005, -2.65811188e+005, 1.22822425e+006,
          1.13359488e+006, -2.11854563e+005, 4.95916094e+005,
          -2.06697078e+005, -2.76864688e+005, -874820., -1.28186273e+005,
          -4.04394063e+004, -6.10597363e+003, -2.06826359e+005,
          -8.38840500e+005, 1585916., 1.24966288e+006, -1.56464531e+005,
          3.22052281e+005, 5.97237063e+005, 2.07332031e+004,
          9.24698498e-036, 9.20393279e-036, 9.21236802e-036,
          9.76143165e-036, 9.81830867e-036, 2.54765765e+038,
          -3.56085874e+036, 2.48709970e-034, 0., 0., 0., 0., 0., 0., 0.,
          0., 0., 0., 0., 0., 0., 0., 0., 0., 0., 0., 0., 0., 0., 0.,
          6.23337376e-036, 6.25782712e-036, 6.08244284e-036,
          6.09225848e-036, 6.09455221e-036, 1.11730044e+038,
          -2.43517851e+036, 6.13997434e-035, 0., 0., 0., 0., 0., 0., 0.,
          0., 0., 0., 0., 0., 0., 0., 0., 0., 0., 0., 0., 0., 0., 0.,
          8.46313172e-036, 8.66953486e-036, 9.00626908e-036,
          8.89218859e-036, 8.80410113e-036, .Inf, -4.32511768e+036,
          4.47301946e-035, 0., 0., 0., 0., 0., 0., 0., 0., 0., 0., 0.,
          0., 0., 0., 0., 0., 0., 0., 0., 0., 0., 0. ]
   decision_functions:
      -
         sv_count: 1
         rho: 8.8473409302044534e+035
         alpha: [ 1. ]
         index: [ 0 ]
