%YAML:1.0
my_svm: !!opencv-ml-svm
   svm_type: C_SVC
   kernel: { type:LINEAR }
   C: 1.0000000000000001e-001
   term_criteria: { epsilon:2.2204460492503131e-016, iterations:100 }
   var_all: 120
   var_count: 120
   class_count: 2
   class_labels: !!opencv-matrix
      rows: 1
      cols: 2
      dt: i
      data: [ 0, 1 ]
   sv_total: 1
   support_vectors:
      - [ 3.04857040e-005, 9.80908925e-045, 3.22298647e-044,
          3.78350585e-044, 3.08285662e-044, 7.98740125e-044,
          2.04589576e-043, -1.12103877e-044, 0., 0., 0., 0., 0., 0., 0.,
          0., 0., 0., 0., 0., 0., 0., 0., 0., 0., 0., 0., 0., 0., 0.,
          -2.09411955e-005, 1.26116862e-044, 2.38220739e-044,
          3.92363570e-044, 9.24856986e-044, 2.04589576e-043,
          2.67648007e-043, -5.04467447e-044, 0., 0., 0., 0., 0., 0., 0.,
          0., 0., 0., 0., 0., 0., 0., 0., 0., 0., 0., 0., 0., 0., 0.,
          1.04562729e-003, -7.14662217e-044, -1.87773994e-043,
          -3.29305139e-043, -4.56823299e-043, -6.92241441e-043,
          -1.09441410e-042, 2.67648007e-043, 0., 0., 0., 0., 0., 0., 0.,
          0., 0., 0., 0., 0., 0., 0., 0., 0., 0., 0., 0., 0., 0., 0.,
          6.31867224e-005, 1.89237689e-004, -4.03664344e-005,
          8.17863765e-005, 0., 0., 0., 0., 0., 0., 0., 0., 0., 0., 0.,
          0., 0., 0., 0., 0., 0., 0., 0., 0., 0., 0., 0., 0., 0., 0. ]
   decision_functions:
      -
         sv_count: 1
         rho: -2.9481204456675798e-002
         alpha: [ 1. ]
         index: [ 0 ]
