%YAML:1.0
my_svm: !!opencv-ml-svm
   svm_type: C_SVC
   kernel: { type:LINEAR }
   C: 1.0000000000000001e-01
   term_criteria: { epsilon:2.2204460492503131e-16, iterations:100 }
   var_all: 120
   var_count: 120
   class_count: 2
   class_labels: !!opencv-matrix
      rows: 1
      cols: 2
      dt: i
      data: [ 0, 1 ]
   sv_total: 1
   support_vectors:
      - [ 3.20515869e+02, 1.50657120e+02, -2.10608734e+02,
          1.16820715e+03, -3.33798431e+02, -3.18384918e+02,
          -3.48422089e+02, 1.15199020e+02, -4.99303864e+02,
          4.78704300e+01, -3.62884430e+02, 1.29806458e+02,
          -3.90615723e+02, 2.08019394e+02, 2.94858948e+02,
          -2.19788628e+01, -1.02908867e+02, -2.72734070e+01,
          6.61966801e-01, 7.92667542e+01, -2.17596619e+02,
          -3.96638397e+02, -3.19789658e+01, 6.10699959e+01,
          -2.33103241e+02, -1.25464973e+02, -1.24671638e+02,
          1.48141663e+02, -1.20873482e+02, 1.84940964e+02,
          -2.91723719e+05, 1.12951812e+05, -1.82236016e+05,
          -1.03250527e+04, 4.99193438e+04, 1.21611922e+05,
          -1.70281219e+05, 8.01911670e+03, 1.25529688e+05,
          -3.24434844e+04, 2.00654109e+05, -464086., -3.63554875e+05,
          -8.16348438e+04, 1.27327289e+05, 4.08252227e+04,
          -1.53029422e+05, 1.74012094e+05, -4.91894922e+04,
          5.48300273e+04, -3.89881445e+04, 1.06922562e+05,
          -4.12959062e+05, 9.74958516e+04, -7.60882422e+04,
          -2.12420016e+05, -8.38658008e+03, -1.34043453e+05,
          5.84678633e+04, -1.28865064e+34, -7.15052312e+05,
          -7.12183750e+05, -7.90453750e+05, -8.46198250e+05,
          -5.51434180e+04, 2.94709250e+05, -6.99984297e+04,
          -5.12724906e+05, -3.76221531e+05, -1.08695492e+05, -1317579.,
          4.10353281e+05, 1.23060838e+06, -9.15222188e+05,
          1.17215450e+06, 2.92031594e+05, 5.81672375e+05,
          -1.46951906e+05, 3.18502156e+05, 7.00247500e+05,
          -5.75388625e+05, -6.48087500e+05, -1.21287738e+06,
          -7.11481188e+05, -4.09492438e+05, 6.59875750e+05,
          1.00813806e+06, -9.00879500e+05, -1.12131344e+05,
          -2.50794628e+33, -1.87924212e+06, -9.31771812e+05,
          3.45114526e+03, 6.81371500e+05, -2.46646281e+05,
          -7.69675125e+05, -1.36381275e+06, 4.86360906e+05,
          7.27162250e+05, 8.03484688e+05, -2.21265859e+05,
          -6.13916188e+05, 4.37047812e+05, 3.14815375e+05, -1387497.,
          -3.99843438e+05, -9.92623500e+05, -7.60308812e+05,
          1.43464338e+06, 1.30361562e+06, 8.74710875e+05,
          -6.99713562e+05, 5.49229750e+05, -3.75336281e+05,
          -2.17338950e+06, -4.09412938e+05, -1.27519562e+06,
          -5.30520312e+05, 6.62179625e+05, -1.03182407e+34 ]
   decision_functions:
      -
         sv_count: 1
         rho: -1.4121717253980187e+36
         alpha: [ 1. ]
         index: [ 0 ]
