%YAML:1.0
my_svm: !!opencv-ml-svm
   svm_type: C_SVC
   kernel: { type:LINEAR }
   C: 1.0000000000000001e-01
   term_criteria: { epsilon:2.2204460492503131e-16, iterations:100 }
   var_all: 120
   var_count: 120
   class_count: 2
   class_labels: !!opencv-matrix
      rows: 1
      cols: 2
      dt: i
      data: [ 0, 1 ]
   sv_total: 1
   support_vectors:
      - [ 4.33325091e-08, -3.56638196e-07, -4.63954052e-07,
          3.37523517e-07, 2.87392282e-07, -6.04703075e-07,
          -4.19256537e-07, -3.68361839e-07, -9.64668772e-08,
          -7.63465380e-07, -9.69179723e-07, 6.96605440e-09,
          -1.38529435e-06, 6.26791632e-07, -4.21248302e-07,
          4.77703225e-07, -5.90999207e-07, 1.59455418e-08,
          4.64453308e-07, 2.41898135e-07, -7.22924597e-07,
          -4.00888695e-07, 6.62666992e-07, 4.56520972e-08,
          6.62677678e-07, -3.71881640e-07, 8.04155547e-07,
          -5.09470112e-07, -3.58284638e-07, 2.67292035e-06,
          -9.04640913e-08, 3.76781429e-07, -1.19882236e-06,
          -3.58379680e-07, -6.01788983e-08, 4.55949760e-07,
          4.23440355e-07, -2.74749397e-07, 6.66244375e-07,
          6.05881894e-07, 6.87006661e-07, -6.68485370e-07,
          -1.21961108e-07, 6.82930079e-07, 2.17190873e-07,
          3.42473726e-07, 9.71696466e-08, 3.19806787e-07,
          -2.01545049e-07, 4.77832202e-07, -5.34641060e-07,
          2.20182315e-07, -1.49728487e-06, 1.68924018e-07,
          -4.05318531e-07, -4.66718177e-07, 2.29821779e-08,
          -4.94949859e-07, 5.30620241e-07, 1.15448586e-06,
          1.76822766e-06, -2.86674890e-07, 2.80453605e-07,
          1.12355522e-07, -3.22363576e-07, 1.22803681e-06,
          5.78497861e-07, -9.31664886e-07, -6.09015217e-07,
          1.36679989e-06, 1.49074015e-06, -1.48124479e-06,
          5.43115846e-07, 1.10403641e-06, -9.81922994e-07,
          -6.97648659e-07, -4.91510832e-07, 6.62559330e-07,
          -1.41499856e-06, -4.12707124e-07, 1.84957045e-07,
          2.04907042e-06, 5.91980552e-07, -9.80093319e-07,
          -3.12068778e-06, -1.93008236e-06, -6.51594803e-07,
          1.21637322e-06, 2.54625157e-08, -1.70487237e-06,
          8.86021745e-09, -1.85076079e-08, 1.30630831e-08,
          -9.51898649e-09, 5.23537391e-09, -6.73572842e-09,
          7.78011344e-09, -2.40485831e-09, 7.09072889e-09,
          -8.15932388e-09, -1.23010206e-08, 3.81045062e-09,
          -9.03361297e-09, 1.71866210e-09, 1.89691107e-09,
          9.56979207e-09, 5.44750822e-09, 1.38948397e-09, 2.72094280e-09,
          2.48319587e-09, 4.98362285e-09, -4.60851357e-09,
          -5.75960479e-09, 7.01327130e-09, -1.00801234e-09,
          2.17158025e-09, -3.98132249e-10, -5.73830317e-09,
          -3.66625574e-09, 2.13158935e-09 ]
   decision_functions:
      -
         sv_count: 1
         rho: 6.6981939096910748e-01
         alpha: [ 1. ]
         index: [ 0 ]
