%YAML:1.0
my_svm: !!opencv-ml-svm
   svm_type: C_SVC
   kernel: { type:LINEAR }
   C: 1.0000000000000001e-001
   term_criteria: { epsilon:2.2204460492503131e-016, iterations:100 }
   var_all: 120
   var_count: 120
   class_count: 2
   class_labels: !!opencv-matrix
      rows: 1
      cols: 2
      dt: i
      data: [ 0, 1 ]
   sv_total: 1
   support_vectors:
      - [ 1.19782242e+005, -1.71870641e+005, -2.01881656e+005,
          1.26693994e+004, -2.23960391e+005, -2.45358156e+005,
          -2.04036594e+005, 1.36695297e+005, -7.57579375e+004,
          1.44514625e+005, -1.23819109e+005, 1.27405313e+005,
          2.35354953e+005, -3.40521031e+005, -1.28110195e+005,
          -3.30226375e+005, 7.26618713e+002, -9.47609141e+004,
          -1.59190672e+005, 4.23335844e+005, -9.69947266e+004,
          -2.87039594e+005, -9.63688516e+004, 1.69341406e+005,
          -3.08361094e+005, 8.77562813e+004, -1.60234734e+005,
          2.76848105e+004, 4.26173477e+004, -1.36486797e+005,
          -3.75598713e-036, -3.64069843e-036, -3.64828526e-036,
          -3.76303551e-036, -3.72799739e-036, -1.03355275e+038,
          1.93878619e+036, -6.57313568e-036, 0., 0., 0., 0., 0., 0., 0.,
          0., 0., 0., 0., 0., 0., 0., 0., 0., 0., 0., 0., 0., 0., 0.,
          -5.92062762e-036, -6.01672020e-036, -5.83028445e-036,
          -5.82259574e-036, -5.91818932e-036, -3.38314066e+037,
          1.09555554e+036, -1.07379825e-034, 0., 0., 0., 0., 0., 0., 0.,
          0., 0., 0., 0., 0., 0., 0., 0., 0., 0., 0., 0., 0., 0., 0.,
          -7.37635117e-036, -7.56527257e-036, -7.76680772e-036,
          -7.50950690e-036, -7.52525023e-036, -.Inf, 3.68857771e+036,
          -7.03656716e-035, 0., 0., 0., 0., 0., 0., 0., 0., 0., 0., 0.,
          0., 0., 0., 0., 0., 0., 0., 0., 0., 0., 0. ]
   decision_functions:
      -
         sv_count: 1
         rho: -8.3369174150003507e+035
         alpha: [ 1. ]
         index: [ 0 ]
