%YAML:1.0
my_svm: !!opencv-ml-svm
   svm_type: C_SVC
   kernel: { type:LINEAR }
   C: 1.0000000000000001e-01
   term_criteria: { epsilon:2.2204460492503131e-16, iterations:100 }
   var_all: 120
   var_count: 120
   class_count: 2
   class_labels: !!opencv-matrix
      rows: 1
      cols: 2
      dt: i
      data: [ 0, 1 ]
   sv_total: 1
   support_vectors:
      - [ -6.18526713e-07, -3.88131021e-08, 6.80715118e-07,
          -1.59853039e-06, -2.56751690e-07, 2.11600380e-07,
          -1.26460202e-06, -1.04814296e-06, -5.49021365e-07,
          4.51149162e-07, -1.19757601e-06, 1.16495016e-06,
          1.29629655e-07, 6.17697424e-07, -1.27871985e-07,
          1.67560728e-07, 4.92949027e-07, -1.65951690e-06,
          5.12686029e-07, 5.82512634e-08, 4.83480790e-07,
          -4.34571660e-07, -5.18983995e-07, -5.26477265e-07,
          1.08692927e-06, 9.25669156e-07, -7.39771735e-07,
          1.16304227e-06, 4.80970698e-07, -2.13672843e-06,
          -1.59071772e-06, -1.30816568e-06, 6.65664800e-07,
          -1.29562147e-06, -4.58015734e-07, -4.11586853e-07,
          -1.48462533e-07, -7.40183225e-07, -1.98696466e-06,
          -1.06173374e-07, -6.93416553e-07, -6.54290488e-07,
          -6.37873939e-07, 4.15256324e-07, -5.32272963e-07,
          3.45689450e-08, -1.08039188e-07, 2.25835578e-07,
          -3.80160714e-07, -4.99829184e-07, -3.22635344e-07,
          -1.17151819e-06, 7.42361124e-07, -1.37146046e-07,
          -6.17830892e-07, -6.77996297e-07, 1.46864261e-06,
          -3.33508638e-07, -6.92146102e-07, -7.87529927e-07,
          -1.12617306e-06, 2.59777175e-06, 5.78600407e-07,
          8.74157365e-07, -2.49920106e-07, -1.72374499e-07,
          3.48049014e-07, -1.82757890e-06, 1.62873675e-06,
          -1.29698719e-06, -1.34778554e-06, 1.16413219e-06,
          8.09189260e-07, -1.87175681e-06, 2.30059868e-06,
          -3.87568662e-07, 2.90129969e-06, -5.47544403e-07,
          2.57574317e-08, -5.01867532e-07, -4.96630446e-06,
          -6.45067985e-07, 8.90599594e-08, 2.63665675e-06,
          8.23937796e-07, -2.43431458e-07, 2.99089265e-07,
          -1.96407677e-06, -1.85887828e-07, 3.02393096e-06,
          -7.41312733e-10, 1.83405273e-08, -2.71705485e-08,
          1.21963684e-08, 8.22636792e-10, 1.06506581e-08,
          -3.12405501e-09, 3.40922002e-09, 1.10585763e-09,
          -3.94564337e-09, 1.62650746e-08, -8.61564864e-09,
          3.86889326e-10, -1.70681265e-08, -1.32672708e-08,
          -1.28024285e-08, -7.99076361e-09, -4.23695878e-09,
          -4.75716933e-09, -9.37345312e-10, -6.33808339e-09,
          1.58441249e-09, 9.65165903e-09, -3.15097370e-09,
          8.31123081e-09, -5.84002624e-09, 1.54893542e-09,
          4.43808856e-09, 3.86253962e-09, -4.38651426e-09 ]
   decision_functions:
      -
         sv_count: 1
         rho: -9.3432196444326499e-01
         alpha: [ 1. ]
         index: [ 0 ]
