%YAML:1.0
my_svm: !!opencv-ml-svm
   svm_type: C_SVC
   kernel: { type:LINEAR }
   C: 1.0000000000000001e-001
   term_criteria: { epsilon:2.2204460492503131e-016, iterations:100 }
   var_all: 120
   var_count: 120
   class_count: 2
   class_labels: !!opencv-matrix
      rows: 1
      cols: 2
      dt: i
      data: [ 0, 1 ]
   sv_total: 1
   support_vectors:
      - [ 9.31176875e+005, -1.38572609e+005, -6.96179297e+004,
          1.05789213e+006, -2.82965250e+005, -2.07065172e+005,
          1.49320713e+004, 2.64651344e+005, -1.35478297e+005,
          4.43313063e+005, -2.26128875e+005, -63466., 4.08103125e+005,
          5.64230625e+005, -1.62323750e+005, 1.47556344e+005,
          -1.15715281e+005, -1.91081438e+005, -4.99855125e+005,
          2.13227922e+005, -4.62414141e+004, -1.51502744e+004,
          -1.52714547e+005, -2.61362609e+005, 6.02501375e+005,
          5.44612438e+005, -1.78641031e+005, 3.20312813e+005,
          4.00925031e+005, -4.11885508e+004, 4.87598127e-036,
          4.88570472e-036, 4.91775889e-036, 5.22645100e-036,
          5.25554491e-036, 1.38781871e+038, -1.49122075e+036,
          1.00502953e-034, 0., 0., 0., 0., 0., 0., 0., 0., 0., 0., 0.,
          0., 0., 0., 0., 0., 0., 0., 0., 0., 0., 0., -5.70549634e-037,
          -5.76278411e-037, -6.30536687e-037, -7.14848085e-037,
          -7.06637552e-037, -5.82578141e+037, 1.17449745e+036,
          -2.60502577e-036, 0., 0., 0., 0., 0., 0., 0., 0., 0., 0., 0.,
          0., 0., 0., 0., 0., 0., 0., 0., 0., 0., 0., -2.01530620e-037,
          -1.41643899e-037, -2.55353395e-037, -3.05911750e-037,
          -3.14652019e-037, 3.48616363e+037, -1.85899059e+035,
          3.40589408e-036, 0., 0., 0., 0., 0., 0., 0., 0., 0., 0., 0.,
          0., 0., 0., 0., 0., 0., 0., 0., 0., 0., 0. ]
   decision_functions:
      -
         sv_count: 1
         rho: -1.5312705456123111e+035
         alpha: [ 1. ]
         index: [ 0 ]
