%YAML:1.0
my_svm: !!opencv-ml-svm
   svm_type: C_SVC
   kernel: { type:LINEAR }
   C: 1.0000000000000001e-01
   term_criteria: { epsilon:2.2204460492503131e-16, iterations:100 }
   var_all: 120
   var_count: 120
   class_count: 2
   class_labels: !!opencv-matrix
      rows: 1
      cols: 2
      dt: i
      data: [ 0, 1 ]
   sv_total: 1
   support_vectors:
      - [ 1.93670689e-06, 3.08263253e-07, -1.88620490e-07,
          1.59741251e-06, 4.52456561e-07, -8.81927576e-07,
          1.15459147e-06, 1.68713632e-06, 9.09770847e-07, 5.88548687e-07,
          2.52138784e-06, -1.43365412e-06, 8.63653213e-07,
          -8.87709632e-07, 2.52806672e-07, -5.78130141e-07,
          -7.29836643e-07, 2.19918047e-06, -1.02519516e-06,
          -3.62885771e-07, 6.14779836e-08, 1.48904292e-07,
          7.62791217e-07, 4.30204551e-07, -7.96872598e-07,
          -8.67032554e-07, 8.85216593e-08, -1.51825532e-06,
          -6.31162493e-07, 2.22058725e-06, 1.78409903e-06,
          4.92871209e-07, 1.15189096e-07, 1.68673103e-06, 6.85869907e-07,
          -1.73319876e-07, -6.23763299e-07, 1.36173992e-06,
          1.35999960e-06, -7.87000403e-08, -1.25794074e-07,
          1.29592854e-06, 9.72492558e-07, -9.21813239e-07,
          5.67741154e-07, 1.14268339e-07, 2.81345137e-07,
          -5.51140204e-07, 8.83340704e-07, 1.99037927e-07,
          9.45241936e-07, 1.12369435e-06, 1.19008985e-06, 1.61966341e-07,
          1.27739997e-06, 1.34838660e-06, -2.31532476e-06,
          7.67556230e-07, -4.27672688e-08, -1.46999992e-06,
          -2.76495894e-06, 4.74788067e-07, -2.25597068e-06,
          -4.34320810e-07, 1.13896738e-06, -9.47427665e-08,
          -5.80529729e-07, 1.53573694e-06, 1.04309140e-06,
          5.67004122e-07, 4.65262502e-07, -3.34732249e-07,
          3.74619333e-07, -4.64817231e-06, 1.82156214e-06,
          3.95373149e-07, 2.44518355e-06, -4.20507234e-07,
          1.53699986e-07, 1.32391722e-06, 2.65496010e-06, 1.89412367e-06,
          -3.36284575e-06, 1.12322653e-06, 3.08059430e-06,
          3.28666442e-06, 1.95050143e-06, -1.44025569e-06,
          -4.07400229e-08, -1.92502830e-06, 4.95113712e-03,
          -1.25840318e-03, 1.21143076e-03, -1.09584937e-04,
          -9.48319037e-04, -1.30600249e-03, 8.34622042e-05,
          -3.27792164e-04, 4.26008832e-04, -2.28679201e-04,
          -4.54435940e-04, 6.14875229e-04, 1.99498936e-05,
          3.12017539e-04, 5.44401410e-04, -3.81188656e-05,
          -8.93278222e-04, 3.97117728e-05, -3.70368653e-04,
          1.16519608e-04, -4.44385631e-04, 1.85789599e-04,
          -5.42601745e-04, -3.21513304e-04, 1.81893731e-04,
          -1.77582653e-04, 1.16094634e-04, 1.37281299e-04,
          -4.12917783e-04, 3.17716389e-04 ]
   decision_functions:
      -
         sv_count: 1
         rho: -1.8248419104623197e+00
         alpha: [ 1. ]
         index: [ 0 ]
