%YAML:1.0
my_svm: !!opencv-ml-svm
   svm_type: C_SVC
   kernel: { type:LINEAR }
   C: 1.0000000000000001e-001
   term_criteria: { epsilon:2.2204460492503131e-016, iterations:100 }
   var_all: 120
   var_count: 120
   class_count: 2
   class_labels: !!opencv-matrix
      rows: 1
      cols: 2
      dt: i
      data: [ 0, 1 ]
   sv_total: 1
   support_vectors:
      - [ 3.15121213e-007, -7.31427505e-008, -1.56711152e-007,
          -3.33753832e-007, 1.56341304e-008, 5.14472953e-009,
          2.19800455e-007, -1.08311633e-006, 1.12417979e-007,
          2.87748662e-007, -8.47835395e-007, -2.23564371e-007,
          -9.10096389e-007, 9.17569821e-007, 1.68515939e-008,
          -2.64677652e-007, -9.70799441e-009, 3.34055187e-007,
          3.86187480e-007, 3.31280006e-007, -6.14819768e-008,
          -2.24804239e-007, -3.93961670e-007, 5.32603615e-008,
          -3.44649607e-007, 1.38928598e-007, -4.50080506e-007,
          -1.06811194e-006, -1.97558833e-007, 2.11130722e-008,
          1.19614072e-006, 1.36409312e-007, 1.21538881e-006,
          -4.94984675e-008, 1.05985507e-007, -8.47432602e-007,
          1.46790455e-007, 2.21958430e-007, 7.49057065e-008,
          -4.27194465e-007, -3.07381526e-007, -1.71347921e-007,
          1.16211559e-007, -1.05469974e-006, 2.63228372e-007,
          -2.40090486e-007, 1.07058327e-007, 7.04563590e-008,
          -4.16010721e-007, 3.11113894e-007, -1.16010817e-007,
          -4.17259145e-007, 1.08429219e-007, 2.27159290e-007,
          1.50050923e-007, -3.34679342e-008, 2.60923116e-007,
          -2.51432851e-007, -2.24209529e-007, -1.11704969e-006,
          3.07446129e-007, 2.09871189e-007, 6.59836203e-008,
          2.63507872e-007, 1.44291420e-007, -3.84895770e-007,
          -2.46921189e-007, -2.21613575e-007, 1.45940518e-007,
          1.39324811e-006, 1.15740605e-007, 2.51599374e-007,
          -2.99944048e-007, 1.10515401e-007, 1.41399411e-007,
          -5.92429615e-007, 2.88506556e-007, -5.80116705e-007,
          -6.99290240e-007, -1.18611851e-007, 1.15328561e-007,
          9.44733785e-008, 1.02965894e-008, 1.84455260e-007,
          -5.83026235e-007, 1.21089394e-009, 1.98232666e-008,
          9.02903707e-008, 5.56156792e-008, -1.07962947e-007,
          3.51258289e-009, -2.96927261e-009, 3.66364022e-010,
          1.27617727e-009, -3.49221277e-011, 2.71655670e-010,
          2.10090989e-009, 8.60745419e-010, -2.80797163e-010,
          -6.36682485e-010, 3.93637484e-010, 4.96152341e-010,
          3.77483866e-009, 3.63261698e-010, -2.50631932e-010,
          -1.49865276e-009, 5.92073612e-011, 1.30442401e-009,
          1.63577996e-009, -6.82098822e-010, -8.75879647e-010,
          -6.38757547e-010, 1.09686739e-010, -9.17251053e-010,
          -1.19141719e-009, 5.33746727e-011, 3.41246698e-010,
          7.50732865e-010, -2.94977653e-010, 1.08081988e-010 ]
   decision_functions:
      -
         sv_count: 1
         rho: -5.9298197293202359e-001
         alpha: [ 1. ]
         index: [ 0 ]
