%YAML:1.0
my_svm: !!opencv-ml-svm
   svm_type: C_SVC
   kernel: { type:LINEAR }
   C: 1.0000000000000001e-001
   term_criteria: { epsilon:2.2204460492503131e-016, iterations:100 }
   var_all: 120
   var_count: 120
   class_count: 2
   class_labels: !!opencv-matrix
      rows: 1
      cols: 2
      dt: i
      data: [ 0, 1 ]
   sv_total: 1
   support_vectors:
      - [ -2.38196577e-007, -5.78613957e-008, -4.14108428e-008,
          -1.37726829e-007, -8.41451353e-008, -6.72350424e-008,
          -9.96254670e-008, 3.31700278e-007, -4.51346693e-008,
          -1.42705886e-007, 8.17128196e-008, 7.61783454e-008,
          -5.37275433e-008, -2.17980556e-007, -6.95462887e-008,
          -1.48452926e-007, -7.14548865e-009, -5.62433584e-008,
          -2.62979132e-008, 1.75994217e-007, -2.32596484e-008,
          -8.24189570e-008, 2.65706859e-007, -6.07268689e-008,
          -2.10907473e-007, -8.43012629e-008, 2.90586286e-007,
          1.51113440e-007, -4.26645244e-008, -3.99059950e-008,
          -2.22282477e-008, 1.12096799e-007, -2.23625118e-008,
          -5.46977077e-008, -1.15850533e-007, 1.51126489e-009,
          -1.41468547e-007, 1.03153681e-008, -7.35854684e-008,
          6.48305942e-008, 1.42271324e-008, -3.16454560e-008,
          -2.64679425e-008, 1.98339833e-007, 5.91430194e-008,
          7.26237985e-008, -9.37338598e-008, -7.38982706e-008,
          2.14319414e-007, -1.16328103e-007, -1.79618542e-010,
          6.14387972e-008, -5.90683555e-008, -9.38680529e-008,
          -3.44424222e-008, -7.42054027e-008, -9.59193258e-009,
          -6.98157407e-008, 3.76642753e-008, 1.03995077e-007,
          -4.40170737e-007, -1.42270196e-007, -3.26289154e-007,
          -2.65870511e-007, -1.03360556e-007, 3.02469765e-008,
          6.23065660e-007, 5.39070015e-007, -1.68723972e-007,
          1.25543579e-007, -8.09952496e-008, -1.50168631e-007,
          2.70984344e-007, -2.19224233e-007, -3.23624846e-007,
          -1.20753910e-007, -1.28416957e-007, 9.79387323e-007,
          6.39316909e-007, 1.04324165e-007, 5.83495137e-007,
          2.07340591e-007, -1.79731003e-007, 3.73917061e-007,
          -3.70340388e-007, -1.99616636e-007, -1.24687404e-007,
          3.01361609e-007, -4.30046327e-008, -3.95083958e-007,
          -2.90551999e-010, 5.49580514e-009, -3.84106169e-009,
          9.31406841e-010, -1.59327967e-010, -1.49045065e-009,
          -1.07627074e-009, -9.06542008e-010, 8.77839357e-010,
          -4.33449138e-010, 1.73313630e-009, -1.50161186e-011,
          -2.33440134e-009, -2.29011543e-009, 6.77826351e-010,
          1.77865178e-009, 6.33703978e-010, -9.20425902e-010,
          -2.03732120e-009, -1.32042641e-010, 1.23453270e-009,
          -5.59930824e-010, -3.93476418e-010, 2.59158750e-010,
          7.56415985e-010, 1.07350817e-009, 2.08848966e-010,
          3.91590177e-010, -1.75764646e-011, 1.91263533e-010 ]
   decision_functions:
      -
         sv_count: 1
         rho: 2.3562609800276282e-001
         alpha: [ 1. ]
         index: [ 0 ]
