%YAML:1.0
my_svm: !!opencv-ml-svm
   svm_type: C_SVC
   kernel: { type:LINEAR }
   C: 1.0000000000000001e-001
   term_criteria: { epsilon:2.2204460492503131e-016, iterations:100 }
   var_all: 120
   var_count: 120
   class_count: 2
   class_labels: !!opencv-matrix
      rows: 1
      cols: 2
      dt: i
      data: [ 0, 1 ]
   sv_total: 1
   support_vectors:
      - [ -8.63833702e-005, 7.00649232e-045, 2.66246708e-044,
          4.62428493e-044, 5.60519386e-044, 7.00649232e-044,
          1.30320757e-043, -2.80259693e-045, 0., 0., 0., 0., 0., 0., 0.,
          0., 0., 0., 0., 0., 0., 0., 0., 0., 0., 0., 0., 0., 0., 0.,
          2.32958002e-004, 8.40779079e-045, 2.38220739e-044,
          5.46506401e-044, 1.09301280e-043, 1.70958413e-043,
          2.25609053e-043, 2.80259693e-044, 0., 0., 0., 0., 0., 0., 0.,
          0., 0., 0., 0., 0., 0., 0., 0., 0., 0., 0., 0., 0., 0., 0.,
          8.25342431e-004, -1.26116862e-043, -3.76949287e-043,
          -7.35681694e-043, -1.49798806e-042, -2.52373853e-042,
          -3.11508649e-042, -1.31722056e-043, 0., 0., 0., 0., 0., 0., 0.,
          0., 0., 0., 0., 0., 0., 0., 0., 0., 0., 0., 0., 0., 0., 0.,
          -3.18121660e-004, 1.26819196e-003, -9.57104436e-004,
          -1.57550152e-003, 0., 0., 0., 0., 0., 0., 0., 0., 0., 0., 0.,
          0., 0., 0., 0., 0., 0., 0., 0., 0., 0., 0., 0., 0., 0., 0. ]
   decision_functions:
      -
         sv_count: 1
         rho: -2.4254861947676370e-001
         alpha: [ 1. ]
         index: [ 0 ]
