%YAML:1.0
my_svm: !!opencv-ml-svm
   svm_type: C_SVC
   kernel: { type:LINEAR }
   C: 1.
   term_criteria: { epsilon:2.2204460492503131e-016, iterations:100 }
   var_all: 63
   var_count: 63
   class_count: 2
   class_labels: !!opencv-matrix
      rows: 1
      cols: 2
      dt: i
      data: [ 0, 1 ]
   sv_total: 1
   support_vectors:
      - [ -2.21842021e-001, -3.07323202e-003, -6.26332879e-001,
          5.00000000e-001, -3.94013882e-001, -1.37386823e+000,
          4.08610195e-001, -5.03073215e-001, -2.74909794e-001,
          -1.08139455e+000, 0., -2.29890049e-001, -5.00000000e-001,
          -2.91589439e-001, 4.08610195e-001, -8.03616822e-001, 0., 0.,
          -1.53702831e+000, 3.73667151e-001, 7.33793497e-001,
          1.75343000e-003, -9.93789062e-002, 5.75601637e-001,
          -3.06791753e-001, 0., 0., 0., 2.97813892e-001, 4.63682622e-001,
          0., 0., 2.71649331e-001, 0., 9.01815593e-001, 0.,
          2.22566247e-001, 6.89759552e-001, 5.62774062e-001,
          -5.94650209e-001, -2.52665699e-001, 4.09043491e-001,
          5.40219903e-001, -1., 5.82706213e-001, 0., -7.88027763e-001,
          1.82779625e-001, 0., 2.97770619e-001, -8.87887329e-002, 0., 0.,
          5.16781136e-002, 0., -7.95151114e-001, 0., 0., -1.,
          3.14900279e-001, -1.01717699e+000, 7.47334301e-001,
          4.60465252e-002 ]
   decision_functions:
      -
         sv_count: 1
         rho: -3.9411088203238759e-001
         alpha: [ 1. ]
         index: [ 0 ]
