%YAML:1.0
my_svm: !!opencv-ml-svm
   svm_type: C_SVC
   kernel: { type:LINEAR }
   C: 1.
   term_criteria: { epsilon:2.2204460492503131e-016, iterations:100 }
   var_all: 9
   var_count: 9
   class_count: 2
   class_labels: !!opencv-matrix
      rows: 1
      cols: 2
      dt: i
      data: [ 0, 1 ]
   sv_total: 1
   support_vectors:
      - [ 4.00000006e-001, 5.00000000e-001, -8.99999976e-001,
          2.16666669e-001, -4.33333337e-001, 2.16666669e-001,
          2.33333334e-001, 8.83333325e-001, -1.11666667e+000 ]
   decision_functions:
      -
         sv_count: 1
         rho: -9.9999999999929520e-002
         alpha: [ 1. ]
         index: [ 0 ]
