%YAML:1.0
my_svm: !!opencv-ml-svm
   svm_type: C_SVC
   kernel: { type:LINEAR }
   C: 1.
   term_criteria: { epsilon:2.2204460492503131e-016, iterations:100 }
   var_all: 15
   var_count: 15
   class_count: 2
   class_labels: !!opencv-matrix
      rows: 1
      cols: 2
      dt: i
      data: [ 0, 1 ]
   sv_total: 1
   support_vectors:
      - [ -4.08215746e-002, -5.02120554e-001, -8.20885226e-002,
          -3.79210472e-001, -8.78785551e-001, 3.85538727e-001,
          3.72184843e-001, 7.30037868e-001, 5.20659506e-001, 0.,
          4.69748586e-001, -2.93964483e-002, 0., -1.47934055e+000,
          -8.78785551e-001 ]
   decision_functions:
      -
         sv_count: 1
         rho: -2.1323131840508450e-001
         alpha: [ 1. ]
         index: [ 0 ]
