%YAML:1.0
my_svm: !!opencv-ml-svm
   svm_type: C_SVC
   kernel: { type:LINEAR }
   C: 1.0000000000000001e-001
   term_criteria: { epsilon:2.2204460492503131e-016, iterations:100 }
   var_all: 80
   var_count: 80
   class_count: 2
   class_labels: !!opencv-matrix
      rows: 1
      cols: 2
      dt: i
      data: [ 0, 1 ]
   sv_total: 1
   support_vectors:
      - [ -3.69847078e-012, 0., 3.31108496e-009, 0., 0., 0., 0., 0., 0.,
          0., 0., 0., 0., 0., 0., 0., 0., -1.41861349e-011,
          -5.61817259e-012, -5.16902059e-012, -6.80450557e-011,
          7.98292075e-012, -1.93439657e-011, -4.15286867e-011,
          1.24267957e-012, -7.68033293e-012, -3.66587663e-011,
          8.38939161e-012, 1.62350532e-011, 1.73758386e-011,
          8.68564335e-013, 3.86473943e-011, 1.36476360e-011,
          -3.15588840e-011, 2.50699565e-011, 6.98794286e-011,
          -1.92710084e-011, 5.95872102e-011, -8.02925851e-011,
          -1.63625602e-012, 5.79116019e-014, -8.73859412e-015,
          2.10289888e-014, 3.76188033e-014, -4.25363378e-014,
          -8.58566910e-015, -6.47128555e-015, -3.05521184e-016,
          -6.38793370e-015, 8.38596658e-016, 8.03884507e-016,
          4.51381215e-014, -7.99256647e-015, 3.51766617e-014,
          -1.92476497e-014, 3.59542532e-015, 1.03926572e-014,
          6.91401443e-015, -1.84180369e-015, -1.48188126e-014,
          1.56156210e-015, -2.27832144e-014, -6.46936999e-015,
          -1.51351934e-015, 8.52263630e-015, -4.10927764e-016,
          1.24297638e-014, -5.85228404e-015, 2.56865769e-015,
          -2.12249241e-015, 1.13067447e-014, -6.73880651e-015,
          -2.16855723e-015, 2.55543540e-016, -3.07053657e-015,
          -1.37136066e-014, 2.50426350e-015, -1.33271952e-014,
          -4.88053269e-015, 8.42625750e-015 ]
   decision_functions:
      -
         sv_count: 1
         rho: -4.1239246198655061e-001
         alpha: [ 1. ]
         index: [ 0 ]
