%YAML:1.0
my_svm: !!opencv-ml-svm
   svm_type: C_SVC
   kernel: { type:LINEAR }
   C: 1.
   term_criteria: { epsilon:2.2204460492503131e-016, iterations:100 }
   var_all: 9
   var_count: 9
   class_count: 2
   class_labels: !!opencv-matrix
      rows: 1
      cols: 2
      dt: i
      data: [ 0, 1 ]
   sv_total: 1
   support_vectors:
      - [ -1.81250048e+000, 1.87503800e-001, 5.62501431e-001,
          3.74998599e-001, -6.25000954e-001, 3.74998599e-001,
          -3.74999344e-001, -1.87498108e-001, -3.75001460e-001 ]
   decision_functions:
      -
         sv_count: 1
         rho: -6.2499820944753748e-001
         alpha: [ 1. ]
         index: [ 0 ]
