%YAML:1.0
my_svm: !!opencv-ml-svm
   svm_type: C_SVC
   kernel: { type:POLY, degree:3.4300000000000002e+000,
       gamma:3.3750000000000002e-002, coef0:2.7440000000000003e+002 }
   C: 1.0000000000000001e-001
   term_criteria: { epsilon:2.2204460492503131e-016, iterations:100 }
   var_all: 50
   var_count: 50
   class_count: 2
   class_labels: !!opencv-matrix
      rows: 1
      cols: 2
      dt: i
      data: [ 0, 1 ]
   sv_total: 11
   support_vectors:
      - [ 2.15053763e-002, 1.68970823e-002, 6.14439324e-003,
          1.53609831e-002, 2.61136703e-002, 3.37941647e-002,
          2.76497696e-002, 2.45775729e-002, 6.14439324e-003,
          2.45775729e-002, 1.68970823e-002, 2.45775729e-002,
          4.45468500e-002, 9.21658985e-003, 2.30414756e-002,
          2.15053763e-002, 1.84331797e-002, 2.30414756e-002,
          2.76497696e-002, 2.76497696e-002, 2.76497696e-002,
          1.22887865e-002, 2.15053763e-002, 2.15053763e-002,
          1.68970823e-002, 4.60829493e-003, 1.38248848e-002,
          2.91858688e-002, 1.22887865e-002, 3.84024568e-002,
          3.53302620e-002, 1.68970823e-002, 1.38248848e-002,
          7.68049154e-003, 3.37941647e-002, 9.21658985e-003,
          1.22887865e-002, 2.30414756e-002, 1.84331797e-002,
          2.15053763e-002, 1.07526882e-002, 9.21658985e-003,
          2.45775729e-002, 3.07219662e-002, 1.07526882e-002,
          7.68049154e-003, 2.15053763e-002, 2.15053763e-002,
          1.53609831e-002, 1.84331797e-002 ]
      - [ 5.22388034e-002, 7.46268639e-003, 7.46268639e-003,
          7.46268639e-003, 1.49253728e-002, 3.73134315e-002,
          2.23880596e-002, 7.46268639e-003, 1.49253728e-002, 0.,
          2.23880596e-002, 2.98507456e-002, 2.23880596e-002,
          2.23880596e-002, 0., 2.98507456e-002, 1.49253728e-002,
          1.49253728e-002, 2.98507456e-002, 7.46268639e-003,
          5.22388034e-002, 3.73134315e-002, 3.73134315e-002,
          2.98507456e-002, 7.46268639e-003, 0., 7.46268639e-003, 0.,
          5.97014911e-002, 0., 0., 7.46268639e-003, 4.47761193e-002,
          7.46268639e-003, 3.73134315e-002, 5.22388034e-002,
          2.23880596e-002, 0., 7.46268639e-003, 1.49253728e-002,
          7.46268639e-003, 2.98507456e-002, 7.46268639e-003,
          4.47761193e-002, 7.46268639e-003, 2.23880596e-002,
          2.98507456e-002, 2.23880596e-002, 7.46268639e-003,
          2.98507456e-002 ]
      - [ 3.00751887e-002, 2.25563906e-002, 1.50375944e-002,
          7.51879718e-003, 1.50375944e-002, 5.26315793e-002,
          5.26315793e-002, 7.51879718e-003, 2.25563906e-002, 0., 0.,
          2.25563906e-002, 1.50375944e-002, 1.50375944e-002, 0.,
          1.50375944e-002, 1.50375944e-002, 7.51879718e-003,
          3.00751887e-002, 5.26315793e-002, 2.25563906e-002,
          3.75939868e-002, 3.00751887e-002, 5.26315793e-002,
          1.50375944e-002, 0., 2.25563906e-002, 0., 2.25563906e-002, 0.,
          1.50375944e-002, 1.50375944e-002, 5.26315793e-002, 0.,
          3.75939868e-002, 1.50375944e-002, 2.25563906e-002, 0., 0.,
          5.26315793e-002, 2.25563906e-002, 7.51879718e-003,
          1.50375944e-002, 1.50375944e-002, 1.50375944e-002, 0.,
          7.51879718e-003, 0., 2.25563906e-002, 8.27067718e-002 ]
      - [ 3.80228125e-002, 7.60456268e-003, 1.14068445e-002,
          7.60456268e-003, 7.60456268e-003, 3.42205316e-002,
          2.66159698e-002, 7.60456268e-003, 7.60456268e-003,
          7.60456268e-003, 1.52091254e-002, 3.04182507e-002,
          2.66159698e-002, 2.28136890e-002, 3.80228134e-003,
          2.66159698e-002, 0., 7.60456268e-003, 2.66159698e-002,
          3.04182507e-002, 4.56273779e-002, 7.22433478e-002,
          1.90114062e-002, 5.32319397e-002, 7.60456268e-003,
          1.52091254e-002, 3.80228125e-002, 1.14068445e-002,
          1.52091254e-002, 0., 7.60456268e-003, 1.14068445e-002,
          4.18250933e-002, 3.80228134e-003, 1.52091254e-002,
          3.42205316e-002, 3.04182507e-002, 0., 3.80228134e-003,
          1.52091254e-002, 1.90114062e-002, 1.90114062e-002,
          1.52091254e-002, 2.28136890e-002, 1.52091254e-002, 0.,
          1.52091254e-002, 2.66159698e-002, 1.52091254e-002,
          6.46387860e-002 ]
      - [ 2.79720277e-002, 2.79720277e-002, 1.39860138e-002,
          6.99300691e-003, 6.99300691e-003, 2.79720277e-002,
          2.09790207e-002, 3.49650346e-002, 0., 6.99300691e-003,
          2.09790207e-002, 2.09790207e-002, 2.79720277e-002, 0.,
          6.99300691e-003, 2.09790207e-002, 0., 1.39860138e-002,
          1.39860138e-002, 4.19580415e-002, 1.39860138e-002,
          4.89510484e-002, 6.99300691e-003, 1.11888111e-001,
          2.79720277e-002, 5.59440553e-002, 4.89510484e-002,
          6.99300691e-003, 6.99300691e-003, 0., 0., 1.39860138e-002,
          2.79720277e-002, 6.99300691e-003, 2.79720277e-002,
          6.99300691e-003, 1.39860138e-002, 6.99300691e-003, 0.,
          2.79720277e-002, 2.79720277e-002, 0., 2.09790207e-002, 0.,
          2.79720277e-002, 6.99300691e-003, 1.39860138e-002, 0.,
          1.39860138e-002, 8.39160830e-002 ]
      - [ 3.19148935e-002, 3.54609936e-002, 1.77304968e-002,
          1.06382975e-002, 1.06382975e-002, 1.06382975e-002,
          2.12765951e-002, 4.25531901e-002, 0., 1.41843967e-002,
          1.41843967e-002, 2.12765951e-002, 7.09219836e-003,
          1.77304968e-002, 1.06382975e-002, 2.12765951e-002,
          3.54609918e-003, 1.77304968e-002, 3.54609936e-002,
          2.48226933e-002, 2.12765951e-002, 3.54609918e-003,
          3.54609936e-002, 2.48226933e-002, 3.90070900e-002,
          6.02836870e-002, 5.31914867e-002, 1.77304968e-002,
          7.09219836e-003, 1.41843967e-002, 1.77304968e-002,
          1.41843967e-002, 2.48226933e-002, 7.09219836e-003,
          1.41843967e-002, 1.77304968e-002, 3.54609918e-003,
          3.54609918e-003, 7.09219836e-003, 4.60992903e-002,
          1.77304968e-002, 2.83687934e-002, 1.77304968e-002,
          1.77304968e-002, 2.12765951e-002, 2.48226933e-002,
          1.41843967e-002, 1.06382975e-002, 1.77304968e-002,
          2.83687934e-002 ]
      - [ 8.74999985e-002, 1.25000002e-002, 1.25000002e-002,
          1.25000002e-002, 0., 6.25000000e-002, 7.50000030e-002, 0.,
          2.50000004e-002, 0., 2.50000004e-002, 3.75000015e-002, 0.,
          6.25000000e-002, 1.25000002e-002, 5.00000007e-002, 0., 0.,
          1.25000002e-002, 3.75000015e-002, 1.25000002e-002,
          1.25000002e-002, 0., 1.25000002e-002, 1.25000002e-002, 0.,
          1.25000002e-002, 1.25000002e-002, 2.50000004e-002, 0., 0.,
          1.25000002e-002, 5.00000007e-002, 2.50000004e-002,
          1.25000002e-002, 2.50000004e-002, 5.00000007e-002,
          1.25000002e-002, 0., 0., 0., 3.75000015e-002, 2.50000004e-002,
          0., 0., 2.50000004e-002, 1.25000002e-002, 2.50000004e-002,
          5.00000007e-002, 1.25000002e-002 ]
      - [ 3.35570462e-002, 2.68456377e-002, 2.68456377e-002,
          6.71140943e-003, 6.71140943e-003, 2.68456377e-002,
          2.68456377e-002, 4.02684584e-002, 2.68456377e-002, 0., 0.,
          2.01342292e-002, 3.35570462e-002, 6.71140943e-003, 0.,
          6.71140924e-002, 6.71140943e-003, 2.68456377e-002,
          4.69798669e-002, 0., 0., 2.01342292e-002, 2.68456377e-002,
          1.34228189e-002, 6.71140943e-003, 4.69798669e-002,
          6.04026839e-002, 0., 1.34228189e-002, 0., 1.34228189e-002,
          2.01342292e-002, 2.68456377e-002, 0., 2.01342292e-002,
          2.01342292e-002, 2.68456377e-002, 6.71140943e-003,
          1.34228189e-002, 4.69798669e-002, 1.34228189e-002,
          6.71140943e-003, 2.68456377e-002, 1.34228189e-002,
          1.34228189e-002, 2.01342292e-002, 1.34228189e-002,
          6.71140943e-003, 2.68456377e-002, 4.69798669e-002 ]
      - [ 3.61445770e-002, 1.80722885e-002, 1.20481923e-002,
          6.02409616e-003, 3.61445770e-002, 4.81927693e-002,
          4.21686731e-002, 1.20481923e-002, 1.20481923e-002,
          1.80722885e-002, 0., 1.20481923e-002, 2.40963846e-002,
          4.81927693e-002, 1.20481923e-002, 2.40963846e-002,
          6.02409616e-003, 1.80722885e-002, 2.40963846e-002,
          3.61445770e-002, 1.80722885e-002, 5.42168655e-002,
          6.02409616e-003, 5.42168655e-002, 0., 6.02409616e-003,
          6.02409616e-003, 6.02409616e-003, 2.40963846e-002, 0.,
          6.02409616e-003, 1.80722885e-002, 2.40963846e-002,
          2.40963846e-002, 1.80722885e-002, 1.20481923e-002,
          2.40963846e-002, 1.20481923e-002, 1.20481923e-002,
          2.40963846e-002, 1.20481923e-002, 1.80722885e-002,
          6.02409616e-003, 6.02409616e-003, 0., 1.20481923e-002,
          3.01204808e-002, 9.03614461e-002, 6.02409616e-003,
          2.40963846e-002 ]
      - [ 1.40056023e-002, 2.52100844e-002, 2.24089641e-002,
          1.96078438e-002, 8.40336177e-003, 1.96078438e-002,
          3.92156877e-002, 1.40056023e-002, 2.80112051e-003,
          1.40056023e-002, 8.40336177e-003, 1.96078438e-002,
          3.36134471e-002, 2.52100844e-002, 1.12044821e-002,
          2.52100844e-002, 8.40336177e-003, 3.36134471e-002,
          8.40336177e-003, 3.08123250e-002, 3.08123250e-002,
          1.68067235e-002, 8.40336177e-003, 3.64145674e-002,
          1.40056023e-002, 3.64145674e-002, 1.96078438e-002,
          5.60224103e-003, 1.96078438e-002, 8.40336177e-003,
          1.40056023e-002, 2.80112047e-002, 2.24089641e-002,
          3.64145674e-002, 1.12044821e-002, 1.68067235e-002,
          3.36134471e-002, 5.60224103e-003, 1.40056023e-002,
          2.80112047e-002, 1.68067235e-002, 2.52100844e-002,
          2.24089641e-002, 2.80112051e-003, 8.40336177e-003,
          2.80112051e-003, 2.52100844e-002, 2.24089641e-002,
          2.52100844e-002, 5.88235296e-002 ]
      - [ 2.61780098e-002, 1.57068074e-002, 5.23560215e-003,
          2.09424086e-002, 1.57068074e-002, 2.61780098e-002,
          2.61780098e-002, 2.61780098e-002, 1.57068074e-002,
          5.23560215e-003, 5.23560215e-003, 3.14136147e-002,
          2.61780098e-002, 0., 5.23560215e-003, 2.09424086e-002, 0.,
          1.57068074e-002, 1.04712043e-002, 2.09424086e-002,
          2.61780098e-002, 4.18848172e-002, 1.57068074e-002,
          5.23560196e-002, 2.61780098e-002, 1.04712043e-002,
          3.66492160e-002, 5.23560215e-003, 1.57068074e-002, 0.,
          2.61780098e-002, 3.14136147e-002, 5.23560215e-003,
          3.14136147e-002, 4.71204184e-002, 5.23560215e-003,
          2.61780098e-002, 0., 5.23560215e-003, 1.57068074e-002,
          1.57068074e-002, 1.04712043e-002, 2.61780098e-002,
          3.66492160e-002, 1.04712043e-002, 1.04712043e-002,
          6.80628270e-002, 5.23560215e-003, 1.57068074e-002,
          5.75916246e-002 ]
   decision_functions:
      -
         sv_count: 11
         rho: 3.4718487624149739e+000
         alpha: [ 7.2461300566859649e-002, 3.7734157833497192e-002,
             6.7647107727177178e-002, 1.0000000000000001e-001,
             6.4059899663883951e-002, 5.7492309992863214e-002,
             6.0522421571883951e-004, -1.0000000000000001e-001,
             -1.0000000000000001e-001, -1.0000000000000001e-001,
             -1.0000000000000001e-001 ]
         index: [ 0, 1, 2, 3, 4, 5, 6, 7, 8, 9, 10 ]
