%YAML:1.0
my_svm: !!opencv-ml-svm
   svm_type: C_SVC
   kernel: { type:LINEAR }
   C: 1.
   term_criteria: { epsilon:2.2204460492503131e-016, iterations:100 }
   var_all: 60
   var_count: 60
   class_count: 2
   class_labels: !!opencv-matrix
      rows: 1
      cols: 2
      dt: i
      data: [ 0, 1 ]
   sv_total: 1
   support_vectors:
      - [ -3.19540050e-006, -3.55400715e-007, -2.43499221e-006,
          -1.07150800e-006, -1.74590480e-006, 5.09101073e-006,
          -4.20049105e-007, -4.51066217e-006, 7.61322326e-006,
          2.05198830e-006, -2.50104199e-006, -2.53931148e-006,
          -1.05846607e-006, 4.68769167e-006, 8.88368334e-007,
          -3.49133506e-006, 2.92083769e-006, -4.69604856e-006,
          -2.52249606e-006, 2.96755752e-006, -1.54957161e-006,
          2.62512202e-007, 1.86717216e-006, 1.69469581e-006,
          3.17343529e-006, -1.06856476e-006, 5.25957432e-007,
          2.05219885e-006, 1.41703492e-006, 3.04808464e-006,
          2.29342390e-006, -1.46238861e-007, 3.52476309e-006,
          1.36800497e-006, 1.11109749e-007, 1.81012410e-006,
          1.62406093e-006, -7.34824471e-006, 2.14321815e-007,
          -9.24091594e-008, -4.42730723e-008, -5.85220228e-008,
          6.69857414e-008, 1.92730987e-008, 2.53756252e-008,
          4.78518558e-008, -9.89100712e-009, 3.87520949e-009,
          -2.90849815e-008, 1.04537847e-007, 5.70038488e-008,
          -1.07808491e-008, 5.32625144e-008, -1.99880308e-008,
          3.30482237e-008, 1.79974986e-008, -2.28103634e-008,
          3.91305122e-008, -1.14983668e-010, 2.69176255e-008 ]
   decision_functions:
      -
         sv_count: 1
         rho: 1.2641086683695828e+000
         alpha: [ 1. ]
         index: [ 0 ]
