%YAML:1.0
my_svm: !!opencv-ml-svm
   svm_type: C_SVC
   kernel: { type:LINEAR }
   C: 1.
   term_criteria: { epsilon:2.2204460492503131e-016, iterations:100 }
   var_all: 15
   var_count: 15
   class_count: 2
   class_labels: !!opencv-matrix
      rows: 1
      cols: 2
      dt: i
      data: [ 0, 1 ]
   sv_total: 1
   support_vectors:
      - [ 4.29264212e-004, 1.86687242e-003, -3.40960477e-003,
          3.24987480e-003, -5.72636025e-003, 1.58274823e-004,
          -1.03712745e-003, -5.87247487e-004, -9.44321626e-004,
          6.96679490e-005, 3.74550000e-004, 1.48477789e-003,
          -7.08668958e-004, -2.08767742e-005, -2.04258785e-003 ]
   decision_functions:
      -
         sv_count: 1
         rho: 1.1556014121693181e-001
         alpha: [ 1. ]
         index: [ 0 ]
