%YAML:1.0
my_svm: !!opencv-ml-svm
   svm_type: C_SVC
   kernel: { type:POLY, degree:3.4300000000000002e+000,
       gamma:2.2500000000000003e-003, coef0:2.7440000000000003e+002 }
   C: 1.0000000000000001e-001
   term_criteria: { epsilon:2.2204460492503131e-016, iterations:100 }
   var_all: 9
   var_count: 9
   class_count: 2
   class_labels: !!opencv-matrix
      rows: 1
      cols: 2
      dt: i
      data: [ 0, 1 ]
   sv_total: 4
   support_vectors:
      - [ 5.00000000e-001, 5.00000000e-001, 0., 0., 1., 0., 0., 1., 0. ]
      - [ 5.00000000e-001, 5.00000000e-001, 0., 1., 0., 0., 1., 0., 0. ]
      - [ 5.00000000e-001, 5.00000000e-001, 0., 1., 0., 0., 1., 0., 0. ]
      - [ 5.00000000e-001, 0., 5.00000000e-001, 0., 1., 0., 1., 0., 0. ]
   decision_functions:
      -
         sv_count: 4
         rho: -1.5612399179190106e-001
         alpha: [ 9.4506048387298718e-005, 4.0219282419556692e-003,
             -3.9274221935687737e-003, -1.8901209677419354e-004 ]
         index: [ 0, 1, 2, 3 ]
