%YAML:1.0
my_svm: !!opencv-ml-svm
   svm_type: C_SVC
   kernel: { type:POLY, degree:3.4300000000000002e+000,
       gamma:1.5000000000000001e-004, coef0:2.7440000000000003e+002 }
   C: 1.0000000000000001e-001
   term_criteria: { epsilon:2.2204460492503131e-016, iterations:100 }
   var_all: 9
   var_count: 9
   class_count: 2
   class_labels: !!opencv-matrix
      rows: 1
      cols: 2
      dt: i
      data: [ 0, 1 ]
   sv_total: 5
   support_vectors:
      - [ 5.00000000e-001, 5.00000000e-001, 0., 1., 0., 0., 0., 1., 0. ]
      - [ 0., 5.00000000e-001, 5.00000000e-001, 0., 0., 1., 0., 0., 1. ]
      - [ 5.00000000e-001, 5.00000000e-001, 0., 1., 0., 0., 0., 0., 1. ]
      - [ 0., 0., 1., 1., 0., 0., 0., 1., 0. ]
      - [ 0., 5.00000000e-001, 5.00000000e-001, 0., 0., 1., 0., 0., 1. ]
   decision_functions:
      -
         sv_count: 5
         rho: 2.8000005178519638e+000
         alpha: [ 2.7584182390687856e-002, 1.0000000000000001e-001,
             -1.2500003018812558e-002, -1.7129634567431395e-002,
             -9.7954544804443919e-002 ]
         index: [ 0, 1, 2, 3, 4 ]
