%YAML:1.0
my_svm: !!opencv-ml-svm
   svm_type: C_SVC
   kernel: { type:LINEAR }
   C: 1.0000000000000001e-001
   term_criteria: { epsilon:2.2204460492503131e-016, iterations:100 }
   var_all: 80
   var_count: 80
   class_count: 2
   class_labels: !!opencv-matrix
      rows: 1
      cols: 2
      dt: i
      data: [ 0, 1 ]
   sv_total: 1
   support_vectors:
      - [ -1.93732126e-006, -1.68554448e-006, -1.48417564e-006,
          5.77331818e-008, -7.89454901e-008, 2.89332183e-006,
          5.79279288e-007, -8.62708077e-007, 6.19784487e-007,
          -8.58621775e-007, -1.49562766e-006, -2.98144164e-006,
          -2.70107034e-006, -1.31621471e-006, -1.34965626e-006,
          -1.10306041e-006, 2.85168881e-006, -1.07344738e-006,
          2.90770481e-006, -1.03490822e-006, -3.31618207e-006,
          9.17104899e-007, -1.25368933e-006, -5.17548642e-007,
          -2.38998905e-006, -1.23179404e-006, -1.47899641e-006,
          -4.66114352e-006, 4.47688035e-006, -2.66573761e-006,
          -7.93467507e-007, 6.53770655e-007, 4.06061736e-006,
          2.32536159e-008, -2.91477477e-007, 8.70161614e-007,
          2.70081750e-006, -6.36936363e-007, -9.47891351e-007,
          2.87027706e-006, -2.23751931e-006, 1.31112517e-006,
          1.56299041e-006, 7.48675632e-007, -8.14062787e-007,
          -1.01280887e-006, 2.63341292e-007, 4.28789946e-007,
          -4.60218075e-007, 4.65601602e-007, 2.66873690e-006,
          6.29442411e-007, 2.65219001e-007, 1.45579293e-006,
          3.55943229e-007, -3.88427566e-007, 1.39706856e-007,
          -2.62232425e-006, 8.47567492e-007, 3.54107669e-007,
          -7.95012500e-009, -9.81633774e-010, 2.13029550e-009,
          -4.50713156e-009, 1.11478804e-009, -1.72907271e-008,
          3.47605500e-009, -3.50963347e-009, -6.28516261e-009,
          1.95081586e-008, 1.44498813e-008, -6.34908626e-010,
          8.03268740e-009, 4.81350293e-010, 9.72771907e-009,
          -2.34836123e-010, 6.80543755e-009, 7.02954450e-009,
          5.56075408e-009, -5.40129896e-009 ]
   decision_functions:
      -
         sv_count: 1
         rho: -3.4448402756745317e-001
         alpha: [ 1. ]
         index: [ 0 ]
