%YAML:1.0
my_svm: !!opencv-ml-svm
   svm_type: C_SVC
   kernel: { type:LINEAR }
   C: 1.
   term_criteria: { epsilon:2.2204460492503131e-016, iterations:100 }
   var_all: 80
   var_count: 80
   class_count: 2
   class_labels: !!opencv-matrix
      rows: 1
      cols: 2
      dt: i
      data: [ 0, 1 ]
   sv_total: 1
   support_vectors:
      - [ 5.28281544e-006, -3.36071798e-006, -2.84356929e-006,
          -9.62231070e-007, -3.26454006e-006, -2.31048762e-006,
          -2.70639384e-006, 9.29288035e-007, -2.27820806e-006,
          1.65332926e-006, -4.33943751e-006, 6.93914046e-007,
          3.43760871e-006, -1.66708514e-006, 4.15630984e-006,
          -2.61500463e-006, -5.30353020e-007, 1.57026727e-006,
          -2.48293532e-006, 4.50677726e-006, -2.21985465e-006,
          -7.82119798e-007, -3.59469982e-006, 1.86481202e-006,
          1.46551076e-006, -2.70770806e-006, -4.20382594e-006,
          -2.38520920e-006, 6.37457561e-006, -2.36943094e-007,
          -2.34998720e-006, -4.64981582e-007, 5.75360491e-006,
          1.59196782e-006, -1.16405386e-006, 8.86150303e-007,
          1.96357291e-006, -1.91217259e-006, 2.84746932e-007,
          2.34119148e-006, 7.42120410e-009, 1.52781232e-010,
          6.89485669e-009, 3.04654768e-009, 5.30947730e-009,
          -2.66323430e-009, 4.87045693e-009, -2.56651411e-009,
          -8.87193985e-010, -1.53112534e-009, 2.37548448e-009,
          4.36537961e-009, 2.08688178e-009, 1.61852998e-009,
          -4.69603201e-009, -3.86342602e-009, 8.99380737e-010,
          6.40647668e-009, 3.65313424e-009, -1.53836865e-009,
          -1.49473223e-009, -5.37382983e-009, 3.46491530e-010,
          2.86016788e-009, -5.73460612e-009, -6.99270020e-009,
          8.62272209e-009, -7.83974829e-010, 6.57831434e-009,
          5.21942134e-009, -4.35464420e-009, -4.57858557e-010,
          -6.13177287e-009, -1.28554323e-009, 4.27871877e-010,
          -1.27740734e-008, -9.22560750e-010, -3.22983484e-009,
          -1.53525626e-009, -3.37865158e-009 ]
   decision_functions:
      -
         sv_count: 1
         rho: 5.2563828137407720e-001
         alpha: [ 1. ]
         index: [ 0 ]
