<?xml version="1.0"?>
<opencv_storage>
<my_svm type_id="opencv-ml-svm">
  <svm_type>C_SVC</svm_type>
  <kernel><type>POLY</type>
    <degree>3.</degree>
    <gamma>5.</gamma>
    <coef0>1.</coef0></kernel>
  <C>1.</C>
  <term_criteria><epsilon>2.2204460492503131e-016</epsilon>
    <iterations>100</iterations></term_criteria>
  <var_all>5</var_all>
  <var_count>5</var_count>
  <class_count>2</class_count>
  <class_labels type_id="opencv-matrix">
    <rows>1</rows>
    <cols>2</cols>
    <dt>i</dt>
    <data>
      0 1</data></class_labels>
  <sv_total>10</sv_total>
  <support_vectors>
    <_>
      3.80414307e-001 1.22410543e-001 2.24105462e-001 1.33709982e-001
      1.39359698e-001</_>
    <_>
      3.78088087e-001 9.45220217e-002 2.77121395e-001 1.82599366e-001
      6.76691756e-002</_>
    <_>
      2.38157898e-001 1.48684219e-001 3.65789503e-001 1.82236850e-001
      6.51315823e-002</_>
    <_>
      3.66013080e-001 5.55555560e-002 2.71241844e-001 2.12418303e-001
      9.47712436e-002</_>
    <_>
      3.85802478e-001 1.23456791e-001 2.31481478e-001 2.03703701e-001
      5.55555560e-002</_>
    <_>
      2.87958115e-001 9.24956352e-002 3.14136118e-001 1.22164048e-001
      1.83246076e-001</_>
    <_>
      1.07334524e-001 1.33747235e-001 3.66094917e-001 1.97937489e-001
      1.94885820e-001</_>
    <_>
      2.63537914e-001 1.58844769e-001 3.14079434e-001 1.94945842e-001
      6.85920566e-002</_>
    <_>
      3.65805149e-001 9.14512873e-002 2.62425423e-001 1.53081506e-001
      1.27236575e-001</_>
    <_>
      4.03439134e-001 8.46560821e-002 2.49999985e-001 1.93121687e-001
      6.87830672e-002</_></support_vectors>
  <decision_functions>
    <_>
      <sv_count>10</sv_count>
      <rho>-9.5591098685504239e-001</rho>
      <alpha>
        6.1754681900086528e-001 5.0793486878125738e-001
        6.1956018907922239e-001 5.1382583878551513e-001
        6.2254663236105090e-001 1.1543990431569448e-001
        3.1457476763944695e-003 -1. -1. -1.</alpha>
      <index>
        0 1 2 3 4 5 6 7 8 9</index></_></decision_functions></my_svm>
</opencv_storage>
