%YAML:1.0
my_svm: !!opencv-ml-svm
   svm_type: C_SVC
   kernel: { type:LINEAR }
   C: 1.0000000000000001e-001
   term_criteria: { epsilon:2.2204460492503131e-016, iterations:100 }
   var_all: 80
   var_count: 80
   class_count: 2
   class_labels: !!opencv-matrix
      rows: 1
      cols: 2
      dt: i
      data: [ 0, 1 ]
   sv_total: 1
   support_vectors:
      - [ -2.82018078e-007, 4.37497238e-006, -1.19843241e-006,
          -4.59304559e-008, 1.64069286e-006, -4.50143261e-006,
          -7.05964851e-007, 3.86273626e-008, 2.29359898e-006,
          -1.26212490e-006, -1.32794833e-006, 2.72390139e-006,
          1.45477395e-006, 9.64137030e-007, 2.11172664e-006,
          2.30641376e-006, -3.00525267e-006, -3.41445343e-006,
          -1.54412430e-006, 4.71379963e-006, -2.09503673e-006,
          1.04530227e-006, 3.35107552e-006, 1.60165200e-006,
          5.50429263e-007, 3.43668034e-006, -1.91286063e-006,
          1.35310529e-006, -5.63873709e-006, 2.61246214e-006,
          -1.46582443e-006, -2.81172083e-006, -4.98148984e-006,
          -3.20711547e-006, 1.91726690e-006, 2.66414804e-006,
          -3.46978686e-006, 1.16528554e-006, -2.21962773e-006,
          -4.62306525e-006, -2.74133367e-006, -1.18221283e-006,
          1.19911397e-006, -8.89772252e-007, 8.51187508e-007,
          -8.46255602e-007, 1.21756761e-006, 8.26320388e-007,
          -4.83084705e-007, 9.59364115e-007, -8.56311715e-007,
          -1.34012805e-006, 1.36783669e-007, -2.39713040e-006,
          2.08263327e-006, -1.53094425e-006, 4.67400810e-007,
          -1.37790403e-006, -3.45588624e-008, -2.25921167e-006,
          1.42982772e-008, 8.75248141e-009, 1.01505682e-009,
          1.61559777e-009, 1.49270962e-009, 1.19172618e-008,
          -9.91357929e-009, 7.54841523e-009, 4.25285052e-009,
          -5.00398434e-009, -1.64416463e-008, -9.18257737e-009,
          -7.89878829e-009, 6.68726718e-009, -3.59033414e-010,
          2.24615415e-009, -1.66686434e-008, -1.50338575e-009,
          -1.22274484e-008, -8.32915070e-009 ]
   decision_functions:
      -
         sv_count: 1
         rho: -6.0884366191687811e-001
         alpha: [ 1. ]
         index: [ 0 ]
