%YAML:1.0
my_svm: !!opencv-ml-svm
   svm_type: C_SVC
   kernel: { type:LINEAR }
   C: 1.
   term_criteria: { epsilon:2.2204460492503131e-016, iterations:100 }
   var_all: 15
   var_count: 15
   class_count: 2
   class_labels: !!opencv-matrix
      rows: 1
      cols: 2
      dt: i
      data: [ 0, 1 ]
   sv_total: 1
   support_vectors:
      - [ 2.04949337e-003, -5.49040828e-003, -1.89744879e-003,
          -1.41144497e-004, -3.00898752e-003, 1.96106872e-003,
          -1.30361423e-003, -1.37791608e-003, -1.18685688e-003,
          2.68592895e-003, 4.09451500e-003, 2.52512889e-003,
          3.55533278e-003, 1.65034388e-003, 3.73113179e-003 ]
   decision_functions:
      -
         sv_count: 1
         rho: -3.7201371421549495e-001
         alpha: [ 1. ]
         index: [ 0 ]
