%YAML:1.0
my_svm: !!opencv-ml-svm
   svm_type: C_SVC
   kernel: { type:POLY, degree:3., gamma:5., coef0:1. }
   C: 1.
   term_criteria: { epsilon:2.2204460492503131e-016, iterations:100 }
   var_all: 70
   var_count: 70
   class_count: 2
   class_labels: !!opencv-matrix
      rows: 1
      cols: 2
      dt: i
      data: [ 0, 1 ]
   sv_total: 10
   support_vectors:
      - [ 0., 3.86740342e-002, 5.52486209e-003, 1.10497242e-002,
          1.65745858e-002, 1.10497242e-002, 5.52486209e-003,
          1.10497242e-002, 1.10497242e-002, 5.52486209e-003,
          2.20994484e-002, 5.52486209e-003, 2.20994484e-002,
          2.20994484e-002, 5.52486209e-003, 2.20994484e-002,
          4.97237593e-002, 2.20994484e-002, 5.52486209e-003,
          2.20994484e-002, 5.52486209e-003, 2.76243109e-002,
          1.10497242e-002, 1.65745858e-002, 0., 5.52486209e-003,
          1.65745858e-002, 5.52486209e-003, 1.10497242e-002, 0.,
          1.10497242e-002, 1.10497242e-002, 1.65745858e-002,
          5.52486209e-003, 2.20994484e-002, 0., 0., 1.10497242e-002,
          1.10497242e-002, 1.10497242e-002, 1.10497242e-002,
          5.52486209e-003, 0., 0., 3.31491716e-002, 1.10497242e-002,
          2.20994484e-002, 1.65745858e-002, 0., 7.18232095e-002,
          1.65745858e-002, 3.86740342e-002, 5.52486209e-003,
          5.52486209e-003, 1.65745858e-002, 3.31491716e-002,
          1.65745858e-002, 1.10497242e-002, 1.10497242e-002, 0.,
          5.52486209e-003, 1.10497242e-002, 5.52486209e-003,
          2.20994484e-002, 3.31491716e-002, 2.20994484e-002,
          1.65745858e-002, 2.20994484e-002, 1.65745858e-002,
          5.52486209e-003 ]
      - [ 1.06951874e-002, 2.67379694e-002, 1.06951874e-002, 0.,
          3.20855603e-002, 5.34759369e-003, 2.13903747e-002, 0.,
          5.34759369e-003, 1.06951874e-002, 1.60427801e-002,
          1.06951874e-002, 1.60427801e-002, 5.34759369e-003,
          2.67379694e-002, 1.60427801e-002, 2.67379694e-002,
          1.60427801e-002, 3.74331549e-002, 1.60427801e-002,
          1.60427801e-002, 4.27807495e-002, 5.34759387e-002, 0.,
          1.60427801e-002, 2.67379694e-002, 1.06951874e-002, 0.,
          1.06951874e-002, 1.60427801e-002, 5.34759369e-003,
          3.74331549e-002, 1.06951874e-002, 2.13903747e-002,
          2.13903747e-002, 1.06951874e-002, 1.06951874e-002,
          1.06951874e-002, 0., 1.60427801e-002, 3.20855603e-002,
          3.74331549e-002, 0., 5.34759369e-003, 5.34759369e-003,
          3.20855603e-002, 1.60427801e-002, 5.34759369e-003, 0., 0.,
          5.34759369e-003, 2.67379694e-002, 1.06951874e-002,
          2.67379694e-002, 5.34759369e-003, 1.60427801e-002,
          2.67379694e-002, 0., 5.34759369e-003, 0., 1.60427801e-002,
          1.60427801e-002, 1.06951874e-002, 5.34759369e-003,
          5.34759369e-003, 5.34759369e-003, 5.34759369e-003,
          1.06951874e-002, 1.60427801e-002, 5.34759369e-003 ]
      - [ 5.60224103e-003, 2.52100844e-002, 2.80112051e-003,
          8.40336177e-003, 1.68067235e-002, 2.80112051e-003,
          1.40056023e-002, 1.68067235e-002, 5.60224103e-003,
          1.68067235e-002, 1.68067235e-002, 1.40056023e-002,
          3.08123250e-002, 1.12044821e-002, 1.68067235e-002,
          2.80112047e-002, 8.40336177e-003, 8.40336177e-003,
          2.24089641e-002, 8.40336177e-003, 2.80112051e-003,
          1.68067235e-002, 4.76190485e-002, 1.12044821e-002,
          8.40336177e-003, 1.68067235e-002, 1.68067235e-002,
          1.40056023e-002, 8.40336177e-003, 1.68067235e-002,
          2.80112051e-003, 3.36134471e-002, 1.12044821e-002,
          1.40056023e-002, 1.40056023e-002, 2.24089641e-002,
          5.60224103e-003, 8.40336177e-003, 8.40336177e-003,
          1.68067235e-002, 2.24089641e-002, 8.40336177e-003,
          1.40056023e-002, 0., 5.60224103e-003, 1.68067235e-002,
          8.40336177e-003, 5.60224103e-003, 1.68067235e-002,
          1.12044821e-002, 5.60224103e-003, 1.96078438e-002,
          5.60224103e-003, 1.12044821e-002, 4.20168079e-002,
          1.96078438e-002, 1.96078438e-002, 1.12044821e-002,
          1.40056023e-002, 1.12044821e-002, 1.68067235e-002,
          1.40056023e-002, 1.68067235e-002, 3.36134471e-002,
          1.40056023e-002, 8.40336177e-003, 1.68067235e-002,
          1.96078438e-002, 1.12044821e-002, 2.80112051e-003 ]
      - [ 2.91970801e-002, 7.29927002e-003, 1.45985400e-002,
          2.18978096e-002, 4.37956192e-002, 7.29927002e-003,
          1.45985400e-002, 7.29927002e-003, 1.45985400e-002,
          2.91970801e-002, 7.29927002e-003, 0., 2.18978096e-002,
          1.45985400e-002, 7.29927002e-003, 2.91970801e-002,
          7.29927002e-003, 2.18978096e-002, 7.29927002e-003,
          2.91970801e-002, 2.18978096e-002, 0., 4.37956192e-002, 0.,
          1.45985400e-002, 3.64963487e-002, 0., 1.45985400e-002, 0.,
          7.29927002e-003, 2.18978096e-002, 2.18978096e-002,
          3.64963487e-002, 0., 2.91970801e-002, 7.29927002e-003,
          7.29927002e-003, 0., 0., 1.45985400e-002, 0., 2.18978096e-002,
          0., 7.29927002e-003, 0., 7.29927002e-003, 0., 0., 0.,
          7.29927002e-003, 2.18978096e-002, 3.64963487e-002,
          3.64963487e-002, 2.18978096e-002, 5.10948896e-002,
          7.29927002e-003, 2.91970801e-002, 1.45985400e-002,
          1.45985400e-002, 1.45985400e-002, 7.29927002e-003,
          1.45985400e-002, 7.29927002e-003, 1.45985400e-002,
          2.18978096e-002, 7.29927002e-003, 0., 0., 1.45985400e-002,
          7.29927002e-003 ]
      - [ 0., 1.49253728e-002, 7.46268639e-003, 1.49253728e-002,
          1.49253728e-002, 1.49253728e-002, 7.46268639e-003,
          1.49253728e-002, 7.46268639e-003, 1.49253728e-002,
          7.46268639e-003, 7.46268639e-003, 2.23880596e-002,
          1.49253728e-002, 7.46268639e-003, 4.47761193e-002,
          2.23880596e-002, 7.46268639e-003, 3.73134315e-002,
          2.23880596e-002, 0., 0., 2.98507456e-002, 1.49253728e-002,
          1.49253728e-002, 4.47761193e-002, 1.49253728e-002,
          2.98507456e-002, 7.46268639e-003, 7.46268639e-003, 0.,
          2.98507456e-002, 0., 7.46268639e-003, 1.49253728e-002,
          7.46268639e-003, 1.49253728e-002, 0., 0., 7.46268639e-003,
          7.46268639e-003, 2.23880596e-002, 0., 7.46268639e-003, 0.,
          1.49253728e-002, 7.46268639e-003, 0., 7.46268639e-003,
          3.73134315e-002, 0., 3.73134315e-002, 7.46268639e-003,
          5.22388034e-002, 2.23880596e-002, 0., 1.49253728e-002,
          2.98507456e-002, 7.46268639e-003, 3.73134315e-002,
          7.46268639e-003, 0., 1.49253728e-002, 2.98507456e-002,
          1.49253728e-002, 0., 2.23880596e-002, 7.46268639e-003,
          2.98507456e-002, 7.46268639e-003 ]
      - [ 0., 0., 0., 5.00000000e-001, 0., 0., 0., 0., 0., 0., 0., 0.,
          0., 0., 0., 0., 0., 0., 0., 0., 0., 0., 0., 0., 0., 0., 0., 0.,
          0., 5.00000000e-001, 0., 0., 0., 0., 0., 0., 0., 0., 0., 0.,
          0., 0., 0., 0., 0., 0., 0., 0., 0., 0., 0., 0., 0., 0., 0., 0.,
          0., 0., 0., 0., 0., 0., 0., 0., 0., 0., 0., 0., 0., 0. ]
      - [ 5.07614203e-003, 2.03045681e-002, 2.03045681e-002,
          3.55329961e-002, 4.56852764e-002, 2.03045681e-002, 0.,
          5.07614203e-003, 2.03045681e-002, 1.01522841e-002, 0.,
          1.01522841e-002, 1.01522841e-002, 0., 7.10659921e-002,
          2.53807101e-002, 2.53807101e-002, 1.01522841e-002,
          1.52284261e-002, 0., 5.07614203e-003, 5.07614203e-003,
          7.10659921e-002, 5.07614203e-003, 1.01522841e-002,
          5.07614203e-003, 1.01522841e-002, 1.52284261e-002,
          2.03045681e-002, 5.07614203e-003, 2.53807101e-002,
          5.07614203e-003, 5.07614203e-003, 0., 1.01522841e-002,
          1.52284261e-002, 0., 0., 0., 1.52284261e-002, 2.03045681e-002,
          2.03045681e-002, 5.07614203e-003, 3.04568522e-002,
          1.52284261e-002, 1.01522841e-002, 0., 1.52284261e-002, 0.,
          5.07614203e-002, 1.01522841e-002, 1.52284261e-002,
          1.52284261e-002, 1.52284261e-002, 4.06091362e-002,
          1.01522841e-002, 2.53807101e-002, 0., 2.03045681e-002,
          5.07614203e-003, 0., 1.01522841e-002, 1.01522841e-002,
          2.03045681e-002, 0., 1.01522841e-002, 0., 1.01522841e-002,
          1.01522841e-002, 2.53807101e-002 ]
      - [ 9.54653975e-003, 1.90930795e-002, 9.54653975e-003,
          1.67064443e-002, 2.38663498e-002, 2.14797147e-002,
          1.43198092e-002, 1.43198092e-002, 4.77326987e-003,
          1.43198092e-002, 2.38663498e-002, 1.19331749e-002,
          1.67064443e-002, 7.15990458e-003, 2.38663498e-002,
          2.86396183e-002, 3.10262535e-002, 1.19331749e-002,
          1.43198092e-002, 1.43198092e-002, 2.38663494e-003,
          1.67064443e-002, 4.05727923e-002, 4.77326987e-003,
          1.43198092e-002, 1.19331749e-002, 1.67064443e-002,
          9.54653975e-003, 1.19331749e-002, 1.43198092e-002,
          2.14797147e-002, 1.19331749e-002, 0., 9.54653975e-003,
          1.90930795e-002, 4.77326987e-003, 1.43198092e-002,
          1.43198092e-002, 1.67064443e-002, 1.43198092e-002,
          1.43198092e-002, 3.57995257e-002, 4.77326987e-003,
          1.90930795e-002, 1.19331749e-002, 7.15990458e-003,
          1.19331749e-002, 2.62529850e-002, 7.15990458e-003,
          1.90930795e-002, 2.38663494e-003, 1.90930795e-002,
          4.77326987e-003, 1.67064443e-002, 2.62529850e-002,
          1.67064443e-002, 1.43198092e-002, 1.19331749e-002,
          2.38663498e-002, 9.54653975e-003, 7.15990458e-003,
          4.77326987e-003, 4.77326987e-003, 7.15990458e-003,
          1.67064443e-002, 9.54653975e-003, 1.19331749e-002,
          4.77326987e-003, 9.54653975e-003, 1.90930795e-002 ]
      - [ 1.55709349e-002, 1.47058824e-002, 6.92041544e-003,
          1.73010379e-002, 2.76816618e-002, 7.78546743e-003,
          1.64359864e-002, 1.03806229e-002, 9.51557141e-003,
          7.78546743e-003, 2.16262974e-002, 1.03806229e-002,
          5.19031147e-003, 5.19031147e-003, 1.90311428e-002,
          1.47058824e-002, 6.05536345e-003, 1.55709349e-002,
          1.12456754e-002, 5.19031147e-003, 6.05536345e-003,
          1.64359864e-002, 1.47058824e-002, 1.12456754e-002,
          1.38408309e-002, 1.81660913e-002, 6.92041544e-003,
          2.50865053e-002, 1.29757794e-002, 1.21107269e-002,
          2.68166102e-002, 1.64359864e-002, 1.90311428e-002,
          5.19031147e-003, 8.65051895e-003, 8.65051895e-003,
          1.38408309e-002, 2.68166102e-002, 4.15224917e-002,
          1.73010379e-002, 1.29757794e-002, 1.98961943e-002,
          1.47058824e-002, 9.51557141e-003, 1.38408309e-002,
          4.32525948e-003, 1.12456754e-002, 3.02768182e-002,
          2.42214538e-002, 2.42214538e-002, 2.85467133e-002,
          7.78546743e-003, 5.19031147e-003, 6.92041544e-003,
          1.55709349e-002, 2.24913508e-002, 1.90311428e-002,
          8.65051930e-004, 1.55709349e-002, 2.59515573e-003,
          1.90311428e-002, 1.64359864e-002, 9.51557141e-003,
          1.81660913e-002, 7.78546743e-003, 1.81660913e-002,
          1.55709349e-002, 1.55709349e-002, 8.65051895e-003,
          1.12456754e-002 ]
      - [ 6.28930796e-003, 3.14465389e-002, 2.51572318e-002, 0.,
          1.25786159e-002, 2.51572318e-002, 2.51572318e-002, 0.,
          6.28930796e-003, 2.51572318e-002, 1.25786159e-002, 0.,
          1.25786159e-002, 0., 1.25786159e-002, 3.77358496e-002,
          1.88679248e-002, 1.25786159e-002, 1.25786159e-002,
          1.25786159e-002, 0., 1.88679248e-002, 1.88679248e-002,
          2.51572318e-002, 1.25786159e-002, 2.51572318e-002,
          1.25786159e-002, 6.28930796e-003, 6.28930796e-003,
          1.25786159e-002, 1.25786159e-002, 1.25786159e-002,
          1.25786159e-002, 0., 3.77358496e-002, 1.25786159e-002,
          1.88679248e-002, 6.28930796e-003, 6.28930796e-003,
          6.28930796e-003, 2.51572318e-002, 6.28930796e-003,
          6.28930796e-003, 1.25786159e-002, 1.25786159e-002,
          1.88679248e-002, 1.88679248e-002, 1.25786159e-002, 0.,
          2.51572318e-002, 0., 1.88679248e-002, 1.25786159e-002,
          3.14465389e-002, 3.14465389e-002, 1.88679248e-002,
          2.51572318e-002, 4.40251566e-002, 1.25786159e-002,
          6.28930796e-003, 1.88679248e-002, 6.28930796e-003,
          1.88679248e-002, 0., 1.88679248e-002, 1.25786159e-002, 0.,
          1.25786159e-002, 1.88679248e-002, 0. ]
   decision_functions:
      -
         sv_count: 10
         rho: -8.6503848190921584e-001
         alpha: [ 1., 8.7261287580602787e-001, 1.,
             8.2174760111611944e-001, 2.9571276900761401e-001,
             9.9267540702389686e-003, -1., -1., -1., -1. ]
         index: [ 0, 1, 2, 3, 4, 5, 6, 7, 8, 9 ]
