%YAML:1.0
my_svm: !!opencv-ml-svm
   svm_type: C_SVC
   kernel: { type:LINEAR }
   C: 1.
   term_criteria: { epsilon:2.2204460492503131e-016, iterations:100 }
   var_all: 60
   var_count: 60
   class_count: 2
   class_labels: !!opencv-matrix
      rows: 1
      cols: 2
      dt: i
      data: [ 0, 1 ]
   sv_total: 1
   support_vectors:
      - [ -1.40028385e-006, 6.29464967e-006, 5.93615414e-006,
          3.33910020e-006, 7.51330617e-007, -2.98793665e-008,
          2.71667568e-006, 2.02321030e-006, -8.39342283e-006,
          -2.00847057e-006, 1.07857636e-006, 1.80914128e-006,
          -6.22246762e-006, -6.16597731e-007, -1.62941012e-006,
          -1.99602482e-006, -4.44399348e-006, -3.78474169e-006,
          -2.59718786e-006, -1.42953706e-006, -4.07741072e-006,
          -4.54603452e-007, 3.96698533e-006, 3.29228396e-006,
          -1.11083432e-006, -5.02843648e-007, 2.55882765e-006,
          -1.28767635e-006, -1.85844021e-006, 1.17343905e-006,
          -5.07488130e-006, -1.12284772e-006, -6.78484326e-008,
          -2.76700780e-006, -3.55641828e-006, -2.31512354e-006,
          -5.14036219e-006, 2.97754764e-006, 2.29661805e-006,
          -2.02867477e-006, 3.76301301e-008, 4.24353424e-008,
          -2.00050003e-008, -7.70481723e-009, -3.42733486e-008,
          -2.65306177e-008, -3.37277122e-008, 1.53657584e-008,
          1.00411679e-008, -4.64406860e-008, -7.20657525e-008,
          8.83980089e-009, -2.70041980e-008, 2.44589256e-008,
          2.88136581e-009, 3.30598993e-009, 3.12946256e-008,
          -2.80974195e-008, 2.02495283e-008, 6.62058675e-009 ]
   decision_functions:
      -
         sv_count: 1
         rho: -1.2456490291304236e+000
         alpha: [ 1. ]
         index: [ 0 ]
