%YAML:1.0
my_svm: !!opencv-ml-svm
   svm_type: C_SVC
   kernel: { type:LINEAR }
   C: 1.0000000000000001e-001
   term_criteria: { epsilon:2.2204460492503131e-016, iterations:100 }
   var_all: 80
   var_count: 80
   class_count: 2
   class_labels: !!opencv-matrix
      rows: 1
      cols: 2
      dt: i
      data: [ 0, 1 ]
   sv_total: 1
   support_vectors:
      - [ 3.39270417e-010, 0., 4.41586234e-009, 0., 0., 0., 0., 0., 0.,
          0., 0., 0., 0., 0., 0., 0., 0., 9.38879252e-011,
          9.37299960e-011, 7.83867762e-011, 5.44865646e-011,
          -1.07816195e-011, 9.80221876e-011, 8.09986869e-011,
          3.93678042e-011, 4.36064553e-011, -3.53694816e-011,
          1.29001410e-011, -9.10808755e-012, -1.56901488e-011,
          7.85778387e-011, -6.01262421e-013, -2.86121942e-011,
          -5.29337824e-011, 8.27470314e-011, 5.69832549e-011,
          -3.47286783e-011, 9.96236687e-012, -4.99475981e-011,
          2.04667949e-011, -1.06550477e-013, -9.97270503e-015,
          -1.21132733e-014, -5.25000507e-014, 1.85937793e-014,
          8.59343894e-015, -3.85284422e-014, -4.35909345e-014,
          2.27342491e-014, -3.05498424e-014, 2.40128708e-014,
          -3.15649945e-014, 2.08949963e-015, 5.14411410e-014,
          2.57477907e-014, -9.32234551e-015, 1.87975246e-014,
          4.68181029e-014, 6.33411102e-014, -2.19548124e-015,
          -4.45758576e-014, 2.07217666e-014, -3.05242282e-014,
          3.59515579e-014, 4.97051537e-014, 3.25890776e-014,
          -7.72256608e-014, -2.03582387e-014, -7.07414270e-014,
          5.94471651e-015, 1.21498904e-015, -8.83547098e-015,
          -3.26264047e-014, -2.61263213e-014, -8.81402156e-015,
          2.68314847e-014, -5.93139836e-014, -3.91889483e-014,
          -2.07629358e-014, 8.26585572e-014 ]
   decision_functions:
      -
         sv_count: 1
         rho: -6.3490415887176710e-001
         alpha: [ 1. ]
         index: [ 0 ]
