%YAML:1.0
my_svm: !!opencv-ml-svm
   svm_type: C_SVC
   kernel: { type:LINEAR }
   C: 1.
   term_criteria: { epsilon:2.2204460492503131e-016, iterations:100 }
   var_all: 63
   var_count: 63
   class_count: 2
   class_labels: !!opencv-matrix
      rows: 1
      cols: 2
      dt: i
      data: [ 0, 1 ]
   sv_total: 1
   support_vectors:
      - [ 7.95394838e-001, -1.17610462e-001, 7.72258639e-001, 0.,
          2.49002233e-001, 1.01918662e+000, -5.00000000e-001,
          -2.69770380e-002, 1.12796508e-001, 2.77777791e-001, 0.,
          8.53576243e-001, 5.00000000e-001, 3.83291751e-001, 0., 0.,
          -5.39450347e-002, 0., 8.88322353e-001, -6.36383355e-001, 0.,
          -4.75861551e-003, -5.01995564e-001, 0., 0., 0., 0., 0.,
          -4.69692558e-001, -3.90556753e-002, 0., 0., -6.84568360e-002,
          0., 0., 0., 0., 0., 0., 1.22877069e-001, 7.27233291e-001, 0.,
          -1.41517913e+000, 9.01440322e-001, 2.89822251e-001, 0.,
          4.98004466e-001, -1.22293603e+000, 0., -1.96421787e-001,
          4.97083902e-001, 0., 0., -4.23723936e-001, 0., 6.34803295e-001,
          0., 0., 0., 0., 1.22877069e-001, -2.72766709e-001,
          -1.36661246e-001 ]
   decision_functions:
      -
         sv_count: 1
         rho: -7.4735296988462396e-001
         alpha: [ 1. ]
         index: [ 0 ]
