%YAML:1.0
my_svm: !!opencv-ml-svm
   svm_type: C_SVC
   kernel: { type:POLY, degree:3.4300000000000002e+000,
       gamma:2.2500000000000003e-003, coef0:1.9600000000000001e+001 }
   C: 1.0000000000000001e-001
   term_criteria: { epsilon:2.2204460492503131e-016, iterations:100 }
   var_all: 9
   var_count: 9
   class_count: 2
   class_labels: !!opencv-matrix
      rows: 1
      cols: 2
      dt: i
      data: [ 0, 1 ]
   sv_total: 7
   support_vectors:
      - [ 5.00000000e-001, 5.00000000e-001, 0., 0., 1., 0., 0., 1., 0. ]
      - [ 5.00000000e-001, 5.00000000e-001, 0., 1., 0., 0., 1., 0., 0. ]
      - [ 5.00000000e-001, 5.00000000e-001, 0., 1., 0., 0., 1., 0., 0. ]
      - [ 5.00000000e-001, 5.00000000e-001, 0., 0., 1., 0., 0., 1., 0. ]
      - [ 5.00000000e-001, 5.00000000e-001, 0., 0., 1., 0., 0., 1., 0. ]
      - [ 5.00000000e-001, 5.00000000e-001, 0., 1., 0., 0., 1., 0., 0. ]
      - [ 5.00000000e-001, 5.00000000e-001, 0., 1., 0., 0., 0., 1., 0. ]
   decision_functions:
      -
         sv_count: 7
         rho: -2.2992734291046044e-003
         alpha: [ 1.0000000000000001e-001, 1.0000000000000001e-001,
             9.3962689370301278e-002, -5.8060058853853784e-002,
             -4.1724390840192326e-002, -1.0000000000000001e-001,
             -9.4178239676255160e-002 ]
         index: [ 0, 1, 2, 3, 4, 5, 6 ]
