%YAML:1.0
my_svm: !!opencv-ml-svm
   svm_type: C_SVC
   kernel: { type:LINEAR }
   C: 1.
   term_criteria: { epsilon:2.2204460492503131e-016, iterations:100 }
   var_all: 9
   var_count: 9
   class_count: 2
   class_labels: !!opencv-matrix
      rows: 1
      cols: 2
      dt: i
      data: [ 0, 1 ]
   sv_total: 1
   support_vectors:
      - [ 5.00000000e-001, -2.50000000e-001, 2.50000000e-001, -1.,
          -6.59380994e-010, -3.33333343e-001, 3.33333343e-001,
          -6.59380994e-010, 3.33333343e-001 ]
   decision_functions:
      -
         sv_count: 1
         rho: -1.0000000015722579e+000
         alpha: [ 1. ]
         index: [ 0 ]
