%YAML:1.0
my_svm: !!opencv-ml-svm
   svm_type: C_SVC
   kernel: { type:POLY, degree:3., gamma:5., coef0:1. }
   C: 1.
   term_criteria: { epsilon:2.2204460492503131e-016, iterations:100 }
   var_all: 50
   var_count: 50
   class_count: 2
   class_labels: !!opencv-matrix
      rows: 1
      cols: 2
      dt: i
      data: [ 0, 1 ]
   sv_total: 25
   support_vectors:
      - [ 2.61780098e-002, 1.57068074e-002, 5.23560215e-003,
          2.09424086e-002, 1.57068074e-002, 2.61780098e-002,
          2.61780098e-002, 2.61780098e-002, 1.57068074e-002,
          5.23560215e-003, 5.23560215e-003, 3.14136147e-002,
          2.61780098e-002, 0., 5.23560215e-003, 2.09424086e-002, 0.,
          1.57068074e-002, 1.04712043e-002, 2.09424086e-002,
          2.61780098e-002, 4.18848172e-002, 1.57068074e-002,
          5.23560196e-002, 2.61780098e-002, 1.04712043e-002,
          3.66492160e-002, 5.23560215e-003, 1.57068074e-002, 0.,
          2.61780098e-002, 3.14136147e-002, 5.23560215e-003,
          3.14136147e-002, 4.71204184e-002, 5.23560215e-003,
          2.61780098e-002, 0., 5.23560215e-003, 1.57068074e-002,
          1.57068074e-002, 1.04712043e-002, 2.61780098e-002,
          3.66492160e-002, 1.04712043e-002, 1.04712043e-002,
          6.80628270e-002, 5.23560215e-003, 1.57068074e-002,
          5.75916246e-002 ]
      - [ 3.35570462e-002, 2.68456377e-002, 2.68456377e-002,
          6.71140943e-003, 6.71140943e-003, 2.68456377e-002,
          2.68456377e-002, 4.02684584e-002, 2.68456377e-002, 0., 0.,
          2.01342292e-002, 3.35570462e-002, 6.71140943e-003, 0.,
          6.71140924e-002, 6.71140943e-003, 2.68456377e-002,
          4.69798669e-002, 0., 0., 2.01342292e-002, 2.68456377e-002,
          1.34228189e-002, 6.71140943e-003, 4.69798669e-002,
          6.04026839e-002, 0., 1.34228189e-002, 0., 1.34228189e-002,
          2.01342292e-002, 2.68456377e-002, 0., 2.01342292e-002,
          2.01342292e-002, 2.68456377e-002, 6.71140943e-003,
          1.34228189e-002, 4.69798669e-002, 1.34228189e-002,
          6.71140943e-003, 2.68456377e-002, 1.34228189e-002,
          1.34228189e-002, 2.01342292e-002, 1.34228189e-002,
          6.71140943e-003, 2.68456377e-002, 4.69798669e-002 ]
      - [ 3.92156877e-002, 3.92156877e-002, 1.96078438e-002, 0.,
          9.80392192e-003, 9.80392192e-003, 5.88235334e-002,
          2.94117667e-002, 0., 2.94117667e-002, 9.80392192e-003,
          2.94117667e-002, 9.80392192e-003, 2.94117667e-002, 0.,
          2.94117667e-002, 9.80392192e-003, 6.86274543e-002,
          1.96078438e-002, 2.94117667e-002, 0., 9.80392192e-003, 0., 0.,
          5.88235334e-002, 4.90196086e-002, 0., 9.80392192e-003,
          2.94117667e-002, 1.96078438e-002, 0., 1.96078438e-002,
          3.92156877e-002, 5.88235334e-002, 1.96078438e-002,
          1.96078438e-002, 0., 0., 9.80392192e-003, 2.94117667e-002,
          1.96078438e-002, 3.92156877e-002, 3.92156877e-002,
          9.80392192e-003, 0., 9.80392192e-003, 0., 0., 1.96078438e-002,
          1.96078438e-002 ]
      - [ 1.25906961e-002, 1.04566794e-002, 1.60051212e-002,
          2.60349978e-002, 1.94195472e-002, 1.04566794e-002,
          1.38711054e-002, 1.40845068e-002, 3.32906544e-002,
          4.05463092e-002, 3.54246683e-002, 1.77123342e-002,
          2.28339732e-002, 9.60307289e-003, 4.48143408e-002,
          2.21937690e-002, 4.54545468e-002, 2.00597532e-002,
          1.04566794e-002, 1.10968845e-002, 7.89585989e-003,
          6.82885200e-003, 1.79257356e-002, 1.70721300e-002,
          2.36875806e-002, 1.04566794e-002, 1.47247119e-002,
          4.31071296e-002, 1.08834831e-002, 2.45411862e-002,
          2.32607778e-002, 1.49381142e-002, 1.10968845e-002,
          2.32607778e-002, 1.74989328e-002, 8.53606500e-003,
          1.04566794e-002, 4.88689728e-002, 3.45710628e-002,
          1.68587286e-002, 1.30174989e-002, 1.36577040e-002,
          2.45411862e-002, 2.71020066e-002, 1.96329504e-002,
          2.39009820e-002, 1.64319258e-002, 9.17627010e-003,
          1.72855314e-002, 1.23772938e-002 ]
      - [ 1.90930795e-002, 1.67064443e-002, 2.86396183e-002,
          1.67064443e-002, 1.43198092e-002, 2.86396183e-002,
          7.15990458e-003, 2.62529850e-002, 0., 2.14797147e-002,
          1.43198092e-002, 2.38663498e-002, 3.34128886e-002,
          1.90930795e-002, 9.54653975e-003, 2.38663498e-002,
          2.14797147e-002, 3.57995257e-002, 4.05727923e-002,
          2.62529850e-002, 1.19331749e-002, 1.67064443e-002,
          2.38663498e-002, 1.90930795e-002, 1.43198092e-002,
          1.43198092e-002, 2.14797147e-002, 1.67064443e-002,
          1.19331749e-002, 9.54653975e-003, 3.10262535e-002,
          1.19331749e-002, 9.54653975e-003, 1.67064443e-002,
          3.34128886e-002, 2.14797147e-002, 1.90930795e-002,
          4.77326987e-003, 4.77326987e-003, 5.48926033e-002,
          3.10262535e-002, 2.14797147e-002, 1.90930795e-002,
          1.19331749e-002, 2.38663498e-002, 2.14797147e-002,
          7.15990458e-003, 2.86396183e-002, 1.67064443e-002,
          2.38663498e-002 ]
      - [ 4.27807495e-002, 2.13903747e-002, 2.13903747e-002,
          1.06951874e-002, 2.13903747e-002, 4.81283441e-002,
          4.81283441e-002, 5.34759369e-003, 5.34759369e-003,
          5.34759369e-003, 5.34759369e-003, 2.13903747e-002,
          1.06951874e-002, 2.13903747e-002, 1.06951874e-002,
          3.74331549e-002, 1.06951874e-002, 1.06951874e-002,
          3.20855603e-002, 2.67379694e-002, 3.20855603e-002,
          2.67379694e-002, 5.34759369e-003, 4.27807495e-002, 0.,
          2.67379694e-002, 4.81283441e-002, 0., 1.60427801e-002,
          5.34759369e-003, 1.06951874e-002, 2.13903747e-002,
          2.13903747e-002, 1.60427801e-002, 3.20855603e-002,
          3.20855603e-002, 2.13903747e-002, 1.06951874e-002, 0.,
          4.27807495e-002, 1.06951874e-002, 1.60427801e-002,
          1.06951874e-002, 1.60427801e-002, 1.60427801e-002, 0.,
          2.67379694e-002, 2.13903747e-002, 3.20855603e-002,
          2.13903747e-002 ]
      - [ 1.40056023e-002, 2.52100844e-002, 2.24089641e-002,
          1.96078438e-002, 8.40336177e-003, 1.96078438e-002,
          3.92156877e-002, 1.40056023e-002, 2.80112051e-003,
          1.40056023e-002, 8.40336177e-003, 1.96078438e-002,
          3.36134471e-002, 2.52100844e-002, 1.12044821e-002,
          2.52100844e-002, 8.40336177e-003, 3.36134471e-002,
          8.40336177e-003, 3.08123250e-002, 3.08123250e-002,
          1.68067235e-002, 8.40336177e-003, 3.64145674e-002,
          1.40056023e-002, 3.64145674e-002, 1.96078438e-002,
          5.60224103e-003, 1.96078438e-002, 8.40336177e-003,
          1.40056023e-002, 2.80112047e-002, 2.24089641e-002,
          3.64145674e-002, 1.12044821e-002, 1.68067235e-002,
          3.36134471e-002, 5.60224103e-003, 1.40056023e-002,
          2.80112047e-002, 1.68067235e-002, 2.52100844e-002,
          2.24089641e-002, 2.80112051e-003, 8.40336177e-003,
          2.80112051e-003, 2.52100844e-002, 2.24089641e-002,
          2.52100844e-002, 5.88235296e-002 ]
      - [ 7.29926974e-002, 0., 7.29927002e-003, 2.91970801e-002,
          2.18978096e-002, 1.45985400e-002, 7.29926974e-002,
          2.18978096e-002, 2.91970801e-002, 7.29927002e-003,
          1.45985400e-002, 4.37956192e-002, 7.29927002e-003,
          1.45985400e-002, 1.45985400e-002, 0., 1.45985400e-002,
          1.45985400e-002, 5.10948896e-002, 2.18978096e-002,
          1.45985400e-002, 3.64963487e-002, 3.64963487e-002,
          3.64963487e-002, 2.18978096e-002, 0., 7.29927002e-003,
          7.29927002e-003, 2.18978096e-002, 0., 1.45985400e-002, 0.,
          3.64963487e-002, 1.45985400e-002, 2.18978096e-002,
          3.64963487e-002, 1.45985400e-002, 0., 1.45985400e-002,
          1.45985400e-002, 7.29927002e-003, 2.18978096e-002, 0.,
          1.45985400e-002, 0., 1.45985400e-002, 2.91970801e-002,
          2.18978096e-002, 1.45985400e-002, 5.10948896e-002 ]
      - [ 1.19047612e-002, 1.87074821e-002, 1.02040814e-002,
          6.80272095e-003, 1.19047612e-002, 2.72108838e-002,
          8.50340165e-003, 3.06122452e-002, 6.80272095e-003,
          8.50340165e-003, 8.50340165e-003, 2.38095224e-002,
          3.57142836e-002, 3.40136047e-003, 2.89115645e-002,
          1.53061226e-002, 2.89115645e-002, 1.70068033e-002,
          3.57142836e-002, 2.38095224e-002, 4.59183678e-002,
          2.04081628e-002, 2.04081628e-002, 3.91156450e-002,
          1.19047612e-002, 8.50340165e-003, 3.06122452e-002,
          1.87074821e-002, 1.19047612e-002, 1.87074821e-002,
          2.38095224e-002, 2.21088436e-002, 2.89115645e-002,
          1.53061226e-002, 2.04081628e-002, 1.02040814e-002,
          1.87074821e-002, 1.36054419e-002, 1.53061226e-002,
          1.87074821e-002, 1.53061226e-002, 1.36054419e-002,
          3.06122452e-002, 8.50340165e-003, 1.19047612e-002,
          8.50340165e-003, 3.74149643e-002, 3.40136066e-002,
          2.04081628e-002, 4.42176871e-002 ]
      - [ 2.15053763e-002, 1.68970823e-002, 6.14439324e-003,
          1.53609831e-002, 2.61136703e-002, 3.37941647e-002,
          2.76497696e-002, 2.45775729e-002, 6.14439324e-003,
          2.45775729e-002, 1.68970823e-002, 2.45775729e-002,
          4.45468500e-002, 9.21658985e-003, 2.30414756e-002,
          2.15053763e-002, 1.84331797e-002, 2.30414756e-002,
          2.76497696e-002, 2.76497696e-002, 2.76497696e-002,
          1.22887865e-002, 2.15053763e-002, 2.15053763e-002,
          1.68970823e-002, 4.60829493e-003, 1.38248848e-002,
          2.91858688e-002, 1.22887865e-002, 3.84024568e-002,
          3.53302620e-002, 1.68970823e-002, 1.38248848e-002,
          7.68049154e-003, 3.37941647e-002, 9.21658985e-003,
          1.22887865e-002, 2.30414756e-002, 1.84331797e-002,
          2.15053763e-002, 1.07526882e-002, 9.21658985e-003,
          2.45775729e-002, 3.07219662e-002, 1.07526882e-002,
          7.68049154e-003, 2.15053763e-002, 2.15053763e-002,
          1.53609831e-002, 1.84331797e-002 ]
      - [ 2.79720277e-002, 2.79720277e-002, 1.39860138e-002,
          6.99300691e-003, 6.99300691e-003, 2.79720277e-002,
          2.09790207e-002, 3.49650346e-002, 0., 6.99300691e-003,
          2.09790207e-002, 2.09790207e-002, 2.79720277e-002, 0.,
          6.99300691e-003, 2.09790207e-002, 0., 1.39860138e-002,
          1.39860138e-002, 4.19580415e-002, 1.39860138e-002,
          4.89510484e-002, 6.99300691e-003, 1.11888111e-001,
          2.79720277e-002, 5.59440553e-002, 4.89510484e-002,
          6.99300691e-003, 6.99300691e-003, 0., 0., 1.39860138e-002,
          2.79720277e-002, 6.99300691e-003, 2.79720277e-002,
          6.99300691e-003, 1.39860138e-002, 6.99300691e-003, 0.,
          2.79720277e-002, 2.79720277e-002, 0., 2.09790207e-002, 0.,
          2.79720277e-002, 6.99300691e-003, 1.39860138e-002, 0.,
          1.39860138e-002, 8.39160830e-002 ]
      - [ 8.74999985e-002, 1.25000002e-002, 1.25000002e-002,
          1.25000002e-002, 0., 6.25000000e-002, 7.50000030e-002, 0.,
          2.50000004e-002, 0., 2.50000004e-002, 3.75000015e-002, 0.,
          6.25000000e-002, 1.25000002e-002, 5.00000007e-002, 0., 0.,
          1.25000002e-002, 3.75000015e-002, 1.25000002e-002,
          1.25000002e-002, 0., 1.25000002e-002, 1.25000002e-002, 0.,
          1.25000002e-002, 1.25000002e-002, 2.50000004e-002, 0., 0.,
          1.25000002e-002, 5.00000007e-002, 2.50000004e-002,
          1.25000002e-002, 2.50000004e-002, 5.00000007e-002,
          1.25000002e-002, 0., 0., 0., 3.75000015e-002, 2.50000004e-002,
          0., 0., 2.50000004e-002, 1.25000002e-002, 2.50000004e-002,
          5.00000007e-002, 1.25000002e-002 ]
      - [ 1.86915882e-002, 2.33644843e-002, 0., 1.40186911e-002,
          1.40186911e-002, 4.20560725e-002, 5.60747646e-002,
          3.27102803e-002, 1.40186911e-002, 1.40186911e-002,
          4.67289705e-003, 9.34579410e-003, 5.60747646e-002,
          9.34579410e-003, 1.40186911e-002, 9.34579410e-003,
          2.80373823e-002, 2.33644843e-002, 3.27102803e-002,
          2.33644843e-002, 2.33644843e-002, 4.67289686e-002,
          1.40186911e-002, 2.33644843e-002, 1.40186911e-002,
          1.86915882e-002, 1.86915882e-002, 4.67289705e-003,
          2.80373823e-002, 9.34579410e-003, 1.86915882e-002,
          1.40186911e-002, 5.14018685e-002, 9.34579410e-003,
          5.60747646e-002, 4.67289705e-003, 4.67289705e-003,
          9.34579410e-003, 4.67289705e-003, 1.86915882e-002,
          1.40186911e-002, 1.86915882e-002, 2.80373823e-002,
          1.86915882e-002, 9.34579410e-003, 1.40186911e-002,
          4.67289705e-003, 1.86915882e-002, 1.86915882e-002,
          2.33644843e-002 ]
      - [ 5.22388034e-002, 7.46268639e-003, 7.46268639e-003,
          7.46268639e-003, 1.49253728e-002, 3.73134315e-002,
          2.23880596e-002, 7.46268639e-003, 1.49253728e-002, 0.,
          2.23880596e-002, 2.98507456e-002, 2.23880596e-002,
          2.23880596e-002, 0., 2.98507456e-002, 1.49253728e-002,
          1.49253728e-002, 2.98507456e-002, 7.46268639e-003,
          5.22388034e-002, 3.73134315e-002, 3.73134315e-002,
          2.98507456e-002, 7.46268639e-003, 0., 7.46268639e-003, 0.,
          5.97014911e-002, 0., 0., 7.46268639e-003, 4.47761193e-002,
          7.46268639e-003, 3.73134315e-002, 5.22388034e-002,
          2.23880596e-002, 0., 7.46268639e-003, 1.49253728e-002,
          7.46268639e-003, 2.98507456e-002, 7.46268639e-003,
          4.47761193e-002, 7.46268639e-003, 2.23880596e-002,
          2.98507456e-002, 2.23880596e-002, 7.46268639e-003,
          2.98507456e-002 ]
      - [ 0., 0., 0., 0., 0., 0., 0., 0., 0., 0., 0., 0.,
          5.00000000e-001, 0., 0., 0., 0., 0., 0., 5.00000000e-001, 0.,
          0., 0., 0., 0., 0., 0., 0., 0., 0., 0., 0., 0., 0., 0., 0., 0.,
          0., 0., 0., 0., 0., 0., 0., 0., 0., 0., 0., 0., 0. ]
      - [ 3.04568522e-002, 0., 5.07614203e-003, 2.03045681e-002,
          2.03045681e-002, 2.53807101e-002, 1.52284261e-002,
          2.53807101e-002, 5.07614203e-003, 5.07614203e-003,
          1.01522841e-002, 3.04568522e-002, 2.03045681e-002,
          1.01522841e-002, 5.07614203e-003, 5.07614203e-003,
          1.52284261e-002, 5.07614203e-003, 2.53807101e-002,
          4.06091362e-002, 4.06091362e-002, 2.53807101e-002,
          2.53807101e-002, 5.07614203e-002, 5.07614203e-003,
          1.52284261e-002, 9.64467004e-002, 1.01522841e-002,
          1.01522841e-002, 1.52284261e-002, 2.03045681e-002, 0.,
          2.03045681e-002, 2.03045681e-002, 3.04568522e-002,
          1.01522841e-002, 3.04568522e-002, 1.01522841e-002,
          1.01522841e-002, 1.52284261e-002, 0., 3.04568522e-002,
          1.01522841e-002, 2.53807101e-002, 1.52284261e-002,
          3.04568522e-002, 5.07614203e-003, 4.56852764e-002,
          1.01522841e-002, 4.56852764e-002 ]
      - [ 2.11864412e-002, 4.23728814e-003, 2.11864412e-002,
          8.47457629e-003, 8.47457629e-003, 3.81355919e-002,
          2.96610165e-002, 4.23728824e-002, 8.47457629e-003,
          8.47457629e-003, 4.23728814e-003, 2.11864412e-002,
          5.08474559e-002, 2.96610165e-002, 0., 2.11864412e-002, 0.,
          2.54237279e-002, 8.47457629e-003, 3.38983051e-002,
          1.27118640e-002, 2.54237279e-002, 2.54237279e-002,
          3.38983051e-002, 4.23728814e-003, 4.23728814e-003,
          4.23728824e-002, 0., 2.11864412e-002, 8.47457629e-003,
          4.23728814e-003, 1.27118640e-002, 3.38983051e-002,
          4.23728814e-003, 2.54237279e-002, 2.96610165e-002,
          3.38983051e-002, 0., 4.23728814e-003, 2.54237279e-002,
          3.81355919e-002, 3.38983051e-002, 1.27118640e-002,
          1.27118640e-002, 2.54237279e-002, 2.11864412e-002,
          4.23728824e-002, 4.23728824e-002, 8.47457629e-003,
          2.54237279e-002 ]
      - [ 3.80228125e-002, 7.60456268e-003, 1.14068445e-002,
          7.60456268e-003, 7.60456268e-003, 3.42205316e-002,
          2.66159698e-002, 7.60456268e-003, 7.60456268e-003,
          7.60456268e-003, 1.52091254e-002, 3.04182507e-002,
          2.66159698e-002, 2.28136890e-002, 3.80228134e-003,
          2.66159698e-002, 0., 7.60456268e-003, 2.66159698e-002,
          3.04182507e-002, 4.56273779e-002, 7.22433478e-002,
          1.90114062e-002, 5.32319397e-002, 7.60456268e-003,
          1.52091254e-002, 3.80228125e-002, 1.14068445e-002,
          1.52091254e-002, 0., 7.60456268e-003, 1.14068445e-002,
          4.18250933e-002, 3.80228134e-003, 1.52091254e-002,
          3.42205316e-002, 3.04182507e-002, 0., 3.80228134e-003,
          1.52091254e-002, 1.90114062e-002, 1.90114062e-002,
          1.52091254e-002, 2.28136890e-002, 1.52091254e-002, 0.,
          1.52091254e-002, 2.66159698e-002, 1.52091254e-002,
          6.46387860e-002 ]
      - [ 2.94117648e-002, 4.41176482e-002, 2.94117648e-002,
          1.47058824e-002, 0., 0., 5.88235296e-002, 1.47058824e-002,
          2.94117648e-002, 1.47058824e-002, 1.47058824e-002,
          2.94117648e-002, 1.47058824e-002, 2.94117648e-002, 0.,
          2.94117648e-002, 0., 0., 0., 7.35294148e-002, 2.94117648e-002,
          4.41176482e-002, 0., 2.94117648e-002, 1.47058824e-002, 0., 0.,
          1.47058824e-002, 0., 0., 1.47058824e-002, 4.41176482e-002,
          4.41176482e-002, 2.94117648e-002, 2.94117648e-002,
          4.41176482e-002, 1.47058824e-002, 0., 1.47058824e-002, 0.,
          1.47058824e-002, 2.94117648e-002, 1.47058824e-002, 0.,
          1.47058824e-002, 2.94117648e-002, 1.47058824e-002,
          1.47058824e-002, 4.41176482e-002, 2.94117648e-002 ]
      - [ 4.34782617e-002, 0., 2.89855078e-002, 4.34782617e-002, 0.,
          2.89855078e-002, 4.34782617e-002, 1.44927539e-002,
          5.79710156e-002, 1.44927539e-002, 2.89855078e-002,
          5.79710156e-002, 0., 1.44927539e-002, 0., 1.44927539e-002,
          1.44927539e-002, 1.44927539e-002, 1.44927539e-002,
          4.34782617e-002, 4.34782617e-002, 0., 1.44927539e-002,
          5.79710156e-002, 1.44927539e-002, 1.44927539e-002,
          1.44927539e-002, 1.44927539e-002, 7.24637657e-002, 0., 0.,
          1.44927539e-002, 2.89855078e-002, 0., 4.34782617e-002,
          2.89855078e-002, 0., 1.44927539e-002, 2.89855078e-002, 0., 0.,
          0., 0., 1.44927539e-002, 0., 1.44927539e-002, 0.,
          1.44927539e-002, 4.34782617e-002, 2.89855078e-002 ]
      - [ 3.19148935e-002, 3.54609936e-002, 1.77304968e-002,
          1.06382975e-002, 1.06382975e-002, 1.06382975e-002,
          2.12765951e-002, 4.25531901e-002, 0., 1.41843967e-002,
          1.41843967e-002, 2.12765951e-002, 7.09219836e-003,
          1.77304968e-002, 1.06382975e-002, 2.12765951e-002,
          3.54609918e-003, 1.77304968e-002, 3.54609936e-002,
          2.48226933e-002, 2.12765951e-002, 3.54609918e-003,
          3.54609936e-002, 2.48226933e-002, 3.90070900e-002,
          6.02836870e-002, 5.31914867e-002, 1.77304968e-002,
          7.09219836e-003, 1.41843967e-002, 1.77304968e-002,
          1.41843967e-002, 2.48226933e-002, 7.09219836e-003,
          1.41843967e-002, 1.77304968e-002, 3.54609918e-003,
          3.54609918e-003, 7.09219836e-003, 4.60992903e-002,
          1.77304968e-002, 2.83687934e-002, 1.77304968e-002,
          1.77304968e-002, 2.12765951e-002, 2.48226933e-002,
          1.41843967e-002, 1.06382975e-002, 1.77304968e-002,
          2.83687934e-002 ]
      - [ 2.86396183e-002, 2.62529850e-002, 1.43198092e-002,
          7.15990458e-003, 1.43198092e-002, 3.10262535e-002,
          3.10262535e-002, 2.62529850e-002, 0., 4.77326987e-003,
          7.15990458e-003, 1.43198092e-002, 3.34128886e-002,
          2.14797147e-002, 4.77326987e-003, 2.38663498e-002,
          7.15990458e-003, 2.86396183e-002, 4.29594293e-002,
          2.38663498e-002, 3.81861590e-002, 3.34128886e-002,
          2.86396183e-002, 3.81861590e-002, 1.43198092e-002,
          1.67064443e-002, 4.29594293e-002, 4.77326987e-003,
          1.90930795e-002, 2.86396183e-002, 3.10262535e-002,
          4.77326987e-003, 3.34128886e-002, 1.43198092e-002,
          2.86396183e-002, 1.67064443e-002, 2.14797147e-002,
          2.38663494e-003, 0., 1.67064443e-002, 2.38663498e-002,
          2.86396183e-002, 2.62529850e-002, 9.54653975e-003,
          1.43198092e-002, 1.19331749e-002, 1.67064443e-002,
          1.67064443e-002, 7.15990458e-003, 1.90930795e-002 ]
      - [ 2.86396183e-002, 2.62529850e-002, 1.43198092e-002,
          7.15990458e-003, 1.43198092e-002, 3.10262535e-002,
          3.10262535e-002, 2.62529850e-002, 0., 4.77326987e-003,
          7.15990458e-003, 1.43198092e-002, 3.34128886e-002,
          2.14797147e-002, 4.77326987e-003, 2.38663498e-002,
          7.15990458e-003, 2.86396183e-002, 4.29594293e-002,
          2.38663498e-002, 3.81861590e-002, 3.34128886e-002,
          2.86396183e-002, 3.81861590e-002, 1.43198092e-002,
          1.67064443e-002, 4.29594293e-002, 4.77326987e-003,
          1.90930795e-002, 2.86396183e-002, 3.10262535e-002,
          4.77326987e-003, 3.34128886e-002, 1.43198092e-002,
          2.86396183e-002, 1.67064443e-002, 2.14797147e-002,
          2.38663494e-003, 0., 1.67064443e-002, 2.38663498e-002,
          2.86396183e-002, 2.62529850e-002, 9.54653975e-003,
          1.43198092e-002, 1.19331749e-002, 1.67064443e-002,
          1.67064443e-002, 7.15990458e-003, 1.90930795e-002 ]
      - [ 1.81660913e-002, 2.16262974e-002, 8.65051895e-003,
          1.47058824e-002, 1.81660913e-002, 1.38408309e-002,
          1.64359864e-002, 1.55709349e-002, 9.51557141e-003,
          3.71972322e-002, 1.29757794e-002, 2.42214538e-002,
          4.15224917e-002, 1.21107269e-002, 2.85467133e-002,
          1.73010379e-002, 2.33564023e-002, 1.98961943e-002,
          1.90311428e-002, 1.98961943e-002, 2.50865053e-002,
          1.12456754e-002, 3.37370262e-002, 1.64359864e-002,
          2.07612459e-002, 1.81660913e-002, 2.94117648e-002,
          2.42214538e-002, 1.12456754e-002, 4.49827015e-002,
          1.90311428e-002, 1.81660913e-002, 1.81660913e-002,
          2.50865053e-002, 1.73010379e-002, 8.65051895e-003,
          2.33564023e-002, 2.85467133e-002, 1.90311428e-002,
          2.07612459e-002, 1.55709349e-002, 2.16262974e-002,
          2.85467133e-002, 1.12456754e-002, 6.92041544e-003,
          1.12456754e-002, 1.90311428e-002, 3.11418697e-002,
          1.55709349e-002, 1.29757794e-002 ]
      - [ 3.14465389e-002, 1.88679248e-002, 3.14465389e-002,
          6.28930796e-003, 0., 3.14465389e-002, 3.14465389e-002,
          6.28930796e-003, 6.28930796e-003, 0., 1.25786159e-002,
          6.28930796e-003, 3.14465389e-002, 1.25786159e-002, 0.,
          1.88679248e-002, 2.51572318e-002, 3.14465389e-002, 0.,
          3.14465389e-002, 3.77358496e-002, 4.40251566e-002,
          2.51572318e-002, 1.25786159e-002, 5.66037707e-002,
          1.88679248e-002, 2.51572318e-002, 1.25786159e-002,
          1.88679248e-002, 1.25786159e-002, 2.51572318e-002,
          3.14465389e-002, 1.88679248e-002, 6.28930796e-003,
          2.51572318e-002, 5.66037707e-002, 6.28930796e-003,
          6.28930796e-003, 6.28930796e-003, 1.25786159e-002, 0.,
          2.51572318e-002, 6.28930796e-003, 2.51572318e-002,
          1.25786159e-002, 3.14465389e-002, 3.14465389e-002, 0.,
          2.51572318e-002, 5.03144637e-002 ]
   decision_functions:
      -
         sv_count: 25
         rho: -9.0540241808840616e-001
         alpha: [ 2.8513009632808517e-001, 2.8660586779395103e-001,
             1.9178716807948082e-001, 2.7977716766164401e-001, 1., 1.,
             1., 7.2830038621055881e-001, 1., 1., 1.,
             6.4064119989403712e-001, 5.6661195226919459e-001, 1.,
             2.1146161763048236e-002, -1., -1., -1., -1., -1., -1., -1.,
             -1., -1., -1. ]
         index: [ 0, 1, 2, 3, 4, 5, 6, 7, 8, 9, 10, 11, 12, 13, 14, 15,
             16, 17, 18, 19, 20, 21, 22, 23, 24 ]
