%YAML:1.0
my_svm: !!opencv-ml-svm
   svm_type: C_SVC
   kernel: { type:LINEAR }
   C: 1.
   term_criteria: { epsilon:2.2204460492503131e-016, iterations:100 }
   var_all: 80
   var_count: 80
   class_count: 2
   class_labels: !!opencv-matrix
      rows: 1
      cols: 2
      dt: i
      data: [ 0, 1 ]
   sv_total: 1
   support_vectors:
      - [ -8.92476237e-006, 4.95246422e-006, -4.95007771e-006,
          -1.43076068e-006, 2.48739502e-006, 2.30597129e-006,
          1.07809319e-006, -1.25855399e-006, 5.78522531e-007,
          7.54577741e-006, 4.40962322e-006, 9.61625233e-007,
          2.06778139e-007, 3.78293362e-006, -1.34522645e-006,
          -1.36100766e-006, 1.92140169e-006, -1.03448542e-006,
          -2.25415624e-006, -3.79559879e-006, -4.24900418e-006,
          -1.50730762e-006, 4.24331392e-006, -1.36449978e-006,
          5.65547725e-006, 5.69314125e-006, -1.33963408e-006,
          3.18658590e-006, -9.95779283e-006, 2.48377251e-006,
          -2.07357573e-007, 7.33270099e-007, -6.07282482e-006,
          -5.46591082e-006, 3.82097127e-008, 1.45367778e-006,
          -5.44285149e-006, 6.64049082e-007, -5.83944075e-006,
          -9.12305950e-007, 1.32794420e-009, -3.70734576e-009,
          -1.20847443e-009, 9.88240378e-010, -6.90365320e-009,
          -1.90321692e-009, 2.59442953e-011, -6.05106276e-009,
          6.55003918e-009, 8.47760862e-010, -2.63566502e-009,
          -1.68166825e-009, -4.45316584e-009, 1.08733433e-009,
          4.07919121e-009, -3.31958350e-009, 1.01113251e-008,
          -3.23839644e-009, 6.90819735e-010, 2.41766968e-010,
          8.19566459e-009, 4.99544006e-009, -1.15547807e-010,
          -6.23704333e-009, 2.92253843e-009, 2.48359888e-009,
          -9.01303387e-009, -3.31336070e-009, -5.02855368e-010,
          2.34551090e-009, -2.95989760e-010, -2.62280397e-009,
          3.91131083e-009, 5.62696290e-009, 3.57135499e-009,
          5.16178833e-009, 6.89382063e-009, -1.86224169e-009,
          -1.39219281e-009, -9.75697967e-010 ]
   decision_functions:
      -
         sv_count: 1
         rho: -6.7775483124001179e-001
         alpha: [ 1. ]
         index: [ 0 ]
