%YAML:1.0
my_svm: !!opencv-ml-svm
   svm_type: C_SVC
   kernel: { type:POLY, degree:3.4300000000000002e+000,
       gamma:5.0625000000000009e-001, coef0:1.4000000000000001e+000 }
   C: 1.0000000000000001e-001
   term_criteria: { epsilon:2.2204460492503131e-016, iterations:100 }
   var_all: 9
   var_count: 9
   class_count: 2
   class_labels: !!opencv-matrix
      rows: 1
      cols: 2
      dt: i
      data: [ 0, 1 ]
   sv_total: 6
   support_vectors:
      - [ 5.00000000e-001, 0., 5.00000000e-001, 1., 0., 0., 1., 0., 0. ]
      - [ 5.00000000e-001, 5.00000000e-001, 0., 1., 0., 0., 0., 1., 0. ]
      - [ 5.00000000e-001, 5.00000000e-001, 0., 1., 0., 0., 1., 0., 0. ]
      - [ 5.00000000e-001, 5.00000000e-001, 0., 1., 0., 0., 1., 0., 0. ]
      - [ 5.00000000e-001, 5.00000000e-001, 0., 0., 1., 0., 0., 1., 0. ]
      - [ 5.00000000e-001, 5.00000000e-001, 0., 1., 0., 0., 1., 0., 0. ]
   decision_functions:
      -
         sv_count: 6
         rho: -2.1701836753785614e-001
         alpha: [ 1.3666493098938051e-002, 5.5129133201055780e-002,
             9.9994579111982798e-002, 2.6665026073876769e-003,
             -7.1456708019364309e-002, -1.0000000000000001e-001 ]
         index: [ 0, 1, 2, 3, 4, 5 ]
