%YAML:1.0
my_svm: !!opencv-ml-svm
   svm_type: C_SVC
   kernel: { type:LINEAR }
   C: 1.
   term_criteria: { epsilon:2.2204460492503131e-016, iterations:100 }
   var_all: 15
   var_count: 15
   class_count: 2
   class_labels: !!opencv-matrix
      rows: 1
      cols: 2
      dt: i
      data: [ 0, 1 ]
   sv_total: 1
   support_vectors:
      - [ 9.29726288e-002, 3.95453930e-001, 1.79452375e-001,
          1.23028912e-001, 6.97478428e-002, -6.40911162e-001,
          2.08501786e-001, -4.44151282e-001, -5.54675460e-001,
          2.54818022e-001, -1.42347765e+000, -3.46205264e-001,
          -2.21228123e-001, 1.29518852e-001, 6.97478428e-002 ]
   decision_functions:
      -
         sv_count: 1
         rho: -1.0598849027774171e+000
         alpha: [ 1. ]
         index: [ 0 ]
