%YAML:1.0
my_svm: !!opencv-ml-svm
   svm_type: C_SVC
   kernel: { type:LINEAR }
   C: 1.
   term_criteria: { epsilon:2.2204460492503131e-016, iterations:100 }
   var_all: 9
   var_count: 9
   class_count: 2
   class_labels: !!opencv-matrix
      rows: 1
      cols: 2
      dt: i
      data: [ 0, 1 ]
   sv_total: 1
   support_vectors:
      - [ 3.84615399e-002, -4.61538464e-001, 4.23076928e-001,
          -5.19230783e-001, 5.19230783e-001, 0., -4.80769217e-001,
          -7.69230798e-002, 5.57692289e-001 ]
   decision_functions:
      -
         sv_count: 1
         rho: -1.1730769230769227e+000
         alpha: [ 1. ]
         index: [ 0 ]
