%YAML:1.0
my_svm: !!opencv-ml-svm
   svm_type: C_SVC
   kernel: { type:LINEAR }
   C: 1.
   term_criteria: { epsilon:2.2204460492503131e-016, iterations:100 }
   var_all: 63
   var_count: 63
   class_count: 2
   class_labels: !!opencv-matrix
      rows: 1
      cols: 2
      dt: i
      data: [ 0, 1 ]
   sv_total: 1
   support_vectors:
      - [ -5.15559912e-002, 4.10862267e-002, -1.09561913e-001,
          -5.46647131e-001, 7.08179101e-002, 2.55152702e-001, 0.,
          1.24785099e-002, 5.41670203e-001, 9.08599913e-001,
          -4.97963056e-002, -1.03338286e-002, 0., 1.74639076e-001, 0.,
          8.37772787e-001, 3.82406890e-001, -4.05740917e-001,
          5.96927047e-001, -5.49966209e-002, -1., -2.30464786e-001,
          1.41635820e-001, -3.03188294e-001, 3.10152918e-001, 0., 0., 0.,
          -1.96564589e-002, -2.62046698e-002, 0., 0., -4.54726636e-001,
          0., -2.44457275e-001, 0., -2.00152501e-001, -3.45400604e-003,
          -1.02417719e+000, 0., -8.45714271e-001, 0., 5.69382727e-001,
          7.34259248e-001, 6.75569773e-001, 0., 1.41635820e-001,
          5.11513352e-001, 0., 5.74751258e-001, -1.24301948e-001, 0., 0.,
          4.69924957e-001, 0., 2.07642332e-001, 0., 0., 4.09949630e-001,
          -2.12695345e-001, 6.98022664e-001, -8.45714271e-001,
          8.97839665e-001 ]
   decision_functions:
      -
         sv_count: 1
         rho: -5.1285550279834269e-001
         alpha: [ 1. ]
         index: [ 0 ]
