%YAML:1.0
my_svm: !!opencv-ml-svm
   svm_type: C_SVC
   kernel: { type:POLY, degree:3.4300000000000002e+000,
       gamma:1.5000000000000001e-004, coef0:2.7440000000000003e+002 }
   C: 1.0000000000000001e-001
   term_criteria: { epsilon:2.2204460492503131e-016, iterations:100 }
   var_all: 9
   var_count: 9
   class_count: 2
   class_labels: !!opencv-matrix
      rows: 1
      cols: 2
      dt: i
      data: [ 0, 1 ]
   sv_total: 3
   support_vectors:
      - [ 5.00000000e-001, 0., 5.00000000e-001, 1., 0., 0., 1., 0., 0. ]
      - [ 5.00000000e-001, 5.00000000e-001, 0., 0., 1., 0., 0., 1., 0. ]
      - [ 5.00000000e-001, 5.00000000e-001, 0., 1., 0., 0., 1., 0., 0. ]
   decision_functions:
      -
         sv_count: 3
         rho: -9.9999999848660082e-001
         alpha: [ 1.0000000000000001e-001, 3.2526065174565133e-018,
             -1.0000000000000001e-001 ]
         index: [ 0, 1, 2 ]
