%YAML:1.0
my_svm: !!opencv-ml-svm
   svm_type: C_SVC
   kernel: { type:LINEAR }
   C: 1.
   term_criteria: { epsilon:2.2204460492503131e-016, iterations:100 }
   var_all: 80
   var_count: 80
   class_count: 2
   class_labels: !!opencv-matrix
      rows: 1
      cols: 2
      dt: i
      data: [ 0, 1 ]
   sv_total: 1
   support_vectors:
      - [ 2.55175109e-006, 2.76691981e-006, 3.54666167e-006,
          3.66440804e-006, -3.82593453e-006, 2.12240775e-006,
          4.62760636e-006, 1.67792439e-006, 2.70659893e-006,
          -4.10263146e-006, -2.59933086e-006, -5.90058335e-006,
          -2.93089329e-006, 3.97001003e-007, -5.46633555e-006,
          3.05991330e-006, -3.05899130e-006, -6.45646821e-007,
          4.94651204e-006, -7.37398159e-006, 5.02313424e-006,
          1.57551528e-006, 4.09241892e-007, -2.21184791e-006,
          -3.59848764e-006, 1.17432353e-006, 5.28349301e-006,
          1.67951896e-006, 2.00224576e-006, -2.80007555e-007,
          1.87375952e-006, -3.75955528e-006, -5.12045006e-007,
          4.54137853e-006, 2.47048820e-006, -2.83624740e-006,
          6.38460506e-007, 6.89276885e-006, 7.98355450e-006,
          -3.20446293e-006, -7.29949790e-009, 5.59927305e-009,
          1.23022736e-009, -5.55183632e-009, -1.15777610e-009,
          1.05807310e-008, -5.43477485e-010, 6.45840256e-011,
          3.66560338e-009, 7.42426010e-010, 4.89364682e-009,
          -3.48626505e-009, 7.71752351e-009, -1.02767039e-009,
          3.44276452e-009, 3.72171249e-009, -3.65879882e-009,
          -1.31040885e-008, -3.75810449e-009, 1.70942938e-009,
          -6.43035625e-009, 3.58726937e-009, -2.84016277e-009,
          -4.96586494e-010, 2.48282772e-009, 5.44265522e-009,
          1.78060788e-009, 1.62932512e-009, -1.77223436e-009,
          -4.80725637e-009, 3.33686412e-009, 1.99037498e-009,
          -1.38077072e-009, -4.07868184e-009, -2.93415425e-009,
          5.28708277e-009, 2.82833534e-009, 5.87868065e-009,
          7.81878917e-009, -6.48080589e-010 ]
   decision_functions:
      -
         sv_count: 1
         rho: 5.2905549345133340e-001
         alpha: [ 1. ]
         index: [ 0 ]
