%YAML:1.0
my_svm: !!opencv-ml-svm
   svm_type: C_SVC
   kernel: { type:LINEAR }
   C: 1.
   term_criteria: { epsilon:2.2204460492503131e-016, iterations:100 }
   var_all: 15
   var_count: 15
   class_count: 2
   class_labels: !!opencv-matrix
      rows: 1
      cols: 2
      dt: i
      data: [ 0, 1 ]
   sv_total: 1
   support_vectors:
      - [ -2.12439778e-003, -6.56051736e-004, 3.28664714e-003,
          -2.38199928e-003, -8.21023074e-004, -3.44732148e-003,
          -1.84184033e-003, 1.15639344e-003, 1.69904751e-003,
          -4.69138194e-003, -7.11851404e-004, 7.68631406e-004,
          -1.39801926e-003, 9.64268227e-004, -6.86573330e-004 ]
   decision_functions:
      -
         sv_count: 1
         rho: -6.4931619042814401e-002
         alpha: [ 1. ]
         index: [ 0 ]
