%YAML:1.0
my_svm: !!opencv-ml-svm
   svm_type: C_SVC
   kernel: { type:POLY, degree:1.0000000000000000e-002,
       gamma:1.0000000000000001e-005, coef0:1.0000000000000001e-001 }
   C: 1.0000000000000001e-001
   term_criteria: { epsilon:2.2204460492503131e-016, iterations:100 }
   var_all: 9
   var_count: 9
   class_count: 2
   class_labels: !!opencv-matrix
      rows: 1
      cols: 2
      dt: i
      data: [ 0, 1 ]
   sv_total: 12
   support_vectors:
      - [ 5.00000000e-001, 5.00000000e-001, 0., 0., 1., 0., 1., 0., 0. ]
      - [ 0., 5.00000000e-001, 5.00000000e-001, 1., 0., 0., 0., 1., 0. ]
      - [ 0., 5.00000000e-001, 5.00000000e-001, 0., 0., 1., 0., 0., 1. ]
      - [ 0., 0., 1., 1., 0., 0., 0., 1., 0. ]
      - [ 5.00000000e-001, 5.00000000e-001, 0., 0., 1., 0., 1., 0., 0. ]
      - [ 5.00000000e-001, 5.00000000e-001, 0., 1., 0., 0., 0., 1., 0. ]
      - [ 5.00000000e-001, 5.00000000e-001, 0., 1., 0., 0., 0., 0., 1. ]
      - [ 5.00000000e-001, 5.00000000e-001, 0., 1., 0., 0., 1., 0., 0. ]
      - [ 5.00000000e-001, 5.00000000e-001, 0., 0., 1., 0., 0., 1., 0. ]
      - [ 0., 5.00000000e-001, 5.00000000e-001, 0., 0., 1., 0., 0., 1. ]
      - [ 5.00000000e-001, 5.00000000e-001, 0., 1., 0., 0., 0., 1., 0. ]
      - [ 5.00000000e-001, 5.00000000e-001, 0., 0., 1., 0., 0., 1., 0. ]
   decision_functions:
      -
         sv_count: 12
         rho: -9.9999998765967879e-001
         alpha: [ 7.6021763930455927e-002, 1.0000000000000001e-001,
             8.4292867513492506e-002, 2.0563813312931761e-002,
             1.0000000000000001e-001, 1.0000000000000001e-001,
             1.9121555243119863e-002, -1.0000000000000001e-001,
             -1.0000000000000001e-001, -1.0000000000000001e-001,
             -1.0000000000000001e-001, -1.0000000000000001e-001 ]
         index: [ 0, 1, 2, 3, 4, 5, 6, 7, 8, 9, 10, 11 ]
