%YAML:1.0
my_svm: !!opencv-ml-svm
   svm_type: C_SVC
   kernel: { type:LINEAR }
   C: 1.
   term_criteria: { epsilon:2.2204460492503131e-016, iterations:100 }
   var_all: 9
   var_count: 9
   class_count: 2
   class_labels: !!opencv-matrix
      rows: 1
      cols: 2
      dt: i
      data: [ 0, 1 ]
   sv_total: 1
   support_vectors:
      - [ -5.13274312e-001, -8.84955749e-002, 6.01769924e-001,
          4.07079637e-001, -2.56637156e-001, -1.50442481e-001,
          7.43362844e-001, -8.23008835e-001, 7.96460211e-002 ]
   decision_functions:
      -
         sv_count: 1
         rho: -8.1415929203539772e-001
         alpha: [ 1. ]
         index: [ 0 ]
