%YAML:1.0
my_svm: !!opencv-ml-svm
   svm_type: C_SVC
   kernel: { type:LINEAR }
   C: 1.
   term_criteria: { epsilon:2.2204460492503131e-016, iterations:100 }
   var_all: 9
   var_count: 9
   class_count: 2
   class_labels: !!opencv-matrix
      rows: 1
      cols: 2
      dt: i
      data: [ 0, 1 ]
   sv_total: 1
   support_vectors:
      - [ 6.95057024e-005, -5.02198491e-005, -1.92858533e-005,
          4.51548367e-005, -2.25774183e-005, -2.25774183e-005,
          -6.58312956e-006, -1.29277960e-005, 1.95109260e-005 ]
   decision_functions:
      -
         sv_count: 1
         rho: -1.0000330888304745e+000
         alpha: [ 1. ]
         index: [ 0 ]
