%YAML:1.0
my_svm: !!opencv-ml-svm
   svm_type: C_SVC
   kernel: { type:POLY, degree:3., gamma:5., coef0:1. }
   C: 1.
   term_criteria: { epsilon:2.2204460492503131e-016, iterations:100 }
   var_all: 5
   var_count: 5
   class_count: 2
   class_labels: !!opencv-matrix
      rows: 1
      cols: 2
      dt: i
      data: [ 0, 1 ]
   sv_total: 8
   support_vectors:
      - [ 2.63537914e-001, 1.58844769e-001, 3.14079434e-001,
          1.94945842e-001, 6.85920566e-002 ]
      - [ 3.65805149e-001, 9.14512873e-002, 2.62425423e-001,
          1.53081506e-001, 1.27236575e-001 ]
      - [ 3.80414307e-001, 1.22410543e-001, 2.24105462e-001,
          1.33709982e-001, 1.39359698e-001 ]
      - [ 2.38157898e-001, 1.48684219e-001, 3.65789503e-001,
          1.82236850e-001, 6.51315823e-002 ]
      - [ 3.85802478e-001, 1.23456791e-001, 2.31481478e-001,
          2.03703701e-001, 5.55555560e-002 ]
      - [ 2.87958115e-001, 9.24956352e-002, 3.14136118e-001,
          1.22164048e-001, 1.83246076e-001 ]
      - [ 1.07334524e-001, 1.33747235e-001, 3.66094917e-001,
          1.97937489e-001, 1.94885820e-001 ]
      - [ 1.72592342e-001, 1.81221947e-001, 3.98343116e-001,
          1.19779080e-001, 1.28063515e-001 ]
   decision_functions:
      -
         sv_count: 8
         rho: -3.6002155859011037e-002
         alpha: [ 9.5126428950254038e-001, 6.8406886555078428e-001,
             5.4321038465029003e-001, 1., -1., -1.,
             -1.7854353970361500e-001, -1. ]
         index: [ 0, 1, 2, 3, 4, 5, 6, 7 ]
