%YAML:1.0
my_svm: !!opencv-ml-svm
   svm_type: C_SVC
   kernel: { type:LINEAR }
   C: 1.
   term_criteria: { epsilon:2.2204460492503131e-016, iterations:100 }
   var_all: 15
   var_count: 15
   class_count: 2
   class_labels: !!opencv-matrix
      rows: 1
      cols: 2
      dt: i
      data: [ 0, 1 ]
   sv_total: 1
   support_vectors:
      - [ 1.29034156e-002, 2.87313610e-001, 2.74410188e-001, 0.,
          4.97835487e-001, -2.21657529e-002, -3.59105915e-001,
          -4.73298669e-001, 0., -1.43284127e-001, 8.37003648e-001,
          9.22227979e-001, 9.07879055e-001, 1., 4.97835487e-001 ]
   decision_functions:
      -
         sv_count: 1
         rho: -3.9345391498296778e-001
         alpha: [ 1. ]
         index: [ 0 ]
