%YAML:1.0
my_svm: !!opencv-ml-svm
   svm_type: C_SVC
   kernel: { type:LINEAR }
   C: 1.0000000000000001e-001
   term_criteria: { epsilon:2.2204460492503131e-016, iterations:100 }
   var_all: 80
   var_count: 80
   class_count: 2
   class_labels: !!opencv-matrix
      rows: 1
      cols: 2
      dt: i
      data: [ 0, 1 ]
   sv_total: 1
   support_vectors:
      - [ 1.71534771e-006, -2.73816113e-006, 1.43339537e-006,
          -1.23438292e-006, -8.53667416e-007, 7.79358459e-007,
          -1.00425503e-007, -5.72280271e-007, 1.11763586e-006,
          1.59848116e-006, 8.38673600e-007, -1.41820601e-006,
          4.21418508e-006, -3.26463305e-006, 2.89560649e-006,
          4.83859424e-007, 3.33425464e-006, 6.67018548e-006,
          -2.23534494e-006, -3.42644353e-006, 5.37688993e-006,
          -1.62990716e-006, -1.87380101e-006, -1.37731433e-006,
          2.21850655e-006, -2.86451291e-006, -6.00634053e-007,
          3.29113072e-006, -1.46573223e-006, 1.57960437e-006,
          3.12399811e-006, 6.27650763e-007, 1.45153834e-007,
          3.91844969e-006, -1.73783451e-006, -1.20112975e-006,
          -2.12900909e-006, -5.71739122e-007, 3.71992701e-006,
          1.04216360e-006, 3.04285572e-006, -1.78498783e-006,
          -1.46094942e-006, -2.99844416e-008, -3.76049320e-006,
          4.50390917e-006, -1.42662304e-006, -9.35374374e-007,
          2.54316956e-006, 1.81430107e-006, -2.88282195e-006,
          5.18279535e-007, -3.81482550e-007, -2.02050228e-006,
          -9.85670454e-007, 2.48205811e-006, -6.32470176e-007,
          5.91344588e-006, -1.18011587e-006, 1.67358337e-006,
          -1.18490622e-008, -1.85107503e-008, -2.03733883e-008,
          5.39033884e-009, 1.03452784e-008, 1.54202251e-008,
          1.29527669e-008, -5.81633941e-009, 1.18111911e-008,
          -1.78502706e-008, -7.53493890e-009, 7.31966177e-009,
          -1.43191936e-009, 2.31304264e-011, -8.85909834e-009,
          -3.43261841e-009, 1.14820642e-008, -5.27944888e-009,
          5.96201222e-009, 8.96745345e-009 ]
   decision_functions:
      -
         sv_count: 1
         rho: -5.0112282230238281e-001
         alpha: [ 1. ]
         index: [ 0 ]
