%YAML:1.0
my_svm: !!opencv-ml-svm
   svm_type: C_SVC
   kernel: { type:LINEAR }
   C: 1.0000000000000001e-001
   term_criteria: { epsilon:2.2204460492503131e-016, iterations:100 }
   var_all: 80
   var_count: 80
   class_count: 2
   class_labels: !!opencv-matrix
      rows: 1
      cols: 2
      dt: i
      data: [ 0, 1 ]
   sv_total: 1
   support_vectors:
      - [ 4.93705597e-012, 0., -3.31109162e-009, 0., 0., 0., 0., 0., 0.,
          0., 0., 0., 0., 0., 0., 0., 0., 9.82821376e-012,
          9.56843545e-013, -6.65230241e-013, 8.36330449e-011,
          -2.89797110e-011, 3.25174748e-011, 3.08673261e-011,
          2.75839924e-011, 1.85280719e-012, 4.23902198e-011,
          -2.35168118e-011, -3.02570295e-011, -2.74897223e-011,
          1.70040197e-011, -6.95550631e-011, 3.41953137e-012,
          1.46299778e-011, 7.50890756e-012, -5.31390765e-011,
          3.60653174e-011, -8.35720521e-011, 8.94653726e-011,
          -9.75532936e-012, -8.95764921e-014, 1.23907088e-014,
          -6.47719996e-014, -5.18062427e-014, 3.39486672e-014,
          7.98666350e-015, 8.24838905e-015, -7.37183870e-015,
          1.58078049e-014, -1.20646113e-014, -1.77795926e-014,
          -4.24902355e-014, -3.28071658e-015, -3.03879846e-014,
          3.37385047e-014, -2.84572374e-014, -2.16070075e-014,
          -1.70296211e-014, -6.08955110e-015, 8.82433525e-016,
          1.51970365e-014, 5.17169790e-014, 3.82462989e-015,
          1.20094728e-014, -1.83643079e-014, -8.25717787e-015,
          -2.23344631e-014, -5.01397384e-015, 1.04359846e-014,
          6.69564595e-015, 9.98141507e-015, -2.25130973e-014,
          -2.68481556e-015, -3.25374798e-014, -8.31566210e-015,
          1.54611872e-014, 2.94368649e-014, 3.05432322e-014,
          8.53231704e-015, -2.64031367e-014 ]
   decision_functions:
      -
         sv_count: 1
         rho: 3.6979064634310421e-001
         alpha: [ 1. ]
         index: [ 0 ]
