%YAML:1.0
my_svm: !!opencv-ml-svm
   svm_type: C_SVC
   kernel: { type:LINEAR }
   C: 1.
   term_criteria: { epsilon:2.2204460492503131e-016, iterations:100 }
   var_all: 60
   var_count: 60
   class_count: 2
   class_labels: !!opencv-matrix
      rows: 1
      cols: 2
      dt: i
      data: [ 0, 1 ]
   sv_total: 1
   support_vectors:
      - [ 8.65910442e-006, -3.06197239e-006, -8.73323006e-006,
          -6.27420923e-006, -1.66691656e-008, -8.64410140e-006,
          -5.46098136e-006, 2.42752481e-006, 1.12078078e-006,
          8.07741253e-006, 6.38898427e-006, 9.05678974e-007,
          4.02633304e-006, -4.11258452e-006, 6.42963232e-006,
          -6.18875447e-007, 3.52616826e-006, 1.63785226e-005,
          4.88406295e-006, -1.97172767e-006, 3.41670830e-006,
          -3.64645507e-006, -5.21625725e-006, -6.08928815e-007,
          -2.42429542e-006, 2.33413800e-007, -5.89108095e-006,
          2.54133920e-006, 7.62809714e-006, -3.06630386e-006,
          2.27273472e-006, -2.65253107e-006, -3.67894313e-006,
          -2.81362542e-008, -1.53565941e-006, 5.72900831e-007,
          -5.64907225e-007, 6.46286253e-006, -4.17061392e-006,
          4.49895333e-006, 1.51018913e-008, 1.24962118e-009,
          -6.67756979e-008, -1.54494390e-010, -5.06658004e-009,
          -5.47407559e-008, 5.71613228e-008, -1.93428349e-008,
          2.80959416e-008, -6.21225951e-008, -3.50854501e-009,
          5.22728705e-008, -1.61057283e-008, -4.13178514e-009,
          -1.02358744e-008, -6.67335476e-009, -2.70902998e-008,
          2.51734167e-009, -1.40145833e-008, -2.80624306e-008 ]
   decision_functions:
      -
         sv_count: 1
         rho: -2.9760719838456789e-001
         alpha: [ 1. ]
         index: [ 0 ]
