%YAML:1.0
my_svm: !!opencv-ml-svm
   svm_type: C_SVC
   kernel: { type:LINEAR }
   C: 1.0000000000000001e-001
   term_criteria: { epsilon:2.2204460492503131e-016, iterations:100 }
   var_all: 80
   var_count: 80
   class_count: 2
   class_labels: !!opencv-matrix
      rows: 1
      cols: 2
      dt: i
      data: [ 0, 1 ]
   sv_total: 1
   support_vectors:
      - [ -7.38142990e-005, -1.23314265e-043, -2.59240216e-043,
          -5.39499909e-043, -8.74410242e-043, -1.04676995e-042,
          -1.36906860e-042, 0., 0., 0., 0., 0., 0., 0., 0., 0., 0., 0.,
          0., 0., -9.70430046e-005, -4.62462951e-004, 8.30248580e-004,
          -3.25450848e-004, -3.57473822e-004, 3.06125759e-004,
          -2.91430100e-004, 3.83881998e-004, 8.99008126e-004,
          8.11241742e-004, -1.42127465e-005, -1.95284796e-004,
          -5.50297991e-005, 1.19287940e-003, -4.63740662e-007,
          1.45886617e-003, -1.74529024e-003, 4.04144026e-004,
          8.70474789e-004, 1.17606635e-003, 3.10417323e-004,
          1.27416133e-004, -1.62751891e-003, 1.10754231e-003,
          7.60667841e-004, 0., 0., 0., 0., 0., 0., 0., 0., 0., 0., 0.,
          0., 0., 0., 0., -2.46181549e-003, -4.54244262e-004,
          7.03631726e-004, -8.24954710e-004, 6.77839154e-004, 0., 0., 0.,
          0., 0., 0., 0., 0., 0., 0., 0., 0., 0., 0., 0. ]
   decision_functions:
      -
         sv_count: 1
         rho: 2.1313628703098414e-002
         alpha: [ 1. ]
         index: [ 0 ]
