%YAML:1.0
my_svm: !!opencv-ml-svm
   svm_type: C_SVC
   kernel: { type:LINEAR }
   C: 1.0000000000000001e-001
   term_criteria: { epsilon:2.2204460492503131e-016, iterations:100 }
   var_all: 80
   var_count: 80
   class_count: 2
   class_labels: !!opencv-matrix
      rows: 1
      cols: 2
      dt: i
      data: [ 0, 1 ]
   sv_total: 1
   support_vectors:
      - [ 1.02321000e-003, 2.15799964e-043, 6.86636248e-043,
          1.01313879e-042, 1.53302052e-042, 2.83202420e-042,
          4.54300962e-042, 0., 0., 0., 0., 0., 0., 0., 0., 0., 0., 0.,
          0., 0., 1.87247829e-003, 1.57305959e-003, -1.55363791e-003,
          -1.66686310e-003, 7.53392640e-004, 1.35656039e-003,
          1.05672888e-003, 4.47033934e-004, -2.16938861e-004,
          1.07869273e-003, -2.73338938e-003, -2.52832775e-003,
          1.78402686e-003, -1.17531628e-003, -2.71426886e-003,
          -4.12287330e-003, 2.01220112e-003, -1.41847332e-003,
          -6.23041356e-004, -5.41633577e-004, 7.42479460e-004,
          -2.14578328e-003, -7.65271892e-004, -1.57228974e-003,
          1.50582101e-003, 0., 0., 0., 0., 0., 0., 0., 0., 0., 0., 0.,
          0., 0., 0., 0., -9.82806669e-004, 1.83130964e-003,
          -3.93011032e-005, 3.77949880e-004, 3.40031431e-004, 0., 0., 0.,
          0., 0., 0., 0., 0., 0., 0., 0., 0., 0., 0., 0. ]
   decision_functions:
      -
         sv_count: 1
         rho: 9.6493131023925194e-001
         alpha: [ 1. ]
         index: [ 0 ]
