%YAML:1.0
my_svm: !!opencv-ml-svm
   svm_type: C_SVC
   kernel: { type:LINEAR }
   C: 1.0000000000000001e-001
   term_criteria: { epsilon:2.2204460492503131e-016, iterations:100 }
   var_all: 80
   var_count: 80
   class_count: 2
   class_labels: !!opencv-matrix
      rows: 1
      cols: 2
      dt: i
      data: [ 0, 1 ]
   sv_total: 1
   support_vectors:
      - [ 3.21929838e-004, -4.06376555e-044, -1.28919459e-043,
          -1.09301280e-043, -2.62042813e-043, -4.65231090e-043,
          -4.52619404e-043, 0., 0., 0., 0., 0., 0., 0., 0., 0., 0., 0.,
          0., 0., -5.68374526e-004, 3.22036183e-004, -3.18948994e-004,
          1.44773556e-004, -3.10869393e-004, -3.81713617e-004,
          -2.58243206e-004, -8.36828607e-004, -3.39835009e-004,
          -6.20946055e-004, 1.09327573e-003, 6.12646632e-004,
          -6.74808514e-004, -1.66610742e-004, 2.61805908e-005,
          1.55266534e-004, -4.50636508e-005, 7.66393670e-004,
          -3.75192380e-004, -2.16140965e-004, 1.04424245e-004,
          -3.67094966e-004, 5.07481629e-004, -1.89024271e-004,
          -3.37368605e-004, 0., 0., 0., 0., 0., 0., 0., 0., 0., 0., 0.,
          0., 0., 0., 0., -2.03735966e-004, 6.30260899e-007,
          1.26204395e-004, -7.01402168e-005, -4.71151841e-004, 0., 0.,
          0., 0., 0., 0., 0., 0., 0., 0., 0., 0., 0., 0., 0. ]
   decision_functions:
      -
         sv_count: 1
         rho: -1.9954828727990268e-001
         alpha: [ 1. ]
         index: [ 0 ]
